%YAML:1.0
_0218: !!opencv-ml-svm
   svm_type: C_SVC
   kernel: { type:LINEAR }
   C: 100.
   term_criteria: { epsilon:9.9999999747524271e-007,
       iterations:2147483647 }
   var_all: 576
   var_count: 576
   class_count: 2
   class_labels: !!opencv-matrix
      rows: 1
      cols: 2
      dt: i
      data: [ -1, 0 ]
   sv_total: 18
   support_vectors:
      - [ 0., 6.59777546e+000, 0., 0., 0., 0., 0., 1.72261953e+000, 0.,
          5.73879623e+000, 6.67962265e+000, 1.29611320e+001,
          2.39051437e+001, 1.50804987e+001, 1.27877989e+001,
          8.14188385e+000, 0., 1., 2.91805816e+000, 9.79049778e+000,
          6.46494827e+001, 8.64195919e+000, 1.32037723e+000,
          1.50804985e+000, 0., 0., 0., 0., 1., 0., 0., 0., 0., 0., 0.,
          0., 0., 0., 0., 2.54536819e+000, 0., 1.29053669e+001,
          2.46333170e+000, 7.38796115e-001, 2.26120377e+000,
          5.85786462e-001, 1.09256709e+000, 5.50599861e+000, 0.,
          2.51766491e+001, 4.65685415e+000, 1.04524593e+001,
          2.37838650e+001, 1.45808163e+001, 1.38852510e+001,
          7.93766785e+000, 0., 2.34812622e+001, 1.72962360e+001,
          2.58466682e+001, 5.58381195e+001, 2.57002296e+001,
          1.84952030e+001, 1.08468542e+001, 0., 0., 0., 0., 0., 0., 0.,
          0., 0., 0., 0., 0., 0., 0., 0., 0., 0., 0., 0., 0., 0., 0., 0.,
          0., 0., 1.80700035e+001, 3.01157856e+000, 0., 0., 0.,
          1.90743566e-001, 1.05353975e+000, 0., 0., 0., 0., 0., 0., 0.,
          0., 0., 0., 0., 0., 0., 0., 0., 0., 0., 0., 0., 0., 0., 0., 0.,
          0., 0., 0., 0., 0., 0., 0., 0., 0., 0., 0., 0., 0., 0., 0., 0.,
          0., 0., 0., 0., 0., 0., 0., 0., 0., 0., 0., 0., 0., 0., 0., 0.,
          0., 0., 0., 0., 0., 0., 0., 0., 0., 0., 0., 0., 0., 0., 0., 0.,
          0., 0., 0., 0., 0., 0., 0., 0., 0., 0., 0., 0., 0., 0., 0., 0.,
          0., 0., 0., 0., 0., 0., 0., 0., 0., 0., 0., 0., 0., 0., 0., 0.,
          0., 0., 8.03725052e+000, 2.86885715e+000, 5.82287908e-001,
          8.31925631e-001, 1.32037723e+000, 4.09383631e+000,
          7.00273037e+000, 0., 1.83589876e-001, 1.28398142e+001,
          6.87285948e+000, 1.03736743e-001, 0., 0., 0., 0., 0., 0., 0.,
          0., 0., 0., 0., 0., 4.29201174e+000, 0., 0., 0., 0., 0., 0.,
          0., 6.91307163e+000, 3.05999112e+000, 1.84948425e+001,
          2.21413136e+001, 1.49530172e+001, 4.87324286e+000,
          5.93272877e+000, 0., 0., 3.91134715e+000, 1.94135056e+001,
          3.32031326e+001, 1.47201443e+000, 0., 0., 0., 0., 0., 0., 0.,
          0., 0., 0., 9.01008320e+000, 7.57570314e+000, 8.28427136e-001,
          2.09700584e+000, 2.48878074e+000, 9.36621308e-001,
          2.13648930e+001, 1.40832615e+001, 2.78062935e+001,
          1.18089304e+001, 8.01006603e+000, 1.86762257e+001,
          6.21320343e+000, 1.23288269e+001, 1.47716780e+001, 0., 0., 0.,
          0., 0., 0., 0., 0., 9.07201171e-001, 3.09279871e+000,
          1.68569126e+001, 1.67288742e+001, 1.65685427e+000,
          6.39778757e+000, 5.35957193e+000, 2.25413895e+001,
          3.90027657e+001, 1.49116879e+001, 3.01639042e+001,
          9.38025188e+000, 3.79282074e+001, 4.91012306e+001,
          8.69848442e+000, 3.22168198e+001, 3.90552597e+001, 0., 0., 0.,
          0., 0., 0., 0., 0., 0., 0., 0., 0., 0., 0., 0.,
          2.22597008e+001, 1.13260860e+001, 4.14213568e-001,
          2.32458258e+000, 6.75417423e-001, 0., 0., 0., 0., 0., 0., 0.,
          0., 0., 0., 0., 0., 0., 0., 0., 0., 0., 0., 0., 0., 0., 0., 0.,
          0., 0., 0., 0., 0., 0., 0., 0., 0., 0., 0., 0., 0., 0., 0., 0.,
          0., 0., 0., 0., 0., 0., 0., 0., 0., 0., 0., 0., 0., 0., 0., 0.,
          0., 0., 0., 0., 0., 0., 0., 0., 0., 0., 1.28770227e+001,
          2.70876408e+000, 1.24264073e+000, 9.69219685e+000,
          1.04793758e+001, 1.72991905e+001, 2.70080876e+000, 0., 0., 0.,
          0., 0., 0., 0., 0., 8.62169456e+000, 3.96409202e+000,
          4.14213568e-001, 0., 0., 1.14245481e+001, 2.83622475e+001,
          9.94112587e+000, 2.46121407e+001, 9.65993690e+000,
          3.02389622e+001, 1.03468246e+001, 4.14213568e-001,
          1.27458572e+000, 2.72541428e+000, 0., 0., 0., 0., 0.,
          2.07847900e+001, 3.80099726e+000, 4.14213568e-001, 0., 0.,
          6.75921202e+000, 1.53412924e+001, 1.20121937e+001,
          4.11344452e+001, 8.75285530e+000, 7.83611596e-001,
          3.97374773e+000, 3.31370854e+000, 1.40913658e+001,
          6.88375626e+001, 0., 0., 0., 2.87780255e-001, 7.12219775e-001,
          5.69890976e+000, 1.30109024e+000, 0., 0., 0., 4.14962654e+001,
          1.32610922e+001, 2.07106781e+000, 2.64916515e+000,
          5.22407770e-001, 4.04342766e+001, 2.91809464e+001,
          1.40832615e+001, 3.40442848e+001, 1.12572298e+001,
          2.58328857e+001, 2.88534050e+001, 1.03553391e+001,
          4.06088219e+001, 7.23495483e+001, 0., 0., 0., 0., 0., 0., 0.,
          0., 0., 0., 0., 0., 0., 0., 0., 3.17626152e+001,
          8.23738480e+000, 0., 0., 0., 0., 0., 0., 0., 0., 0., 0., 0.,
          0., 0., 0., 0., 0., 0., 0., 0., 0., 0., 0., 0., 0., 0., 0., 0.,
          0., 0., 0., 0., 0., 0., 0., 0., 0., 0., 0., 0., 0., 0., 0., 0.,
          0., 0., 0., 0., 0., 0., 0., 0., 0., 0., 0., 0., 0., 0., 0., 0.,
          0., 0., 0., 0., 0., 0., 0., 0., 0., 3.15568466e+001,
          6.02894020e+000, 1.24264073e+000, 1.90616369e+000,
          1.26540923e+000, 6.38697922e-001, 1.53287494e+000,
          8.28427136e-001, 1.74064672e+000, 8.25935364e+000, 0., 0., 0.,
          0., 0., 1.58649397e+001, 2.13506007e+000, 0., 0., 0.,
          1.52569065e+001, 1.16720257e+001, 4.97056293e+000,
          3.18240833e+001, 2.52764225e+001, 0., 0., 0., 7.76917791e+000,
          4.82308235e+001, 0., 0., 0., 0., 0. ]
      - [ 0., 1.66770494e+000, 0., 0., 3.17497325e+000, 9.80735207e+000,
          8.48753548e+000, 1.94156480e+000, 0., 3.87629342e+000,
          1.33232174e+001, 1.24910069e+001, 1.78215961e+001,
          1.19437037e+001, 1.97340584e+001, 5.10170269e+000, 0., 0.,
          5.85786462e-001, 2.07253790e+000, 7.14843063e+001,
          2.28573685e+001, 0., 0., 0., 0., 0., 0., 1., 0., 0., 0.,
          1.10528936e+001, 5.51747417e+000, 2.50768876e+000, 0.,
          8.31925631e-001, 7.21134365e-001, 1.44693995e+000,
          7.92194319e+000, 0., 3., 5.80925655e+000, 6.19074345e+000,
          7.41421366e+000, 5.58578634e+000, 9.30386066e+000,
          2.33427181e+001, 0., 1.80321178e+001, 2.04625244e+001,
          8.01137066e+000, 2.27186146e+001, 2.30273724e+001,
          2.30172234e+001, 1.21324463e+001, 0., 1.91210127e+000, 4.,
          1.06034250e+001, 6.50478058e+001, 3.39345551e+001,
          1.24142132e+001, 7.09959507e+000, 0., 1.75866112e-002, 0., 0.,
          0., 0., 1.05426498e-001, 2.07985640e+000, 0., 0., 0., 0., 0.,
          0., 0., 0., 0., 4.02599192e+000, 1., 0., 0., 0., 0., 0., 0.,
          3.67810369e-001, 0., 0., 0., 0., 0., 1.32671773e-001, 0., 0.,
          0., 0., 0., 0., 0., 0., 0., 0., 0., 0., 0., 0., 0., 0., 0., 0.,
          0., 0., 0., 0., 0., 0., 0., 0., 0., 0., 0., 0., 0., 0., 0., 0.,
          0., 0., 0., 0., 0., 0., 0., 0., 0., 0., 0., 0., 0., 0., 0., 0.,
          0., 0., 0., 0., 0., 0., 0., 0., 0., 0., 0., 0., 0., 0., 0.,
          2.81178236e-001, 0., 0., 0., 0., 8.94538820e-001,
          8.76447678e+000, 0., 5.72016239e+000, 3.52439260e+000, 0., 0.,
          0., 0., 0., 0., 0., 0., 0., 0., 0., 0., 0., 0., 0., 0., 0., 0.,
          0., 0., 0., 4.39003658e+000, 3.28747964e+000, 4.15422153e+000,
          5.24838734e+000, 3.37917358e-001, 1.54805255e+000,
          6.45571184e+000, 6.57819319e+000, 0., 3.96353662e-001,
          1.37698059e+001, 1.08338404e+001, 0., 0., 0., 0., 0., 0., 0.,
          0., 0., 0., 0., 0., 0., 0., 0., 0., 0., 0., 0., 0.,
          4.94698286e+000, 1.89340055e+000, 1.13944950e+001,
          3.41756630e+000, 0., 2., 2.39986539e+000, 3.94768953e+000, 0.,
          6.28044081e+000, 3.68151703e+001, 1.61768284e+001, 1.,
          1.90616369e+000, 1.03684063e+001, 4.86550999e+000, 0.,
          8.11296701e-002, 1.57841396e+001, 6.88517714e+000,
          1.59997015e+001, 2.51105618e+000, 1.47759223e+000,
          2.61203885e-001, 0., 0., 0., 0., 0., 0., 0., 0., 0.,
          5.17157269e+000, 6.21320343e+000, 1.30293064e+001,
          4.58591747e+000, 1.14863720e+001, 1.93714924e+001,
          9.52691174e+000, 2.33124580e+001, 1.43027658e+001,
          4.87467146e+000, 7.88268805e+000, 2.89949489e+000,
          2.37591000e+001, 3.55840454e+001, 0., 0., 0., 0., 0.,
          1.07446909e+001, 3.84109521e+000, 1.65685427e+000,
          3.44686770e+000, 1.03104916e+001, 6.38697922e-001,
          9.39073944e+000, 1.24264069e+001, 2.87573776e+001,
          1.97867775e+001, 3.04921570e+001, 2.36083488e+001,
          1.61543293e+001, 5.21777573e+001, 1.25674105e+001,
          5.77385283e+000, 1.96992359e+001, 2.81665230e+001,
          5.16292076e+001, 1.57311821e+001, 0., 5.85786462e-001,
          4.14213568e-001, 9.94197130e-001, 3.00580287e+000, 0., 0., 0.,
          0., 0., 7.75702858e+000, 2.24297166e+000, 0., 0., 0.,
          1.25351477e+000, 3.50384450e+000, 2.48528147e+000,
          3.75735927e+000, 0., 0., 0., 0., 0., 0., 0., 0., 0., 0., 0.,
          0., 0., 0., 0., 0., 0., 0., 0., 0., 0., 0., 0., 0., 0., 0., 0.,
          0., 0., 0., 0., 0., 0., 0., 0., 0., 0., 0., 0., 0., 0.,
          7.95462847e-001, 2.04537153e-001, 4.14213568e-001,
          2.69343233e+000, 1.08923540e+001, 9.45106792e+000,
          1.54893160e+000, 0., 0., 0., 0., 0., 0., 0., 0., 0., 0., 0.,
          0., 0., 1.21948042e+001, 2.80519557e+000, 0., 1.98142779e+000,
          1.50185719e+001, 2.18931713e+001, 3.10682774e+000, 0., 0., 0.,
          0., 0., 0., 0., 0., 0., 0., 0., 0., 0., 1.41444836e+001,
          3.44130254e+000, 2.89949489e+000, 5.02137375e+000,
          4.49334526e+000, 4.31245308e+001, 1.56328306e+001,
          1.65685427e+000, 7.98843288e+000, 9.59735298e+000,
          2.10672436e+001, 3.93275595e+000, 8.28427136e-001,
          6.91825867e+000, 4.25331402e+000, 0., 0., 0., 0., 0.,
          6.90874338e+000, 3.84861612e+000, 6.21320343e+000,
          1.03907394e+001, 6.38697922e-001, 1.01723747e+001,
          1.09281311e+001, 1.32548342e+001, 2.93669567e+001,
          1.32777042e+001, 0., 0., 4.14213568e-001, 1.54149647e+001,
          8.11708221e+001, 0., 0., 0., 5.85786462e-001, 4.14213568e-001,
          2.16567650e+001, 3.34323430e+000, 0., 6.81679308e-001,
          1.31832063e+000, 3.20636101e+001, 1.85516148e+001,
          1.28406200e+001, 1.35441561e+001, 0., 3.39612045e+001,
          1.58255911e+001, 1.40832615e+001, 3.11208572e+001,
          2.10090847e+001, 1.13623390e+001, 2.04955254e+001,
          1.20121937e+001, 4.99261208e+001, 5.22038231e+001,
          9.18860435e+000, 1.81139588e+000, 0., 0., 0., 5.87920284e+000,
          1.12079740e+000, 0., 0., 0., 1.22731571e+001, 1.72684276e+000,
          0., 0., 0., 2.52624168e+001, 1.73758399e+000, 0., 0., 0.,
          8.98361921e-001, 1.01638049e-001, 0., 0., 0., 0., 0., 0., 0.,
          0., 0., 0., 0., 0., 0., 0., 0., 0., 0., 0., 8.94573510e-001,
          1.05426498e-001, 0., 0., 0., 0., 0., 0., 0., 0., 0., 0., 0.,
          0., 0., 0., 0., 0., 0., 0., 1.72477589e+001, 2.75224066e+000,
          0., 0., 0., 9.49897289e+000, 1.50102675e+000, 0., 0., 0., 0.,
          0., 0., 0., 0., 0., 0., 0., 0., 0., 1.68454781e+001,
          3.74030828e+000, 4.14213568e-001, 1.83389676e+000,
          8.16610336e+000, 7.95462847e-001, 2.04537153e-001, 0.,
          2.55170035e+000, 1.54482994e+001, 0., 0., 0., 0., 0., 0., 0.,
          0., 0., 0., 8.49693584e+000, 4.67463684e+000, 2.89949489e+000,
          5.22457409e+000, 6.70435810e+000, 1.49340153e+001,
          6.99491692e+000, 7.45584393e+000, 1.85111084e+001,
          1.41041145e+001, 0., 1.75735927e+000, 2.48528147e+000,
          6.40068531e+000, 2.53566742e+001, 0., 0., 0., 0., 0. ]
      - [ 0., 4.04039478e+000, 0., 0., 0., 0., 0., 2.01997113e+000, 0.,
          1.76167762e+000, 6.97734404e+000, 9.78001499e+000,
          1.65088520e+001, 2.72322121e+001, 1.05015755e+001,
          7.38612652e+000, 0., 1.05665941e+001, 1.82385769e+001,
          1.19820976e+001, 5.75520363e+001, 3.16748581e+001,
          7.69818592e+000, 8.79796982e+000, 0., 0., 0., 4.05053832e-002,
          1.41462746e+001, 3.68932033e+000, 1.23899341e-001, 0., 0., 0.,
          0., 0., 0., 0., 0., 0., 0., 1.44384556e+001, 6.03753471e+000,
          0., 2.05291152e+000, 2.94708848e+000, 1.55176473e+000,
          1.30217705e+001, 0., 2.44039478e+001, 1.45982533e+001,
          1.42527933e+001, 2.43869781e+001, 2.73422756e+001,
          1.51202011e+001, 4.69572258e+000, 0., 1.44547024e+001,
          1.38446407e+001, 1.38044825e+001, 5.81585350e+001,
          3.87265396e+001, 1.25603628e+001, 1.15325603e+001, 0., 0., 0.,
          0., 0., 0., 0., 0., 0., 0., 0., 0., 0., 0., 0., 0., 0.,
          4.43335009e+000, 0., 0., 0., 0., 0., 0., 0., 1.99408321e+001,
          2.12226176e+000, 0., 0., 0., 5.60234427e-001, 5.94294930e+000,
          0., 0., 0., 0., 0., 0., 0., 0., 0., 0., 0., 0., 0., 0., 0., 0.,
          0., 0., 0., 0., 0., 0., 0., 0., 0., 0., 0., 0., 0., 0., 0., 0.,
          0., 0., 0., 0., 0., 0., 0., 0., 0., 0., 0., 0., 0., 0., 0., 0.,
          0., 0., 0., 0., 0., 0., 0., 0., 0., 0., 0., 0., 0., 0., 0., 0.,
          0., 0., 0., 0., 0., 0., 0., 0., 0., 0., 0., 0., 0., 0., 0., 0.,
          0., 0., 0., 0., 0., 0., 0., 0., 0., 0., 0., 0., 0., 0., 0., 0.,
          0., 0., 0., 0., 0., 0., 0., 0., 0., 1.13845778e+000,
          5.17157269e+000, 1.13845778e+000, 3.27575588e+000,
          4.14213568e-001, 3.17157292e+000, 1.13845778e+000, 0., 0., 0.,
          0., 0., 0., 0., 0., 0., 0., 0., 0., 0., 0., 0., 0., 0.,
          5.99932146e+000, 6.46370411e-001, 0., 0., 0., 0.,
          1.63068736e+000, 0., 8.10360527e+000, 3.53297577e+001,
          9.47854900e+000, 4.38912916e+000, 1.49975979e+000,
          4.03273392e+000, 6.95709419e+000, 2.49584842e+000,
          3.01101708e+000, 3.86667747e+001, 1.32696438e+001,
          6.23477042e-001, 2.70715165e+000, 1.07964745e+001,
          1.54296112e+001, 0., 0., 5.07531500e+000, 5.99045372e+000,
          9.15552902e+000, 7.41353989e+000, 3.65162611e-001, 0.,
          8.64998055e+000, 2.35001969e+000, 0., 1.63762558e+000,
          4.36237431e+000, 2.53050375e+000, 1.81557884e+001,
          1.28406200e+001, 3.91747589e+001, 5.29833031e+000,
          1.54934969e+001, 2.77785816e+001, 7.45584393e+000,
          3.74522133e+001, 4.98198624e+001, 0., 1., 0., 2.86475754e+000,
          6.13524246e+000, 0., 0., 0., 0., 0., 2.00992451e+001,
          3.90075517e+000, 2.07106781e+000, 1.13638992e+001,
          1.55650330e+001, 3.02639179e+001, 3.60375977e+001,
          1.69827557e+001, 4.14775925e+001, 6.23813629e+000,
          1.15235462e+001, 3.89495430e+001, 2.02964649e+001,
          4.89711876e+001, 3.72592621e+001, 0., 0., 0., 0., 0., 0., 0.,
          0., 0., 0., 6.12245560e+000, 1.87754416e+000, 0., 0., 0.,
          2.20510235e+001, 5.53476381e+000, 2.89949489e+000,
          6.88123894e+000, 5.63347960e+000, 0., 0., 0., 0., 0., 0., 0.,
          0., 0., 0., 0., 0., 0., 0., 0., 0., 0., 0., 0., 0., 0., 0., 0.,
          0., 0., 0., 0., 0., 0., 0., 0., 0., 0., 0., 0., 0., 0., 0., 0.,
          0., 0., 0., 0., 0., 0., 0., 0., 0., 0., 0., 0., 0., 0., 0., 0.,
          0., 0., 0., 0., 0., 0., 0., 0., 0., 0., 6.45469809e+000,
          1.54530203e+000, 0., 8.43666315e-001, 4.15633392e+000, 0., 0.,
          0., 0., 0., 0., 0., 0., 0., 0., 6.96913242e+000,
          1.03086734e+000, 8.28427136e-001, 2.53236032e+000,
          2.63921261e+000, 4.42155151e+001, 9.12763119e+000,
          2.89949489e+000, 4.53137493e+000, 1.22259846e+001,
          5.02011871e+001, 6.38459969e+000, 4.14213568e-001,
          5.49665594e+000, 2.45033436e+001, 1.07899075e+001,
          2.21009231e+000, 4.14213568e-001, 1.57620835e+000,
          8.00957775e+000, 1.81102028e+001, 1.88979781e+000, 0., 0., 0.,
          8.60287094e+000, 9.32606125e+000, 1.03553391e+001,
          4.58578644e+001, 5.85786438e+000, 1.02238617e+001,
          2.42908573e+001, 9.11269855e+000, 2.91955738e+001,
          7.21770096e+001, 0., 0., 0., 3.10164738e+000, 1.48983526e+001,
          3.63417482e+000, 3.65825266e-001, 0., 0., 0., 4.67712517e+001,
          8.22874737e+000, 4.14213568e-001, 3.01815629e+000,
          1.56763005e+000, 3.64281540e+001, 2.41870708e+001,
          1.94680367e+001, 5.25183220e+001, 8.39841843e+000,
          1.19370537e+001, 3.85065956e+001, 1.11837664e+001,
          4.98197861e+001, 6.25527954e+001, 0., 0., 0., 0., 0., 0., 0.,
          0., 0., 0., 1.08032742e+001, 2.19672561e+000, 0., 0., 0.,
          4.13379974e+001, 1.06620016e+001, 0., 0., 0., 0., 0., 0., 0.,
          0., 0., 0., 0., 0., 0., 0., 0., 0., 0., 0., 0., 0., 0., 0., 0.,
          0., 0., 0., 0., 0., 0., 0., 0., 0., 0., 0., 0., 0., 0., 0., 0.,
          0., 0., 0., 0., 0., 0., 0., 0., 0., 0., 0., 0., 0., 0., 0., 0.,
          0., 0., 0., 0., 0., 0., 0., 0., 0., 0., 0., 0., 0.,
          7.21574974e+000, 1.78425038e+000, 0., 1.08261466e+000,
          4.91738510e+000, 0., 0., 0., 0., 0., 0., 0., 0., 0., 0.,
          1.59250536e+001, 2.07494640e+000, 0., 0., 0., 2.70422935e+001,
          7.12927914e+000, 1.65685427e+000, 8.65806866e+000,
          1.85135040e+001, 2.12651787e+001, 1.23206072e+001,
          1.24264073e+000, 1.11748104e+001, 3.09967632e+001, 0., 0., 0.,
          3.12729049e+000, 2.18727093e+001 ]
      - [ 0., 0., 2., 1., 7., 4., 3., 1., 0., 2., 4., 2.,
          2.58284264e+001, 2.27573586e+001, 1.04142132e+001, 2., 0.,
          4.14213568e-001, 1.73600757e+000, 1.52939835e+001,
          4.71587601e+001, 2.62840309e+001, 2.21109505e+001,
          2.53122807e+001, 0., 2.82842708e+000, 2.12389946e+000,
          3.08057194e+001, 4.63268089e+001, 1.32936108e+000,
          6.22120142e+000, 1.94006824e+001, 0., 2., 2., 2., 6., 4., 7.,
          0., 0., 2., 6., 3., 2.44142132e+001, 1.35857868e+001, 18., 5.,
          0., 1., 0., 1.00386429e+001, 4.52859383e+001, 2.76754169e+001,
          35., 6.39504290e+000, 0., 2.58578634e+000, 2.08963108e+000,
          1.12276754e+001, 4.85111198e+001, 4.35857849e+001,
          3.42426414e+001, 9.51532650e+000, 0., 3., 1., 1., 3., 6., 8.,
          2., 0., 5., 6., 3., 1.06568546e+001, 2.12720776e+001,
          2.20710678e+001, 6., 0., 1.13175297e+001, 6.68115711e+000, 1.,
          1.40710678e+001, 9.51471901e+000, 1.18284273e+001,
          1.18318081e+001, 0., 1.06447296e+001, 2.16305962e+001,
          1.91715736e+001, 3.54142151e+001, 1.67573586e+001,
          2.02426414e+001, 7.23648167e+000, 0., 1.58578646e+000, 4., 1.,
          4.41421366e+000, 4.58578634e+000, 2., 2.58578634e+000, 0.,
          8.56191063e+000, 1.03555346e+001, 9.03175926e+000,
          6.90892744e+000, 1.37060094e+000, 6.37587261e+000,
          1.43796768e+001, 0., 0., 0., 0., 0., 0., 0., 9.04000568e+000,
          0., 0., 0., 0., 0., 0., 0., 0., 0., 2.69897056e+000, 4., 1.,
          3., 1., 3., 1.26549947e+000, 0., 1.19394369e+001,
          1.33929672e+001, 1.25023737e+001, 1.28356638e+001,
          5.36966896e+000, 1.07210274e+001, 1.15825014e+001, 0.,
          1.18616228e+001, 7.27838993e+000, 1.38124931e+000,
          7.54547179e-001, 1.44998991e+000, 0., 3.20558834e+000, 0., 0.,
          0., 0., 0., 0., 0., 0., 0., 6.58578634e+000, 1., 0., 1.,
          1.58578646e+000, 5.82842731e+000, 3.17157292e+000, 0.,
          4.84366512e+000, 8.31136227e+000, 4.24340820e+000,
          9.65685463e+000, 1.38932447e+001, 1.66061668e+001,
          1.11393032e+001, 0., 2.42728920e+001, 3.31921692e+001, 0., 0.,
          0., 0., 1.97399691e-001, 0., 0., 0., 0., 0., 0., 0., 0., 0.,
          0., 1., 1.58578646e+000, 6.82842731e+000, 6.58578634e+000, 4.,
          0., 0., 6.17157269e+000, 9.41421318e+000, 7.58578634e+000,
          1.86568546e+001, 1.96862907e+001, 8.65685463e+000, 2., 0.,
          1.91199703e+001, 5.01824455e+001, 1.28185368e+001,
          9.70747375e+000, 9.75735950e+000, 8.82842731e+000,
          6.91036892e+000, 0., 1.31584778e-001, 9.42817497e+000,
          1.26059780e+001, 1.83426213e+000, 0., 0., 0., 0., 0., 0., 0.,
          10., 8., 2., 0., 0., 1., 4., 8., 2.24142132e+001,
          7.17157269e+000, 1.44142132e+001, 3., 0., 0., 3.,
          2.39370689e+001, 6.18989716e+001, 8.33553028e+000,
          1.36568546e+001, 1.09653368e+001, 0., 0., 0., 1.03505528e+000,
          3.96494460e+000, 0., 0., 0., 0., 1.75735927e+000,
          4.55634928e+000, 4.68629169e+000, 0., 0., 4.68629169e+000,
          1.69827557e+001, 2.23309517e+001, 0., 1.55040693e+001,
          1.25964355e+001, 2.23675327e+001, 6.02251282e+001,
          8.30683327e+000, 3.62579765e+001, 2.76709576e+001,
          7.87005758e+000, 3.06075344e+001, 3.59347558e+000, 0.,
          3.51471853e+000, 7.04163074e+000, 6.44365072e+000, 0., 0.,
          6.44365072e+000, 1.94680367e+001, 2.20883121e+001, 0.,
          2.61203885e-001, 1.07682333e+001, 3.31370850e+001,
          4.35722733e+001, 2.61203885e-001, 1.82842708e+000,
          1.38578644e+001, 3.81076469e+001, 5.47918472e+001,
          4.14213568e-001, 0., 2.92893219e+000, 8.69848442e+000,
          9.37258339e+000, 0., 0., 8.20100975e+000, 2.36101723e+001,
          3.39276123e+001, 2.61203885e-001, 9.14476204e+000,
          1.17131023e+001, 1.32548342e+001, 2.49174175e+001,
          9.96988392e+000, 1.91552944e+001, 2.71756573e+001,
          2.89949493e+001, 2.99498444e+001, 6.72425413e+000, 0.,
          4.10050488e+000, 7.04163074e+000, 5.85786438e+000, 0.,
          1.85142879e+001, 2.21720028e+001, 5.38477612e+000,
          1.69638958e+001, 2.09650364e+001, 0., 0., 0., 6.73509645e+000,
          1.62649040e+001, 0., 0., 0., 0., 0., 1.25351477e+000,
          5.43277693e+000, 6.21320343e+000, 4.10050488e+000, 0.,
          3.63798218e+001, 1.42059650e+001, 2.07106781e+000,
          1.17183828e+001, 2.56247635e+001, 2.43763657e+001,
          1.03809948e+001, 2.07106781e+000, 5.69086027e+000,
          7.48071241e+000, 0., 0., 0., 0., 0., 0., 4.68629169e+000,
          6.21320343e+000, 8.10050488e+000, 0., 8.13890743e+000,
          9.89052963e+000, 1.61543293e+001, 2.83978634e+001,
          1.04183712e+001, 5.19395714e+001, 8.06042862e+000, 0.,
          5.85786462e-001, 4.14213568e-001, 0., 0., 0., 0., 0., 0.,
          1.75735927e+000, 5.38477612e+000, 6.85786438e+000, 0., 0.,
          1.48873014e+001, 1.90538235e+001, 2.20588741e+001, 0.,
          5.88196411e+001, 2.06240101e+001, 1.24264069e+001,
          1.96075344e+001, 5.22407770e-001, 1.92008839e+001,
          3.79911542e+000, 0., 0., 0., 0., 0., 4.14213562e+000,
          5.85786438e+000, 0., 0., 7.61522388e+000, 1.49116879e+001,
          1.54730883e+001, 0., 4.20170479e+001, 1.77403126e+001,
          1.32548342e+001, 3.17266026e+001, 2.61203885e-001,
          1.43556535e+000, 5.64434648e-001, 0., 0., 0., 0.,
          1.75735927e+000, 5.38477612e+000, 7.85786438e+000, 0., 0.,
          6.68629169e+000, 2.11248913e+001, 3.31888161e+001, 0.,
          3.27976704e+000, 3.47791061e+001, 2.81665230e+001,
          4.91423225e+001, 2.86322823e+001, 1.29801178e+001,
          2.73630276e+001, 2.48528147e+000, 1.91984806e+001,
          5.89730911e+001, 0., 1.17157292e+000, 5.79898977e+000,
          7.02943707e+000, 0., 0., 5.27207804e+000, 1.98822517e+001,
          2.48456707e+001, 0., 4.14213568e-001, 6.27207804e+000,
          2.77523079e+001, 5.22675743e+001, 6.29382610e+000,
          2.87364936e+000, 1.44989338e+001, 4.18355713e+001,
          6.54749527e+001, 3.31689334e+000, 0., 4.68629169e+000,
          7.45584393e+000, 5.85786438e+000, 0., 0., 1.27157288e+001,
          2.02964649e+001, 2.47266026e+001, 2.61203885e-001,
          3.51343613e+001, 1.61377163e+001, 1.07695522e+001,
          1.79583702e+001, 0., 3.77805367e+001, 1.19057570e+001,
          3.10660172e+001, 4.52476921e+001, 0., 0., 5.51471853e+000,
          5.79898977e+000, 6.68629169e+000, 0., 4.34011116e+001,
          1.45278196e+001, 5.38477612e+000, 9.48991680e+000,
          1.21963749e+001, 2.85279045e+001, 5.47209501e+000, 0., 0., 0.,
          0., 0., 0., 0., 0., 3.51336694e+000, 8.17292404e+000,
          5.38477612e+000, 2.92893219e+000, 0., 3.71726875e+001,
          1.49988842e+001, 1.65685427e+000, 1.22033339e+001,
          2.79682388e+001, 4.94370346e+001, 8.56296539e+000, 0.,
          9.14912581e-001, 3.08508730e+000, 0., 0., 0., 0., 0., 0.,
          9.02943707e+000, 6.21320343e+000, 1.75735927e+000, 0.,
          1.61226101e+001, 1.79068260e+001, 1.40832615e+001,
          2.20553761e+001, 1.83192563e+000, 4.03085175e+001,
          9.69148159e+000, 0., 0., 0., 0., 0., 0., 0., 0., 0.,
          1.75735927e+000, 5.79898977e+000, 1.04436512e+001, 0., 0.,
          1.22010098e+001, 2.27817459e+001, 3.10172443e+001, 0.,
          3.01677914e+001, 2.34474316e+001, 1.57401152e+001,
          2.43146496e+001, 6.33001184e+000, 5.85786462e-001,
          4.14213568e-001, 0., 3.22622061e+000, 1.37737789e+001, 0., 0.,
          7.45584393e+000, 1.05441561e+001, 0., 0., 5.85786438e+000,
          1.86396103e+001, 2.35025253e+001, 0., 2.80986404e+000,
          1.78764267e+001, 9.94112587e+000, 2.09207230e+001,
          6.74518585e+001, 0., 0., 0., 9.15944278e-001, 4.08405590e+000 ]
      - [ 0., 0., 2., 1., 14., 3., 3., 0., 0., 4.14213568e-001,
          4.17157269e+000, 6.41421366e+000, 1.32426405e+001,
          2.65147190e+001, 2.18284264e+001, 3.41421366e+000, 0.,
          5.85786462e-001, 8.24264050e+000, 1.69971657e+001,
          6.01015625e+001, 1.75875626e+001, 2.08588848e+001,
          1.47405376e+001, 0., 1.64075446e+000, 4.58578634e+000,
          3.24221458e+001, 7.23720093e+001, 1.22058458e+001,
          1.00938368e+001, 1.51174307e+001, 0., 0., 4., 1., 5., 7., 7.,
          0., 0., 2.17157292e+000, 1.04142132e+001, 4.58578634e+000,
          2.58994942e+001, 2.12720776e+001, 1.38284273e+001, 6., 0.,
          1.58578646e+000, 8.82842731e+000, 8.92893219e+000,
          3.41421356e+001, 3.41005058e+001, 3.13322716e+001,
          1.00819416e+001, 0., 3., 3., 5.58578634e+000, 3.87279205e+001,
          6.35255928e+001, 5.05749130e+001, 8.58578682e+000, 0., 1., 0.,
          0., 6., 4., 11., 1., 0., 3., 10., 3.58578634e+000,
          1.68284264e+001, 1.15857868e+001, 2.08284264e+001,
          7.37513208e+000, 0., 1.14477787e+001, 8., 2., 2.08994942e+001,
          2.01005058e+001, 9.41421318e+000, 2.05608540e+001, 0.,
          8.34497261e+000, 1.54666786e+001, 1.51005049e+001,
          3.30710678e+001, 1.33431454e+001, 1.92426414e+001,
          7.06178474e+000, 0., 1., 1., 1., 2., 1., 3., 2., 0.,
          6.55009222e+000, 1.21715727e+001, 3.82842708e+000, 4.,
          5.85786462e-001, 1.24142132e+001, 1.63692894e+001, 0., 0., 0.,
          0., 0., 0., 0., 1.04028625e+001, 0., 0., 0., 0., 0., 0., 0.,
          0., 0., 3., 0., 0., 4., 2., 1.41421354e+000, 1.07573595e+001,
          0., 8.15587616e+000, 7.00420523e+000, 7.04707432e+000,
          1.06325483e+001, 1.08344173e+001, 1.61613770e+001,
          1.19362907e+001, 0., 1.44889536e+001, 1.31687651e+001,
          2.36130214e+000, 0., 0., 4.14213568e-001, 7.36360788e+000, 0.,
          0., 0., 0., 0., 0., 0., 0., 0., 0., 2.41421366e+000,
          1.58578646e+000, 2., 2.17157292e+000, 8.82842731e+000, 5., 0.,
          1.48114080e+001, 2.50353355e+001, 4.55075169e+000,
          1.14142132e+001, 1.21384735e+001, 1.04473133e+001, 1., 0.,
          1.80055256e+001, 2.66387157e+001, 3.55757982e-001, 0., 0., 0.,
          0., 0., 0., 0., 0., 0., 0., 0., 0., 0., 0., 0.,
          4.34314585e+000, 1.40710678e+001, 8.17157269e+000,
          4.14213568e-001, 0., 0., 1.58578646e+000, 1.54142132e+001, 6.,
          1.92426414e+001, 1.63431454e+001, 1.64142132e+001, 6., 0.,
          2.30290527e+001, 5.20977669e+001, 1.80882854e+001,
          1.37134666e+001, 2.75386071e+000, 1.82842708e+000,
          8.60300255e+000, 0., 2.45834255e+000, 2.44761047e+001,
          1.20655537e+001, 0., 0., 4.14213568e-001, 5.85786462e-001, 0.,
          0., 1., 2., 10., 8., 0., 0., 0., 4., 7., 9., 1.84142132e+001,
          1.65857868e+001, 8., 4., 0., 3., 9.26120377e+000,
          2.61088562e+001, 5.89124146e+001, 1.63033123e+001,
          9.82842731e+000, 1.44944134e+001, 0., 0., 0., 1.50999069e+001,
          3.86643295e+001, 2.35761836e-001, 0., 0., 0., 1.75735927e+000,
          3.72792196e+000, 3.51471853e+000, 0., 7.83611596e-001,
          6.90267992e+000, 2.07106781e+001, 3.53418274e+001,
          2.61203885e-001, 2.75348234e+000, 2.44769650e+001,
          2.73380947e+001, 4.39276123e+001, 2.50384450e+000,
          3.77224350e+001, 3.09222279e+001, 2.11248913e+001,
          3.48347969e+001, 3.39565039e+000, 0., 2.92893219e+000,
          7.45584393e+000, 8.61522388e+000, 0., 7.83611596e-001,
          1.34884663e+001, 1.82253971e+001, 2.99801178e+001,
          5.22407770e-001, 5.22407770e-001, 1.52643890e+001,
          3.27228699e+001, 5.13558846e+001, 2.13444638e+000, 0.,
          7.02943707e+000, 4.55634918e+001, 8.56234589e+001,
          7.83611596e-001, 0., 5.85786462e-001, 7.04163074e+000,
          9.37258339e+000, 0., 0., 1.03725834e+001, 1.94680367e+001,
          2.72185535e+001, 9.40826654e-001, 7.29725456e+000,
          1.30753279e+001, 2.19533195e+001, 3.47693062e+001,
          2.19047909e+001, 1.34089909e+001, 2.60640984e+001,
          2.23675327e+001, 2.91814861e+001, 6.97789335e+000, 0.,
          1.75735927e+000, 3.31370854e+000, 3.92893219e+000, 0.,
          1.04481554e+000, 1.77419815e+001, 1.15979795e+001,
          2.36205101e+001, 1.79947147e+001, 0., 0., 0., 4.71049690e+000,
          1.72895031e+001, 0., 0., 0., 0., 0., 0., 2.34314585e+000,
          6.62741709e+000, 1.00294371e+001, 0., 6.11040211e+000,
          1.45048218e+001, 1.32548342e+001, 3.08421173e+001,
          5.28782606e+000, 2.42269001e+001, 1.12878189e+001,
          2.89949489e+000, 7.26749277e+000, 1.23182936e+001, 0., 0., 0.,
          0., 0., 0., 2.75735927e+000, 6.62741709e+000, 1.06152239e+001,
          0., 1.97175369e+001, 2.06550465e+001, 1.07695522e+001,
          1.61019020e+001, 3.75596261e+000, 3.81138954e+001,
          6.88610268e+000, 0., 0., 0., 0., 0., 0., 0., 0., 0.,
          3.51471853e+000, 5.79898977e+000, 5.68629169e+000, 0.,
          6.38697922e-001, 1.40770311e+001, 2.40243874e+001,
          2.42598839e+001, 0., 6.36790161e+001, 3.11788502e+001,
          6.21320343e+000, 1.04432440e+001, 4.48568821e+000,
          3.26879196e+001, 6.31208134e+000, 0., 1., 0., 0.,
          1.75735927e+000, 4.55634928e+000, 4.68629169e+000, 0., 0.,
          1.21299419e+001, 1.98822517e+001, 1.69878063e+001, 0.,
          1.95014572e+001, 3.24863510e+001, 2.60954552e+001,
          3.85210876e+001, 2.39565039e+000, 2.60164261e+001,
          9.56936073e+000, 4.14213568e-001, 2., 0., 0., 1.17157292e+000,
          7.45584393e+000, 1.13725834e+001, 0., 0., 3.92893219e+000,
          1.94680367e+001, 3.06030312e+001, 0., 3.59347558e+000,
          2.44359608e+001, 2.23675327e+001, 7.13439636e+001,
          1.02590675e+001, 5.23495150e+000, 2.07944851e+001,
          1.28406200e+001, 4.44582291e+001, 6.66717148e+001, 0.,
          5.85786462e-001, 5.38477612e+000, 8.02943707e+000, 0., 0.,
          7.27207804e+000, 1.86396103e+001, 4.08271065e+001,
          2.61203885e-001, 5.22407770e-001, 1.40928164e+001,
          2.81665230e+001, 5.56958466e+001, 5.22407770e-001, 0.,
          1.33015156e+001, 4.55634918e+001, 7.43513794e+001,
          7.83611596e-001, 0., 2.34314585e+000, 5.79898977e+000,
          5.85786438e+000, 0., 1.40709352e+000, 7.62234354e+000,
          1.57401152e+001, 2.12304478e+001, 0., 4.22163124e+001,
          2.19136276e+001, 1.94680367e+001, 3.14020195e+001, 0.,
          3.71027946e+001, 1.21692848e+001, 2.60954552e+001,
          4.16324692e+001, 0., 0., 2.92893219e+000, 3.72792196e+000,
          2.34314585e+000, 0., 2.72484779e+001, 2.11241055e+001,
          1.11837664e+001, 6.44365072e+000, 0., 2.67854195e+001,
          5.21458054e+000, 0., 0., 0., 0., 0., 0., 0., 0.,
          2.61203885e-001, 1.41824465e+001, 7.04163074e+000,
          3.51471853e+000, 0., 7.20020437e+000, 2.30302429e+001,
          1.49116879e+001, 2.29677906e+001, 5.89007425e+000,
          5.49113350e+001, 1.06744518e+001, 1.24264073e+000,
          2.17157292e+000, 0., 0., 0., 0., 0., 0., 0., 4.10050488e+000,
          5.79898977e+000, 4.10050488e+000, 0., 1.51340361e+001,
          1.37238283e+001, 1.57401152e+001, 2.59878063e+001,
          4.14213568e-001, 2.63652287e+001, 6.63477087e+000, 0.,
          8.73566687e-001, 1.12643337e+000, 0., 0., 0., 0., 0., 0., 0.,
          8.28427124e+000, 1.87157288e+001, 0., 0., 8.20100975e+000,
          1.98822517e+001, 2.79167385e+001, 0., 3.61327705e+001,
          2.37961617e+001, 7.04163074e+000, 3.28899727e+001,
          8.13946533e+000, 4.50915718e+000, 3.07662940e+000,
          4.14213568e-001, 6.43898249e+000, 1.75610180e+001, 0., 0.,
          7.87005758e+000, 1.21299419e+001, 0., 0., 7.02943707e+000,
          2.07106781e+001, 2.82598839e+001, 0., 5.38796139e+000,
          2.76414757e+001, 1.61543293e+001, 5.39938660e+001,
          3.88223686e+001, 0., 0., 0., 7.48174620e+000, 4.65182533e+001 ]
      - [ 0., 0., 0., 1., 16., 1., 1., 0., 0., 0., 1.41421354e+000,
          1.67451477e+001, 3.00317955e+001, 2.61334267e+001,
          6.67541742e+000, 3., 4.14213568e-001, 0., 8.28427136e-001,
          4.13509674e+001, 4.69743347e+001, 1.74320564e+001,
          8.41421318e+000, 5.85786462e-001, 4.14213568e-001, 0.,
          1.19074357e+000, 3.35476913e+001, 3.52657700e+001,
          4.39083767e+000, 2.60495710e+000, 1.58578646e+000, 0., 0., 0.,
          1.58578646e+000, 7.41421366e+000, 6., 4., 0., 0., 0.,
          7.41421366e+000, 7.17157269e+000, 2.87506905e+001,
          2.30066681e+001, 1.36568546e+001, 1., 0., 7.47759247e+000,
          4.10819435e+000, 5.89180565e+000, 3.71792603e+001,
          5.83873520e+001, 2.11088009e+001, 6.17157269e+000, 0., 1., 1.,
          4.17157269e+000, 6.18175545e+001, 8.05255890e+001,
          2.34852810e+001, 4., 0., 0., 1., 1., 3., 5.58578634e+000,
          4.41421366e+000, 1., 0., 5.85786462e-001, 9.41421318e+000,
          3.58578634e+000, 1.70896301e+001, 2.44961548e+001,
          1.96796227e+001, 8.28264332e+000, 0., 2.99579477e+000,
          1.23508348e+001, 1.92941246e+001, 3.54488754e+001,
          1.90777359e+001, 1.59222631e+001, 1.03795509e+001, 0.,
          6.92503405e+000, 1.78284264e+001, 1.27573595e+001,
          3.16568546e+001, 1.67573586e+001, 1.86512852e+001,
          5.19166908e+001, 0., 0., 2., 1., 7., 4., 4., 0., 0.,
          1.58578646e+000, 3., 2.58578634e+000, 1.80710678e+001,
          1.06862917e+001, 1.34852810e+001, 4.17157269e+000, 0.,
          9.75735950e+000, 1.78284264e+001, 7.58578634e+000,
          2.43508358e+001, 2.35518456e+001, 3.53931885e+001,
          1.54614925e+001, 0., 3.20041347e+000, 2.08963108e+000,
          4.96954250e+000, 5.35504007e+000, 7.80986404e+000,
          5.92718458e+000, 6.02114716e+001, 0., 0., 0., 1., 6., 6., 7.,
          3., 0., 2.82185650e+000, 7.40161371e+000, 1.75338898e+001,
          1.64852810e+001, 6.75735950e+000, 8.82842731e+000,
          5.17157269e+000, 0., 4.51660843e+001, 2.73687057e+001,
          5.75735950e+000, 9.82842731e+000, 3.58578634e+000,
          4.41421366e+000, 7.17157269e+000, 0., 2.06137714e+001,
          1.11043634e+001, 1., 1., 1., 0., 0., 0., 0., 5., 2., 11., 6.,
          2., 1., 0., 1.36966629e+001, 1.79589577e+001, 1.22048116e+000,
          1.84142132e+001, 1.81715736e+001, 6.82842731e+000,
          2.58578634e+000, 0., 1.21609955e+001, 1.88390045e+001, 0., 0.,
          0., 0., 0., 0., 0., 0., 0., 0., 0., 0., 0., 0., 0., 1., 3., 7.,
          5., 3., 0., 0., 6.31978512e-001, 8.27143955e+000,
          1.72695293e+001, 3.02412663e+001, 9.58578682e+000,
          8.41421318e+000, 3.17157292e+000, 0., 3.95943666e+000,
          2.21391888e+001, 1.32637424e+001, 5.63763189e+000, 0., 0., 0.,
          0., 0., 0., 0., 0., 0., 0., 0., 0., 0., 3., 1.58578646e+000,
          1.22426405e+001, 7.75735950e+000, 4.14213568e-001, 0., 0.,
          5.85786462e-001, 3.68691730e+000, 3.55619545e+001,
          3.06744194e+001, 3.49092150e+000, 8.41421318e+000,
          1.58578646e+000, 0., 0., 1.23899341e-001, 1.54898667e+000,
          1.32711399e+000, 0., 0., 0., 0., 0., 0., 0., 0., 0., 0., 0.,
          0., 5.85786462e-001, 1.24264073e+000, 1.17157292e+000, 0.,
          4.33578920e+000, 1.18652210e+001, 1.73969688e+001,
          2.91408157e+001, 2.61203885e-001, 3.60635300e+001,
          2.35516930e+001, 1.73969688e+001, 1.97266026e+001,
          2.61203885e-001, 2.77060452e+001, 1.97376060e+001,
          7.87005758e+000, 8.27207756e+000, 4.14213568e-001, 0.,
          1.17157292e+000, 4.97056293e+000, 5.85786438e+000, 0., 0.,
          9.20100975e+000, 2.07106781e+001, 2.60883121e+001, 0.,
          7.83611596e-001, 1.34884663e+001, 3.23086586e+001,
          5.78072243e+001, 1.61203873e+000, 0., 4.10050488e+000,
          4.14213562e+001, 7.49557343e+001, 5.22407770e-001, 0.,
          1.17157292e+000, 4.97056293e+000, 6.85786438e+000, 0.,
          5.22407770e-001, 9.33545685e+000, 1.94680367e+001,
          3.70172424e+001, 2.65685415e+000, 7.83611596e-001,
          2.67899818e+001, 2.89949493e+001, 3.50806236e+001,
          1.35083485e+000, 8.49778891e-001, 2.76527462e+001,
          3.18944435e+001, 4.93310585e+001, 4.02719727e+001, 0.,
          1.75735927e+000, 4.55634928e+000, 4.68629169e+000, 0., 0.,
          4.68629169e+000, 9.94112587e+000, 2.23277683e+001,
          1.04481554e+000, 2.61203885e-001, 2.37266026e+001,
          3.02375908e+001, 5.65505257e+001, 4.22407770e+000,
          2.26520705e+000, 1.08352976e+001, 5.38477612e+000,
          3.03303490e+001, 7.21843719e+001, 0., 5.85786462e-001,
          7.04163074e+000, 9.37258339e+000, 0., 2.40528107e+000,
          1.84820213e+001, 1.44974747e+001, 1.63540192e+001,
          2.61203885e-001, 5.46739311e+001, 1.97697182e+001,
          1.15979795e+001, 1.09583693e+001, 0., 2.90370903e+001,
          6.96291065e+000, 4.14213568e-001, 5.85786462e-001, 0., 0.,
          4.51471853e+000, 6.21320343e+000, 5.27207804e+000, 0.,
          2.75522804e+001, 5.03350544e+000, 1.07695522e+001,
          1.76446609e+001, 0., 2.59737797e+001, 5.02621937e+000, 0., 0.,
          0., 0., 0., 0., 0., 0., 0., 2.34314585e+000, 4.97056293e+000,
          4.68629169e+000, 0., 1.66265774e+001, 1.26455011e+001,
          1.07695522e+001, 1.76971664e+001, 2.61203885e-001,
          3.64017296e+001, 5.59826946e+000, 0., 0., 0., 0., 0., 0., 0.,
          0., 0., 2.92893219e+000, 5.38477612e+000, 5.68629169e+000, 0.,
          3.33598938e+001, 1.93263969e+001, 7.45584393e+000,
          1.15966606e+001, 2.61203885e-001, 1.41771209e+000,
          5.82287908e-001, 0., 0., 0., 0., 0., 0., 0., 0., 0., 0.,
          7.45584393e+000, 1.05441561e+001, 0., 0., 3.34314585e+000,
          1.90538235e+001, 4.90428543e+001, 7.56017780e+000, 0., 1.,
          1.11837664e+001, 4.81083565e+001, 4.77078781e+001, 0.,
          1.58578646e+000, 5.38477612e+000, 3.01985703e+001,
          3.88308678e+001, 0., 0., 5.38477612e+000, 9.61522388e+000, 0.,
          0., 5.85786462e-001, 2.11248913e+001, 3.96139030e+001,
          6.75417423e-001, 2.61203885e-001, 1.11824465e+001,
          3.93502884e+001, 7.00082321e+001, 1.19782519e+000, 0.,
          7.61522388e+000, 5.09482689e+001, 1.04652893e+002,
          7.83611596e-001, 0., 5.85786462e-001, 4.55634928e+000,
          5.85786438e+000, 0., 9.36621308e-001, 1.13354568e+001,
          1.94680367e+001, 2.94762726e+001, 7.83611596e-001,
          3.43277669e+000, 2.29398060e+001, 2.56812401e+001,
          5.39384880e+001, 4.00768900e+000, 5.02676392e+001,
          3.96196632e+001, 2.65096684e+001, 4.43418274e+001,
          2.61203885e-001, 0., 1.17157292e+000, 5.79898977e+000,
          7.02943707e+000, 0., 0., 6.85786438e+000, 1.28406200e+001,
          2.43015156e+001, 0., 5.22407770e-001, 3.51516914e+001,
          3.23086586e+001, 4.30358086e+001, 1.98143685e+000,
          9.03316956e+001, 2.31830254e+001, 8.28427124e+000,
          1.48501749e+001, 1.35083485e+000, 0., 1.75735927e+000,
          6.21320343e+000, 8.02943707e+000, 0., 1.76854694e+000,
          1.05035315e+001, 1.65685425e+001, 2.91593800e+001, 0.,
          4.63172226e+001, 2.50553608e+001, 1.11837664e+001,
          1.49212427e+001, 5.22407770e-001, 2.73409576e+001,
          5.65904188e+000, 8.28427136e-001, 2.17157292e+000, 0., 0.,
          5.85786462e-001, 7.04163074e+000, 1.23725834e+001, 0.,
          2.02777576e+001, 8.65117455e+000, 1.73969688e+001,
          2.36740990e+001, 0., 1.79920311e+001, 5.00796843e+000, 0., 0.,
          0., 0., 0., 0., 0., 0., 0., 0., 5.79898977e+000,
          9.20100975e+000, 0., 5.14718652e-001, 6.58578634e+000,
          1.32548342e+001, 2.89318733e+001, 1.87127876e+001,
          7.01290894e+000, 3.15866423e+000, 8.28427136e-001,
          5.00001431e+000, 1.99999847e+001, 0., 0., 0., 0., 0., 0., 0.,
          7.45584393e+000, 1.45441561e+001, 0., 0., 2.92893219e+000,
          7.87005758e+000, 2.19816952e+001, 4.42193146e+001, 0., 0., 0.,
          1.00113297e+000, 1.99886703e+000, 0., 0., 0., 0., 0. ]
      - [ 0., 0., 1.41421354e+000, 3.75735927e+000, 1.10710678e+001,
          9.75735950e+000, 4., 0., 0., 3., 4.82842731e+000,
          1.21005049e+001, 2.72317657e+001, 2.21824474e+001,
          1.17464857e+001, 5.08194208e+000, 0., 1., 8.34199333e+000,
          3.94116592e+001, 3.69032021e+001, 1.55147190e+001,
          1.34680471e+001, 1.27973623e+001, 0., 4.14213568e-001, 2.,
          2.74118290e+001, 3.65062294e+001, 1.86516285e+001,
          1.48977528e+001, 1.07560301e+001, 0., 0., 1.82842708e+000,
          8.92893219e+000, 9.82842731e+000, 5.41421366e+000, 3., 0., 0.,
          1., 2., 7.75735950e+000, 3.81421356e+001, 2.31005058e+001, 5.,
          1., 0., 0., 0., 9.75735950e+000, 7.93137054e+001,
          4.21005058e+001, 5.82842731e+000, 2.17157292e+000, 0., 0., 5.,
          7.17157269e+000, 9.43553391e+001, 7.34020233e+001,
          1.40710678e+001, 3.17157292e+000, 0., 0., 3., 5.,
          1.04142132e+001, 5.58578634e+000, 4., 0., 0., 0., 1.,
          8.34314537e+000, 3.34852829e+001, 1.37573595e+001,
          1.24142132e+001, 7., 0., 5.85786462e-001, 4.41421366e+000,
          1.05857868e+001, 3.98475990e+001, 3.83239746e+001,
          3.20710678e+001, 1.31757784e+001, 0., 1., 4.41421366e+000,
          9.58578682e+000, 30., 10., 1.74435368e+001, 5.92032928e+001,
          0., 0., 0., 4., 8.82842731e+000, 9.17157269e+000, 1., 0., 0.,
          0., 5., 7., 1.86568546e+001, 1.73431454e+001, 14., 9., 0.,
          1.84848270e+001, 1.16370239e+001, 1.61715736e+001,
          2.52426414e+001, 2.09289322e+001, 2.12426414e+001, 4., 0.,
          1.86422558e+001, 2.47433758e+000, 0., 2., 0., 5.67358112e+000,
          4.28137207e+001, 0., 0., 1., 5.58578634e+000, 17.,
          2.41421366e+000, 0., 0., 0., 2.60583229e+001, 1.99416771e+001,
          10., 8., 3., 4., 2., 2.47798681e-001, 2.47952862e+001,
          8.95691490e+000, 0., 0., 0., 1., 0., 0., 0., 0., 0., 0., 0.,
          0., 0., 0., 3., 1., 6., 9., 4., 3., 0., 0., 2.94365501e+001,
          1.99776630e+001, 2.58578634e+000, 6., 0., 0., 0., 0., 0., 0.,
          0., 0., 0., 0., 0., 0., 0., 0., 0., 0., 0., 0., 0., 0., 0., 1.,
          5.17157269e+000, 1.56568546e+001, 5.17157269e+000, 0., 0., 0.,
          1.45346327e+001, 1.67479286e+001, 2.00570755e+001,
          6.07457685e+000, 1.07573595e+001, 6.65685415e+000,
          2.34314585e+000, 0., 1.96378958e+000, 9.05129337e+000,
          8.96028519e+000, 2.46317685e-002, 0., 0., 0., 0., 0., 0., 0.,
          0., 0., 0., 0., 0., 0., 0., 2., 1.26568546e+001,
          7.34314585e+000, 3., 1., 0., 5.85786462e-001, 8.34120393e-001,
          2.78253632e+001, 1.89049511e+001, 1.09275150e+001,
          1.35080500e+001, 8.17157269e+000, 0., 0., 1.29126561e+000,
          8.09231091e+000, 8.61642361e+000, 0., 0., 0., 0., 0., 0., 0.,
          0., 0., 0., 0., 0., 3.92893219e+000, 7.45584393e+000,
          9.61522388e+000, 0., 0., 1.41299419e+001, 1.90538235e+001,
          3.10326214e+001, 7.83611596e-001, 3.28112488e+001,
          2.31471195e+001, 1.82253971e+001, 3.00326214e+001,
          3.78361154e+000, 2.93841591e+001, 1.01305590e+001,
          1.40832615e+001, 3.49244270e+001, 3.47759223e+000, 0.,
          7.85786438e+000, 7.87005758e+000, 5.27207804e+000, 0., 0.,
          7.44365072e+000, 1.78111839e+001, 1.87451668e+001, 0., 0.,
          7.02943707e+000, 2.52670269e+001, 3.37035370e+001, 0., 0.,
          7.61522388e+000, 4.55634918e+001, 6.58212814e+001, 0., 0.,
          4.68629169e+000, 7.45584393e+000, 5.85786438e+000, 0., 0.,
          6.44365072e+000, 1.73969688e+001, 2.11593800e+001, 0.,
          2.61203885e-001, 1.13540201e+001, 3.23086586e+001,
          5.87329712e+001, 2.34314585e+000, 0., 9.20100975e+000,
          1.49116879e+001, 2.92784729e+001, 5.86088295e+001, 0.,
          2.34314585e+000, 5.79898977e+000, 6.85786438e+000, 0., 0.,
          7.02943707e+000, 2.19533195e+001, 2.50172443e+001, 0.,
          1.51537333e+001, 2.06625004e+001, 2.73380947e+001,
          3.08456707e+001, 0., 1.67905903e+001, 8.55255604e+000,
          2.89949489e+000, 1.45098295e+001, 4.92475281e+001, 0.,
          4.68629169e+000, 4.55634928e+000, 1.75735927e+000, 0.,
          3.43565788e+001, 1.54302158e+001, 9.94112587e+000,
          5.27207804e+000, 0., 2.76159954e+001, 6.38400459e+000, 0., 1.,
          0., 0., 0., 0., 0., 0., 0., 5.85786438e+000, 7.04163074e+000,
          4.10050488e+000, 0., 3.99274254e+001, 1.08299332e+001,
          1.24264073e+000, 0., 0., 0., 0., 0., 0., 0., 0., 0., 0., 0.,
          0., 0., 4.10050488e+000, 5.38477612e+000, 3.51471853e+000, 0.,
          3.75073318e+001, 1.21789579e+001, 9.94112587e+000,
          1.43725834e+001, 0., 1.52205935e+001, 4.77940702e+000, 0., 0.,
          0., 0., 0., 0., 0., 0., 0., 1.17157292e+000, 6.21320343e+000,
          7.61522388e+000, 0., 3.17814789e+001, 8.80430698e+000,
          9.94112587e+000, 2.56446609e+001, 8.28427136e-001,
          9.42319584e+000, 2.57680440e+000, 0., 0., 0., 0., 0., 0., 0.,
          0., 0., 0., 7.87005758e+000, 1.71299419e+001, 0., 0.,
          8.68629169e+000, 1.78111839e+001, 4.97189140e+001,
          7.83611596e-001, 1.19013608e+000, 1.87682343e+001,
          1.73969688e+001, 4.32755089e+001, 3.93691521e+001,
          1.71254385e+000, 1.27311068e+001, 1.44974747e+001,
          3.97589188e+001, 3.62999573e+001, 0., 0., 7.45584393e+000,
          1.70217476e+001, 5.22407770e-001, 0., 2.34314585e+000,
          1.94680367e+001, 5.11888161e+001, 0., 0., 3.58578634e+000,
          3.97645035e+001, 9.14518890e+001, 1.19782519e+000, 0.,
          5.51471853e+000, 4.72203445e+001, 1.29914093e+002,
          2.35083485e+000, 0., 0., 6.62741709e+000, 1.43725834e+001, 0.,
          0., 8.02943707e+000, 2.23675327e+001, 3.83418274e+001,
          2.61203885e-001, 1.55953407e+000, 1.20556898e+001,
          3.27228699e+001, 6.19416733e+001, 1.72023296e+000,
          6.15053825e+001, 1.58377647e+001, 2.11248913e+001,
          3.05319633e+001, 0., 0., 0., 7.45584393e+000, 1.45441561e+001,
          0., 0., 5.27207804e+000, 1.90538235e+001, 2.76740990e+001, 0.,
          1.38618231e+001, 1.84396915e+001, 3.18944435e+001,
          4.08040390e+001, 0., 8.17850952e+001, 1.79722652e+001,
          2.07106781e+000, 1.17157292e+000, 0., 0., 0., 7.04163074e+000,
          1.74359608e+001, 5.22407770e-001, 2.85892086e+001,
          9.75393677e+000, 1.03553391e+001, 1.23015156e+001, 0.,
          2.43189926e+001, 5.68100691e+000, 0., 0., 0., 0., 0., 0., 0.,
          0., 0., 1.75735927e+000, 8.69848442e+000, 1.15441561e+001, 0.,
          3.29469681e+001, 8.63881874e+000, 2.89949489e+000,
          6.51471853e+000, 0., 0., 0., 0., 0., 0., 0., 0., 0., 0., 0.,
          0., 5.85786462e-001, 8.69848442e+000, 1.77157288e+001, 0.,
          1.39555502e+001, 1.48312464e+001, 1.32548342e+001,
          1.47475462e+001, 1.92108231e+001, 2.10752320e+000,
          8.92476916e-001, 0., 3.15236568e+000, 8.84763432e+000, 0., 0.,
          0., 0., 0., 0., 5.85786462e-001, 7.04163074e+000,
          1.53725834e+001, 0., 2.61203885e-001, 1.31824465e+001,
          9.94112587e+000, 1.83802624e+001, 3.62349625e+001, 0., 0., 0.,
          4.04409647e+000, 1.29559040e+001, 0., 0., 0., 0., 0. ]
      - [ 0., 1., 2., 2., 7., 1., 4., 3.58578634e+000, 0., 3., 5., 4.,
          1.76568546e+001, 1.21005049e+001, 1.12426405e+001, 9., 0.,
          7.58578634e+000, 10., 2., 27., 2.25857868e+001,
          2.84142132e+001, 7., 0., 1.40321434e+000, 6.03803682e+000,
          1.38827162e+001, 6.21476936e+001, 1.16767471e+002,
          1.61640778e+001, 2., 0., 0., 2., 2.34314585e+000,
          9.65685463e+000, 2., 8., 2., 0., 0., 6., 3., 7., 10., 18., 9.,
          0., 4., 3., 1., 1.24142132e+001, 2.03431454e+001,
          5.25358772e+001, 2.67067642e+001, 0., 0., 1.38595283e+000,
          1.14940710e+001, 3.83566704e+001, 8.27100296e+001,
          7.11480560e+001, 9.90521717e+000, 0., 3., 0., 2., 2., 0., 9.,
          1., 0., 3.65010500e+000, 1., 0., 2., 6., 1.98284264e+001,
          1.26176500e+001, 0., 7.57801592e-001, 0., 0., 0., 3.,
          2.47418270e+001, 4.77257233e+001, 0., 1.66438084e+001,
          4.46926498e+000, 6.34314585e+000, 1.41421354e+000,
          1.58158112e+000, 7.34068251e+000, 1.11719751e+001, 0., 1., 4.,
          1., 1.41421354e+000, 5.17157269e+000, 5.41421366e+000, 1., 0.,
          9.82032955e-001, 3., 1., 1., 5.85786462e-001, 3.82842708e+000,
          2.24278126e+001, 0., 0., 0., 0., 0., 0., 0., 0., 0., 0., 0.,
          0., 0., 0., 0., 0., 0., 0., 0., 1., 8., 3., 9., 3., 0.,
          1.58056736e+001, 2., 1.58578646e+000, 1.41421354e+000, 0., 1.,
          1.10684814e+001, 0., 0., 0., 0., 0., 0., 0., 0., 0., 0., 0.,
          0., 0., 0., 0., 0., 0., 0., 1., 2., 8., 0., 1., 3., 0.,
          2.26989193e+001, 2.42357998e+001, 3.00749731e+000,
          6.24264050e+000, 8.34314537e+000, 5.82842731e+000,
          1.58578646e+000, 0., 1.71221972e+000, 8.28777981e+000, 0., 0.,
          0., 0., 0., 0., 0., 0., 0., 0., 0., 0., 0., 0., 0., 0., 0., 4.,
          6., 3., 4., 0., 5.69556618e+000, 3.57350006e+001,
          1.15694351e+001, 2., 4.75735950e+000, 1.02426405e+001,
          1.37573595e+001, 0., 5.46614933e+000, 1.35338507e+001, 0., 0.,
          0., 0., 0., 0., 0., 0., 0., 0., 0., 0., 0., 0., 1., 1., 0., 5.,
          3.58578634e+000, 4.41421366e+000, 4., 0., 3., 5., 4., 14.,
          9.58578682e+000, 2.14142132e+001, 4., 0., 3.80440283e+000,
          3.16818027e+001, 1.03230515e+001, 1.01907434e+001,
          1.45857868e+001, 3.00896301e+001, 2.09103699e+001, 0.,
          2.30882311e+000, 1.53170948e+001, 4.09382782e+001,
          2.93196640e+001, 5.61570692e+000, 5., 0., 0., 2.92893219e+000,
          5.38477612e+000, 5.68629169e+000, 0., 0., 7.44365072e+000,
          1.69827557e+001, 2.15735931e+001, 0., 0., 1.17157288e+001,
          2.98233757e+001, 3.64608955e+001, 0., 1.45206575e+001,
          1.15798473e+001, 1.78111839e+001, 1.20161728e+002,
          4.39265823e+001, 0., 3.51471853e+000, 7.04163074e+000,
          7.44365072e+000, 0., 0., 5.27207804e+000, 1.78111839e+001,
          2.29167385e+001, 0., 0., 4.68629169e+000, 2.81665230e+001,
          6.56049957e+001, 9.54219151e+000, 1.35607159e+000,
          8.84493828e+000, 2.23675327e+001, 8.92333755e+001,
          6.71980820e+001, 0., 2.92893219e+000, 6.21320343e+000,
          5.85786438e+000, 0., 7.12219775e-001, 3.21671247e+000,
          1.61543293e+001, 2.72829304e+001, 5.63380814e+000,
          1.55357277e+000, 1.61800015e+000, 2.89949489e+000,
          4.15847473e+001, 4.73441849e+001, 1.53590546e+001,
          2.19130230e+001, 6.21320343e+000, 1.27697277e+001,
          7.74499035e+000, 0., 3.51471853e+000, 7.04163074e+000,
          7.44365072e+000, 0., 6.75417423e-001, 9.01087379e+000,
          7.04163074e+000, 1.90018616e+001, 2.02702160e+001, 0., 0., 0.,
          0., 0., 0., 0., 0., 0., 0., 0., 5.85786462e-001,
          5.79898977e+000, 9.61522388e+000, 0., 1.36227102e+001,
          2.19925137e+001, 1.11837664e+001, 9.45935345e+000,
          1.74165702e+000, 0., 0., 0., 0., 0., 0., 0., 0., 0., 0., 0.,
          1.75735927e+000, 2.89949489e+000, 2.34314585e+000, 0.,
          3.90996666e+001, 1.20008373e+001, 8.69848442e+000,
          1.12010098e+001, 0., 6.86991405e+000, 3.13008571e+000, 0., 0.,
          0., 0., 0., 0., 0., 0., 0., 0., 5.38477612e+000,
          7.61522388e+000, 0., 4.38531799e+001, 8.31839275e+000,
          1.07695522e+001, 2.00588741e+001, 0., 1.60747433e+001,
          2.92525578e+000, 0., 0., 0., 0., 0., 0., 0., 0., 0.,
          1.17157292e+000, 5.38477612e+000, 7.44365072e+000, 0., 0.,
          7.85786438e+000, 1.61543293e+001, 2.29878063e+001, 0.,
          2.91431751e+001, 1.45431166e+001, 2.40243874e+001,
          4.57220993e+001, 1.56722319e+000, 5.18586082e+001,
          1.74845371e+001, 4.55634928e+000, 9.83528996e+000,
          4.26521492e+000, 0., 6.68629169e+000, 6.21320343e+000,
          7.10050488e+000, 0., 0., 1.03725834e+001, 1.73969688e+001,
          2.42304478e+001, 0., 0., 1.66446609e+001, 3.10660172e+001,
          3.12893219e+001, 0., 1.04072261e+000, 4.71663666e+000,
          8.69848442e+000, 1.08644943e+002, 8.88992157e+001, 0.,
          1.75735927e+000, 4.55634928e+000, 1.06862917e+001, 0., 0.,
          1.09583693e+001, 1.53259020e+001, 1.17157288e+001, 0.,
          3.07106781e+000, 3.46740990e+001, 2.73380947e+001,
          2.09167385e+001, 0., 2.28745627e+000, 1.82272625e+001,
          2.60954552e+001, 1.05700218e+002, 3.46896095e+001, 0.,
          7.61522388e+000, 7.04163074e+000, 2.34314585e+000, 0.,
          1.41423264e+001, 1.79165478e+001, 1.32548342e+001,
          4.68629169e+000, 0., 4.96892471e+001, 3.93401909e+001,
          6.62741709e+000, 2.34314585e+000, 0., 3.53196945e+001,
          1.59523840e+001, 7.45584393e+000, 8.27207756e+000, 0., 0.,
          2.34314585e+000, 4.55634928e+000, 5.10050488e+000, 0.,
          4.31331711e+001, 1.72099743e+001, 2.48528147e+000,
          2.17157292e+000, 0., 0., 0., 0., 0., 0., 0., 0., 0., 0., 0.,
          0., 5.68629169e+000, 7.87005758e+000, 7.44365072e+000, 0.,
          4.65809364e+001, 1.94484997e+001, 5.79898977e+000,
          2.17157292e+000, 0., 5.14718652e-001, 4.85281378e-001, 0., 0.,
          0., 0., 0., 0., 0., 0., 0., 2.92893219e+000, 5.79898977e+000,
          6.27207804e+000, 0., 2.95430565e+001, 1.62437401e+001,
          1.20121937e+001, 1.16593113e+001, 2.54169869e+000,
          1.63768351e+000, 1.36231649e+000, 0., 0., 0., 0., 0., 0., 0.,
          0., 0., 3.51471853e+000, 6.21320343e+000, 6.27207804e+000, 0.,
          5.63368797e+000, 1.73246822e+001, 1.15979795e+001,
          1.49825077e+001, 2.04611435e+001, 8.64197063e+000,
          2.35802889e+000, 0., 0., 0., 0., 0., 0., 0., 0., 0.,
          6.27207804e+000, 7.04163074e+000, 5.68629169e+000, 0., 0.,
          9.95836926e+000, 1.86396103e+001, 1.64020195e+001, 0.,
          6.75417423e-001, 3.21702538e+001, 2.69238815e+001,
          2.40580959e+001, 1.01723518e+001, 1.92725956e+000,
          2.24431348e+000, 1.24264073e+000, 2.00282917e+001,
          6.25574951e+001 ]
      - [ 0., 2., 2., 2., 3., 3., 7., 8.58578682e+000, 0., 0., 1.,
          1.08598976e+001, 5.24969139e+001, 1.86431885e+001, 4., 0., 0.,
          0., 9.95664883e+000, 2.45491886e+001, 5.10609665e+001,
          1.44331970e+001, 4., 0., 0., 0., 7.57411861e+000,
          1.82065105e+001, 2.91570358e+001, 4.06233549e+000, 0., 0., 0.,
          1., 4., 1., 8., 4., 0., 0., 0., 0., 0., 1., 10.,
          1.51715727e+001, 3.69180565e+001, 1.39103689e+001, 0., 0., 1.,
          6.58578634e+000, 2.52426414e+001, 5.43725815e+001,
          4.94558449e+001, 1.45147190e+001, 0., 4.17157269e+000, 1.,
          2.34314585e+000, 4.12583275e+001, 8.90985718e+001,
          4.54715309e+001, 1.08284273e+001, 0., 4., 2., 0., 0., 2.,
          2.41421366e+000, 1.58578646e+000, 0., 0., 0., 0.,
          2.64142132e+001, 2.03431454e+001, 2.18284264e+001, 8., 0., 0.,
          2., 2.58578634e+000, 1.28284273e+001, 2.31005058e+001,
          4.35749130e+001, 2.59020786e+001, 0., 0., 0., 1., 12.,
          5.58578634e+000, 1.44032917e+001, 3.63138008e+001, 0., 0., 7.,
          2., 7., 1., 0., 0., 0., 2.37445374e+001, 2.17148132e+001, 2.,
          3., 2., 1.04142132e+001, 8.95229053e+000, 0., 5.40964365e+000,
          2.98267845e-002, 0., 0., 0., 0., 1.78506584e+001, 0., 0., 0.,
          0., 0., 0., 0., 0., 0., 8.09888935e+000, 1.59011106e+001, 0.,
          0., 0., 3., 0., 0., 7.36321259e+000, 1.36367874e+001, 0., 0.,
          0., 0., 0., 0., 0., 0., 0., 0., 0., 0., 0., 0., 0., 0., 0., 0.,
          0., 0., 0., 0., 3.71168303e+000, 8.28831673e+000, 0., 0., 0.,
          1., 0., 0., 0., 0., 0., 0., 0., 0., 0., 0., 0., 0., 0., 0., 0.,
          0., 0., 0., 0., 0., 0., 0., 0., 0., 0., 0., 4.39938354e+000,
          1.43585024e+001, 2.42114723e-001, 1., 0., 0., 0., 0., 0., 1.,
          0., 0., 0., 0., 0., 0., 0., 0., 0., 0., 0., 0., 0., 0., 0., 0.,
          0., 0., 0., 0., 0., 0., 6.39768505e+000, 1.68183498e+001,
          4.78396606e+000, 2., 0., 0., 0., 0., 6.55344915e+000,
          2.38410778e+001, 1.82592125e+001, 1.48679981e+001,
          2.41421366e+000, 2., 0., 0., 0., 0., 1.62565649e+000,
          1.37434351e+000, 0., 0., 0., 0., 0., 0., 0., 0., 0., 0., 0.,
          0., 3.51471853e+000, 1.03553391e+001, 1.11299419e+001, 0.,
          6.00976276e+000, 8.26231480e+000, 1.32548342e+001,
          1.67934647e+001, 1.67962277e+000, 3.61191521e+001,
          1.48097792e+001, 9.94112587e+000, 1.65803070e+001,
          2.54963613e+000, 2.42093639e+001, 1.09622097e+001,
          2.07106781e+000, 9.64981556e+000, 2.10754418e+000, 0.,
          3.51471853e+000, 4.14213562e+000, 2.34314585e+000, 0., 0.,
          5.85786462e-001, 1.73969688e+001, 4.79724274e+001,
          1.04481554e+000, 0., 5.68629169e+000, 3.10660172e+001,
          9.17252808e+001, 5.22407770e-001, 0., 5.85786438e+000,
          4.22497826e+001, 1.15578644e+002, 5.31370831e+000, 0.,
          3.92893219e+000, 3.72792196e+000, 4.34314585e+000, 0., 0., 0.,
          1.69827557e+001, 3.29724274e+001, 1.04481554e+000, 0.,
          3.34314585e+000, 2.48528137e+001, 6.22147636e+001,
          2.45892754e+001, 0., 5.85786462e-001, 1.15979795e+001,
          3.23249054e+001, 3.24913292e+001, 6.38697922e-001,
          5.46180725e+000, 3.31370854e+000, 5.85786462e-001, 0.,
          1.94640865e+001, 2.10090008e+001, 1.69827557e+001,
          1.38319359e+001, 7.12219775e-001, 5.30301857e+000,
          1.69698119e+000, 2.48528147e+000, 1.54617176e+001,
          2.20530014e+001, 0., 0., 0., 0., 0., 2.02836227e+001,
          3.71637821e+000, 8.28427136e-001, 2.17157292e+000, 0.,
          1.75000591e+001, 3.49994159e+000, 0., 0., 0., 0., 0., 0., 0.,
          0., 0., 0., 0., 0., 0., 1.04761448e+001, 1.52385497e+000,
          4.14213568e-001, 5.85786462e-001, 0., 0., 0., 0., 0., 0., 0.,
          0., 0., 0., 0., 0., 0., 0., 0., 0., 1.65566254e+001,
          2.44337416e+000, 0., 0., 0., 8.21307123e-001, 1.78692877e-001,
          0., 0., 0., 0., 0., 0., 0., 0., 0., 0., 0., 0., 0.,
          1.34080954e+001, 1.08639832e+001, 3.72792196e+000, 0., 0.,
          4.31869621e+001, 1.11561852e+001, 3.31370854e+000,
          3.34314585e+000, 0., 1.31018150e+000, 6.89818501e-001, 0., 0.,
          0., 0., 0., 0., 0., 0., 0., 8.02943707e+000, 8.28427124e+000,
          4.68629169e+000, 0., 0., 0., 1.53259020e+001, 5.35280762e+001,
          1.31460209e+001, 0., 0., 6.62741709e+000, 2.89722042e+001,
          5.74003792e+001, 0., 0., 0., 1.42391558e+001, 4.27608452e+001,
          0., 1.75735927e+000, 5.38477612e+000, 8.85786438e+000, 0., 0.,
          1.32010098e+001, 1.65685425e+001, 1.72304478e+001, 0., 0.,
          1.26152239e+001, 3.43797264e+001, 6.37438469e+001,
          2.61203885e-001, 0., 1.64730873e+001, 4.05929298e+001,
          1.04139496e+002, 7.79448557e+000, 0., 7.61522388e+000,
          6.21320343e+000, 1.17157292e+000, 0., 0., 6.85786438e+000,
          2.27817459e+001, 2.93603897e+001, 0., 3.42708435e+001,
          1.43443804e+001, 2.15391045e+001, 2.48456707e+001, 0.,
          4.57157326e+001, 1.59705601e+001, 1.07695522e+001,
          1.15441561e+001, 0., 0., 1.17157292e+000, 4.97056293e+000,
          5.85786438e+000, 0., 1.80240860e+001, 2.24490013e+001,
          1.24264069e+001, 4.10050488e+000, 0., 4.81357994e+001,
          1.20357742e+001, 8.28427136e-001, 0., 0., 0., 0., 0., 0., 0.,
          1.29644594e+001, 5.79289961e+000, 1.24264073e+000, 0., 0.,
          1.05985165e+001, 3.98726964e+000, 4.14213568e-001, 0., 0., 0.,
          0., 0., 0., 0., 0., 0., 0., 0., 0., 6.17778158e+000,
          2.82221866e+000, 0., 0., 0., 0., 0., 0., 0., 0., 0., 0., 0.,
          0., 0., 0., 0., 0., 0., 0., 8.10097980e+000, 2.89902020e+000,
          8.28427136e-001, 3.17157292e+000, 0., 0., 0., 0., 0., 0., 0.,
          0., 0., 0., 0., 0., 0., 0., 0., 0., 6.33562899e+000,
          6.35066271e+000, 6.21320343e+000, 4.33962631e+000,
          7.60878861e-001, 9.21738529e+000, 2.78261495e+000,
          3.72792196e+000, 1.18957148e+001, 2.63763638e+001, 0., 0., 0.,
          1.08448160e+000, 1.91551840e+000, 0., 0., 0., 0., 0. ]
      - [ 0., 2.17157292e+000, 8.07106781e+000, 1.33431454e+001,
          5.24264050e+000, 2.17157292e+000, 0., 0., 0., 1.,
          3.39286184e+000, 3.53544960e+001, 3.40810699e+001,
          3.17157292e+000, 4.14213568e-001, 5.85786462e-001, 0., 1., 1.,
          1.82005615e+001, 2.73852253e+001, 4.14213568e-001, 0., 0., 0.,
          2.16474128e+000, 1.40366640e+001, 1.07644796e+001,
          1.37329283e+001, 1.30118775e+000, 2., 0., 0., 3.17157292e+000,
          5.65685415e+000, 8.34314537e+000, 5.82842731e+000, 1., 1., 0.,
          0., 0., 8.41421318e+000, 9.75735950e+000, 3.06568546e+001,
          1.07573595e+001, 4.41421366e+000, 1., 0., 4., 5.82842731e+000,
          2.10709419e+001, 3.10935097e+001, 1.63502655e+001,
          2.38994942e+001, 1.07573595e+001, 0., 9.28433323e+000,
          1.55001364e+001, 1.90800724e+001, 2.81989269e+001,
          5.12875214e+001, 5.47933273e+001, 2.72599030e+001, 0., 0., 6.,
          4.58578634e+000, 2.82842708e+000, 5.58578634e+000, 1., 0., 0.,
          0., 0., 0., 8., 2., 5., 1.86916866e+001, 0., 1.47548056e+001,
          7.26393747e+000, 0., 0., 6.75417423e-001, 8.83930111e+000,
          1.06414328e+001, 0., 5.01473999e+000, 6.79622769e-001, 0., 0.,
          1.58578646e+000, 9.07895851e+000, 2.39824734e+001, 0.,
          4.58713150e+000, 4.21708965e+000, 2., 2., 0., 1.,
          1.66487026e+000, 0., 3.76988113e-001, 0., 0., 0., 0., 0.,
          8.28919792e+000, 0., 0., 0., 0., 0., 0., 0., 0., 0., 0., 0.,
          0., 0., 0., 0., 0., 9.12851238e+000, 6.15125465e+000, 2.,
          7.58578634e+000, 1.41421354e+000, 0., 1.67817247e+000,
          2.04206038e+000, 0., 6.54863405e+000, 0., 0., 0., 0., 0., 0.,
          0., 0., 0., 0., 0., 0., 0., 0., 0., 0., 0., 0., 0., 0., 0., 0.,
          0., 9.93931961e+000, 9.29257870e+000, 9.26845521e-002, 0., 1.,
          2., 2.58578634e+000, 0., 4.08609056e+000, 1.08908815e+001,
          2.30274629e-002, 0., 0., 0., 0., 0., 0., 0., 0., 0., 0., 0.,
          0., 0., 0., 0., 0., 0., 0., 0., 0., 0., 8.20282638e-001,
          1.35060472e+001, 6.53274298e+000, 4.14092731e+000, 4., 1., 0.,
          0., 2.38654804e+000, 1.12267389e+001, 8.70039654e+000,
          6.86316133e-001, 0., 0., 0., 0., 0., 0., 0., 0., 0., 0., 0.,
          0., 0., 0., 0., 0., 0., 0., 0., 0., 1., 2.58630657e+000,
          5.52720737e+000, 9.40889359e+000, 8.47759247e+000, 1., 1., 0.,
          0., 4.82006550e+000, 1.50968618e+001, 1.36688595e+001,
          4.14213568e-001, 0., 0., 0., 0., 0., 0., 0., 0., 0., 0., 0.,
          0., 0., 0., 0., 0., 0., 0., 0., 1.73725834e+001,
          7.87005758e+000, 1.75735927e+000, 0., 2.55925102e+001,
          2.51942863e+001, 7.87005758e+000, 3.34314585e+000, 0.,
          2.65817623e+001, 9.58981037e+000, 1.24264073e+000,
          5.85786462e-001, 0., 2.53519974e+001, 7.64800167e+000, 0.,
          5.18695116e+000, 1.81304884e+000, 0., 1.30294371e+001,
          5.79898977e+000, 1.17157292e+000, 0., 0., 1.15441561e+001,
          1.36690474e+001, 1.07867966e+001, 0., 8.09256434e-001,
          2.05927639e+001, 2.52670269e+001, 4.03943329e+001,
          9.36621308e-001, 2.27181530e+001, 2.78970718e+001,
          1.32548342e+001, 7.38043900e+001, 6.43255539e+001, 0.,
          7.27207804e+000, 6.62741709e+000, 4.10050488e+000, 0., 0., 0.,
          4.14213562e+000, 1.60355282e+001, 2.58223362e+001,
          1.70888023e+001, 1.05974884e+001, 7.04163074e+000,
          1.65912323e+001, 1.06808453e+001, 5.60556316e+000,
          4.39443684e+000, 4.14213568e-001, 2.12102795e+001,
          2.53755074e+001, 4.00005150e+000, 7.10045338e+000,
          3.31370854e+000, 2.76447940e+000, 8.21307123e-001,
          1.25351477e+000, 7.46485233e-001, 4.14213568e-001,
          4.79270172e+000, 1.27930851e+001, 0., 0., 0., 0., 0., 0., 0.,
          0., 0., 0., 7.43554592e+000, 1.15938911e+001, 5.38477612e+000,
          1.82446229e+000, 2.76132417e+000, 9.27933025e+000,
          2.72066951e+000, 0., 0., 0., 0., 0., 0., 0., 0., 0., 0., 0.,
          0., 0., 1.21764965e+001, 6.16664886e+000, 4.14213562e+000,
          3.51471853e+000, 0., 1.24363365e+001, 2.56366396e+000, 0., 0.,
          0., 0., 0., 0., 0., 0., 0., 0., 0., 0., 0., 1.00022249e+001,
          1.03409204e+001, 3.72792196e+000, 2.92893219e+000, 0.,
          1.93368549e+001, 3.66314507e+000, 0., 0., 0., 0., 0., 0., 0.,
          0., 0., 0., 0., 0., 0., 4.72012091e+000, 3.62302494e+000,
          4.55634928e+000, 9.10050488e+000, 0., 2.22894058e+001,
          5.71059465e+000, 0., 1., 0., 0., 0., 0., 0., 0., 0., 0., 0.,
          0., 0., 0., 1.75735927e+000, 8.28427124e+000, 1.49583693e+001,
          0., 0., 1.75735927e+000, 8.69848442e+000, 3.04040966e+001,
          3.61400604e+001, 0., 1.17157292e+000, 8.28427136e-001,
          7.83781147e+000, 3.81621895e+001, 4.17615223e+000,
          1.82384765e+000, 0., 6.25702095e+000, 2.47429790e+001, 0.,
          2.34314585e+000, 6.62741709e+000, 1.10294371e+001, 0., 0.,
          3.51471853e+000, 1.94680367e+001, 3.47560387e+001,
          2.61203885e-001, 5.22407770e-001, 1.67791080e+001,
          3.02375908e+001, 4.66715660e+001, 3.78933001e+000,
          2.00714092e+001, 3.47153854e+001, 1.61543293e+001,
          7.38839874e+001, 5.11748848e+001, 0., 0., 4.14213562e+000,
          8.85786438e+000, 0., 3.76463013e+001, 1.60399914e+001,
          7.04163074e+000, 6.27207804e+000, 0., 3.96331863e+001,
          2.06388912e+001, 4.55634928e+000, 1.17157292e+000, 0.,
          3.87277832e+001, 1.64437904e+001, 1.24264073e+000,
          2.58578634e+000, 0., 7.12839937e+000, 1.12147465e+001,
          2.89949489e+000, 2.75735927e+000, 0., 2.44705849e+001,
          3.52941513e+000, 0., 0., 0., 0., 0., 0., 0., 0., 0., 0., 0.,
          0., 0., 1.41850071e+001, 3.40077925e+000, 3.31370854e+000,
          6.10050488e+000, 0., 1.49895859e+001, 3.01041436e+000, 0., 0.,
          0., 0., 0., 0., 0., 0., 0., 0., 0., 0., 0., 8.10055351e+000,
          9.58573818e+000, 4.55634928e+000, 1.75735927e+000, 0.,
          5.84362268e+000, 2.15637732e+000, 4.14213568e-001,
          5.85786462e-001, 0., 0., 0., 0., 0., 0., 0., 0., 0., 0., 0.,
          1.80925643e+000, 1.19074357e+000, 5.38477612e+000,
          1.03692617e+001, 3.24596214e+000, 4.55642176e+000,
          1.44357800e+000, 4.14213568e-001, 2.55717564e+000,
          9.02861118e+000, 0., 0., 0., 0., 0., 0., 0., 0., 0., 0., 0.,
          1.17157292e+000, 4.55634928e+000, 1.78239937e+001,
          4.44808388e+000, 0., 0., 0., 5.91138601e+000, 2.60886135e+001,
          0., 0., 0., 0., 0., 0., 0., 0., 0., 0. ]
      - [ 0., 0., 2., 6.58578634e+000, 8.82842731e+000, 3.58578634e+000,
          0., 1., 0., 0., 1., 1.87889900e+001, 4.46331291e+001,
          1.21636677e+001, 2.41421366e+000, 1., 0., 0., 0.,
          1.74890289e+001, 5.70890312e+001, 1.42193985e+000, 1., 1., 0.,
          0., 8.29795265e+000, 1.39019461e+001, 1.16320267e+001,
          1.68074355e-001, 0., 0., 0., 1., 7., 3., 1.14142132e+001,
          1.58578646e+000, 2., 0., 0., 4., 6., 6., 3.14142132e+001,
          9.58578682e+000, 7., 1., 0., 4.17157269e+000, 7., 13.,
          4.65210571e+001, 2.04789429e+001, 14., 9.17157269e+000, 0.,
          4.58578634e+000, 4.24303818e+000, 7.90598679e+000,
          4.37436028e+001, 7.94571228e+001, 6.07505188e+001,
          1.13139458e+001, 0., 3.48528147e+000, 1., 2., 4., 2.,
          2.41421366e+000, 5.85631180e+000, 0., 5.49015760e+000, 0., 0.,
          0., 0., 6.75417423e-001, 8.10241604e+000, 0., 1.62498608e+001,
          7.70747709e+000, 0., 0., 0., 5.36258459e+000, 2.31118259e+001,
          0., 1.13018723e+001, 7.08902979e+000, 0., 0., 0.,
          1.02982676e+000, 2.04016800e+001, 0., 1.07004486e-001, 1., 0.,
          1., 0., 0., 1.30621836e-001, 0., 0., 0., 0., 0., 0., 0., 0.,
          0., 0., 0., 0., 0., 0., 0., 0., 0., 0., 0., 0., 0., 0., 0., 0.,
          0., 7.58780181e-001, 1., 0., 0., 0., 0., 0., 0., 0., 0., 0.,
          0., 0., 0., 0., 0., 0., 0., 0., 0., 0., 0., 0., 0., 0., 0., 0.,
          0., 0., 0., 0., 0., 1.50368681e+001, 2.11884236e+000, 0., 0.,
          0., 1., 0., 2.75062770e-002, 4.61035633e+000, 1.36213732e+000,
          0., 0., 0., 0., 0., 0., 0., 0., 0., 0., 0., 0., 0., 0., 0., 0.,
          0., 0., 0., 0., 0., 6.34694755e-001, 4.11747217e+000,
          7.30909538e+000, 7.93873787e+000, 6., 3., 2., 0., 0.,
          5.93448877e+000, 3.16587849e+001, 2.40672708e+000, 0., 0., 3.,
          0., 0., 0., 0., 0., 0., 0., 0., 0., 0., 0., 0., 0., 0., 0., 0.,
          0., 0., 0., 1., 8.75735950e+000, 7.65685415e+000,
          3.17157292e+000, 2.41421366e+000, 0., 0., 1.58578646e+000,
          1.49436331e+001, 2.95209637e+001, 2.25354042e+001, 4.,
          7.41421366e+000, 2.58578634e+000, 0., 0., 0., 2.58699107e+000,
          9.41300869e+000, 0., 0., 0., 0., 0., 0., 0., 0., 0., 0., 0.,
          0., 5.68629169e+000, 5.38477612e+000, 2.92893219e+000, 0.,
          2.64620733e+000, 1.46553078e+001, 1.57401152e+001,
          1.29583693e+001, 0., 2.23455944e+001, 1.75122700e+001,
          6.62741709e+000, 8.46990299e+000, 1.04481554e+000,
          2.35002861e+001, 5.49971437e+000, 4.14213568e-001,
          5.85786462e-001, 0., 0., 6.85786438e+000, 5.79898977e+000,
          2.34314585e+000, 0., 0., 9.37258339e+000, 1.40832615e+001,
          1.05441561e+001, 0., 0., 1.50588741e+001, 2.73380947e+001,
          2.93418274e+001, 2.61203885e-001, 4.48352861e+000,
          1.37174816e+001, 2.31959591e+001, 9.54804153e+001,
          5.91226158e+001, 0., 4.51471853e+000, 5.38477612e+000,
          7.88290501e+000, 8.21759987e+000, 5.22434330e+000,
          3.53301597e+000, 4.14213562e+000, 1.10629463e+001,
          1.00375586e+001, 2.08063641e+001, 6.77942324e+000,
          6.21320343e+000, 2.09162273e+001, 1.52847824e+001,
          1.58966761e+001, 4.68911028e+000, 3.72792196e+000,
          1.32246799e+001, 1.84616127e+001, 0., 2.34314585e+000,
          2.07106781e+000, 1.07106781e+000, 5.14718652e-001, 0., 0., 0.,
          0., 0., 0., 0., 0., 0., 0., 0., 0., 0., 0., 0.,
          2.08544040e+000, 2.08613253e+000, 8.28427136e-001, 0., 0., 0.,
          0., 0., 0., 0., 0., 0., 0., 0., 0., 0., 0., 0., 0., 0.,
          1.62891273e+001, 5.29665995e+000, 8.28427136e-001,
          5.85786462e-001, 0., 4.27568102e+000, 1.72431874e+000, 0., 0.,
          0., 0., 0., 0., 0., 0., 0., 0., 0., 0., 0., 3.62608314e+000,
          1.09891405e+001, 7.45584393e+000, 2.92893219e+000, 0.,
          3.48252563e+001, 4.76052856e+000, 1.65685427e+000,
          1.75735927e+000, 0., 0., 0., 0., 0., 0., 0., 0., 0., 0., 0.,
          0., 7.44365072e+000, 6.62741709e+000, 3.92893219e+000, 0.,
          3.62982826e+001, 1.55595818e+001, 9.52691174e+000,
          8.61522388e+000, 0., 3.18677020e+000, 1.81322992e+000, 0., 0.,
          0., 0., 0., 0., 0., 0., 0., 5.85786462e-001, 6.62741709e+000,
          1.27867966e+001, 0., 0., 3.92893219e+000, 2.11248913e+001,
          4.73578262e+001, 9.58834839e+000, 6.75417423e-001,
          4.83930111e+000, 4.97056293e+000, 1.54948635e+001,
          5.80198555e+001, 0., 0., 0., 6.36269951e+000, 2.46373005e+001,
          0., 5.85786462e-001, 4.97056293e+000, 1.14436512e+001, 0., 0.,
          6.44365072e+000, 2.02964649e+001, 3.12598839e+001, 0., 0.,
          1.43725834e+001, 3.23086586e+001, 5.31933517e+001,
          1.12540734e+000, 2.49615550e+000, 2.05332813e+001,
          2.11248913e+001, 1.17345276e+002, 3.65003967e+001,
          1.24711189e+001, 5.04359961e+000, 5.38477612e+000,
          5.10050488e+000, 0., 3.71769447e+001, 1.57519884e+001,
          2.07106781e+000, 0., 0., 4.30011101e+001, 2.62709694e+001,
          3.72792196e+000, 0., 0., 4.40449562e+001, 1.47124023e+001,
          1.24264073e+000, 0., 0., 1.64241810e+001, 1.57581890e+000,
          4.14213568e-001, 5.85786462e-001, 0., 0., 0., 0., 0., 0., 0.,
          0., 0., 0., 0., 0., 0., 0., 0., 0., 1.60516472e+001,
          2.53414011e+000, 4.14213568e-001, 0., 0., 0., 0., 0., 0., 0.,
          0., 0., 0., 0., 0., 0., 0., 0., 0., 0., 1.86186352e+001,
          4.55293751e+000, 8.28427136e-001, 0., 0., 3.69801044e+000,
          1.30198944e+000, 0., 0., 0., 0., 0., 0., 0., 0., 0., 0., 0.,
          0., 0., 1.95127344e+000, 3.22029948e+000, 7.45584393e+000,
          1.23725834e+001, 0., 1.09384232e+001, 3.64736342e+000,
          1.65685427e+000, 3.25734901e+000, 4.50001001e+000, 0., 0., 0.,
          0., 0., 0., 0., 0., 0., 0., 0., 0., 5.38477612e+000,
          1.43540201e+001, 2.61203885e-001, 0., 4.51471853e+000,
          9.94112587e+000, 2.17289734e+001, 3.48151817e+001, 0., 0., 0.,
          2.82903314e+000, 9.17096710e+000, 0., 0., 0., 0., 0. ]
      - [ 0., 1., 2., 2., 7., 4., 7., 1., 0., 7.58578634e+000,
          6.41421366e+000, 2., 16., 13., 6., 6.21627569e+000, 0.,
          2.03309345e+001, 1.61744595e+001, 1.28489494e+001,
          4.14645767e+001, 3.31202221e+000, 7.24264050e+000,
          2.58578634e+000, 0., 1.58065195e+001, 2.65450954e+001,
          3.19757175e+000, 4.41708450e+001, 6.52362671e+001,
          2.22346745e+001, 9.80626774e+000, 0., 3., 3.41421366e+000,
          1.17157292e+000, 4.41421366e+000, 5.17157269e+000,
          4.82842731e+000, 0., 0., 2., 9., 3., 21., 3., 16., 3., 0.,
          2.33431454e+001, 1.34142132e+001, 5., 1.48284273e+001,
          2.23431454e+001, 1.88284264e+001, 10., 0., 1., 4., 2.,
          3.35165443e+001, 1.03117218e+002, 5.24600792e+001,
          2.90616369e+000, 0., 0., 4., 2., 9., 3., 0., 0., 0.,
          4.76052277e-002, 5., 4.58578634e+000, 2.18284264e+001,
          1.65857868e+001, 4., 5.09396505e+000, 0., 0., 1., 1., 22., 7.,
          6.41421366e+000, 1.90789013e+001, 0., 0., 0., 0., 0., 1.,
          1.08284273e+001, 2.23138142e+001, 0., 2.20481202e-001,
          3.62290072e+000, 5.15661812e+000, 1.32426405e+001,
          3.75735927e+000, 1., 0., 0., 0., 0., 0., 1., 2., 6.,
          2.25218887e+001, 0., 0., 0., 0., 0., 0., 0., 0., 0., 0., 0.,
          0., 0., 0., 0., 0., 0., 5.04974127e+000, 5.46345568e+000,
          8.95063782e+000, 2.36180115e+000, 1.90743566e-001, 0.,
          8.91587555e-001, 0., 1., 2.16479874e+000, 2.62280483e+001,
          1.34733152e+001, 3.13383889e+000, 2.82842708e+000,
          2.51670628e+001, 0., 6.54490948e+000, 7.16045809e+000,
          1.62213097e+001, 1.08584785e+000, 0., 0., 1.92156658e+001, 0.,
          0., 0., 0., 0., 0., 0., 0., 0., 0., 0., 5.85786462e-001,
          3.41421366e+000, 0., 4., 7.19654417e+000, 0., 2.79770732e+000,
          4.14213568e-001, 4.36940432e+000, 1.20028706e+001,
          6.62772560e+000, 3., 1.30922976e+001, 0., 1.16807437e+000, 1.,
          1.68161659e+001, 2.61209812e+001, 2.47706628e+000,
          1.77653003e+000, 1.11506166e+001, 0., 4.63528490e+000,
          1.41220245e+001, 4.44200850e+000, 5.16281939e+000, 0., 0.,
          1.40142763e+000, 0., 2.89554524e+000, 4.70322084e+000,
          7.30573320e+000, 7.34672642e+000, 2.16807437e+000, 1., 0., 0.,
          6.47234774e+000, 1.76075971e+000, 1.00580759e+001,
          2.18259487e+001, 3.76942968e+000, 3.41421366e+000,
          8.08857918e+000, 0., 7.42663145e+000, 0., 7.98885202e+000,
          3.76221390e+001, 2.38900852e+000, 1., 1.23492174e+001, 0.,
          1.76791706e+001, 2.22640781e+001, 2.10585423e+001,
          2.90831795e+001, 2.10991859e+000, 4.67541742e+000,
          3.49364161e+000, 0., 1.55204570e+000, 4.63869810e+000, 3., 3.,
          0., 2., 0., 0., 9.03301144e+000, 8.02578831e+000,
          9.93298244e+000, 2.18847713e+001, 2.48755002e+000,
          4.26120377e+000, 6.57881498e+000, 0., 6.42410326e+000, 0.,
          5.02475321e-001, 5.58173599e+001, 9.68016338e+000,
          5.41421366e+000, 9.52537251e+000, 0., 0., 0., 1.65302849e+000,
          2.25362644e+001, 3.81070638e+000, 0., 0., 0., 2.92893219e+000,
          7.04163074e+000, 7.02943707e+000, 0., 0., 1.03725834e+001,
          1.82253971e+001, 1.64020195e+001, 0., 3.44375954e+001,
          2.60354939e+001, 1.53259020e+001, 1.32010098e+001, 0.,
          3.63782654e+001, 1.09648809e+001, 1.65685425e+001,
          4.48815308e+001, 6.32067833e+001, 0., 5.51471853e+000,
          4.97056293e+000, 7.25351477e+000, 2.61203885e-001, 0.,
          8.20100975e+000, 1.49116879e+001, 1.28873014e+001, 0., 0.,
          2.64314575e+001, 3.56223679e+001, 3.29461746e+001, 0., 0.,
          4.10050488e+000, 2.36101723e+001, 1.07444923e+002,
          4.38443947e+001, 0., 3.51471853e+000, 3.72792196e+000,
          1.75735927e+000, 0., 0., 7.02943707e+000, 1.61543293e+001,
          1.78796501e+001, 3.93658304e+000, 0., 1.17157292e+000,
          8.28427124e+000, 2.58194294e+001, 2.57247257e+001, 0., 0.,
          2.89949489e+000, 2.33614063e+001, 2.37390995e+001,
          2.65323281e+000, 4.27569962e+000, 4.55634928e+000,
          3.51471853e+000, 0., 0., 0., 4.55634928e+000, 1.65387459e+001,
          2.79049053e+001, 0., 0., 0., 0., 0., 0., 0., 0., 0., 0.,
          1.72885742e+001, 5.88299847e+000, 1.24264073e+000,
          2.01565123e+000, 1.57013524e+000, 3.00722942e+001,
          9.51349163e+000, 2.89949489e+000, 2.20428181e+001,
          2.04719009e+001, 2.86379948e+001, 6.36200619e+000, 0.,
          1.04236832e+001, 2.25763168e+001, 0., 0., 0., 0., 0., 0.,
          5.85786462e-001, 4.55634928e+000, 9.72351170e+000,
          7.13435316e+000, 7.26424265e+000, 6.90733051e+000,
          9.52691174e+000, 1.95212727e+001, 1.47802429e+001,
          2.46045456e+001, 1.11528149e+001, 4.55634928e+000,
          1.98677883e+001, 1.48185024e+001, 2.28157387e+001,
          4.77004862e+000, 4.14213568e-001, 4.64259654e-001,
          2.53574038e+000, 1.29106598e+001, 8.60405922e+000,
          4.14213562e+000, 2.34314585e+000, 0., 2.52397995e+001,
          1.56891336e+001, 8.69848442e+000, 1.94281044e+001,
          3.94447923e+000, 2.50299702e+001, 2.19994659e+001,
          1.36690474e+001, 3.23890839e+001, 8.91242981e+000,
          6.87584457e+001, 1.94131260e+001, 4.97056293e+000,
          1.75966606e+001, 2.61203885e-001, 6.38697922e-001,
          6.04759359e+000, 4.14213562e+000, 1.17157292e+000, 0.,
          1.85684223e+001, 1.78041611e+001, 1.40832615e+001,
          1.42829523e+001, 2.61203885e-001, 6.87546825e+000,
          1.35681829e+001, 1.24264069e+001, 2.50587120e+001,
          1.70712299e+001, 2.57498646e+000, 1.59658635e+000,
          1.24264073e+000, 2.65340900e+000, 6.93237734e+000, 0.,
          1.17157292e+000, 6.21320343e+000, 7.61522388e+000, 0.,
          2.03712630e+000, 1.45070295e+001, 1.98822517e+001,
          1.85735931e+001, 0., 2.26295242e+001, 1.40567665e+001,
          9.94112587e+000, 1.84512615e+001, 3.59213219e+001,
          2.02963524e+001, 2.06620178e+001, 1.20121937e+001,
          3.96424866e+001, 7.43869476e+001, 0., 2.92893219e+000,
          6.62741709e+000, 8.18244648e+000, 2.61203885e-001, 0.,
          3.51471853e+000, 1.36690474e+001, 1.58162336e+001, 0., 0.,
          3.29461746e+001, 3.52081528e+001, 2.68456707e+001, 0., 0.,
          4.10050488e+000, 2.69238815e+001, 9.49040680e+001,
          4.00715408e+001, 0., 0., 4.97056293e+000, 8.76823330e+000,
          2.61203885e-001, 1.92811279e+001, 7.81937742e+000,
          1.78111839e+001, 2.80883121e+001, 0., 4.28262520e+001,
          1.32742519e+001, 1.49116879e+001, 1.79878063e+001, 0.,
          3.72028580e+001, 1.18976460e+001, 3.31370854e+000,
          5.85786462e-001, 0., 0., 1.17157292e+000, 7.04163074e+000,
          1.72643890e+001, 5.22407770e-001, 3.98578453e+001,
          8.31372738e+000, 2.07106781e+000, 1.75735927e+000, 0., 0., 0.,
          0., 0., 0., 0., 0., 0., 0., 0., 1.26718664e+001,
          3.91392040e+000, 8.28427136e-001, 2.58949876e+000,
          1.09962873e+001, 2.63569469e+001, 1.45719852e+001,
          2.48528147e+000, 9.21748638e+000, 3.43683014e+001,
          4.33985748e+001, 1.16014242e+001, 0., 3.31075859e+000,
          1.66892414e+001, 0., 0., 0., 0., 0., 1.25688887e+001,
          5.18847036e+000, 2.48528147e+000, 2.75735927e+000, 0.,
          3.60957298e+001, 1.12474165e+001, 3.72792196e+000,
          8.63690948e+000, 1.22920227e+001, 3.62930145e+001,
          8.29277039e+000, 1.65685427e+000, 8.61458778e+000,
          3.61427727e+001, 1.49337978e+001, 4.65198851e+000,
          4.14213568e-001, 2.16593122e+000, 9.83406830e+000,
          6.90651035e+000, 1.67927611e+000, 2.07106781e+000,
          8.50069618e+000, 8.84244919e+000, 3.19931622e+001,
          1.55215569e+001, 3.31370854e+000, 7.14774895e+000,
          2.80238247e+001, 6.48743439e+001, 2.37114410e+001,
          8.28427136e-001, 5.94895935e+000, 4.16368256e+001,
          4.33060379e+001, 1.28655338e+001, 1.65685427e+000,
          9.38605499e+000, 4.57855186e+001, 6.38697922e-001,
          4.87602091e+000, 4.97056293e+000, 3.51471853e+000, 0.,
          1.55291071e+001, 1.39856119e+001, 8.69848442e+000,
          1.44917412e+001, 1.62950554e+001, 1.55297832e+001,
          2.56001587e+001, 7.87005758e+000, 8.08932114e+000,
          5.79106789e+001, 0., 0., 0., 4.17875385e+000, 2.38212471e+001 ]
      - [ 0., 0., 1.41421354e+000, 3.17157292e+000, 5.41421366e+000, 1.,
          4., 1., 0., 6.17157269e+000, 6., 4., 1.58284273e+001,
          1.17573595e+001, 5.41421366e+000, 2.17157292e+000, 0.,
          2.97652264e+001, 2.27315884e+001, 1.27898502e+001,
          4.44164505e+001, 4.91859198e+000, 3., 1., 0., 1.53011351e+001,
          2.64555206e+001, 1.11001527e+000, 3.12867889e+001,
          7.73770752e+001, 2.07619095e+001, 7.17157269e+000, 0., 0., 2.,
          3., 11., 4., 2., 0., 0., 3., 4., 6., 13., 4., 4., 0., 0.,
          1.11715727e+001, 16., 6., 12., 13., 23., 11., 0., 1., 0.,
          4.02805185e+000, 3.17124424e+001, 1.02172539e+002,
          5.05011787e+001, 7.58578634e+000, 0., 0., 2.41421366e+000,
          8.58578682e+000, 4., 1., 1., 1., 0., 2.04016352e+000, 1., 6.,
          16., 9.58578682e+000, 4.82842731e+000, 6.71754026e+000, 0., 1.,
          1., 1., 8., 10., 1.04142132e+001, 2.28702297e+001, 0.,
          1.27531505e+000, 0., 0., 0., 0., 9.48331642e+000,
          2.19121284e+001, 0., 0., 2.05854487e+000, 4.52724171e+000,
          5.41421366e+000, 2., 3., 0., 0., 1.74443352e+000, 0., 0., 0.,
          0., 2.35770130e+000, 1.66584530e+001, 0., 0., 0., 0., 0., 0.,
          0., 0., 0., 0., 0., 0., 0., 0., 0., 0., 5.50572968e+000,
          4.55845547e+000, 4.69800663e+000, 1.28190346e+001,
          4.64305639e-001, 0., 0., 2.95446873e+000, 0., 2.20481202e-001,
          2.75186598e-001, 2.84152184e+001, 9.89538193e+000,
          2.22048116e+000, 6.24066353e+000, 3.07022190e+001, 0.,
          5.85529089e+000, 6.06023932e+000, 1.33718414e+001,
          1.64049435e+000, 0., 1.17157292e+000, 1.21073599e+001, 0., 0.,
          0., 0., 0., 0., 0., 0., 0., 1.15864706e+000, 0., 0., 0., 0.,
          3.82842708e+000, 1.18430519e+001, 0., 4.97497469e-001, 0.,
          5.11768436e+000, 7.97793579e+000, 9.04380083e-001,
          2.41421366e+000, 1.90616226e+001, 0., 1.55433789e-001, 2.,
          1.30348825e+001, 2.69084568e+001, 1.05666065e+000, 1.,
          1.10023184e+001, 0., 6.32594776e+000, 1.27713909e+001,
          6.60959101e+000, 3.28829932e+000, 0., 0., 6.30469471e-002,
          3.45969343e+000, 1.51606250e+000, 2.75320959e+000,
          5.54834890e+000, 1.23474426e+001, 3.00445294e+000, 3.,
          3.70790273e-001, 0., 4.74992228e+000, 0., 1.38563080e+001,
          1.96200066e+001, 1.52368629e+000, 1.41421354e+000,
          1.09543619e+001, 0., 8.62170506e+000, 1.23912120e+000,
          8.82570553e+000, 3.94230270e+001, 7.51268744e-001,
          4.14213568e-001, 1.28613129e+001, 0., 2.09295521e+001,
          2.03026180e+001, 1.96803398e+001, 3.26165886e+001,
          2.43293196e-001, 2.61203885e-001, 7.59878302e+000, 0.,
          6.05938673e+000, 2.91384220e+000, 2.67194438e+000,
          3.41421366e+000, 0., 1., 1.13918900e-001, 0., 7.99745655e+000,
          1.66205788e+001, 7.85204744e+000, 1.84359894e+001,
          9.43979263e+000, 3.82842708e+000, 9.34314537e+000, 0.,
          7.73883104e+000, 0., 6.12525046e-001, 5.68104973e+001,
          9.57697868e+000, 7., 1.18196106e+001, 0., 0., 0.,
          2.19549928e-002, 2.25239201e+001, 4.54125613e-001, 0., 0., 0.,
          3.34314585e+000, 4.14213562e+000, 3.51471853e+000, 0., 0.,
          9.95836926e+000, 1.49116879e+001, 1.31299419e+001, 0.,
          3.75375938e+001, 2.98644276e+001, 1.78111839e+001,
          8.78679657e+000, 0., 3.45195236e+001, 1.08236217e+001,
          1.65685425e+001, 4.74997368e+001, 6.55885773e+001, 0.,
          2.92893219e+000, 4.55634928e+000, 3.51471853e+000, 0., 0.,
          7.61522388e+000, 8.69848442e+000, 4.68629169e+000, 0., 0.,
          2.07451668e+001, 3.10660172e+001, 2.91888161e+001, 0., 0.,
          3.51471853e+000, 2.48528137e+001, 1.09068268e+002,
          4.35642014e+001, 0., 6.85786438e+000, 5.38477612e+000,
          1.75735927e+000, 0., 0., 8.02943707e+000, 1.36690474e+001,
          1.86459923e+001, 5.65552235e+000, 0., 1.75735927e+000,
          1.32548342e+001, 3.26626053e+001, 2.33252029e+001, 0.,
          2.75735927e+000, 5.38477612e+000, 2.24006805e+001,
          2.14571838e+001, 1.66772830e+000, 4.08963108e+000,
          3.31370854e+000, 2.92893219e+000, 0., 0., 2.17157292e+000,
          1.65685427e+000, 9.80402470e+000, 2.53675480e+001, 0., 0., 0.,
          0., 0., 0., 0., 0., 0., 0., 1.95625629e+001, 5.02322340e+000,
          1.24264073e+000, 2.59203124e+000, 2.57954168e+000,
          2.81355495e+001, 9.45023727e+000, 4.55634928e+000,
          2.16687145e+001, 2.41891499e+001, 2.33096371e+001,
          6.86193562e+000, 1.24264073e+000, 8.18836403e+000,
          1.83974228e+001, 0., 0., 0., 0., 0., 0., 1.58578646e+000,
          2.89949489e+000, 1.22701740e+001, 1.02445450e+001,
          7.99878788e+000, 4.00121212e+000, 6.21320343e+000,
          1.85673218e+001, 1.72194748e+001, 2.10278072e+001,
          1.11437664e+001, 3.72792196e+000, 1.90589085e+001,
          1.60415955e+001, 2.45814877e+001, 5.41851330e+000,
          8.28427136e-001, 1.17157292e+000, 0., 8.82322311e+000,
          4.34835005e+000, 4.55634928e+000, 7.44365072e+000,
          8.28427136e-001, 2.31643295e+001, 1.48651075e+001,
          1.20121937e+001, 2.04828205e+001, 6.47554827e+000,
          3.08656597e+001, 2.14774876e+001, 9.11269855e+000,
          2.75987377e+001, 3.94541883e+000, 6.10046463e+001,
          2.03384991e+001, 5.38477612e+000, 1.09116068e+001,
          5.36047125e+000, 2.12993193e+000, 7.14214611e+000,
          4.55634928e+000, 1.17157292e+000, 0., 1.26617489e+001,
          2.07108345e+001, 1.73969688e+001, 1.92304478e+001, 0.,
          6.51461029e+000, 1.05148268e+001, 1.28406200e+001,
          2.63662472e+001, 1.77636967e+001, 0., 5.85786462e-001,
          3.72792196e+000, 7.68629169e+000, 0., 0., 2.92893219e+000,
          5.79898977e+000, 6.27207804e+000, 0., 0., 1.33725834e+001,
          1.86396103e+001, 1.99878063e+001, 0., 2.24238644e+001,
          1.87771454e+001, 1.20121937e+001, 2.24940777e+001,
          3.62927170e+001, 1.71335087e+001, 1.43101416e+001,
          9.94112587e+000, 3.32689972e+001, 7.73462219e+001, 0., 0.,
          7.45584393e+000, 1.05441561e+001, 0., 0., 5.85786438e+000,
          1.32548342e+001, 1.38873014e+001, 0., 0., 3.07746029e+001,
          2.98233757e+001, 1.94020195e+001, 0., 0., 1.00294371e+001,
          2.81665230e+001, 9.21068726e+001, 4.06971703e+001, 0.,
          5.85786462e-001, 6.21320343e+000, 8.20100975e+000, 0.,
          2.26792450e+001, 1.12496862e+001, 1.40832615e+001,
          1.99878063e+001, 0., 4.40012589e+001, 1.65134583e+001,
          9.11269855e+000, 1.23725834e+001, 0., 3.63970642e+001,
          1.41176558e+001, 2.48528147e+000, 0., 0., 0., 5.85786462e-001,
          4.97056293e+000, 9.44365120e+000, 0., 3.92286377e+001,
          9.52872372e+000, 1.24264073e+000, 0., 0., 0., 0., 0., 0., 0.,
          0., 0., 0., 0., 0., 9.97869492e+000, 4.60709143e+000,
          4.14213568e-001, 4.57366419e+000, 1.14263363e+001,
          2.70915413e+001, 1.74231777e+001, 3.31370854e+000,
          9.35464382e+000, 3.18169289e+001, 3.99734001e+001,
          8.19817257e+000, 1.24264073e+000, 2.95136213e+000,
          1.36344242e+001, 0., 0., 0., 0., 0., 1.55911493e+001,
          8.33778286e+000, 2.07106781e+000, 0., 0., 3.77265587e+001,
          1.51313047e+001, 4.14213562e+000, 3.66426659e+000,
          1.03357334e+001, 3.81158447e+001, 1.16415138e+001,
          1.24264073e+000, 6.43179750e+000, 3.45682030e+001,
          1.52501984e+001, 4.33558846e+000, 4.14213568e-001,
          2.84337664e+000, 1.01566229e+001, 5.28524494e+000,
          7.14755177e-001, 2.07106781e+000, 1.08242569e+001,
          1.01046753e+001, 3.45806313e+001, 2.25198746e+001,
          3.31370854e+000, 5.06050014e+000, 2.95252857e+001,
          6.13372726e+001, 2.70058727e+001, 1.65685427e+000,
          6.79127026e+000, 4.22087288e+001, 4.63414917e+001,
          1.85874386e+001, 2.07106781e+000, 7.19105196e+000,
          4.78089485e+001, 2.81347489e+000, 1.10443897e+001,
          6.21320343e+000, 4.92893219e+000, 0., 1.00677137e+001,
          2.15475101e+001, 1.11837664e+001, 2.09495640e+001,
          1.12514467e+001, 1.34202633e+001, 2.44670391e+001,
          9.11269855e+000, 8.75485706e+000, 5.82451439e+001, 0., 0., 0.,
          1.98407280e+000, 2.10159264e+001 ]
      - [ 0., 0., 0., 2., 1.78284264e+001, 7.17157269e+000, 5., 0., 0.,
          0., 5.39276409e+000, 1.79384003e+001, 2.88998718e+001,
          1.59405384e+001, 3.24264073e+000, 1.58578646e+000, 0.,
          2.99442158e+001, 2.02458153e+001, 2.60699711e+001,
          2.40687885e+001, 1.47573595e+001, 3.82842708e+000, 0., 0.,
          2.24294548e+001, 1.46746492e+000, 2.02213907e+000,
          6.41018906e+001, 7.23847809e+001, 2.90539932e+000,
          3.17157292e+000, 0., 0., 0., 2.58578634e+000, 1.44852810e+001,
          1.19289322e+001, 0., 0., 0., 5., 6., 1.61344471e+001,
          2.95224075e+001, 1.43431454e+001, 10., 2., 0., 5., 4.,
          2.11005058e+001, 4.45563507e+001, 2.65147190e+001,
          1.38284273e+001, 3., 0., 1.58578646e+000, 6.24264050e+000,
          1.26635227e+001, 4.06673546e+001, 1.10540207e+002,
          4.08152084e+001, 1.48528135e+000, 0., 0., 0., 3.58578634e+000,
          2.30710678e+001, 4.34314585e+000, 0., 0., 0., 0., 0.,
          5.58578634e+000, 3.28284264e+001, 9.58578682e+000, 2.,
          1.16150637e+001, 0., 0., 0., 0., 6., 1.05857868e+001,
          8.82842731e+000, 1.83256836e+001, 0., 2.14964437e+000, 0., 0.,
          0., 0., 5.82842731e+000, 1.34688635e+001, 0., 0.,
          3.41421366e+000, 1.06635227e+001, 8.50804996e+000,
          2.41421366e+000, 2., 1., 0., 0., 1., 2., 4., 3.,
          2.35295129e+000, 3.58952599e+001, 0., 0., 0., 0., 0., 0., 0.,
          0., 0., 0., 0., 0., 0., 0., 0., 0., 0., 2.34216571e+000,
          2.26231527e+000, 4.24705744e+000, 7.26120377e+000, 1., 1.,
          4.62357378e+000, 0., 8.28427136e-001, 3.66728473e+000,
          2.89771442e+001, 9.35557079e+000, 6.34314585e+000,
          5.56432629e+000, 1.74525967e+001, 0., 4.52267313e+000,
          1.18750181e+001, 9.14238930e+000, 4.75247097e+000,
          3.61302108e-001, 2.93873763e+000, 1.82425041e+001, 0., 0., 0.,
          0., 0., 0., 0., 0., 0., 0., 0., 2.58578634e+000,
          1.65080490e+001, 4.90616369e+000, 2., 0., 0., 3.74837494e+000,
          3.94339967e+000, 9.95829487e+000, 2.22102184e+001,
          8.82511997e+000, 5.41421366e+000, 7.67709112e+000, 0.,
          2.96281862e+000, 0., 1.62668476e+001, 2.26968708e+001,
          1.03628230e+000, 3.41421366e+000, 1.34078922e+001, 0.,
          1.11657143e+001, 8.87715530e+000, 7.12802410e+000, 0., 0., 0.,
          4.04641688e-001, 0., 0., 0., 8.58578682e+000, 8.41421318e+000,
          2., 1., 2., 0., 9.90603924e+000, 1.63250458e+000,
          9.28685474e+000, 2.88524570e+001, 7.25573206e+000,
          6.82842731e+000, 9.23810196e+000, 0., 1.45248280e+001, 1.,
          9.62847710e+000, 3.78366127e+001, 1.53491139e+000,
          3.17157292e+000, 8.08598804e+000, 0., 1.32132378e+001,
          1.76904583e+001, 1.96321030e+001, 3.60397835e+001,
          4.48496246e+000, 3.41421366e+000, 3.95080066e+000, 0., 0.,
          1.41421354e+000, 8.17157269e+000, 1.24142132e+001, 3., 2., 0.,
          0., 8.05283737e+000, 9.92519760e+000, 8.94274521e+000,
          2.24006863e+001, 9.81968212e+000, 2., 6.92953968e+000, 0.,
          1.17869282e+000, 0., 1.45928562e-001, 4.46445961e+001,
          1.62094746e+001, 3.41421366e+000, 2.90616369e+000,
          1.73705984e-002, 1.09486265e+001, 1.98434811e+001,
          2.30219221e+000, 8.59739685e+000, 2.29093266e+000, 0., 0., 0.,
          1.17157292e+000, 5.79898977e+000, 8.02943707e+000, 0.,
          1.16270418e+001, 1.38166094e+001, 1.11837664e+001,
          1.55791597e+001, 4.79342318e+000, 4.39503899e+001,
          3.35937653e+001, 1.44974747e+001, 1.29583693e+001, 0.,
          7.20929670e+000, 1.90922184e+001, 1.82253971e+001,
          3.73795395e+001, 6.70935440e+001, 0., 1.75735927e+000,
          6.62741709e+000, 8.61522388e+000, 0., 0., 1.94020195e+001,
          2.31959591e+001, 1.74020195e+001, 0., 0., 2.10883121e+001,
          3.02375908e+001, 2.96740990e+001, 0., 0., 1.51299419e+001,
          2.31959591e+001, 1.12952202e+002, 4.27218933e+001, 0.,
          2.34314585e+000, 4.14213562e+000, 3.51471853e+000, 0., 0.,
          4.68629169e+000, 9.11269855e+000, 1.88322697e+001,
          1.63687401e+001, 0., 0., 9.11269855e+000, 2.56969948e+001,
          2.51903057e+001, 0., 2.34314585e+000, 5.38477612e+000,
          2.26957951e+001, 1.45762835e+001, 0., 1.16152239e+001,
          7.87005758e+000, 3.51471853e+000, 0., 0., 1.75735927e+000,
          3.31370854e+000, 1.26791801e+001, 3.52497520e+001, 0., 0., 0.,
          0., 0., 0., 0., 0., 0., 0., 5.04403830e+000, 4.12753439e+000,
          3.31370854e+000, 5.11122561e+000, 2.40349317e+000,
          3.14517002e+001, 8.13408566e+000, 2.89949489e+000,
          1.98730564e+001, 2.36416626e+001, 2.57951603e+001,
          5.20483971e+000, 8.28427136e-001, 1.24720030e+001,
          1.96995697e+001, 0., 0., 0., 0., 0., 0., 3.17157292e+000,
          4.14213562e+000, 4.68629169e+000, 0., 1.98250256e+001,
          1.29323339e+001, 9.94112587e+000, 2.26044140e+001,
          1.06971016e+001, 2.95367661e+001, 1.20490198e+001,
          5.79898977e+000, 2.72583427e+001, 1.83568802e+001,
          2.64496098e+001, 8.13617706e+000, 4.14213568e-001,
          2.61236286e+000, 1.38763714e+000, 0., 7.27207804e+000,
          6.21320343e+000, 3.51471853e+000, 0., 2.66204739e+001,
          1.07226725e+001, 1.03553391e+001, 2.31602879e+001,
          3.14122772e+000, 3.64073143e+001, 2.08647652e+001,
          9.11269855e+000, 2.17572250e+001, 4.85799837e+000,
          5.77190971e+001, 1.58666916e+001, 3.72792196e+000,
          1.66374378e+001, 4.04885435e+000, 0., 6.27207804e+000,
          5.79898977e+000, 2.92893219e+000, 0., 1.35435238e+001,
          1.63143406e+001, 9.94112587e+000, 1.38018723e+001,
          9.39913750e+000, 4.14213568e-001, 3.75735927e+000,
          4.55634928e+000, 1.77152767e+001, 2.25568008e+001,
          2.83930225e+001, 5.60697746e+000, 0., 1.14983940e+000,
          3.85016060e+000, 0., 0., 7.04163074e+000, 1.99583702e+001, 0.,
          0., 1.17157292e+000, 1.40832615e+001, 3.14137897e+001,
          2.03313751e+001, 2.72332706e+001, 1.33525162e+001,
          1.40832615e+001, 4.56593513e+001, 1.56716022e+001,
          9.27162647e+000, 2.22725296e+001, 1.32548342e+001,
          4.66875687e+001, 8.65134430e+001, 0., 0., 6.21320343e+000,
          2.27867966e+001, 0., 0., 5.27207804e+000, 1.65685425e+001,
          4.48085442e+001, 2.35083485e+000, 0., 7.61522388e+000,
          3.06518040e+001, 6.69493637e+001, 7.83611596e-001, 0.,
          2.75735927e+000, 2.60954552e+001, 1.17332268e+002,
          4.28149147e+001, 0., 0., 6.62741709e+000, 2.38501759e+001,
          5.22407770e-001, 2.77743874e+001, 7.98297215e+000,
          1.15979795e+001, 3.65998459e+001, 1.04481554e+000,
          3.99029274e+001, 8.85443306e+000, 7.87005758e+000,
          1.03725834e+001, 0., 3.43705635e+001, 1.17299395e+001,
          2.89949489e+000, 0., 0., 0., 5.85786462e-001, 4.14213562e+000,
          1.69212437e+001, 1.35083485e+000, 4.00378952e+001,
          9.96210480e+000, 2.89949489e+000, 6.10050488e+000, 0., 0., 0.,
          0., 0., 0., 0., 0., 0., 0., 0., 8.98961544e+000,
          3.76774430e+000, 4.97056293e+000, 9.33545685e+000,
