%YAML:1.0
_0218: !!opencv-ml-svm
   svm_type: C_SVC
   kernel: { type:RBF, gamma:8. }
   C: 10.
   term_criteria: { epsilon:9.9999999747524271e-007,
       iterations:2147483647 }
   var_all: 320
   var_count: 320
   class_count: 2
   class_labels: !!opencv-matrix
      rows: 1
      cols: 2
      dt: i
      data: [ 13, 14 ]
   sv_total: 2
   support_vectors:
      - [ .Nan, 1.71269516e+002, 2.82080292e+002, 2.93420685e+002,
          2.33782883e+002, 1.74130875e+002, 6.06377625e+002,
          8.81492126e+002, .Nan, 7.13294739e+002, 1.45229529e+003,
          1.91995398e+003, 2.14947632e+003, 1.26097961e+003,
          1.41239417e+003, 6.35636047e+002, .Nan, 4.64887421e+002,
          7.88367188e+002, 2.58548584e+003, 7.01133496e+003,
          2.69921143e+003, 1.58590930e+003, 7.89182678e+002, .Nan,
          1.03674644e+002, 1.12834015e+002, 1.19255078e+003,
          3.77521655e+003, 6.50668945e+002, 5.01353607e+002,
          7.12137085e+002, .Nan, 1.98973389e+002, 7.51329102e+002,
          1.06976355e+003, 9.44214417e+002, 1.38581604e+002,
          1.16553551e+002, 7.39561691e+001, .Nan, 3.47662933e+002,
          1.86239624e+003, 2.91637476e+003, 1.63961987e+003,
          7.65504028e+002, 1.58994958e+003, 1.17653467e+003, .Nan,
          1.14284393e+002, 3.48937103e+002, 1.02542371e+003,
          2.88054175e+003, 5.20715234e+003, 7.03287939e+003,
          2.00847485e+003, .Nan, 5.30641113e+002, 7.24216919e+002,
          9.67243958e+002, 5.26720850e+003, 5.18730566e+003,
          5.32100879e+003, 4.21814063e+003, .Nan, 5.62175964e+002,
          2.31108124e+002, 3.52688484e+001, 4.07454643e+001,
          2.85098801e+001, 6.49798584e+001, 1.90349533e+002, .Nan,
          1.01906824e+003, 3.04644196e+002, 1.04664215e+002,
          1.70892166e+002, 1.31923889e+002, 4.80718964e+002,
          9.59017090e+002, .Nan, 5.72402306e+001, 1.76247692e+001,
          4.84699011e+000, 3.42136383e+001, 9.21035919e+001,
          5.03208801e+002, 1.87787415e+003, .Nan, 2.15658283e+001,
          1.77171779e+000, 1.12314641e+000, 1.37845020e+001,
          1.79040718e+001, 7.11305313e+001, 6.97773254e+002, .Nan, 0.,
          1., 0., 0., 0., 0., 0., 0., 0., 0., 0., 0., 0., 0., 0., 0., 0.,
          0., 0., 0., 0., 0., 0., 0., 0., 0., 0., 0., 0., 0., 0., .Nan,
          0., 0., 0., 0., 0., 5.50279208e-002, 9.44972098e-001, 0., 0.,
          0., 0., 0., 0., 0., 0., 0., 0., 0., 0., 0., 0., 0., 0., 0., 0.,
          0., 0., 0., 0., 0., 0., .Nan, 2.58662391e+000, 1.,
          1.32037723e+000, 2.78504920e+000, 4.64772749e+000,
          8.47881413e+000, 2.59917938e+002, .Nan, 6.64149246e+001,
          7.79528503e+001, 1.02145073e+002, 3.59279663e+002,
          5.85963745e+002, 7.15093872e+002, 1.46267676e+003, .Nan,
          4.75234253e+002, 9.59257385e+002, 5.89537903e+002,
          3.13562592e+002, 3.77258972e+002, 5.82095337e+002,
          6.90286255e+002, 0., 0., 0., 0., 0., 0., 0., 0., .Nan,
          4.96412621e+001, 5.99958000e+001, 8.53199158e+001,
          3.50672638e+002, 4.55467957e+002, 5.78316528e+002,
          9.57269653e+002, .Nan, 1.50152222e+002, 2.45722626e+002,
          1.51057861e+003, 1.33110413e+003, 6.94218628e+002,
          1.10140906e+003, 8.22449402e+002, .Nan, 2.53528473e+002,
          5.91531143e+001, 4.36801422e+002, 3.01792572e+002,
          3.88248863e+001, 4.32863464e+001, 5.45423546e+001, .Nan,
          2.16884415e+002, 5.25583984e+002, 5.95645714e+001,
          2.41825891e+000, 4.98390007e+000, 2.92613201e+001,
          4.32647362e+001, .Nan, 1.09585846e+002, 1.12149040e+002,
          1.08426826e+002, 2.13167755e+002, 3.60831848e+002,
          8.40917358e+002, 9.94852539e+002, .Nan, 3.75125122e+002,
          6.27516785e+001, 9.24908203e+002, 8.82580872e+002,
          8.99024811e+001, 1.92457321e+002, 4.14581360e+002, .Nan,
          6.14336609e+002, 3.12367371e+002, 3.71486664e+002,
          4.02166504e+003, 2.04212024e+003, 2.45746655e+003,
          2.24407886e+003, .Nan, 4.22068443e+001, 1.54362930e+002,
          6.17321960e+002, 1.48259949e+003, 1.17617287e+002,
          2.80652863e+002, 4.21292542e+002, 3.41691437e+002,
          5.00956177e+002, 4.47350647e+002, 1.21974744e+003,
          4.52254303e+002, 1.48352734e+003, 2.43730444e+003,
          1.64981262e+003, 2.64701807e+003, 1.87337326e+002,
          5.97821777e+002, 3.56009595e+003, 2.86304419e+003,
          4.71554199e+003, 3.98496094e+002, 6.68651978e+002,
          1.20908484e+003, 6.88422913e+002, 2.26477661e+003,
          7.21063782e+002, 7.77083740e+002, 1.38101855e+003,
          4.48593292e+002, 2.67970337e+002, 2.53341465e+001,
          9.69786987e+002, 3.94952100e+003, 1.62910193e+003,
          2.75730225e+003, 1.71287903e+002, 1.07820076e+002,
          1.28543738e+003, 2.40782349e+003, 1.12053906e+004,
          1.93252820e+003, 6.89950867e+001, 1.88397266e+003,
          5.01902588e+003, 1.20001230e+004, 1.16288318e+003,
          7.00061646e+002, 3.01078430e+002, 1.39589966e+002,
          3.55537384e+002, 1.30732620e+002, 8.22004761e+002,
          9.24253906e+002, 6.76410767e+002, 1.38007031e+003,
          3.26260284e+002, 6.81204605e+001, 1.48085602e+002,
          2.48528137e+002, 1.95421179e+003, 1.25405396e+003,
          2.35491276e+001, 6.63676147e+001, 4.84629860e+001,
          3.44205414e+002, 7.16414856e+002, 9.69855309e-001,
          3.01446710e-002, 0., 0. ]
      - [ .Nan, 1.71269516e+002, 2.82080292e+002, 2.93420685e+002,
          2.33782883e+002, 1.74130875e+002, 6.06377625e+002,
          8.81492126e+002, .Nan, 7.13294739e+002, 1.45229529e+003,
          1.91995398e+003, 2.14947632e+003, 1.26097961e+003,
          1.41239417e+003, 6.35636047e+002, .Nan, 4.64887421e+002,
          7.88367188e+002, 2.58548584e+003, 7.01133496e+003,
          2.69921143e+003, 1.58590930e+003, 7.89182678e+002, .Nan,
          1.03674644e+002, 1.12834015e+002, 1.19255078e+003,
          3.77521655e+003, 6.50668945e+002, 5.01353607e+002,
          7.12137085e+002, .Nan, 1.98973389e+002, 7.51329102e+002,
          1.06976355e+003, 9.44214417e+002, 1.38581604e+002,
          1.16553551e+002, 7.39561691e+001, .Nan, 3.47662933e+002,
          1.86239624e+003, 2.91637476e+003, 1.63961987e+003,
          7.65504028e+002, 1.58994958e+003, 1.17653467e+003, .Nan,
          1.14284393e+002, 3.48937103e+002, 1.02542371e+003,
          2.88054175e+003, 5.20715234e+003, 7.03287939e+003,
          2.00847485e+003, .Nan, 5.30641113e+002, 7.24216919e+002,
          9.67243958e+002, 5.26720850e+003, 5.18730566e+003,
          5.32100879e+003, 4.21814063e+003, .Nan, 5.62175964e+002,
          2.31108124e+002, 3.52688484e+001, 4.07454643e+001,
          2.85098801e+001, 6.49798584e+001, 1.90349533e+002, .Nan,
          1.01906824e+003, 3.04644196e+002, 1.04664215e+002,
          1.70892166e+002, 1.31923889e+002, 4.80718964e+002,
          9.59017090e+002, .Nan, 5.72402306e+001, 1.76247692e+001,
          4.84699011e+000, 3.42136383e+001, 9.21035919e+001,
          5.03208801e+002, 1.87787415e+003, .Nan, 2.15658283e+001,
          1.77171779e+000, 1.12314641e+000, 1.37845020e+001,
          1.79040718e+001, 7.11305313e+001, 6.97773254e+002, .Nan, 0.,
          1., 0., 0., 0., 0., 0., 0., 0., 0., 0., 0., 0., 0., 0., 0., 0.,
          0., 0., 0., 0., 0., 0., 0., 0., 0., 0., 0., 0., 0., 0., .Nan,
          0., 0., 0., 0., 0., 5.50279208e-002, 9.44972098e-001, 0., 0.,
          0., 0., 0., 0., 0., 0., 0., 0., 0., 0., 0., 0., 0., 0., 0., 0.,
          0., 0., 0., 0., 0., 0., .Nan, 2.58662391e+000, 1.,
          1.32037723e+000, 2.78504920e+000, 4.64772749e+000,
          8.47881413e+000, 2.59917938e+002, .Nan, 6.64149246e+001,
          7.79528503e+001, 1.02145073e+002, 3.59279663e+002,
          5.85963745e+002, 7.15093872e+002, 1.46267676e+003, .Nan,
          4.75234253e+002, 9.59257385e+002, 5.89537903e+002,
          3.13562592e+002, 3.77258972e+002, 5.82095337e+002,
          6.90286255e+002, 0., 0., 0., 0., 0., 0., 0., 0., .Nan,
          4.96412621e+001, 5.99958000e+001, 8.53199158e+001,
          3.50672638e+002, 4.55467957e+002, 5.78316528e+002,
          9.57269653e+002, .Nan, 1.50152222e+002, 2.45722626e+002,
          1.51057861e+003, 1.33110413e+003, 6.94218628e+002,
          1.10140906e+003, 8.22449402e+002, .Nan, 2.53528473e+002,
          5.91531143e+001, 4.36801422e+002, 3.01792572e+002,
          3.88248863e+001, 4.32863464e+001, 5.45423546e+001, .Nan,
          2.16884415e+002, 5.25583984e+002, 5.95645714e+001,
          2.41825891e+000, 4.98390007e+000, 2.92613201e+001,
          4.32647362e+001, .Nan, 1.09585846e+002, 1.12149040e+002,
          1.08426826e+002, 2.13167755e+002, 3.60831848e+002,
          8.40917358e+002, 9.94852539e+002, .Nan, 3.75125122e+002,
          6.27516785e+001, 9.24908203e+002, 8.82580872e+002,
          8.99024811e+001, 1.92457321e+002, 4.14581360e+002, .Nan,
          6.14336609e+002, 3.12367371e+002, 3.71486664e+002,
          4.02166504e+003, 2.04212024e+003, 2.45746655e+003,
          2.24407886e+003, .Nan, 4.22068443e+001, 1.54362930e+002,
          6.17321960e+002, 1.48259949e+003, 1.17617287e+002,
          2.80652863e+002, 4.21292542e+002, 3.41691437e+002,
          5.00956177e+002, 4.47350647e+002, 1.21974744e+003,
          4.52254303e+002, 1.48352734e+003, 2.43730444e+003,
          1.64981262e+003, 2.64701807e+003, 1.87337326e+002,
          5.97821777e+002, 3.56009595e+003, 2.86304419e+003,
          4.71554199e+003, 3.98496094e+002, 6.68651978e+002,
          1.20908484e+003, 6.88422913e+002, 2.26477661e+003,
          7.21063782e+002, 7.77083740e+002, 1.38101855e+003,
          4.48593292e+002, 2.67970337e+002, 2.53341465e+001,
          9.69786987e+002, 3.94952100e+003, 1.62910193e+003,
          2.75730225e+003, 1.71287903e+002, 1.07820076e+002,
          1.28543738e+003, 2.40782349e+003, 1.12053906e+004,
          1.93252820e+003, 6.89950867e+001, 1.88397266e+003,
          5.01902588e+003, 1.20001230e+004, 1.16288318e+003,
          7.00061646e+002, 3.01078430e+002, 1.39589966e+002,
          3.55537384e+002, 1.30732620e+002, 8.22004761e+002,
          9.24253906e+002, 6.76410767e+002, 1.38007031e+003,
          3.26260284e+002, 6.81204605e+001, 1.48085602e+002,
          2.48528137e+002, 1.95421179e+003, 1.25405396e+003,
          2.35491276e+001, 6.63676147e+001, 4.84629860e+001,
          3.44205414e+002, 7.16414856e+002, 9.69855309e-001,
          3.01446710e-002, 0., 0. ]
   decision_functions:
      -
         sv_count: 2
         rho: 0.
         alpha: [ 10., -10. ]
         index: [ 0, 1 ]
