%YAML:1.0
_0218: !!opencv-ml-svm
   svm_type: C_SVC
   kernel: { type:LINEAR }
   C: 100.
   term_criteria: { epsilon:9.9999999747524271e-007,
       iterations:2147483647 }
   var_all: 576
   var_count: 576
   class_count: 2
   class_labels: !!opencv-matrix
      rows: 1
      cols: 2
      dt: i
      data: [ -1, 3 ]
   sv_total: 16
   support_vectors:
      - [ 0., 0., 1., 1., 5.26120377e+000, 9.85075760e+000,
          5.88803864e+000, 0., 0., 8.24945736e+000, 4.18160009e+000, 3.,
          7., 1.12709036e+001, 3.86829338e+001, 7.79641008e+000, 0.,
          2.02143631e+001, 3.09174728e+000, 6., 27., 9., 1.11430702e+001,
          2.22822208e+001, 0., 0., 1., 1.68635483e+001, 7.14697800e+001,
          3.86666679e+001, 14., 1.15857868e+001, 0., 1., 1., 0.,
          8.99839401e+000, 8.09364605e+000, 3.90795994e+000, 1., 0.,
          3.88785672e+000, 2.28340244e+001, 1.89161072e+001,
          2.24851112e+001, 7.78832865e+000, 6.08857155e+000, 1., 0.,
          1.07131414e+001, 3.62637253e+001, 2.22580853e+001,
          2.80896301e+001, 17., 17., 0., 0., 2., 5., 10.,
          5.08994942e+001, 4.40417175e+001, 3.74765778e+001,
          4.58221006e+000, 0., 0., 0., 2., 10., 6.58578634e+000,
          4.41421366e+000, 1., 0., 1.58578646e+000, 2., 3.,
          2.32426414e+001, 2.53431454e+001, 8.41421318e+000, 1., 0., 2.,
          2., 8., 3.44142151e+001, 2.05857868e+001, 1.98284264e+001,
          2.51856194e+001, 0., 0., 0., 3.17157292e+000, 1.18284273e+001,
          3., 2.75935802e+001, 6.59711609e+001, 0., 0., 0., 1., 9., 6.,
          4., 0., 0., 7.54570532e+000, 2., 6., 12., 12., 10.,
          5.29547215e+000, 0., 4.87538385e+000, 0., 0., 0., 0., 1.,
          9.31510353e+000, 0., 0., 0., 0., 0., 0., 0., 0., 0., 0., 2.,
          2., 10., 4., 2., 0., 0., 4.14236298e+001, 0., 3., 8., 5., 0.,
          0., 0., 8.71171355e-001, 0., 0., 0., 0., 0., 0., 0., 0., 0.,
          0., 0., 0., 0., 0., 0., 0., 3., 3., 8., 2., 2., 0., 0.,
          2.90148811e+001, 2.49851189e+001, 2., 7., 1., 7., 0., 0., 0.,
          0., 0., 0., 0., 0., 0., 0., 0., 0., 0., 0., 0., 0., 0., 0., 1.,
          2., 1., 5., 7., 6., 0., 0., 2.45301342e+000, 3.63666725e+001,
          2.18031287e+000, 1.54142132e+001, 9.58578682e+000,
          1.54142132e+001, 1.58578646e+000, 0., 1.75866112e-002,
          1.92566357e+001, 3.72577810e+000, 0., 0., 0., 0., 0., 0., 0.,
          0., 0., 0., 0., 0., 0., 0., 0., 1., 11., 5., 1., 0., 0., 1.,
          4., 5.17157269e+000, 2.36568546e+001, 1.77573586e+001,
          1.24142132e+001, 1., 0., 1.26120389e+000, 3.46941528e+001,
          1.62638912e+001, 2.20233936e+001, 2.25147190e+001,
          2.52426414e+001, 6., 6.75417423e-001, 0., 6.45959282e+000,
          5.13404541e+001, 9.78573895e+000, 2., 9.41421318e+000,
          9.32458210e+000, 0., 1.17157292e+000, 3.72792196e+000,
          9.52162933e+000, 3.57887554e+000, 1.22281294e+001,
          5.70080280e+000, 4.55634928e+000, 1.82682381e+001,
          3.92464828e+001, 1.00144558e+001, 2.57723408e+001,
          1.98822517e+001, 3.75286598e+001, 7.80229330e+000,
          6.99743319e+000, 1.02035770e+001, 3.39655113e+001,
          4.28334770e+001, 0., 0., 1.17157292e+000, 3.31370854e+000,
          7.41725731e+000, 6.09746170e+000, 3.68125191e+001,
          1.52879868e+001, 7.87005758e+000, 8.45584679e+000,
          8.57359028e+000, 3.51265602e+001, 3.29739456e+001,
          1.65685425e+001, 2.03309517e+001, 0., 0., 9.95836926e+000,
          3.81076469e+001, 5.23355522e+001, 5.59843206e+000, 0.,
          1.17157292e+000, 5.38477612e+000, 7.44365072e+000, 0., 0.,
          4.10050488e+000, 1.73969688e+001, 2.15025253e+001, 0., 0.,
          7.02943707e+000, 2.52670269e+001, 4.40399284e+001,
          1.56636086e+001, 0., 2.34314585e+000, 6.21320343e+000,
          3.01662712e+001, 7.02773819e+001, 0., 5.85786462e-001,
          4.55634928e+000, 5.85786438e+000, 0., 5.52565861e+000,
          1.08469238e+001, 1.78111839e+001, 1.75550308e+001,
          2.61203885e-001, 7.29375887e+000, 5.46360064e+000,
          5.38477612e+000, 1.38013916e+001, 1.40564728e+001, 0., 0., 0.,
          0., 0., 0., 2.34314585e+000, 4.14213562e+000, 3.51471853e+000,
          0., 3.85835571e+001, 1.61027355e+001, 5.38477612e+000,
          2.92893219e+000, 0., 1.44314134e+000, 5.56858599e-001, 0., 0.,
          0., 0., 0., 0., 0., 0., 0., 3.51471853e+000, 4.14213562e+000,
          2.34314585e+000, 0., 4.37062302e+001, 1.06369171e+001,
          4.14213562e+000, 5.51471853e+000, 0., 0., 0., 0., 0., 0., 0.,
          0., 0., 0., 0., 0., 2.34314585e+000, 7.04163074e+000,
          7.61522388e+000, 0., 3.51240044e+001, 4.63335371e+000,
          1.11837664e+001, 1.70588741e+001, 0., 2.10846329e+001,
          1.91536677e+000, 0., 0., 0., 0., 0., 0., 0., 0., 0.,
          5.85786462e-001, 2.89949489e+000, 3.51471853e+000, 0., 0.,
          6.44365072e+000, 1.69827557e+001, 1.95735931e+001, 0.,
          3.87703552e+001, 1.15017233e+001, 2.19533195e+001,
          3.65134010e+001, 2.61203885e-001, 5.31535454e+001,
          1.28464556e+001, 6.21320343e+000, 1.55255928e+001,
          2.61203885e-001, 0., 0., 4.55634928e+000, 1.25336056e+001,
          1.91004491e+000, 2.10439816e+001, 9.29916477e+000,
          1.07695522e+001, 1.64765244e+001, 8.41077709e+000,
          4.05524101e+001, 4.03054543e+001, 1.98822517e+001,
          2.62598839e+001, 0., 5.22407770e-001, 1.22643890e+001,
          4.76345596e+001, 7.35876999e+001, 1.19909420e+001, 0.,
          2.34314585e+000, 4.97056293e+000, 8.22982025e+000,
          7.45647097e+000, 8.71591949e+000, 9.79879951e+000,
          3.72792196e+000, 1.93761368e+001, 3.83812218e+001,
          4.51790333e+000, 1.47541742e+001, 2.60954552e+001,
          5.26764679e+001, 6.95599842e+000, 6.79622769e-001,
          6.59245539e+000, 4.51492767e+001, 6.85786438e+001, 0., 0.,
          5.85786462e-001, 7.04163074e+000, 1.23725834e+001, 0., 0.,
          3.34314585e+000, 2.07106781e+001, 3.29461746e+001, 0.,
          2.19598675e+001, 1.82411442e+001, 2.89949493e+001,
          3.98040390e+001, 0., 6.84027252e+001, 2.36977787e+001,
          8.28427124e+000, 1.26152239e+001, 0., 0., 0., 6.62741709e+000,
          9.37258339e+000, 0., 1.07602272e+001, 1.40976372e+001,
          1.61543293e+001, 1.79878063e+001, 0., 5.95011673e+001,
          1.08419771e+001, 1.65685427e+000, 0., 0., 0., 0., 0., 0., 0.,
          0., 5.85786462e-001, 6.21320343e+000, 1.02010098e+001, 0.,
          4.38638878e+001, 1.36508312e+001, 9.11269855e+000,
          9.37258339e+000, 0., 3.91224599e+000, 1.08775389e+000, 0., 0.,
          0., 0., 0., 0., 0., 0., 0., 0., 5.38477612e+000,
          7.61522388e+000, 0., 3.37798691e+001, 1.01490622e+001,
          5.79898977e+000, 6.27207804e+000, 0., 0., 0., 0., 0., 0., 0.,
          0., 0., 0., 0., 0., 1.17157292e+000, 6.21320343e+000,
          7.61522388e+000, 0., 4.64586878e+000, 9.38356876e+000,
          1.53259020e+001, 2.06446609e+001, 0., 0., 5.85786462e-001,
          4.14213568e-001, 1.87184644e+000, 7.12815380e+000, 0., 0., 0.,
          0., 0., 0., 0., 6.62741709e+000, 1.03725834e+001, 0., 0.,
          1.75735927e+000, 1.69827557e+001, 3.09986801e+001,
          2.61203885e-001, 0., 8.61522388e+000, 2.40243874e+001,
          4.19530106e+001, 1.94073792e+001, 2.61203885e-001,
          7.01087427e+000, 4.55634928e+000, 1.21838913e+001,
          5.39876823e+001 ]
      - [ 0., 1., 3., 1., 8., 1., 2., 1., 0., 0., 1., 3.20377231e-001,
          2.40938358e+001, 1.45857868e+001, 14., 3., 0., 0.,
          4.51112080e+000, 2.69603729e+001, 9.81118393e+001,
          2.02259216e+001, 9.19074345e+000, 0., 0., 2.65685415e+000,
          4.90301943e+000, 5.50027847e+001, 1.18715637e+002,
          3.28932800e+001, 2., 1., 0., 2., 0., 0., 0., 5., 5., 1., 0.,
          0., 0., 0., 8., 16., 32., 10., 0., 0., 0., 0., 1.,
          4.15441551e+001, 1.04870056e+002, 7.58578634e+000, 0., 0., 0.,
          6.40754461e-001, 8.40406132e+000, 5.29914780e+001,
          1.54731049e+002, 2.23265791e+000, 0., 0., 0., 0., 4., 6., 3.,
          0., 0., 0., 1., 0., 2., 20., 46., 4., 1.43277681e+000, 0., 0.,
          0., 3., 3.40294380e+001, 9.26984863e+001, 1.98393021e+001, 0.,
          1.47946465e+000, 0., 0., 0., 2.31906357e+001, 8.48095551e+001,
          4.80295601e+001, 0., 0., 0., 2., 3., 0., 0., 0., 0., 2., 8.,
          3., 7., 6.58578634e+000, 1.44142132e+001, 13., 0.,
          7.64111042e+000, 0., 0., 2., 3., 1.28284273e+001,
          3.08951283e+001, 0., 0., 0., 0., 0., 0., 0., 6.09922361e+000,
          0., 3., 8., 0., 1., 2., 2., 0., 0., 6.39605713e+000,
          3.18003101e+001, 1.05609913e+001, 9.41421318e+000, 2., 4., 2.,
          0., 4.41546822e+001, 1.07622223e+001, 0., 0., 0., 0., 2., 0.,
          0., 0., 0., 0., 0., 0., 0., 0., 3., 7.24264050e+000,
          1.75735927e+000, 2., 0., 2., 1., 0., 1.25487022e+001,
          5.76326790e+001, 6.81862020e+000, 2., 0., 1., 0., 0.,
          3.91678065e-001, 9.23958302e+000, 3.68739337e-001, 0., 0., 0.,
          0., 0., 0., 0., 0., 0., 0., 0., 0., 0., 0., 12., 6., 3., 0.,
          1., 0., 0., 1.73814449e+001, 3.90337296e+001, 6.18148470e+000,
          1.00896311e+001, 2., 0., 2., 0., 4.93421841e+000,
          3.53002930e+001, 1.76548660e+000, 0., 0., 0., 0., 0., 0., 1.,
          0., 0., 0., 0., 0., 0., 0., 1., 5., 9., 1., 3., 1., 0.,
          9.17157269e+000, 1.48284273e+001, 1.26855698e+001,
          2.29002171e+001, 3.58578634e+000, 1., 6., 0., 5.73832703e+000,
          1.42239351e+001, 2.43654652e+001, 8.51015091e+001,
          1.92377586e+001, 5.33300304e+000, 3.50874752e-001, 0.,
          3.77370477e-001, 1.85889072e+001, 5.26309814e+001,
          5.15826683e+001, 9.14465427e+000, 3.94082665e+000,
          1.73459077e+000, 0., 2.92893219e+000, 3.72792196e+000,
          2.34314585e+000, 0., 0., 1.17157292e+000, 1.40832615e+001,
          2.07451668e+001, 0., 2.48846626e+000, 4.21145630e+001,
          3.31370850e+001, 2.74314575e+001, 8.28427136e-001,
          1.45154829e+001, 6.48449097e+001, 3.81076469e+001,
          4.73232651e+001, 4.20869923e+000, 0., 1.17157292e+000,
          5.38477612e+000, 6.44365072e+000, 0., 0., 0., 2.27817459e+001,
          3.52182541e+001, 0., 0., 0., 2.65096684e+001, 1.26706718e+002,
          7.83611596e-001, 0., 1.17157292e+000, 7.87005758e+000,
          1.21297913e+002, 8.46604538e+001, 0., 0., 3.72792196e+000,
          5.27207804e+000, 0., 0., 5.85786462e-001, 2.65096684e+001,
          4.39045448e+001, 0., 0., 0., 3.27228699e+001, 1.12134583e+002,
          3.14254236e+000, 3.00879741e+000, 9.91202533e-001,
          4.97056293e+000, 1.01469650e+002, 7.45597916e+001, 0.,
          1.17157292e+000, 8.28427136e-001, 0., 0., 0., 7.61522388e+000,
          1.90538235e+001, 2.03309517e+001, 0., 0., 8.61522388e+000,
          2.36101723e+001, 4.75855598e+001, 2.31890411e+001, 0., 0., 0.,
          2.19178009e+000, 9.80821991e+000, 0., 6.44365072e+000,
          6.21320343e+000, 2.34314585e+000, 0., 2.55493402e+000,
          3.41902313e+001, 1.65685425e+001, 4.68629169e+000, 0.,
          5.28150368e+001, 1.93859730e+001, 6.62741709e+000,
          1.17157292e+000, 0., 0., 0., 0., 0., 0., 5.22407770e-001,
          9.40652466e+000, 3.31370854e+000, 1.75735927e+000, 0.,
          4.57817497e+001, 2.66619034e+001, 4.97056293e+000,
          5.85786462e-001, 0., 8.25710297e+000, 1.74289691e+000, 0., 0.,
          0., 0., 0., 0., 0., 0., 5.22407770e-001, 1.33354568e+001,
          4.55634928e+000, 5.85786462e-001, 0., 3.26567574e+001,
          2.56447601e+001, 1.11837664e+001, 3.51471853e+000, 0.,
          3.66752968e+001, 5.32470274e+000, 0., 0., 0., 5.85786462e-001,
          4.14213568e-001, 0., 0., 0., 0., 3.51471853e+000,
          4.55634928e+000, 2.92893219e+000, 0., 0., 2.94314575e+001,
          2.15391045e+001, 7.02943707e+000, 0., 1.85608673e+001,
          3.48411522e+001, 2.44386005e+001, 3.82732124e+001,
          1.88616848e+000, 7.07545242e+001, 2.63459778e+001,
          7.04163074e+000, 1.76229134e+001, 2.23495150e+000, 0.,
          3.51471853e+000, 6.62741709e+000, 5.85786438e+000, 0., 0.,
          3.51471853e+000, 1.15979795e+001, 2.81670685e+001,
          1.72023296e+000, 0., 0., 7.45584393e+000, 8.96172104e+001,
          4.99269485e+001, 0., 4.75735950e+000, 7.04163074e+000,
          1.26402763e+002, 7.67982407e+001, 0., 4.10050488e+000,
          4.97056293e+000, 2.92893219e+000, 0., 0., 8.20100975e+000,
          1.57401152e+001, 1.40588741e+001, 0., 0., 5.27207804e+000,
          2.52670269e+001, 3.04608955e+001, 0., 0., 4.68629169e+000,
          3.68650055e+001, 1.00631149e+002, 6.81755304e+000, 0.,
          2.34314585e+000, 5.79898977e+000, 5.85786438e+000, 0., 0.,
          4.68629169e+000, 1.24264069e+001, 1.28873014e+001, 0.,
          2.10505199e+000, 1.51964626e+001, 2.60954552e+001,
          2.46030312e+001, 0., 5.33458710e+001, 3.22987900e+001,
          2.36101723e+001, 3.68796120e+001, 1.86555350e+000, 0.,
          1.17157292e+000, 2.89949489e+000, 2.92893219e+000, 0., 0.,
          1.43015156e+001, 1.57401152e+001, 9.95836926e+000, 0.,
          6.74308624e+001, 4.51427307e+001, 1.44974747e+001,
          2.92893219e+000, 0., 1.55623226e+001, 2.43767762e+000, 0., 0.,
          0., 0., 4.68629169e+000, 4.55634928e+000, 1.75735927e+000, 0.,
          5.14718652e-001, 1.46862917e+001, 1.40832615e+001,
          1.67157288e+001, 0., 6.39467735e+001, 2.54258080e+001,
          6.62741709e+000, 0., 0., 0., 0., 0., 0., 0., 0.,
          7.02943707e+000, 7.04163074e+000, 2.92893219e+000, 0.,
          1.84810505e+001, 1.39626007e+001, 7.87005758e+000,
          5.42537689e+000, 4.26091433e+000, 8.57354939e-001,
          7.28431523e-001, 4.14213568e-001, 1.42645061e-001,
          8.57354939e-001, 0., 0., 0., 0., 0., 0., 0., 2.89949489e+000,
          6.10050488e+000, 0., 1.50280552e+001, 3.01018867e+001,
          1.28406200e+001, 1.55070295e+001, 5.22407770e-001,
          9.86414433e+000, 6.89321518e+000, 2.89949489e+000,
          5.48176193e+000, 1.86138391e+000, 0., 0., 0., 0., 0., 0.,
          1.75735927e+000, 7.04163074e+000, 9.20100975e+000, 0.,
          2.61203885e-001, 1.86260986e+001, 1.53259020e+001,
          2.75346012e+001, 6.25219536e+000, 1.02658567e+001,
          6.31993008e+000, 2.89949489e+000, 8.14179916e+001,
          5.10967255e+001, 8.49778891e-001, 2.49336696e+000,
          4.97056293e+000, 3.60608444e+001, 8.56254425e+001 ]
      - [ 0., 5.43168783e-001, 9.11749780e-001, 6.90646219e+000,
          1.19915123e+001, 3.45407203e-002, 0., 1.38300085e+000, 0.,
          1.68151684e+001, 8.70890236e+000, 7.11137438e+000,
          5.10214901e+000, 1., 1.41421354e+000, 6.30915022e+000, 0.,
          1.00591736e+001, 4.28350496e+000, 1.71264515e+001,
          6.95115204e+001, 1.62500992e+001, 3.65685415e+000,
          8.77592278e+000, 0., 0., 0., 0., 2.28200226e+001,
          8.17997646e+000, 0., 0., 0., 0., 1.00435026e-001,
          1.35160708e+000, 5.47957838e-001, 0., 0., 5.42277765e+000, 0.,
          2.96685576e+000, 3.10507107e+000, 6.98454189e+000,
          1.59033976e+001, 4.42086792e+000, 4.92226362e+000,
          2.56523037e+000, 0., 2.62943611e+001, 8.06896019e+000,
          1.16797333e+001, 1.76018867e+001, 1.72307453e+001,
          2.41421366e+000, 6.75516987e+000, 0., 1.68598976e+001,
          1.59623861e+001, 1.73397522e+001, 6.11162224e+001,
          3.53362122e+001, 1.10710678e+001, 1.03782930e+001, 0., 0., 0.,
          0., 0., 0., 0., 0., 0., 0., 0., 0., 0., 0., 0., 0., 0., 0., 0.,
          0., 0., 0., 0., 0., 0., 9.63389492e+000, 0., 0., 0., 0., 0.,
          0., 0., 0., 0., 0., 0., 0., 0., 0., 0., 0., 0., 0., 0., 0., 0.,
          0., 0., 0., 0., 0., 0., 0., 0., 0., 0., 0., 0., 0., 0., 0., 0.,
          0., 0., 0., 0., 0., 0., 0., 0., 0., 0., 0., 0., 0., 0., 0., 0.,
          0., 0., 0., 0., 0., 0., 0., 0., 0., 0., 0., 0., 0., 0., 0., 0.,
          0., 0., 0., 0., 0., 0., 0., 0., 0., 0., 0., 0., 0., 0., 0., 0.,
          0., 0., 0., 0., 0., 0., 0., 0., 0., 0., 0., 0., 0., 0., 0., 0.,
          0., 0., 2.55678201e+000, 5.43476057e+000, 2.68843114e-001, 0.,
          0., 0., 1.31584778e-001, 0., 0., 0., 0., 0., 0., 0., 0., 0.,
          0., 0., 0., 0., 0., 0., 0., 0., 0., 0., 0., 0., 0., 0., 0., 0.,
          1.02915156e+000, 1.23370469e+000, 6.72386694e+000,
          7.57286549e+000, 4.23064470e-001, 0., 5.91452897e-001, 0.,
          7.79380512e+000, 7.69247532e+000, 0., 0., 0., 0., 0.,
          1.01193440e+000, 1.40278208e+000, 9.25254536e+000,
          1.71395626e+001, 1.23899341e-001, 0., 1., 6.92759231e-002, 0.,
          0., 0., 0., 0., 0., 0., 0., 1.37066832e+001, 3.29331660e+000,
          2.07106781e+000, 3.66772842e+000, 2.61203885e-001,
          3.40734634e+001, 1.61986141e+001, 6.21320343e+000,
          1.35705938e+001, 5.94412470e+000, 9.62037563e+000,
          2.59532185e+001, 2.31959591e+001, 3.02744789e+001,
          1.49559689e+001, 0., 0., 0., 4.60276985e+000, 1.53972301e+001,
          1.51479852e+000, 4.85201448e-001, 1.24264073e+000,
          7.38471270e+000, 1.03726463e+001, 1.24427814e+001,
          1.34150829e+001, 9.11269855e+000, 2.25471344e+001,
          4.48230267e+000, 2.56600761e+001, 3.33277283e+001,
          2.15391045e+001, 2.12063866e+001, 7.26670074e+000,
          2.40593739e+001, 3.09284344e+001, 3.47939377e+001,
          5.54649811e+001, 5.75327301e+000, 0., 0., 0., 0., 0., 0., 0.,
          0., 0., 0., 0., 0., 0., 0., 0., 1.13927088e+001,
          2.60729098e+000, 0., 0., 0., 0., 0., 0., 0., 0., 0., 0., 0.,
          0., 0., 0., 0., 0., 0., 0., 0., 0., 0., 0., 0., 0., 0., 0., 0.,
          0., 0., 0., 0., 0., 0., 0., 0., 0., 0., 0., 0., 0., 0., 0., 0.,
          0., 0., 0., 0., 0., 0., 0., 0., 0., 0., 0., 0., 0., 0., 0., 0.,
          0., 0., 0., 0., 7.51559019e+000, 1.48440993e+000, 0.,
          4.14213568e-001, 5.85786462e-001, 0., 0., 0., 0., 0., 0., 0.,
          0., 0., 0., 0., 0., 0., 0., 0., 1.10504856e+001,
          1.94951451e+000, 4.14213568e-001, 9.12326515e-001,
          1.67346001e+000, 1.55798864e+001, 2.42011333e+000, 0., 0., 0.,
          2.42069550e+001, 3.79304600e+000, 8.28427136e-001,
          1.17157292e+000, 0., 0., 0., 0., 0., 0., 7.08053398e+000,
          2.91946626e+000, 0., 1.44271624e+000, 1.75572834e+001,
          4.94249611e+001, 1.97466106e+001, 1.65685427e+000,
          2.38350892e+000, 1.07880640e+001, 2.91457438e+000,
          3.08011551e+001, 1.65685425e+001, 3.87753220e+001,
          5.79404068e+001, 0., 0., 0., 3.60704446e+000, 2.73929558e+001,
          2.38499413e+001, 3.15005898e+000, 0., 2.85290122e-001,
          1.71470988e+000, 3.99914665e+001, 6.76589346e+000,
          3.72792196e+000, 5.96757460e+000, 2.05471439e+001,
          5.00739784e+001, 3.25412445e+001, 1.44974747e+001,
          3.51905327e+001, 5.69676924e+000, 2.38471298e+001,
          3.60401726e+001, 2.11248913e+001, 6.59710083e+001,
          3.90167961e+001, 0., 0., 0., 0., 0., 0., 0., 0., 0., 0.,
          2.31322050e+000, 6.86779499e-001, 0., 0., 0., 1.63626003e+001,
          2.63739920e+000, 0., 0., 0., 0., 0., 0., 0., 0., 0., 0., 0.,
          0., 0., 0., 0., 0., 0., 0., 0., 0., 0., 0., 0., 0., 0., 0., 0.,
          0., 0., 0., 0., 0., 0., 0., 0., 0., 0., 0., 0., 0., 0., 0., 0.,
          0., 0., 0., 0., 0., 0., 0., 0., 0., 0., 0., 0., 0., 0., 0., 0.,
          0., 0., 0., 0., 7.69452238e+000, 1.30547738e+000, 0.,
          2.04537153e-001, 7.95462847e-001, 0., 0., 0., 0., 0., 0., 0.,
          0., 0., 0., 0., 0., 0., 0., 0., 5.56234121e+000,
          1.43765867e+000, 0., 1.92517722e+000, 1.30748224e+001,
          1.35394773e+001, 2.46052289e+000, 0., 0., 0., 3.31261277e+000,
          6.87387168e-001, 0., 3.75128937e+000, 1.72487106e+001, 0., 0.,
          0., 0., 0. ]
      - [ 0., 1.41421354e+000, 3., 7.17157269e+000, 8.82842731e+000,
          4.14213568e-001, 3.58578634e+000, 1., 0., 0., 9.85304070e+000,
          2.59255791e+001, 3.97510605e+001, 6.05610847e+000,
          1.15300965e+000, 2.26120377e+000, 1.91878974e+000,
          1.50702953e+000, 6.18867970e+000, 2.91363525e+001,
          1.43738050e+001, 2.11595631e+000, 4.09639359e+000,
          6.62993610e-001, 0., 0., 3.06294274e+000, 2.04652729e+001,
          2.10326824e+001, 4.39103633e-001, 0., 0., 0., 3.58578634e+000,
          5.41421366e+000, 2.26120377e+000, 7.73879623e+000, 1., 0., 0.,
          0., 3.17157292e+000, 8.43338394e+000, 1.24685745e+001,
          2.46838284e+001, 1.89103699e+001, 1.09180584e+001,
          6.17157269e+000, 0., 0., 1.13304796e+001, 1.70869884e+001,
          4.02362518e+001, 4.12752151e+001, 2.60710678e+001, 2., 0., 0.,
          1.86422443e+000, 8.70021057e+000, 4.32201958e+001,
          7.54177551e+001, 6.31099892e+001, 1.35979910e+001, 0., 1.,
          3.41421366e+000, 7.58578634e+000, 16., 2., 0., 0., 0., 4., 9.,
          6.17157269e+000, 1.86568546e+001, 1.65147190e+001,
          1.40710678e+001, 6.75735950e+000, 0., 3.69970536e+000, 5.,
          3.41421366e+000, 1.10710678e+001, 2.26677284e+001,
          2.89170265e+001, 3.40965614e+001, 0., 1.89949489e+000, 0.,
          3.20377231e-001, 6.76925373e+000, 3.91805816e+000,
          1.95932045e+001, 5.12692032e+001, 8.43290710e+000,
          1.26191025e+001, 8.84123802e+000, 0., 0., 0., 0.,
          1.06752865e-001, 0., 1.51755819e+001, 2.39426479e+001,
          3.40689731e+000, 2., 1.75735927e+000, 8.28427136e-001,
          9.02830884e-002, 0., 6.09751654e+000, 1., 0., 0.,
          1.17157292e+000, 3.24264073e+000, 5.54207373e+000, 0., 0., 0.,
          0., 0., 0., 0., 0., 0., 7.28447771e+000, 1.84699035e+000, 3.,
          4.14213568e-001, 1., 0., 5.56465611e-002, 0., 8.61582935e-001,
          0., 0., 0., 0., 0., 0., 0., 0., 0., 0., 0., 0., 0., 0., 0., 0.,
          0., 0., 0., 0., 0., 0., 0., 7.43422985e+000, 3.58578634e+000,
          0., 0., 0., 4.24264050e+000, 6.92893219e+000, 0.,
          1.30059137e+001, 1.72176247e+001, 2.88565612e+000, 2.,
          1.32037723e+000, 2.67962265e+000, 7.56575882e-001, 0., 0., 0.,
          0., 0., 0., 0., 0., 0., 0., 0., 0., 0., 0., 0., 0., 0.,
          2.91036892e+000, 4.50384474e+000, 4., 1.25857868e+001, 3., 3.,
          0., 0., 3.17157292e+000, 1.33536425e+001, 3.14589291e+001,
          4.60164261e+000, 4.14213568e-001, 0., 1.05917335e+000, 0., 0.,
          0., 0., 0., 0., 0., 0., 0., 0., 0., 0., 0., 0., 0., 0., 0.,
          3.70413327e+000, 1.48800201e+001, 7.93977451e+000,
          3.47607255e+000, 0., 0., 0., 0., 5.85786462e-001,
          6.25066578e-001, 1.94423695e+001, 1.43467770e+001, 0., 0., 0.,
          0., 0., 0., 0., 0., 0., 0., 0., 0., 0., 0., 0., 0., 0., 0., 0.,
          0., 7.61522388e+000, 7.04163074e+000, 3.08194184e+000,
          2.61203885e-001, 2.80431938e+001, 2.24004574e+001,
          7.45584393e+000, 1.19607038e+001, 2.13980103e+000,
          3.38078003e+001, 9.77798462e+000, 8.28427136e-001,
          2.90680695e+000, 5.67897940e+000, 2.73292027e+001,
          7.84237051e+000, 8.28427136e-001, 8.99494946e-001,
          1.10050511e+000, 0., 7.85786438e+000, 4.55634928e+000,
          5.85786462e-001, 0., 1.26120389e+000, 1.82829514e+001,
          1.86396103e+001, 3.15550308e+001, 2.61203885e-001,
          5.25407696e+000, 2.17753601e+001, 2.85807362e+001,
          5.41286240e+001, 2.61203885e-001, 2.75424242e+000,
          7.51783562e+000, 3.68650055e+001, 1.19037941e+002,
          1.18249702e+001, 2.61203885e-001, 8.01087379e+000,
          4.55634928e+000, 1.17157292e+000, 0., 0., 1.17157288e+001,
          2.07106781e+001, 2.65735931e+001, 0., 0., 9.44365120e+000,
          1.86396103e+001, 5.56974220e+001, 3.32193184e+001, 0.,
          2.75735927e+000, 2.48528147e+000, 2.09062786e+001,
          6.08510818e+001, 1.28751059e+001, 1.57106810e+001,
          4.14213568e-001, 4.14213568e-001, 5.85786462e-001,
          3.51081085e+001, 1.19923954e+001, 3.31370854e+000,
          2.34314585e+000, 1.24264073e+000, 1.17370644e+001,
          4.26293516e+000, 1.65685427e+000, 1.02454538e+001,
          9.09769249e+000, 0., 0., 0., 0., 0., 1.17094707e+001,
          8.80524826e+000, 3.31370854e+000, 1.17157292e+000, 0.,
          1.35607159e+000, 1.22971487e+000, 4.14213568e-001, 0., 0., 0.,
          0., 0., 0., 0., 0., 0., 0., 0., 0., 1.76504838e+000,
          1.09212427e+001, 6.62741709e+000, 8.68629169e+000, 0.,
          2.74237404e+001, 1.00909777e+001, 4.14213562e+000,
          8.68629169e+000, 2.65685415e+000, 0., 0., 0., 0., 0., 0., 0.,
          0., 0., 0., 2.61203885e-001, 8.83930111e+000, 5.38477612e+000,
          3.51471853e+000, 0., 3.79378700e+001, 1.14052773e+001,
          2.07106781e+000, 2.58578634e+000, 0., 0., 0., 0., 0., 0., 0.,
          0., 0., 0., 0., 4.77943611e+000, 2.21494961e+001,
          2.07106781e+000, 0., 0., 2.38636608e+001, 6.13633823e+000, 0.,
          0., 0., 0., 0., 0., 0., 0., 0., 0., 0., 0., 0.,
          2.61203885e-001, 3.66772842e+000, 7.45584393e+000,
          1.16152239e+001, 0., 0., 2.17157292e+000, 3.31370854e+000,
          2.75897064e+001, 4.79250107e+001, 4.54104376e+000,
          1.45895636e+000, 8.28427136e-001, 1.40419445e+001,
          3.61296272e+001, 0., 0., 4.14213568e-001, 6.03392458e+000,
          3.75518608e+001, 0., 3.51471853e+000, 5.79898977e+000,
          7.17157269e+000, 5.14718652e-001, 0., 9.85786438e+000,
          1.44974747e+001, 4.41295357e+001, 5.51512527e+000, 0.,
          2.34314585e+000, 2.44386005e+001, 7.82916946e+001,
          6.92655563e+000, 3.53883219e+000, 1.94195366e+001,
          3.89360733e+001, 1.05491920e+002, 9.61363888e+000, 0.,
          5.85786462e-001, 9.52691174e+000, 1.68873024e+001, 0., 0.,
          1.19583693e+001, 2.19533195e+001, 2.80883121e+001, 0.,
          3.57337570e+001, 3.33251190e+001, 2.11248913e+001,
          3.20326233e+001, 7.83611596e-001, 5.87694473e+001,
          1.48163376e+001, 2.07106781e+000, 1.07311068e+001,
          1.61203873e+000, 1.27521877e+001, 1.05909576e+001,
          1.65685427e+000, 0., 0., 3.03078613e+001, 1.08637114e+001,
          3.31370854e+000, 8.25351429e+000, 2.61203885e-001,
          3.67470169e+001, 4.83876991e+000, 8.28427136e-001,
          1.58578646e+000, 0., 0., 0., 0., 0., 0., 1.96327457e+001,
          5.36725330e+000, 1.65685427e+000, 3.34314585e+000, 0.,
          7.39524698e+000, 1.60475290e+000, 0., 0., 0., 0., 0., 0., 0.,
          0., 0., 0., 0., 0., 0., 5.38429070e+000, 1.44735737e+001,
          4.14213562e+000, 0., 0., 3.30912857e+001, 8.49450016e+000,
          2.48528147e+000, 6.63829088e+000, 1.29064107e+000, 0., 0., 0.,
          0., 0., 0., 0., 0., 0., 0., 0., 2.75735927e+000,
          7.45584393e+000, 1.35255928e+001, 2.61203885e-001,
          6.75417423e-001, 4.66772842e+000, 2.48528147e+000,
          9.23822689e+000, 3.39333458e+001, 0., 0., 0., 0., 0., 0., 0.,
          0., 0., 0., 0., 4.92893219e+000, 4.14213562e+000,
          6.60657978e+000, 4.32235241e+000, 0., 5.85786462e-001,
          4.14213568e-001, 4.27687407e+000, 2.97231255e+001, 0., 0., 0.,
          0., 0., 0., 0., 0., 0., 0. ]
      - [ 0., 8.99753690e-001, 4.44872409e-001, 2.01415658e+000,
          1.12675738e+000, 4.14213568e-001, 5.99348927e+000,
          7.43629360e+000, 0., 1.09661341e+001, 2.35320148e+001,
          1.05965376e+001, 7.22528219e+000, 4.68490696e+000,
          5.00219059e+000, 1.21394596e+001, 0., 3.57648492e+000,
          1.67567196e+001, 1.77718773e+001, 2.65037060e+001,
          5.54001570e+000, 2.05003605e+001, 8.89775276e+000, 0., 0., 1.,
          2.38304281e+000, 1.74922485e+001, 1.70008106e+001,
          2.12389946e+000, 0., 3.13873577e+000, 9.22196484e+000,
          1.11346416e+001, 3.50465775e+000, 0., 0., 0., 0., 0.,
          9.62738991e+000, 1.24126987e+001, 8.41829681e+000,
          9.14244461e+000, 7.85770035e+000, 1.41945400e+001,
          1.28348875e+001, 0., 1.04301147e+001, 9.50289917e+000,
          7.66867399e+000, 2.50275154e+001, 1.45514202e+001,
          3.40333176e+001, 2.38070774e+001, 0., 4.05917358e+000, 1.,
          6.81977272e+000, 2.97283611e+001, 6.92331924e+001,
          3.80643120e+001, 1.35503645e+001, 0., 3.27000284e+000, 0., 0.,
          0., 0., 0., 0., 0., 2.52696381e+001, 1.29053030e+001,
          1.15300965e+000, 5.17157269e+000, 1.15300965e+000,
          5.52240753e+000, 1.79891825e+000, 0., 1.74100323e+001,
          9.14734936e+000, 0., 2.82842708e+000, 2.36231637e+000,
          1.19206781e+001, 1.45332508e+001, 0., 2.27610760e+001,
          4.77614212e+000, 7.27207804e+000, 9.95238400e+000,
          1.63782272e+001, 5.91202974e+000, 1., 0., 0., 0., 0., 0., 0.,
          0., 0., 0., 0., 1., 0., 0., 0., 0., 0., 0., 0., 0., 0., 0., 0.,
          0., 0., 0., 0., 0., 0., 0., 0., 0., 0., 0., 0., 0., 0., 0., 0.,
          0., 0., 0., 0., 0., 0., 0., 0., 0., 0., 0., 0., 0., 0., 0., 0.,
          0., 0., 0., 0., 0., 0., 0., 0., 0., 0., 0., 0., 0., 0., 0., 0.,
          0., 0., 0., 0., 0., 0., 0., 0., 0., 0., 0., 0., 0., 0., 0., 0.,
          0., 0., 0., 0., 0., 0., 0., 0., 0., 0., 0., 0., 0., 0., 0., 0.,
          0., 0., 0., 0., 0., 0., 0., 0., 0., 0., 0., 0., 0., 0., 0., 0.,
          0., 0., 0., 0., 0., 0., 0., 0., 0., 0., 0., 4.93586636e+000,
          1.07965250e+001, 2.15801883e+000, 0., 0., 0., 0., 0., 0.,
          2.28456330e+000, 5.71198702e+000, 2.00344992e+000, 0., 0., 0.,
          0., 0., 0., 0., 0., 0., 0., 0., 0., 0., 0., 0., 0., 0., 0., 0.,
          2.88726568e+000, 3.69852066e+000, 4.14213568e-001,
          4.99515438e+000, 1.40048456e+001, 4.10304222e+001,
          1.23127241e+001, 3.72792196e+000, 1.09900541e+001,
          1.49388781e+001, 3.31114044e+001, 1.35748882e+001,
          1.11837664e+001, 3.01005058e+001, 5.02943707e+000,
          4.47366142e+000, 2.11212516e+000, 4.14213568e-001,
          7.30094194e+000, 1.86990585e+001, 2.12886257e+001,
          4.88294697e+000, 8.28427136e-001, 0., 0., 2.45705662e+001,
          1.17725792e+001, 5.79898977e+000, 2.56850185e+001,
          1.61728458e+001, 4.46438360e+000, 1.80797729e+001,
          2.27817459e+001, 5.49986115e+001, 9.67548752e+000,
          5.01891947e+000, 1.54247313e+001, 8.69848442e+000,
          5.16481018e+001, 7.82097626e+001, 4.44563961e+000,
          1.55436051e+000, 0., 0., 0., 3.40948830e+001, 1.16624775e+001,
          1.24264073e+000, 3.80741477e+000, 8.19258499e+000,
          2.38848991e+001, 7.28667402e+000, 2.89949489e+000,
          1.08669167e+001, 2.30620155e+001, 2.40968056e+001,
          2.31752739e+001, 7.87005758e+000, 1.37615433e+001,
          1.00963211e+001, 0., 0., 0., 0., 0., 4.14213568e-001,
          5.85786462e-001, 0., 0., 0., 0., 0., 0., 0., 0., 0., 0., 0.,
          0., 0., 0., 0., 0., 0., 0., 0., 0., 0., 0., 0., 0., 0., 0., 0.,
          0., 0., 0., 0., 0., 0., 0., 0., 0., 0., 0., 0., 0., 0., 0., 0.,
          0., 0., 0., 0., 0., 0., 0., 0., 0., 0., 0., 0., 0., 0., 0., 0.,
          0., 0., 0., 0., 0., 0., 0., 0., 0., 0., 0., 0., 0., 0.,
          1.70959549e+001, 2.90404606e+000, 0., 0., 0., 6.84105062e+000,
          2.15894961e+000, 0., 0., 0., 0., 0., 0., 0., 0., 0., 0., 0.,
          0., 0., 1.78115768e+001, 5.35999584e+000, 8.28427136e-001,
          1.04876101e+000, 2.95123887e+000, 2.58855553e+001,
          2.19723091e+001, 4.97056293e+000, 6.82114458e+000,
          2.23504276e+001, 2.27976704e+000, 1.93354568e+001,
          6.21320343e+000, 1.68890133e+001, 3.92825584e+001, 0., 0., 0.,
          5.35884619e+000, 3.16411533e+001, 9.94616604e+000,
          4.22540665e+000, 8.28427136e-001, 2.00904250e+000,
          6.99095774e+000, 1.98429546e+001, 2.37722683e+001,
          7.87005758e+000, 1.26479921e+001, 1.98667259e+001,
          6.93502808e+000, 4.11532822e+001, 2.81665230e+001,
          3.75368004e+001, 5.20836496e+000, 1.44145794e+001,
          1.68574982e+001, 9.11269855e+000, 4.69999847e+001,
          6.96152420e+001, 6.76153088e+000, 2.23846912e+000, 0., 0., 0.,
          3.97723351e+001, 1.23992386e+001, 8.28427136e-001,
          2.48112750e+000, 5.51887226e+000, 4.99226646e+001,
          1.50773363e+001, 1.24264073e+000, 4.75735950e+000, 0.,
          3.44199753e+001, 8.75159740e+000, 8.28427124e+000,
          2.50306664e+001, 8.51348972e+000, 0., 0., 0., 0., 0.,
          4.14213568e-001, 5.85786462e-001, 0., 0., 0., 0., 0., 0., 0.,
          0., 0., 0., 0., 0., 0., 0., 0., 0., 0., 0., 0., 0., 0., 0., 0.,
          0., 0., 0., 0., 0., 0., 0., 0., 0., 0., 0., 0., 0., 0., 0., 0.,
          0., 0., 0., 0., 0., 0., 0., 0., 0., 0., 0., 0., 0., 0., 0., 0.,
          0., 0., 0., 0., 0., 0., 0., 0., 0., 0., 0., 0., 0., 0., 0., 0.,
          0., 0., 9.89672279e+000, 2.68906379e+000, 4.14213568e-001,
          1.67396641e+000, 3.32603359e+000, 0., 0., 0., 1.58664000e+000,
          6.41336012e+000, 0., 0., 0., 0., 0., 0., 0., 0., 0., 0. ]
      - [ 0., 0., 0., 0., 1.55300970e+001, 1.34699030e+001, 0., 0., 0.,
          1., 0., 8.90717888e+000, 3.16775455e+001, 2.11173763e+001,
          1.67593136e+001, 1.02959442e+001, 0., 1.73873186e+000, 1.,
          6.04145193e+000, 2.66488934e+001, 2.40484524e+001,
          2.44928894e+001, 3.04760456e+001, 0., 5.85786462e-001,
          1.54745126e+000, 2.53279438e+001, 6.28648872e+001,
          2.52597160e+001, 2.84142132e+001, 1.98702335e+001, 0., 1.,
          1.82842708e+000, 3.58578634e+000, 9.03045750e+000,
          1.05553284e+001, 0., 0., 4.14213568e-001, 0., 3.,
          1.07160273e+001, 3.71399803e+001, 3.05277481e+001,
          9.03045750e+000, 2.17157292e+000, 0., 5.85786462e-001,
          1.58578646e+000, 9.71935081e+000, 6.45800934e+001,
          5.40436974e+001, 2.24852810e+001, 1., 0., 1.24247799e+001,
          8.35208797e+000, 1.20104475e+001, 6.02383308e+001,
          4.74375153e+001, 2.38994942e+001, 1.32692900e+001, 0., 0., 0.,
          0., 1.22426405e+001, 9.34314537e+000, 7.41421366e+000, 1., 0.,
          3.97177339e-001, 2., 0., 2., 1.43644972e+001, 3.11197586e+001,
          1.31903009e+001, 0., 1.02528489e+000, 0., 0., 0.,
          8.34314537e+000, 2.04021549e+001, 2.33859768e+001, 0., 0., 1.,
          0., 1.82842708e+000, 4.75735950e+000, 3.40607715e+000,
          2.53977909e+001, 0., 0., 0., 0., 5.41421366e+000,
          6.17157269e+000, 9.41421318e+000, 4., 0., 1.68179917e+000, 0.,
          2., 1., 5.85786462e-001, 8.83587074e+000, 1.65818710e+001, 0.,
          0., 0., 0., 0., 0., 0., 0., 0., 0., 0., 0., 0., 0., 0., 0., 0.,
          1., 2., 0., 7., 3.58578634e+000, 7.82842731e+000,
          3.58578634e+000, 0., 1.23318052e+000, 4.14213568e-001,
          3.17157292e+000, 1.82842708e+000, 4.17157269e+000,
          5.62013483e+000, 2.16479702e+001, 0., 3.91292185e-001, 0., 0.,
          0., 0., 0., 5.06065416e+000, 0., 0., 0., 0., 0., 0., 0., 0.,
          0., 0., 0., 1., 4.41421366e+000, 3.58578634e+000, 6., 2., 0.,
          1.17614517e+001, 1.12308588e+001, 5.74286938e+000,
          1.01352739e+001, 1.73644981e+001, 2.01715736e+001,
          4.01609993e+000, 0., 2.33280907e+001, 5.16533585e+001,
          5.35457993e+000, 2.50384450e+000, 3.64916515e+000,
          1.67541742e+000, 3.91600633e+000, 0., 0., 0., 0., 0., 0., 0.,
          0., 0., 0., 0., 2., 1.84852810e+001, 9.68629169e+000,
          1.82842708e+000, 0., 0., 8.99494946e-001, 4.32238770e+000,
          1.68125267e+001, 3.15657349e+001, 1.86217079e+001,
          1.43831043e+001, 4.52467632e+000, 0., 2.86917973e+000,
          2.47159271e+001, 1.80631962e+001, 8.35169697e+000, 0., 0., 0.,
          0., 0., 0., 0., 0., 0., 0., 0., 0., 0., 0., 0.,
          1.69180584e+001, 1.16677284e+001, 1.41421354e+000, 0., 0.,
          3.23633218e+000, 1.08294611e+001, 1.09342060e+001,
          1.34852810e+001, 1.46862917e+001, 2.38994942e+001,
          8.10050488e+000, 0., 3.69042969e+000, 3.63643112e+001,
          1.51757078e+001, 8.76955318e+000, 1.66257896e+001,
          2.09599972e+001, 5., 0., 0., 2.92314720e+000, 1.13764029e+001,
          1.95323753e+001, 1.68074355e-001, 0., 0., 0., 0.,
          5.38477612e+000, 1.23540201e+001, 2.61203885e-001,
          9.33106327e+000, 7.76944160e+000, 9.94112587e+000,
          3.21948242e+001, 1.87635460e+001, 7.23518658e+000,
          1.12795315e+001, 1.49116879e+001, 5.94744301e+001,
          3.40991631e+001, 2.93310947e+001, 2.36983414e+001,
          2.31959591e+001, 6.75786057e+001, 1.01959963e+001, 0.,
          5.34314585e+000, 6.62741709e+000, 9.02943707e+000, 0.,
          2.61203885e-001, 1.19398060e+001, 1.86396103e+001,
          4.19167404e+001, 2.24264073e+000, 8.24518299e+000,
          1.40268955e+001, 2.27817459e+001, 7.43514023e+001,
          7.59477377e+000, 1.61393185e+001, 2.83043308e+001,
          2.98233757e+001, 7.01491241e+001, 1.95838470e+001, 0., 0.,
          5.79898977e+000, 1.32010098e+001, 0., 0., 2.34314585e+000,
          1.36690474e+001, 4.18693047e+001, 1.41185017e+001,
          2.24162149e+000, 7.58378565e-001, 8.28427124e+000,
          3.98678627e+001, 2.48478642e+001, 0., 5.85786462e-001,
          3.31370854e+000, 2.04125118e+001, 2.66879940e+001, 0., 0.,
          6.62741709e+000, 1.33725834e+001, 0., 3.96197772e+000,
          3.20959496e+000, 6.21320343e+000, 1.96416149e+001,
          1.79736080e+001, 0., 0., 0., 0., 0., 0., 0., 0., 0., 0., 0.,
          1.75735927e+000, 6.62741709e+000, 9.61522388e+000, 0., 0.,
          7.92893219e+000, 6.62741709e+000, 2.60489388e+001,
          2.03947124e+001, 7.38796115e-001, 2.61203885e-001, 0.,
          4.33273649e+000, 1.06672640e+001, 0., 0., 0., 0., 0., 0.,
          5.85786462e-001, 5.38477612e+000, 7.02943707e+000, 0.,
          3.66003919e+000, 2.31267567e+001, 1.44974747e+001,
          3.22829514e+001, 3.43277669e+000, 6.81929932e+001,
          1.51501513e+001, 4.14213562e+000, 8.99231052e+000,
          5.22407770e-001, 0., 0., 0., 0., 0., 0., 1.17157292e+000,
          6.21320343e+000, 9.61522388e+000, 0., 1.64918137e+001,
          1.21944790e+001, 9.11269855e+000, 3.15857868e+001,
          6.61522388e+000, 4.23259850e+001, 8.67401505e+000, 0., 0., 0.,
          0., 0., 0., 0., 0., 0., 0., 4.55634928e+000, 1.24436512e+001,
          0., 1.63289032e+001, 8.84266853e+000, 1.15979795e+001,
          3.84468346e+001, 7.83611596e-001, 4.41025391e+001,
          1.09979658e+001, 1.28406200e+001, 3.27080383e+001,
          1.35083485e+000, 1.86491470e+001, 8.35085201e+000, 0., 1., 0.,
          0., 0., 4.14213562e+000, 2.32906418e+001, 1.56722319e+000,
          7.57469177e+000, 9.35424042e+000, 1.20121937e+001,
          3.28268356e+001, 2.62320404e+001, 4.70217171e+001,
          2.23508663e+001, 2.02964649e+001, 3.19101353e+001,
          1.54208174e+001, 1.26370010e+001, 1.95640087e+001,
          1.65685425e+001, 4.67399330e+001, 6.14905128e+001, 0.,
          1.17157292e+000, 5.38477612e+000, 1.73092041e+001,
          2.13444638e+000, 0., 2.17157292e+000, 9.52691174e+000,
          6.10928154e+001, 1.22086992e+001, 1.19373238e+000,
          2.39205408e+000, 1.53259020e+001, 8.14657135e+001,
          3.86225967e+001, 3.54224319e+001, 1.86780739e+001,
          2.52670269e+001, 6.36284676e+001, 3.80039978e+001, 0.,
          5.85786462e-001, 7.45584393e+000, 1.49583693e+001, 0.,
          1.98073101e+001, 1.23937006e+001, 1.32548342e+001,
          1.11299419e+001, 4.14213568e-001, 4.44539566e+001,
          1.40607615e+001, 7.45584393e+000, 7.02943707e+000, 0.,
          3.56409988e+001, 1.37021475e+001, 3.72792196e+000,
          4.92893219e+000, 0., 0., 2.34314585e+000, 5.38477612e+000,
          8.27207756e+000, 0., 4.42415810e+001, 1.05157766e+001,
          2.89949489e+000, 2.34314585e+000, 0., 0., 0., 0., 0., 0., 0.,
          0., 0., 0., 0., 0., 2.92893219e+000, 6.62741709e+000,
          6.44365072e+000, 0., 4.40930405e+001, 2.24216766e+001,
          5.38477612e+000, 6.68629169e+000, 4.14213568e-001,
          2.06996212e+001, 3.30037928e+000, 0., 0., 0., 0., 0., 0., 0.,
          0., 0., 1.75735927e+000, 4.55634928e+000, 5.68629169e+000, 0.,
          1.81304884e+000, 1.99737473e+001, 1.53259020e+001,
          2.64722748e+001, 4.41502714e+000, 3.31097832e+001,
          1.77480831e+001, 5.38477612e+000, 1.19293652e+001,
          8.82799435e+000, 0., 0., 0., 0., 0., 0., 0., 5.79898977e+000,
          2.49398060e+001, 2.61203885e-001, 2.70166969e+000,
          7.46990299e+000, 6.21320343e+000, 4.10154648e+001,
          2.85997581e+001, 5.67271185e+000, 4.91307497e+000,
          8.28427136e-001, 7.96083403e+000, 2.46249523e+001, 0., 0., 0.,
          0., 0., 0., 0., 2.89949489e+000, 2.45332813e+001,
          1.56722319e+000, 1.73920298e+000, 1.44618073e+001,
          1.40832615e+001, 2.90219078e+001, 9.69382000e+000,
          4.28223085e+000, 9.98984718e+000, 1.20121937e+001,
          2.70082226e+001, 2.17075062e+001, 0., 0., 0., 4.75040293e+000,
          2.72495975e+001 ]
      - [ 0., 0., 0., 1.58578646e+000, 1.79891262e+001, 1.20108738e+001,
          4.14213568e-001, 0., 0., 0., 4.14213568e-001, 5.91492987e+000,
          3.74882278e+001, 2.11721325e+001, 1.53236485e+001,
          1.11548872e+001, 0., 4.03299046e+000, 1.41421354e+000,
          3.82428551e+000, 2.68342762e+001, 2.14419422e+001,
          1.88720112e+001, 3.40259781e+001, 0., 7.52192914e-001, 3.,
          1.80983200e+001, 7.71043015e+001, 4.05547371e+001,
          1.98975086e+001, 2.16498604e+001, 0., 0., 0., 0.,
          1.09180584e+001, 1.64250870e+001, 2.65685415e+000, 0., 0.,
          9.08252656e-001, 1.81869149e+000, 6.40538597e+000,
          3.82552567e+001, 3.18497677e+001, 7.67089796e+000, 0., 0.,
          4.14213568e-001, 5.85786462e-001, 1.14762516e+001,
          6.59243469e+001, 5.74387016e+001, 1.69891262e+001,
          3.17157292e+000, 0., 1.02696600e+001, 5.66765451e+000,
          9.09902763e+000, 7.24843750e+001, 3.91739578e+001,
          2.42426414e+001, 1.26906786e+001, 0., 0., 0., 0.,
          5.41421366e+000, 1.33431454e+001, 8.24264050e+000, 0., 0., 0.,
          0., 1., 8.82842731e+000, 1.53431454e+001, 2.30710678e+001,
          2.43941975e+001, 0., 0., 2., 2., 8.28427136e-001,
          3.92893219e+000, 1.21130066e+001, 3.12793255e+001, 0., 0., 0.,
          0., 0., 5., 5.41421366e+000, 2.29292679e+001, 0., 0., 0., 0.,
          5.41421366e+000, 7.17157269e+000, 8.41421318e+000,
          5.58578634e+000, 0., 2.41407514e+000, 0., 0., 0., 1.,
          1.82842708e+000, 1.21690226e+001, 0., 0., 0., 0., 0., 0., 0.,
          0., 0., 0., 0., 0., 0., 0., 0., 0., 0., 0., 0., 0., 3., 8.,
          10., 0., 0., 1.93264520e+000, 0., 0., 0., 2.58578634e+000,
          7.97864819e+000, 1.81726952e+001, 0., 0., 0., 0., 0., 0., 0.,
          3.32970524e+000, 0., 0., 0., 0., 0., 0., 0., 0., 0., 0., 0.,
          2., 6., 8., 2., 0., 0., 2.32458258e+000, 1.55060740e+001,
          8.67653465e+000, 1.11684189e+001, 1.78788338e+001,
          1.99385815e+001, 4.56390238e+000, 0., 2.09677734e+001,
          4.91882629e+001, 4.82023668e+000, 1.97342360e+000,
          4.02590418e+000, 9.87347031e+000, 4.35354328e+000, 0., 0., 0.,
          0., 0., 0., 0., 0., 0., 0., 0., 1.41421354e+000,
          1.46568546e+001, 1.49289322e+001, 0., 0., 0., 1.90616369e+000,
          6.81483030e+000, 1.16755152e+001, 3.19430027e+001,
          2.40586033e+001, 9.01609993e+000, 3.96533704e+000,
          4.14213568e-001, 3.02838254e+000, 2.59029465e+001,
          2.08365746e+001, 1.40290575e+001, 3.75109220e+000,
          7.13157034e+000, 9.06163692e-001, 0., 0., 0., 0., 0., 0., 0.,
          0., 0., 0., 1., 4.58578634e+000, 1.29180584e+001,
          8.49615574e+000, 1., 0., 0., 5.63469458e+000, 9.53122902e+000,
          8.81490612e+000, 8.09023857e+000, 2.05147190e+001,
          2.14142132e+001, 9., 0., 4.31392670e+000, 3.67379570e+001,
          1.66416245e+001, 2.06947880e+001, 1.56117039e+001, 22., 2.,
          7.76530027e-001, 1.13918900e-001, 8.36021996e+000,
          1.56927586e+001, 2.11952515e+001, 2.58807898e+000,
          4.97713424e-002, 1.22346997e+000, 0., 1.17157292e+000,
          6.21320343e+000, 1.16152239e+001, 0., 5.72963858e+000,
          6.19929361e+000, 9.11269855e+000, 3.46242409e+001,
          2.13341293e+001, 1.35528622e+001, 1.00329247e+001,
          1.28406200e+001, 5.32954521e+001, 3.02781429e+001,
          2.73257141e+001, 1.87037220e+001, 3.35513000e+001,
          7.21338272e+001, 9.28544044e+000, 0., 0., 5.79898977e+000,
          1.52010098e+001, 0., 3.09217238e+000, 7.25097322e+000,
          1.36690474e+001, 3.47389717e+001, 3.24883580e+000,
          8.54602337e+000, 9.14026833e+000, 2.81665230e+001,
          7.52249222e+001, 3.92226338e+000, 1.78702030e+001,
          1.98160896e+001, 2.98233757e+001, 6.23304367e+001,
          1.41598940e+001, 0., 0., 7.04163074e+000, 1.49583693e+001, 0.,
          0., 5.85786462e-001, 1.49116879e+001, 4.45361824e+001,
          1.59663439e+001, 0., 2.34314585e+000, 8.69848442e+000,
          4.48456917e+001, 2.41126785e+001, 0., 0., 4.97056293e+000,
          2.00413036e+001, 2.59881325e+001, 0., 0., 8.28427124e+000,
          1.37157288e+001, 0., 4.69237328e+000, 3.47919965e+000,
          4.14213562e+000, 1.50372715e+001, 1.36490202e+001, 0., 0., 0.,
          0., 0., 0., 0., 0., 0., 0., 0., 0., 7.45584393e+000,
          1.05441561e+001, 0., 2.06829143e+000, 3.27485442e+000,
          7.45584393e+000, 2.51765919e+001, 2.20244198e+001, 0., 0., 0.,
          2.49839854e+000, 6.50160170e+000, 0., 0., 0., 0., 0., 0.,
          1.17157292e+000, 4.97056293e+000, 5.85786438e+000, 0.,
          1.02226439e+001, 1.57062883e+001, 9.52691174e+000,
          3.41426468e+001, 5.40151024e+000, 6.24997482e+001,
          1.36718254e+001, 3.31370854e+000, 1.35757399e+001,
          9.93897915e+000, 0., 0., 0., 0., 0., 0., 1.17157292e+000,
          7.04163074e+000, 1.17867966e+001, 0., 1.07510958e+001,
          1.31067686e+001, 1.24264069e+001, 3.79058647e+001,
          2.80986404e+000, 4.68077545e+001, 9.77803326e+000,
          2.48528147e+000, 9.92505074e+000, 3.00388122e+000, 0., 0., 0.,
          0., 0., 0., 3.51471853e+000, 5.38477612e+000, 8.10050488e+000,
          0., 7.85700083e+000, 1.31724367e+001, 1.69827557e+001,
          3.92413216e+001, 3.74648523e+000, 4.45381432e+001,
          1.18050032e+001, 1.24264069e+001, 3.39023438e+001,
          2.32810211e+000, 2.36431103e+001, 7.94267654e+000,
          1.65685427e+000, 4.27158833e+000, 3.48577094e+000, 0., 0.,
          3.31370854e+000, 2.69660587e+001, 1.72023296e+000,
          8.06078625e+000, 8.28236008e+000, 7.45584393e+000,
          3.68014717e+001, 2.63995399e+001, 5.00498505e+001,
          2.18080158e+001, 1.28406200e+001, 2.71114616e+001,
          1.91900539e+001, 1.53089962e+001, 1.93062286e+001,
          1.82253971e+001, 6.55859680e+001, 5.85734138e+001, 0., 0.,
          7.04163074e+000, 2.16971664e+001, 2.61203885e-001,
          1.52940166e+000, 4.70598340e-001, 1.24264069e+001,
          5.83977547e+001, 1.21758375e+001, 5.22407770e-001,
          4.23495150e+000, 1.90538235e+001, 9.52573929e+001,
          2.89314232e+001, 3.16284180e+001, 1.78152332e+001,
          2.23675327e+001, 6.37965317e+001, 4.13922844e+001, 0., 0.,
          7.45584393e+000, 1.25441561e+001, 0., 2.04874477e+001,
          1.49562025e+001, 1.36690474e+001, 1.78873024e+001, 0.,
          4.34329834e+001, 2.30106678e+001, 7.04163074e+000,
          5.51471853e+000, 0., 3.63585167e+001, 1.03988428e+001,
          3.31370854e+000, 2.92893219e+000, 0., 0., 5.68629169e+000,
          7.87005758e+000, 8.44365120e+000, 0., 4.14768372e+001,
          1.14520950e+001, 2.48528147e+000, 5.85786462e-001, 0., 0., 0.,
          0., 0., 0., 0., 0., 0., 0., 0., 0., 5.85786462e-001,
          4.97056293e+000, 6.44365072e+000, 0., 4.87273102e+001,
          1.57874098e+001, 4.14213562e+000, 2.34314585e+000, 0.,
          1.19368629e+001, 2.06313682e+000, 0., 0., 0., 0., 0., 0., 0.,
          0., 0., 0., 6.21320343e+000, 9.78679657e+000, 0.,
          5.81941509e+000, 7.28108978e+000, 1.78111839e+001,
          3.04571095e+001, 6.63120317e+000, 3.93873978e+001,
          2.22278252e+001, 9.11269855e+000, 1.48769579e+001,
          7.39512014e+000, 0., 0., 0., 0., 0., 0., 0., 4.97056293e+000,
          2.52458248e+001, 7.83611596e-001, 1.35504019e+000,
          6.74546480e+000, 1.24264069e+001, 4.79426956e+001,
          1.85303936e+001, 5.22602081e+000, 6.35976553e+000,
          1.65685427e+000, 1.25153580e+001, 3.22420006e+001, 0., 0., 0.,
          0., 0., 0., 0., 6.62741709e+000, 1.82829514e+001,
          1.08963096e+000, 1.30601943e+000, 1.70665646e+001,
          1.44974747e+001, 3.01871891e+001, 5.94275379e+000,
          6.67668438e+000, 1.10096073e+001, 1.11837664e+001,
          3.18902588e+001, 2.82396832e+001, 6.75417423e-001,
          1.91036904e+000, 4.14213568e-001, 6.48243809e+000,
          3.75175629e+001 ]
      - [ 4.14213568e-001, 0., 4.14213568e-001, 6.56722307e+000,
          2.16043491e+001, 2.41421366e+000, 0., 5.85786462e-001, 0., 1.,
          3.67541742e+000, 1.22124968e+001, 3.24689598e+001,
          1.97666245e+001, 1.19227600e+001, 1.09314404e+001, 0.,
          2.42583299e+000, 4.96564054e+000, 1.77631607e+001,
          2.98376293e+001, 1.66870842e+001, 2.89595375e+001,
          3.64963722e+001, 0., 2.13666534e+000, 7.13372040e+000,
          3.40657883e+001, 4.84337883e+001, 8.95248890e+000,
          1.97002926e+001, 3.90452805e+001, 0., 0., 0., 5., 21.,
          2.58578634e+000, 4.14213568e-001, 0., 1.01917064e+000, 1., 4.,
          1.31005049e+001, 3.98994942e+001, 1.51715727e+001,
          6.07106781e+000, 6.73818874e+000, 0., 0., 2.95232654e+000,
          1.66941986e+001, 6.36555023e+001, 3.71941299e+001,
          1.89180584e+001, 5.85786462e-001, 0., 0., 7.82842731e+000,
          2.27006531e+001, 7.31698074e+001, 3.48158264e+001,
          3.53137093e+001, 1.10943670e+001, 0., 5.85786462e-001,
          3.41421366e+000, 1., 7., 4.58578634e+000, 4.41421366e+000,
          2.58578634e+000, 0., 2.39205408e+000, 2.41421366e+000,
          2.90616369e+000, 1.90160999e+001, 1.46635227e+001,
          1.50710678e+001, 1.60741520e+001, 0., 0., 0., 1., 8.,
          7.91036892e+000, 2.11792622e+001, 4.54268265e+001, 0.,
          7.76530027e-001, 0., 0., 0., 3.58578634e+000, 4.54052353e+000,
          2.42287655e+001, 0., 0., 0., 2., 4., 5.17157269e+000,
          8.82842731e+000, 1., 0., 1.41421354e+000, 5.85786462e-001,
          3.20377231e-001, 8.67962265e+000, 1.13431454e+001,
          1.47615499e+001, 2.63992577e+001, 0., 0., 0., 0., 0., 0.,
          1.12389934e+000, 9.83702660e+000, 0., 0., 0., 0., 0., 0., 0.,
          0., 0., 0., 2., 1., 8., 5., 7., 1., 0., 6.45277596e+000,
          2.43939514e+001, 1.27933540e+001, 1.06568546e+001,
          8.34314537e+000, 4.58578634e+000, 5.23353720e+000, 0.,
          1.13771152e+001, 1.03738985e+001, 0., 0., 0., 5.71456067e-002,
          7.35820103e+000, 0., 0., 0., 0., 0., 0., 0., 0., 0., 1.,
          2.41421366e+000, 3.34314585e+000, 1.34852810e+001,
          6.75735950e+000, 1., 0., 0., 1.66915359e+001, 3.36420250e+001,
          3.84823608e+000, 2.19373226e+000, 1.39205408e+000,
          1.41421354e+000, 4.34295535e-001, 0., 0., 0., 0., 0., 0., 0.,
          0., 0., 0., 0., 0., 0., 0., 0., 0., 4.14213568e-001, 0.,
          2.70918995e-001, 7.67946577e+000, 1.00496159e+001,
          5.23074627e+000, 4.76925373e+000, 1.58578646e+000, 0.,
          1.78500068e+000, 1.09841280e+001, 1.81989822e+001,
          7.03188896e+000, 0., 0., 0., 0., 0., 0., 0., 0., 0., 0., 0.,
          0., 0., 0., 0., 0., 0., 0., 0., 0., 1., 3.68986082e+000,
          4.89172029e+000, 9.51225567e+000, 3.49195004e+000,
          2.41421366e+000, 3., 0., 3.57796049e+000, 3.84415131e+001,
          4.56631422e+000, 7.24264050e+000, 1.03431454e+001,
          7.82842731e+000, 1., 0., 1.69581425e+000, 2.60196400e+001,
          1.94958420e+001, 1.52029171e+001, 2.58578634e+000, 2.,
          2.58578634e+000, 0., 0., 0., 1.02577388e+000, 2.97422624e+000,
          0., 0., 0., 0., 7.85786438e+000, 6.21320343e+000,
          2.92893219e+000, 0., 3.19009757e+000, 1.77682724e+001,
          1.61543293e+001, 3.26232262e+001, 1.12640743e+001,
          2.20225868e+001, 1.84210644e+001, 1.65685425e+001,
          5.75517616e+001, 2.84360466e+001, 3.77643623e+001,
          2.32650757e+001, 2.23675327e+001, 4.57493629e+001,
          2.18536663e+001, 0., 3.34314585e+000, 2.48528147e+000,
          2.17157292e+000, 0., 2.61203885e-001, 1.36971655e+001,
          1.65685425e+001, 2.22752628e+001, 1.19782519e+000,
          6.36759186e+000, 1.51765642e+001, 2.60954552e+001,
          4.21625633e+001, 1.19782519e+000, 2.15624714e+001,
          2.09816837e+001, 3.35513000e+001, 5.99110413e+001,
          4.99350357e+000, 0., 4.17157269e+000, 4.14213562e+000,
          8.68629169e+000, 0., 2.61203885e-001, 7.25351477e+000,
          1.73969688e+001, 3.41878777e+001, 2.90043259e+000, 0.,
          5.85786462e-001, 1.49116879e+001, 4.14974861e+001,
          4.20050392e+001, 0., 1.17157292e+000, 4.14213562e+000,
          1.67599602e+001, 2.79263306e+001, 0., 1.17157292e+000,
          4.55634928e+000, 1.12720776e+001, 0., 2.61203885e-001,
          1.91036904e+000, 1.20121937e+001, 3.59322090e+001,
          2.38840256e+001, 0., 0., 0., 4.26859856e+000, 1.37314014e+001,
          0., 0., 0., 0., 0., 0., 1.75735927e+000, 6.62741709e+000,
          7.61522388e+000, 0., 2.77237377e+001, 1.37199144e+001,
          1.11837664e+001, 1.30770836e+001, 3.29549956e+000,
          2.10756588e+001, 5.51012707e+000, 4.14213568e-001,
          3.58158636e+000, 1.14184132e+001, 0., 0., 0., 0., 0., 0.,
          5.10050488e+000, 6.62741709e+000, 5.27207804e+000, 0.,
          4.37372131e+001, 1.50201464e+001, 2.48528147e+000,
          4.24264050e+000, 5.14718652e-001, 0., 0., 0., 0., 0., 0., 0.,
          0., 0., 0., 5.59733438e+000, 3.57423878e+000, 4.14213562e+000,
          9.74967003e+000, 9.36621308e-001, 2.81898441e+001,
          6.39594221e+000, 4.14213568e-001, 0., 0., 0., 0., 0., 0., 0.,
          0., 0., 0., 0., 0., 3.20987558e+000, 5.89062929e+000,
          6.62741709e+000, 6.27207804e+000, 0., 3.51852341e+001,
          9.32948399e+000, 9.94112587e+000, 1.25441561e+001, 0.,
          4.33795700e+001, 1.19635744e+001, 4.55634928e+000,
          5.10050488e+000, 0., 1.32397509e+000, 6.76024973e-001, 0., 0.,
          0., 0., 1., 3.31370854e+000, 2.46600399e+001, 3.02625227e+000,
          2.48395658e+000, 1.22023354e+001, 8.69848442e+000,
          4.40312920e+001, 1.95839329e+001, 3.19172611e+001,
          2.56268959e+001, 1.28406200e+001, 3.05180492e+001,
          3.20971756e+001, 3.13992729e+001, 2.77306690e+001,
          1.28406200e+001, 4.14864349e+001, 4.95430031e+001, 0., 0.,
          7.04163074e+000, 2.09135532e+001, 1.04481554e+000,
          6.75417423e-001, 7.25351477e+000, 1.65685425e+001,
          5.30434952e+001, 1.45902908e+000, 0., 1.17157292e+000,
          2.48528137e+001, 7.76187210e+001, 1.83568897e+001,
          5.91370583e+000, 9.11573124e+000, 3.10660172e+001,
          7.44872131e+001, 3.44173317e+001, 0., 4.34314585e+000,
          5.79898977e+000, 8.85786438e+000, 0., 4.47833252e+000,
          1.99947548e+001, 1.98822517e+001, 2.62938251e+001,
          1.35083485e+000, 5.28331261e+001, 2.42673779e+001,
          9.11269855e+000, 1.17867966e+001, 0., 3.70605888e+001,
          1.16967716e+001, 2.89949489e+000, 2.34314585e+000, 0., 0.,
          1.17157292e+000, 5.79898977e+000, 7.02943707e+000, 0.,
          2.99837742e+001, 1.59745941e+001, 1.24264069e+001,
          1.48316116e+001, 1.78361166e+000, 2.07421036e+001,
          4.25789642e+000, 0., 0., 0., 0., 0., 0., 0., 0., 0.,
          1.75735927e+000, 6.21320343e+000, 9.02943707e+000, 0.,
          1.21320019e+001, 1.33116484e+001, 1.28406200e+001,
          2.54059906e+001, 8.30973911e+000, 3.96836700e+001,
          6.31632996e+000, 0., 0., 0., 0., 0., 0., 0., 0., 0.,
          5.85786462e-001, 7.45584393e+000, 1.69583702e+001, 0.,
          2.50600243e+001, 1.10404806e+001, 4.97056293e+000,
          7.12455511e+000, 5.80437708e+000, 0., 0., 0., 0., 0., 0., 0.,
          0., 0., 0., 0., 1.58578646e+000, 4.14213562e+000,
          1.35502853e+001, 7.72179270e+000, 6.38697922e-001,
          2.53287506e+000, 8.28427136e-001, 5.35291100e+000,
          2.56470890e+001, 0., 0., 0., 0., 0., 0., 0., 0., 0., 0., 0.,
          2.34314585e+000, 3.72792196e+000, 1.30598803e+001,
          4.86905193e+000, 6.43064928e+000, 5.91249657e+000,
          1.07695522e+001, 2.40588741e+001, 1.82842708e+000,
          3.77549577e+000, 6.15343618e+000, 3.72792196e+000,
          1.04648027e+001, 3.08783436e+001, 0., 0., 0., 1.25941873e+000,
          2.74058127e+000 ]
      - [ 5.85786462e-001, 2.58578634e+000, 5.75735950e+000,
          5.76232576e+000, 1.35002260e+001, 2.80851626e+000, 1., 0.,
          5.53133011e+000, 8.11097431e+000, 1.23800936e+001,
          2.05741329e+001, 2.15619583e+001, 1.28420696e+001,
          1.00864315e+001, 4.91300964e+000, 0., 3.03303719e+000,
          1.66962261e+001, 5.10665970e+001, 3.32503052e+001,
          1.34113598e+001, 6.94641304e+000, 3.45833826e+000, 0., 3.,
          8.49969387e+000, 4.34200287e+001, 4.10486832e+001,
          8.61737823e+000, 3.41421366e+000, 2., 0., 4., 2., 1., 1.,
          6.17157269e+000, 6.24264050e+000, 2.58578634e+000, 0., 1.,
          2.41421366e+000, 1.11530094e+001, 9.45194721e+000,
          2.19689350e+001, 2.89933319e+001, 6.01856327e+000, 0., 3.,
          6.87036610e+000, 1.22344322e+001, 3.36416855e+001,
          3.89989815e+001, 4.01015244e+001, 9.91036892e+000, 0.,
          4.17157269e+000, 8.50384426e+000, 1.25097914e+001,
          3.49671936e+001, 4.30789528e+001, 4.75261345e+001,
          3.44298286e+001, 0., 0., 2., 0., 1., 1.01715727e+001,
          4.82842731e+000, 2., 0., 3., 2., 2.58578634e+000,
          5.24264050e+000, 1.80048122e+001, 3.24668312e+001,
          1.40430737e+001, 0., 8.41421318e+000, 8., 3.54805255e+000,
          4.39277411e+000, 7.58784294e+000, 1.91990700e+001,
          5.47402496e+001, 0., 0., 0., 0., 0., 0., 3.68363738e+000,
          2.00689411e+001, 0., 1., 1., 0., 2.41421366e+000,
          8.75735950e+000, 9.82842731e+000, 0., 0., 8.64916515e+000,
          9.84699059e+000, 2., 4.91805792e+000, 1.96293869e+001,
          2.19773769e+001, 9.94998264e+000, 0., 1.17157292e+000, 0., 2.,
          0., 1., 8.58215237e+000, 4.77420998e+001, 0., 0., 0., 0., 0.,
          0., 0., 0., 0., 1., 1., 3., 7., 4., 5., 0., 0.,
          1.48573055e+001, 1.45883274e+001, 9.39706802e+000,
          1.01792622e+001, 1.06677284e+001, 5.24264050e+000,
          7.12391996e+000, 0., 3.60536842e+001, 1.72367764e+001,
          1.91099906e+000, 2.41421366e+000, 2.47338700e+000,
          3.46743965e+000, 5.32494545e+000, 0., 0., 0., 0., 0., 0., 0.,
          0., 0., 1.58578646e+000, 2.76294923e+000, 4.90192604e+000,
          7.67264414e+000, 5.66248083e+000, 4.41421366e+000, 0., 0.,
          1.30531435e+001, 3.47419891e+001, 1.18408031e+001,
          1.26945286e+001, 1.51931250e+000, 0., 1.58578646e+000, 0.,
          1.09383631e+000, 3.90616369e+000, 0., 0., 0., 0., 0., 0., 0.,
          0., 0., 0., 0., 0., 0., 1.17576826e+000, 4.80511522e+000,
          8.47649288e+000, 5.94059896e+000, 6.60202408e+000,
          3.82227331e-001, 2.43111682e+000, 2.18665576e+000, 0.,
          3.49815083e+000, 2.02683487e+001, 4.98467159e+000,
          2.24882889e+000, 0., 0., 0., 0., 0., 0., 0., 0., 0., 0., 0.,
          0., 0., 0., 0., 0., 0., 0., 0., 0., 2.18919492e+000,
          4.55499268e+000, 5.49801064e+000, 9.45645428e+000,
          2.94204473e+000, 1.06039977e+000, 0., 1.24613917e+000,
          1.65604651e+000, 1.15169039e+001, 3.66048126e+001,
          1.45341749e+001, 2.09957957e+000, 3.17426920e+000,
          1.68074355e-001, 0., 0., 0., 1., 0., 0., 0., 0., 0., 0., 0.,
          0., 0., 0., 0., 0., 3.90267992e+000, 1.24404659e+001,
          3.72792196e+000, 3.83509588e+000, 1.09383631e+000,
          2.96169109e+001, 2.08978062e+001, 5.38477612e+000,
          1.55810146e+001, 1.75194912e+001, 4.96237564e+001,
          3.59914665e+001, 8.28427124e+000, 2.01038666e+001,
          9.99663830e+000, 3.76814117e+001, 3.31053848e+001,
          1.15979795e+001, 1.29398060e+001, 6.75417423e-001, 0.,
          4.10050488e+000, 5.79898977e+000, 1.18393011e+001,
          2.61203885e-001, 2.61203885e-001, 1.03540201e+001,
          1.69827557e+001, 4.47528534e+001, 2.64916515e+000,
          3.19312477e+000, 1.51794586e+001, 2.94091625e+001,
          6.91996918e+001, 3.01856327e+000, 1.98143685e+000,
          2.49769325e+001, 3.60365791e+001, 7.85395050e+001,
          2.64655457e+001, 0., 1.17157292e+000, 5.79898977e+000,
          1.20294371e+001, 0., 0., 5.68629169e+000, 1.32548342e+001,
          4.89950905e+001, 8.06378555e+000, 1.98143685e+000,
          1.52906408e+001, 8.69848442e+000, 2.98856163e+001,
          5.81438217e+001, 0., 0., 0., 5.51045370e+000, 2.04895458e+001,
          0., 1.17157292e+000, 6.21320343e+000, 1.36152239e+001, 0.,
          2.13444638e+000, 1.71376324e+001, 1.32548342e+001,
          3.90879440e+001, 7.38514328e+000, 2.61203885e-001,
          2.91036892e+000, 2.07106781e+000, 1.63964252e+001,
          5.63609352e+001, 0., 0., 0., 0., 0., 0., 2.92893219e+000,
          5.79898977e+000, 5.27207804e+000, 0., 1.27801514e+001,
          2.35924320e+001, 1.32548342e+001, 2.00742531e+001,
          1.29833031e+000, 4.65624504e+001, 1.37806950e+001,
          3.31370854e+000, 1.06189098e+001, 4.72423601e+000, 0., 0., 0.,
          0., 0., 3.59573531e+000, 5.33319664e+000, 5.38477612e+000,
          6.04947567e+000, 1.63681579e+000, 5.08311882e+001,
          1.25119562e+001, 3.72792196e+000, 3.92893219e+000, 0.,
          3.77938318e+000, 1.22061670e+000, 0., 0., 0., 0., 0., 0., 0.,
          0., 1.76282349e+001, 4.95755148e+000, 1.24264073e+000,
          1.78258991e+000, 2.38898301e+000, 2.56809158e+001,
          4.31908512e+000, 0., 0., 0., 0., 0., 0., 0., 0., 0., 0., 0.,
          0., 0., 6.17424154e+000, 9.16890430e+000, 2.48528147e+000,
          3.30242300e+000, 1.86914980e+000, 4.37952995e+001,
          1.49620600e+001, 1.24264073e+000, 3.48168182e+000,
          3.51831818e+000, 5.14718652e-001, 4.85281378e-001, 0., 0., 0.,
          0., 0., 0., 0., 0., 5.22407770e-001, 2.64916515e+000,
          2.89949489e+000, 1.45035057e+001, 7.42542648e+000,
          1.29693213e+001, 1.29596109e+001, 3.31370854e+000,
          2.54077969e+001, 3.83495636e+001, 5.77010632e+000,
          5.81568003e+000, 4.14213562e+000, 4.40300903e+001,
          6.32419891e+001, 0., 2.92893219e+000, 4.97056293e+000,
          4.20767632e+001, 5.30237427e+001, 0., 7.68629169e+000,
          7.04163074e+000, 6.27207804e+000, 0., 0., 8.51471901e+000,
          1.65685425e+001, 3.08719234e+001, 2.04481554e+000, 0.,
          1.63725834e+001, 2.89949493e+001, 6.39980621e+001,
          6.63440657e+000, 2.29115372e+001, 2.36326180e+001,
          3.14802303e+001, 6.47437363e+001, 1.02318745e+001, 0.,
          1.75735927e+000, 4.97056293e+000, 8.27207756e+000, 0.,
          5.22407770e-001, 2.31222534e+001, 1.78111839e+001,
          2.50217476e+001, 5.22407770e-001, 5.58865395e+001,
          2.70718288e+001, 9.94112587e+000, 1.29660587e+001,
          2.13444638e+000, 2.05949554e+001, 4.99083042e+000,
          4.14213568e-001, 0., 0., 0., 1.75735927e+000, 5.38477612e+000,
          7.85786438e+000, 0., 4.01735830e+000, 2.41836510e+001,
          1.40832615e+001, 2.26709137e+001, 1.04481554e+000,
          6.17629471e+001, 1.94086266e+001, 1.65685427e+000,
          2.17157292e+000, 0., 0., 0., 0., 0., 0., 0., 1.17157292e+000,
          6.62741709e+000, 8.20100975e+000, 0., 1.41715794e+001,
          2.16862850e+001, 1.53259020e+001, 2.52938251e+001,
          5.22407770e-001, 5.37053757e+001, 1.72235565e+001,
          3.72792196e+000, 7.96189642e+000, 1.38124931e+000, 0., 0., 0.,
          0., 0., 0., 1.75735927e+000, 4.97056293e+000, 8.49619865e+000,
          7.77587938e+000, 1.56056404e+001, 1.03232918e+001,
          2.89949489e+000, 8.47364807e+000, 2.46979256e+001,
          1.43556535e+000, 5.64434648e-001, 0., 0., 0., 0., 0., 0., 0.,
          0., 8.00442028e+000, 3.16715312e+000, 2.89949489e+000,
          7.26669502e+000, 8.66223717e+000, 7.91443300e+000,
          5.08556700e+000, 4.14213568e-001, 2.05032134e+000,
          7.53546524e+000, 0., 0., 0., 0., 0., 0., 0., 0., 0., 0.,
          3.56615496e+000, 3.01963162e+000, 1.24264073e+000,
          9.31360054e+000, 9.85797215e+000, 1.51154840e+000,
          2.07423806e+000, 1.24264073e+000, 1.78474102e+001,
          4.43241615e+001, 0., 0., 0., 4.85281378e-001, 5.14718652e-001,
          0., 0., 0., 0., 0. ]
      - [ 0., 0., 4.88768482e+000, 1.20824881e+001, 2.98267845e-002, 0.,
          0., 0., 0., 1.13918900e-001, 1.31705465e+001, 2.15247917e+001,
          1.90743566e-001, 0., 1., 1., 0., 1.43556535e+000,
          2.05324879e+001, 2.43565292e+001, 4.86914968e+000,
          4.39205408e+000, 2.41421366e+000, 0., 0., 1.04196012e+000,
          1.92953968e+001, 2.73714180e+001, 2.05524273e+001,
          1.39622660e+001, 7.76530027e-001, 0., 0., 5.85786462e-001,
          3.75169826e+000, 1.28567657e+001, 8.05749297e-001,
          4.19301224e+000, 6.39277411e+000, 4.14213568e-001, 0.,
          6.32458258e+000, 1.14120474e+001, 2.86655884e+001,
          2.23365784e+001, 1.04775925e+001, 5.93662119e+000,
          1.17157292e+000, 0., 3.69818592e+000, 1.84593105e+001,
          3.62871895e+001, 3.90427551e+001, 2.23641338e+001,
          1.52005234e+001, 4.05476332e+000, 0., 1.01358747e+001,
          1.50635920e+001, 2.57000313e+001, 5.19554977e+001,
          4.06117325e+001, 4.24773979e+001, 7.53722477e+000, 0.,
          1.51488376e+000, 6.01142597e+000, 4.21248674e+000,
          4.24446440e+000, 4.01673937e+000, 5.59347534e+000,
          5.40652466e+000, 0., 2.49493837e+000, 2.37304153e+001,
          3.60162621e+001, 1.05923967e+001, 8.91884899e+000,
          5.85209322e+000, 1.27018321e+000, 0., 3.91036892e+000,
          8.86915016e+000, 1.13692856e+001, 3.71284981e+001,
          3.21470985e+001, 4.47398758e+001, 1.12436876e+001, 0.,
          4.06349945e+000, 1.22006836e+001, 1.27537632e+001,
          3.98805962e+001, 3.03767033e+001, 5.64076157e+001,
          4.16598663e+001, 0., 1., 3.26120377e+000, 6.39343882e+000,
          1.47513857e+001, 3.76554489e+000, 8.28427136e-001, 0., 0.,
          1.65053539e+001, 1.69215336e+001, 1.48614216e+001,
          1.97677097e+001, 9.06466007e+000, 4.92145586e+000,
          4.27805090e+000, 0., 1.06149197e+001, 2.79802437e+001,
          2.29195576e+001, 2.18175526e+001, 1.90108738e+001,
          1.88994942e+001, 1.45147190e+001, 0., 3.68148308e+001,
          1.66898899e+001, 6.10559368e+000, 1.25080500e+001,
          2.09103699e+001, 4.31242943e+001, 2.38096905e+001, 0.,
          3.13842982e-001, 2.05915699e+001, 5.09458685e+000, 0., 0., 0.,
          0., 0., 8.23611927e+000, 8.94673061e+000, 0., 0., 0., 0., 0.,
          0., 0., 6.70585918e+000, 1.29414105e+000, 0., 0., 0., 0., 0.,
          1.40468979e+000, 6.57463884e+000, 2.06713416e-002, 0., 0., 0.,
          0., 0., 0., 3.39880276e+000, 1.60119736e+000, 0., 0., 0., 0.,
          0., 0., 0., 0., 0., 0., 0., 0., 0., 0., 0., 0., 0., 0., 0., 0.,
          0., 0., 0., 0., 0., 0., 0., 0., 0., 0., 1.31251097e+000,
          6.87489033e-001, 0., 0., 0., 0., 0., 0., 0., 0., 0., 0., 0.,
          0., 0., 0., 0., 0., 0., 0., 0., 0., 0., 0., 0., 0., 0., 0., 0.,
          0., 0., 0., 0., 1., 0., 0., 0., 0., 0., 0., 0., 0., 0., 0., 0.,
          0., 0., 0., 0., 0., 0., 0., 0., 0., 0., 0., 0., 0., 0., 0., 0.,
          0., 1.33459244e+001, 3.65407538e+000, 0., 0., 0.,
          2.86187935e+001, 6.38120604e+000, 4.14213568e-001,
          1.32458258e+000, 2.61203885e-001, 3.28317986e+001,
          1.33397732e+001, 2.48528147e+000, 6.08194208e+000,
          2.61203885e-001, 3.03479939e+001, 1.86814423e+001,
          9.94112587e+000, 1.23540201e+001, 6.75417423e-001,
          1.38995008e+001, 4.10049868e+000, 4.14213568e-001,
          8.19013596e+000, 2.39565039e+000, 1.10103941e+001,
          3.86048279e+001, 9.11269855e+000, 1.58130493e+001,
          1.45902908e+000, 2.03908787e+001, 4.54964218e+001,
          2.23675327e+001, 3.01404152e+001, 8.60475159e+000,
          2.17397614e+001, 3.49048996e+001, 3.43797264e+001,
          5.27823677e+001, 2.31932430e+001, 6.27618551e+000,
          5.72381449e+000, 8.28427136e-001, 1.49737473e+001,
          1.19782519e+000, 2.26792469e+001, 3.95928307e+001,
          7.45584393e+000, 1.37386665e+001, 4.53341150e+000,
          1.36939812e+000, 2.04173985e+001, 2.36101723e+001,
          7.02482452e+001, 8.35478210e+000, 4.24734497e+000,
          1.99831028e+001, 3.56223679e+001, 9.22628860e+001,
          2.38842964e+001, 2.69365668e+000, 1.04068489e+001,
          4.14213562e+000, 5.75735950e+000, 0., 3.43703880e+001,
          2.15585461e+001, 4.97056293e+000, 1.15104799e+001,
          7.59002495e+000, 3.18101654e+001, 2.22487087e+001,
          2.44386005e+001, 4.09801178e+001, 5.22407770e-001,
          4.14568977e+001, 2.73299007e+001, 2.15391045e+001,
          7.09285507e+001, 1.27455463e+001, 2.37457294e+001,
          2.25427103e+000, 0., 0., 0., 1.49927864e+001, 3.00721312e+000,
          0., 0., 0., 6.40106344e+000, 1.59893632e+000, 0., 0., 0.,
          6.50482035e+000, 1.49517953e+000, 0., 0., 0., 3.97598219e+000,
          1.02401793e+000, 0., 0., 0., 0., 0., 0., 0., 0., 0., 0., 0.,
          0., 0., 0., 0., 0., 0., 0., 1.39601898e+000, 6.03981078e-001,
          0., 0., 0., 0., 0., 0., 0., 0., 0., 0., 0., 0., 0., 0., 0., 0.,
          0., 0., 5.14718652e-001, 4.85281378e-001, 0., 0., 0., 0., 0.,
          0., 0., 0., 0., 0., 0., 0., 0., 0., 0., 0., 0., 0., 0., 0., 0.,
          3.53299832e+000, 1.14670019e+001, 0., 2.17157292e+000,
          8.28427136e-001, 7.46988106e+000, 2.35301189e+001,
          4.14213568e-001, 1.58578646e+000, 2.89949489e+000,
          1.84982014e+001, 2.56023026e+001, 0., 1.75735927e+000,
          5.79898977e+000, 4.27579994e+001, 2.66856518e+001,
          2.61203885e-001, 2.32458258e+000, 2.07106781e+000,
          7.70713520e+000, 1.36360102e+001, 5.22407770e-001,
          8.82073784e+000, 6.21320343e+000, 4.63047943e+001,
          1.61388588e+001, 6.50805616e+000, 1.36929541e+001,
          1.86396103e+001, 6.98570404e+001, 2.93023396e+001,
          1.07805405e+001, 1.92488976e+001, 2.65096684e+001,
          7.84945145e+001, 3.19663830e+001, 7.75922477e-001,
          9.08194160e+000, 5.38477612e+000, 8.83756065e+000,
          4.91979885e+000, 4.54668713e+000, 4.62488556e+000,
          9.52691174e+000, 4.77750778e+001, 1.55264387e+001,
          3.10357380e+000, 1.62690086e+001, 2.44386005e+001,
          6.52973328e+001, 4.89148188e+000, 9.65150642e+000,
          5.44368057e+001, 3.47939377e+001, 6.59295349e+001,
          4.18821287e+000, 2.61203885e-001, 7.38796115e-001,
          2.07106781e+000, 1.62784081e+001, 8.65052414e+000,
          2.43716583e+001, 9.38570118e+000, 4.97056293e+000,
          3.10478287e+001, 1.62242489e+001, 2.61203885e-001,
          2.84128952e+001, 2.94091625e+001, 4.39581947e+001,
          2.29585457e+001, 5.23469696e+001, 4.96408386e+001,
          2.56812401e+001, 3.57493362e+001, 3.58161688e+000,
          2.61203885e-001, 2.32458258e+000, 1.65685427e+000,
          6.37539291e+000, 7.38196611e+000, 1.08000145e+001,
          3.19998550e+000, 0., 0., 0., 0., 0., 0., 7.31507659e-001,
          2.26849246e+000, 2.27691841e+000, 7.23081708e-001,
          4.14213568e-001, 5.85786462e-001, 0., 0., 0., 0.,
          7.94724643e-001, 2.20527530e+000, 0., 0., 0., 0., 0., 0., 0.,
          0., 0., 0., 0., 0., 0., 0., 0., 0., 0., 0., 1.90743566e-001,
          8.09256434e-001, 0., 0., 0., 0., 0., 0., 0., 0., 0., 0., 0.,
          0., 0., 0., 0., 0., 0., 0., 4.85281378e-001, 5.14718652e-001,
          0., 0., 0., 0., 0., 0., 0., 0., 0., 0., 0., 0., 0., 0., 0. ]
      - [ 0., 0., 0., 0., 0., 0., 0., 0., 0., 4.83365583e+000,
          9.26120377e+000, 4.15300989e+000, 5.58578634e+000,
          4.80626774e+000, 6.79128265e+000, 2.13887482e+001, 0.,
          9.75735950e+000, 9.59770489e+000, 9.08466339e+000,
          2.28893490e+001, 3.58662224e+001, 4.18604240e+001,
          1.42146311e+001, 0., 0., 0., 9.88211536e+000, 3.91348953e+001,
          2.76202927e+001, 7.36269569e+000, 0., 0., 0., 0., 0., 0., 0.,
          0., 0., 0., 2.04824948e+000, 0., 0., 0., 0., 1.,
          3.03205162e-001, 0., 1.13785715e+001, 8.33973122e+000, 0.,
          4.24181509e+000, 1.28215637e+001, 1.13508348e+001,
          7.86326122e+000, 0., 1.61838551e+001, 3.23367043e+001,
          1.05081167e+001, 5.33836174e+001, 4.89611130e+001,
          1.50718803e+001, 7.67476606e+000, 0., 0., 0., 0., 0., 0., 0.,
          0., 0., 0., 0., 0., 0., 0., 0., 0., 0., 0., 0., 0., 0., 0., 0.,
          0., 0., 3.29202194e+001, 5.56505013e+000, 0., 2., 1., 0.,
          5.85786462e-001, 0., 0., 0., 0., 0., 0., 0., 0., 0., 0., 0.,
          0., 0., 0., 0., 0., 0., 0., 0., 0., 0., 0., 0., 0., 0., 0., 0.,
          0., 0., 0., 0., 0., 0., 0., 0., 0., 0., 0., 0., 0., 0., 0., 0.,
          0., 0., 0., 0., 0., 0., 0., 0., 0., 0., 0., 0., 0., 0., 0., 0.,
          0., 0., 0., 0., 0., 0., 0., 0., 0., 0., 0., 0., 0., 0., 0., 0.,
          0., 0., 0., 0., 0., 0., 0., 0., 0., 0., 0., 0., 0., 0., 0., 0.,
          0., 0., 0., 0., 0., 0., 0., 0., 0., 0., 0., 0., 0., 0., 0., 0.,
          0., 0., 0., 0., 0., 0., 0., 0., 0., 0., 0., 0., 0., 0., 0., 0.,
          0., 0., 0., 0., 0., 0., 0., 0., 0., 0., 0., 0., 0., 0.,
          1.13449831e+001, 1.96888065e+001, 3.25396228e+000,
          5.85786462e-001, 4.14213568e-001, 0., 0., 5.85786462e-001,
          2.81647539e+000, 2.39738388e+001, 1.26238995e+001, 1., 0., 0.,
          0., 0., 0., 1.94076979e+000, 2.05923033e+000, 1., 0., 0., 0.,
          0., 0., 0., 0., 0., 9.19311523e+000, 1.30789633e+001,
          9.52691174e+000, 2.23727531e+001, 1.88282566e+001,
          4.79150438e+000, 1.99952927e+001, 2.11248913e+001,
          6.88016281e+001, 2.12866802e+001, 1.27495222e+001,
          4.25047827e+000, 4.14213568e-001, 1.34251060e+001,
          4.01606789e+001, 0., 0., 0., 0., 0., 3.50244069e+000,
          1.49755931e+000, 0., 1.07106781e+000, 9.28932190e-001,
          2.31352386e+001, 1.44505472e+001, 1.03553391e+001,
          3.17346153e+001, 3.32425857e+000, 3.21987991e+001,
          2.80022106e+001, 1.53259020e+001, 5.92629929e+001,
          3.22100945e+001, 0., 0., 0., 0., 0., 0., 0., 0., 0., 0., 0.,
          0., 0., 0., 0., 2.84828720e+001, 1.42744865e+001,
          2.07106781e+000, 1.17157292e+000, 0., 0., 0., 0., 0., 0., 0.,
          0., 0., 0., 0., 0., 0., 0., 0., 0., 0., 0., 0., 0., 0., 0., 0.,
          0., 0., 0., 0., 0., 0., 0., 0., 0., 0., 0., 0., 0., 0., 0., 0.,
          0., 0., 0., 0., 0., 0., 0., 0., 0., 0., 0., 0., 0., 0., 0., 0.,
          0., 0., 0., 0., 0., 0., 0., 0., 0., 0., 0., 0., 0., 0., 0., 0.,
          0., 0., 0., 0., 0., 0., 0., 0., 0., 0., 0., 0., 0., 0., 0.,
          2.91456947e+001, 6.85430527e+000, 4.14213568e-001,
          5.85786462e-001, 0., 3.26102715e+001, 6.97551346e+000,
          4.14213568e-001, 0., 0., 3.06869745e+000, 9.31302607e-001, 0.,
          0., 0., 3.92178774e+000, 1.07821226e+000, 0., 0., 0.,
          4.29522209e+001, 1.31482840e+001, 8.69848442e+000,
          1.09398060e+001, 2.61203885e-001, 2.47534347e+000,
          3.07551041e+001, 2.44386005e+001, 4.49003487e+001,
          2.04306030e+001, 0., 0., 0., 1.32595348e+001, 6.77404633e+001,
          0., 0., 0., 0., 0., 7.50311136e+000, 2.49688864e+000, 0., 0.,
          0., 4.40788803e+001, 1.57789850e+001, 6.21320343e+000,
          1.21613493e+001, 3.76758242e+000, 2.00983448e+001,
          2.39310932e+001, 1.57401152e+001, 5.62957764e+001,
          5.59346733e+001, 0., 0., 0., 0., 0., 0., 0., 0., 0., 0., 0.,
          0., 0., 0., 0., 3.01005878e+001, 1.34851980e+001,
          1.65685427e+000, 1.75735927e+000, 0., 0., 0., 0., 0., 0., 0.,
          0., 0., 0., 0., 0., 0., 0., 0., 0., 0., 0., 0., 0., 0., 0., 0.,
          0., 0., 0., 0., 0., 0., 0., 0., 0., 0., 0., 0., 0., 0., 0., 0.,
          0., 0., 0., 0., 0., 0., 0., 0., 0., 0., 0., 0., 0., 0., 0., 0.,
          0., 0., 0., 0., 0., 0., 0., 0., 0., 0., 0., 0., 0., 0., 0., 0.,
          0., 0., 0., 0., 0., 0., 0., 0., 0., 0., 0., 0., 0., 0., 0.,
          1.56173306e+001, 5.55424213e+000, 1.65685427e+000,
          6.61972809e+000, 2.55184507e+000, 2.19782519e+000,
          8.55953407e+000, 1.65685427e+000, 6.41031647e+000,
          1.51754704e+001, 0., 0., 0., 1.28000605e+000, 2.71999407e+000 ]
      - [ 0., 0., 0., 1., 13., 9., 4., 0., 0., 8.59109783e+000,
          1.49541502e+001, 1.27130365e+001, 2.41690102e+001,
          3.34634185e+000, 7., 2.58578634e+000, 0., 1.65457230e+001,
          9.60626125e+000, 1.11772661e+001, 4.36248627e+001,
          3.03928871e+001, 2.00284557e+001, 2.94112158e+000, 0., 0., 0.,
          2.34086234e-002, 4.61019440e+001, 2.15142860e+001,
          1.36036289e+000, 0., 0., 0., 0., 1., 18., 6., 0., 0., 0., 1.,
          9.82842731e+000, 1.41715727e+001, 34., 4., 1., 2., 0., 1., 3.,
          9.75735950e+000, 5.21356621e+001, 3.06031342e+001,
          2.25038452e+001, 3., 5.85786462e-001, 1., 5., 9.75389957e+000,
          6.70692444e+001, 1.01326424e+002, 1.42646437e+001, 1., 0., 0.,
          0., 6., 2.25857868e+001, 3.41421366e+000, 0., 0., 0., 0., 0.,
          1.51715727e+001, 4.42426414e+001, 5.58578634e+000,
          2.58578634e+000, 1.00585823e+001, 0., 0., 0., 3.17157292e+000,
          1.57279224e+001, 1.22720776e+001, 9.50384426e+000,
          2.85591469e+001, 0., 1.49052691e+000, 0., 0., 2.,
          3.58578634e+000, 1.50191708e+001, 1.18440475e+001, 0., 0., 0.,
          9.17157269e+000, 1.48994951e+001, 3.92893219e+000, 0., 0., 0.,
          0., 2., 9.58578682e+000, 8.82842731e+000, 3.17157292e+000,
          5.85934448e+000, 3.60656357e+001, 0., 0., 0., 0., 0., 0., 0.,
          5.32424641e+000, 0., 0., 0., 0., 0., 0., 0., 0., 0., 0., 1.,
          9.10050488e+000, 1.48994951e+001, 2., 0., 0., 0.,
          4.41752720e+000, 9.25647354e+000, 2.29173660e+001,
          9.64673328e+000, 3., 4., 1.00665703e+001, 0., 1.,
          1.32723200e+000, 3.58529587e+001, 1.02340240e+001,
          2.58578634e+000, 4.52733946e+000, 3.87115059e+001, 0.,
          4.57250786e+000, 1.17413940e+001, 2.46068621e+000, 0., 0., 1.,
          6.32589102e+000, 0., 3., 2.82842708e+000, 7.23495150e+000,
          9.93662167e+000, 0., 2., 0., 0., 9.03267384e+000,
          5.01371241e+000, 1.61191788e+001, 1.79829845e+001,
          3.47059846e+000, 5.41421366e+000, 2.64639902e+000, 0.,
          1.16109114e+001, 0., 8.94913292e+000, 3.09103069e+001,
          1.14056039e+000, 2.41421366e+000, 1.38617678e+001, 0.,
          6.12084484e+000, 9.32921219e+000, 1.63888855e+001,
          9.59777355e+000, 2.61203885e-001, 4.14213568e-001,
          6.43283892e+000, 0., 0., 4.59231824e-001, 7.54076815e+000,
          1.17472172e+001, 4.25278330e+000, 2., 0., 0., 1.02005825e+001,
          9.09850883e+000, 2.34428406e+000, 3.29609184e+001,
          1.86738646e+000, 7.82842731e+000, 1.07573595e+001, 0.,
          4.35530519e+000, 2., 2.06321821e-001, 3.74957924e+001,
          1.88367319e+000, 3.82842708e+000, 4.85108328e+000, 0.,
          4.42487288e+000, 5.96054983e+000, 1.17867537e+001,
          2.40669460e+001, 2.00901493e-001, 0., 1.19226825e+000, 0., 0.,
          2.70211697e+000, 2.88366938e+000, 1.34142132e+001, 4., 1., 0.,
          0., 1.00384312e+001, 8.43257523e+000, 2.41212463e+000,
          8.93453789e+000, 2.39799938e+001, 1.57171345e+001,
          1.11469517e+001, 0., 2.87917733e+000, 2.88180733e+001,
          2.79172974e+001, 7.90728807e+000, 1.47816443e+000,
          1.32992468e+001, 2.97216778e+001, 0., 0., 2.30173492e+000,
          4.69114161e+000, 1.47928047e+001, 2.14319184e-001, 0., 0., 0.,
          5.85786462e-001, 5.79898977e+000, 7.61522388e+000, 0.,
          2.07893505e+001, 1.66543007e+001, 1.03553391e+001,
          1.26862917e+001, 1.51471865e+000, 1.94482689e+001,
          1.98532448e+001, 2.52670269e+001, 4.50150070e+001,
          1.14164515e+001, 0., 5.85786462e-001, 1.24264073e+000,
          1.09726524e+001, 3.51989212e+001, 0., 5.85786462e-001,
          2.89949489e+000, 3.51471853e+000, 0., 2.61203885e-001,
          1.84545250e+001, 1.11837664e+001, 4.10050488e+000, 0., 0.,
          1.09583693e+001, 2.56812401e+001, 4.40543709e+001,
          1.30601943e+000, 0., 1.39583693e+001, 2.69238815e+001,
          9.84091492e+001, 3.57085991e+001, 0., 6.27207804e+000,
          5.38477612e+000, 2.34314585e+000, 0., 0., 1.56446609e+001,
          1.53259020e+001, 1.53867378e+001, 9.64269924e+000, 0.,
          2.34314585e+000, 1.69827557e+001, 3.74675598e+001,
          2.72065372e+001, 0., 3.92893219e+000, 9.11269855e+000,
          2.91950569e+001, 1.07633133e+001, 0., 7.85786438e+000,
          6.62741709e+000, 3.51471853e+000, 0., 0., 7.02943707e+000,
          9.11269855e+000, 1.74830170e+001, 3.63748474e+001, 0., 0., 0.,
          1.63139975e+000, 5.36860037e+000, 0., 0., 0., 0., 0., 0.,
          8.20100975e+000, 6.62741709e+000, 1.17157292e+000, 0.,
          2.22686577e+001, 1.80034218e+001, 9.52691174e+000,
          1.56204576e+001, 1.15805531e+001, 3.26294441e+001,
          9.12791634e+000, 4.14213562e+000, 1.75881481e+001,
          4.15123558e+001, 1.83151016e+001, 2.68489742e+000,
          4.14213568e-001, 3.05740643e+000, 1.05283804e+001, 0.,
          1.08578644e+001, 4.97056293e+000, 1.17157292e+000, 0.,
          3.33432312e+001, 1.37572756e+001, 8.69848442e+000,
          1.33312511e+001, 1.86975884e+000, 3.69387474e+001,
          1.39901838e+001, 7.04163074e+000, 1.82969055e+001,
          1.57325306e+001, 3.43638687e+001, 8.80770397e+000,
          4.14213562e+000, 7.65599632e+000, 6.03029490e+000,
          1.41771209e+000, 4.09700632e+000, 5.79898977e+000,
          4.68629169e+000, 0., 1.95963821e+001, 5.57519150e+000,
          1.11837664e+001, 2.56446609e+001, 0., 5.19732952e+000,
          8.83210754e+000, 8.69848442e+000, 1.27496700e+001,
          5.22407770e-001, 2.77031364e+001, 9.05422401e+000,
          2.89949489e+000, 4.45832777e+000, 2.88481832e+000,
          1.05666673e+000, 3.70069265e+000, 3.31370854e+000,
          2.92893219e+000, 0., 1.38919344e+001, 7.20857048e+000,
          1.07695522e+001, 2.39012833e+001, 2.22286606e+001,
          5.23414307e+001, 1.12443542e+001, 4.14213562e+000,
          3.14687653e+001, 2.08033123e+001, 7.80822897e+000,
          2.19177103e+000, 1.65685427e+000, 3.92893219e+000,
          4.14213568e-001, 0., 0., 8.69848442e+000, 1.43015156e+001, 0.,
          3.75405979e+000, 1.11038046e+001, 1.03553391e+001,
          1.54962721e+001, 2.52905235e+001, 2.34156628e+001,
          9.68484211e+000, 1.65685425e+001, 4.85159492e+001,
          2.48150024e+001, 0., 0., 0., 8.01458931e+000, 5.99854088e+001,
          0., 0., 8.69848442e+000, 1.63015156e+001, 0., 0.,
          5.27207804e+000, 2.19533195e+001, 3.44685822e+001,
          1.30601943e+000, 0., 4.10050488e+000, 1.90538235e+001,
          7.26849747e+001, 5.16069889e+000, 2.61203885e-001,
          1.91036904e+000, 1.86396103e+001, 1.11592484e+002,
          5.75963364e+001, 0., 0., 4.14213562e+000, 2.52458248e+001,
          2.61203885e+000, 1.44548550e+001, 6.47407770e+000,
          8.28427124e+000, 5.26894760e+001, 6.09732008e+000,
          4.70067101e+001, 1.80937939e+001, 1.03553391e+001,
          2.45441551e+001, 0., 3.66926155e+001, 1.38221035e+001,
          4.97056293e+000, 3.51471853e+000, 0., 0., 0., 2.89949489e+000,
          2.40556889e+001, 1.04481554e+000, 4.32581902e+001,
          1.16707420e+001, 7.87005758e+000, 1.62010098e+001, 0.,
          6.35247803e+000, 1.64752173e+000, 0., 0., 0., 0., 0., 0., 0.,
          0., 0., 5.85786462e-001, 5.38477612e+000, 2.07682343e+001,
          2.61203885e-001, 2.97398548e+001, 1.21890764e+001,
          7.87005758e+000, 1.94099884e+001, 1.57910213e+001,
          5.30541573e+001, 1.22889872e+001, 3.72792196e+000,
          1.18272324e+001, 3.51016998e+001, 2.52920647e+001,
          3.70793486e+000, 0., 1.30510056e+000, 4.69489956e+000, 0.,
          4.92893219e+000, 4.97056293e+000, 1.36414757e+001,
          1.45902908e+000, 2.82114601e+001, 1.11316853e+001,
          3.72792196e+000, 1.33104553e+001, 2.46184769e+001,
          6.21663361e+001, 1.63483810e+001, 2.48528147e+000,
          5.61434937e+000, 3.53856506e+001, 4.78856392e+001,
          1.00432930e+001, 2.07106781e+000, 4.53512621e+000,
          2.34648743e+001, 0., 0., 6.21320343e+000, 1.52242346e+001,
          2.56256199e+000, 1.28104954e+001, 1.71478729e+001,
          8.28427124e+000, 5.62467957e+000, 3.21326790e+001,
          1.06854782e+001, 1.35865993e+001, 4.55634928e+000,
          4.24207735e+000, 3.49294968e+001, 1.92366676e+001,
          5.76333237e+000, 0., 6.40567446e+000, 3.35943260e+001, 0., 0.,
          6.21320343e+000, 1.55255928e+001, 2.61203885e-001,
          1.36289759e+001, 1.55720339e+001, 1.07695522e+001,
          1.33654709e+001, 1.96639671e+001, 2.06928692e+001,
          3.60939293e+001, 6.21320343e+000, 1.14171133e+001,
          4.05828857e+001, 0., 0., 0., 2.19921279e+000, 1.78007870e+001 ]
      - [ 0., 0., 1., 2., 1.48284273e+001, 7.17157269e+000, 4., 1., 0.,
          4.52169991e+000, 1.90487862e+001, 1.09254894e+001,
          2.36391850e+001, 5.50298643e+000, 4., 4.14213568e-001, 0.,
          1.90317326e+001, 1.05152121e+001, 8.77005672e+000,
          4.48403931e+001, 2.88188515e+001, 14., 7.37429857e+000, 0., 0.,
          0., 0., 4.45719109e+001, 2.14280891e+001, 0., 0., 0., 0., 1.,
          0., 1.74142132e+001, 7.58578634e+000, 1., 0., 0., 4., 16.,
          1.95857868e+001, 1.84142132e+001, 2., 5., 0., 0., 0., 2.,
          1.31715727e+001, 4.48361168e+001, 3.60742531e+001,
          2.69180584e+001, 0., 0., 0., 2., 8.40134335e+000,
          6.82422180e+001, 9.67843170e+001, 2.05721245e+001, 0., 0., 0.,
          0., 3.34314585e+000, 2.31421356e+001, 5.51471853e+000, 0., 0.,
          0., 0., 0., 1.50482988e+001, 4.31943398e+001, 6.75735950e+000,
          2.82842708e+000, 8.95516777e+000, 0., 0., 0., 3.,
          1.14142132e+001, 1.81715736e+001, 1.12426405e+001,
          3.24622078e+001, 0., 7.34885633e-001, 0., 0., 1., 8.,
          1.64142132e+001, 1.22268391e+001, 0., 0., 1.82842708e+000,
          1.41005049e+001, 1.10710678e+001, 2., 0., 0., 0., 0.,
          1.41421354e+000, 1.39289322e+001, 4.65685415e+000,
          3.17157292e+000, 1.92017448e+000, 4.31854858e+001, 0., 0., 0.,
          0., 0., 0., 0., 1.17399445e+001, 0., 0., 0., 0., 0., 0., 0.,
          0., 0., 0., 1., 6.17157269e+000, 1.02426405e+001,
          4.58578634e+000, 1., 0., 0., 3.15590334e+000, 7.76827240e+000,
          1.89214325e+001, 1.43569460e+001, 1., 3., 1.18269663e+001, 0.,
          2.41152555e-001, 4.66886663e+000, 2.88504581e+001,
          9.84896946e+000, 4.11224782e-001, 7.58926010e+000,
          3.74089355e+001, 0., 3.37862015e+000, 1.47111616e+001,
          1.00229490e+000, 0., 0., 0., 8.61669350e+000, 0.,
          2.20481202e-001, 4.63658237e+000, 1.24860821e+001,
          8.65685463e+000, 0., 2., 1., 0., 7.76118135e+000,
          2.81424475e+000, 1.42390413e+001, 2.18627968e+001,
          3.91946173e+000, 3.82842708e+000, 4.22468662e+000, 0.,
          5.33656168e+000, 0., 1.44774599e+001, 2.61025238e+001,
          4.20017123e-001, 4.58578634e+000, 1.07627468e+001, 0.,
          9.89751720e+000, 1.14800291e+001, 1.22892656e+001,
          1.37741947e+001, 1.86419344e+000, 1.41421354e+000,
          6.23551130e+000, 0., 1., 1.32037723e+000, 1.63460445e+000,
          1.50211296e+001, 3.02388859e+000, 4., 1., 0., 1.11419764e+001,
          8.55701160e+000, 5.30151892e+000, 2.87760258e+001,
          3.22346592e+000, 8.82842731e+000, 5.75735950e+000, 0.,
          3.29649544e+000, 4., 2.35719585e+000, 3.53753395e+001,
          2.85324955e+000, 5.82842731e+000, 4.37196398e+000, 0.,
          5.13366699e+000, 4.68726206e+000, 1.09784164e+001,
          2.54461823e+001, 1.41610086e-001, 1., 1.48578691e+000, 0., 0.,
          3.80925632e+000, 3.19074368e+000, 1.08284273e+001,
          5.17157269e+000, 0., 0., 0., 1.32121353e+001, 9.49349499e+000,
          2.22272968e+000, 7.88375807e+000, 2.10840321e+001,
          1.57614937e+001, 1.07134323e+001, 0., 2.06865907e+000,
          3.15301590e+001, 2.80073986e+001, 7.53323126e+000,
          2.37012553e+000, 8.35784245e+000, 2.16424160e+001, 0., 0.,
          2.95883584e+000, 3.72313619e+000, 1.41276484e+001,
          1.90379322e-001, 0., 0., 0., 1.75735927e+000, 6.62741709e+000,
          7.61522388e+000, 0., 2.16303692e+001, 1.43990688e+001,
          9.11269855e+000, 9.85282421e+000, 5.00503969e+000,
          1.80791492e+001, 2.46365795e+001, 2.23675327e+001,
          4.14286461e+001, 1.54880934e+001, 0., 0., 1.65685427e+000,
          1.42061272e+001, 3.31370201e+001, 0., 5.85786462e-001,
          4.14213562e+000, 5.27207804e+000, 0., 0., 2.56740990e+001,
          1.73969688e+001, 4.92893219e+000, 0., 0., 1.05441561e+001,
          2.89949493e+001, 4.59384880e+001, 5.22407770e-001, 0.,
          9.02943707e+000, 2.81665230e+001, 9.66809921e+001,
          4.01230431e+001, 0., 3.51471853e+000, 6.21320343e+000,
          5.27207804e+000, 0., 0., 1.58162336e+001, 1.82253971e+001,
          1.65408764e+001, 4.41749382e+000, 0., 2.92893219e+000,
          1.65685425e+001, 4.59017067e+001, 3.26008186e+001, 0.,
          2.34314585e+000, 1.28406200e+001, 3.08894157e+001,
          1.49268179e+001, 0., 1.13725834e+001, 7.45584393e+000,
          1.17157292e+000, 0., 2.61203885e-001, 1.27682333e+001,
          9.52691174e+000, 2.16701241e+001, 3.37735252e+001, 0., 0., 0.,
          3.14079618e+000, 1.18592033e+001, 0., 0., 0., 0., 0., 0.,
          4.68629169e+000, 5.79898977e+000, 3.51471853e+000, 0.,
          2.00429878e+001, 1.38148775e+001, 9.11269855e+000,
          1.79554024e+001, 1.10740347e+001, 3.32474632e+001,
          7.33832216e+000, 3.72792196e+000, 2.20617733e+001,
          4.16245193e+001, 1.75819263e+001, 2.41807365e+000, 0.,
          2.77752781e+000, 1.22224722e+001, 1.68834329e+000,
          1.31695213e+001, 5.38477612e+000, 1.75735927e+000, 0.,
          3.07448978e+001, 1.20124607e+001, 8.28427124e+000,
          1.69583702e+001, 0., 3.34678154e+001, 1.70469017e+001,
          1.11837664e+001, 1.90349007e+001, 1.12666140e+001,
          4.02055588e+001, 1.45517988e+001, 3.31370854e+000,
          6.83422136e+000, 9.09471035e+000, 1.33602571e+000,
          1.83554709e+000, 4.55634928e+000, 6.27207804e+000, 0.,
          2.58616161e+001, 7.30995703e+000, 9.11269855e+000,
          2.29398060e+001, 7.75922477e-001, 6.18495274e+000,
          1.10160580e+001, 1.03553391e+001, 1.21878614e+001,
          4.25578928e+000, 2.66171608e+001, 9.89755821e+000,
          4.14213562e+000, 7.82073784e+000, 5.22407770e-001,
          8.09256434e-001, 4.11967564e+000, 4.55634928e+000,
          3.51471853e+000, 0., 1.25472755e+001, 1.17248020e+001,
          1.07695522e+001, 2.20014229e+001, 2.19569473e+001,
          5.53425636e+001, 1.08290081e+001, 5.79898977e+000,
          2.07596760e+001, 1.62697620e+001, 6.85532904e+000,
          2.14467096e+000, 8.28427136e-001, 3.91036892e+000,
          2.61203885e-001, 0., 5.85786462e-001, 7.87005758e+000,
          1.65441551e+001, 0., 6.88659382e+000, 6.28497887e+000,
          7.04163074e+000, 1.47151527e+001, 2.70716438e+001,
          2.23574352e+001, 1.88435745e+001, 1.61543293e+001,
          4.58657608e+001, 2.87789001e+001, 0., 0., 0., 8.17416954e+000,
          5.78258286e+001, 0., 0., 7.04163074e+000, 1.79583702e+001, 0.,
          0., 4.10050488e+000, 1.57401152e+001, 2.68981762e+001,
          2.61203885e-001, 0., 0., 2.40243874e+001, 6.96247787e+001,
          2.35083485e+000, 0., 0., 1.49116879e+001, 1.06866310e+002,
          6.02220039e+001, 0., 0., 1.24264073e+000, 2.89289322e+001,
          1.82842708e+000, 8.93715000e+000, 1.09917822e+001,
          9.52691174e+000, 4.80960007e+001, 9.44815540e+000,
          4.92207527e+001, 2.12939663e+001, 1.28406200e+001,
          2.21222534e+001, 5.22407770e-001, 3.73989906e+001,
          1.09441538e+001, 5.38477612e+000, 5.27207804e+000, 0., 0., 0.,
          7.04163074e+000, 2.09583702e+001, 0., 3.76872368e+001,
          1.54132700e+001, 8.69848442e+000, 1.79398060e+001,
          2.61203885e-001, 1.51775427e+001, 3.82245731e+000, 0., 0., 0.,
          0., 0., 0., 0., 0., 0., 5.85786462e-001, 5.79898977e+000,
          1.53540201e+001, 2.61203885e-001, 2.79625435e+001,
          1.19663887e+001, 5.38477612e+000, 2.10823059e+001,
          1.46039858e+001, 5.53567886e+001, 1.47437153e+001,
          2.89949489e+000, 6.44530773e+000, 3.55546913e+001,
          2.37464867e+001, 5.42508698e+000, 8.28427136e-001,
          1.18691707e+000, 2.81308293e+000, 0., 1.17157292e+000,
          4.55634928e+000, 1.85966606e+001, 6.75417423e-001,
          3.04218712e+001, 9.09284878e+000, 5.38477612e+000,
          1.25231218e+001, 2.65773830e+001, 6.04735031e+001,
          1.70412159e+001, 2.48528147e+000, 5.24745321e+000,
          3.57525482e+001, 5.34679146e+001, 9.11787224e+000,
          1.65685427e+000, 5.60228729e+000, 2.51550713e+001, 0.,
          1.75735927e+000, 6.62741709e+000, 1.20336170e+001,
          2.58160639e+000, 1.29905109e+001, 1.52815666e+001,
          4.55634928e+000, 5.61228848e+000, 3.25592842e+001,
          6.80335093e+000, 1.34687271e+001, 4.14213562e+000,
          4.77403545e+000, 3.58117523e+001, 1.53481569e+001,
          6.40920210e+000, 1.24264073e+000, 5.20181847e+000,
          3.37981796e+001, 0., 5.85786462e-001, 6.21320343e+000,
          1.42010098e+001, 0., 1.14838800e+001, 2.34744892e+001,
          9.94112587e+000, 1.23243532e+001, 1.87761517e+001,
          1.87653122e+001, 2.30925522e+001, 4.97056293e+000,
          1.19890766e+001, 4.31824951e+001, 0., 0., 0., 2.10397553e+000,
          1.68960247e+001 ]
      - [ 0., 2.17157292e+000, 0., 4.20107508e+000, 1.31391115e+001,
          6.24559975e+000, 4.14213568e-001, 1., 0., 1.28643284e+001,
          2.25073986e+001, 1.47548790e+001, 1.11589460e+001,
          4.42364693e+000, 2., 1., 0., 1.01922951e+001, 2.19643116e+000,
          5.21275997e+000, 6.56921616e+001, 2.80950756e+001,
          1.24142132e+001, 8.58578682e+000, 0., 0., 0., 2.26585176e-002,
          2.95439301e+001, 9.43341160e+000, 0., 0., 0., 0., 1.,
          1.58578646e+000, 1.48284273e+001, 3.58578634e+000, 2., 0., 0.,
          10., 11., 1.22667284e+001, 2.31474857e+001, 5.85786462e-001,
          8.41421318e+000, 4.58578634e+000, 0., 0., 0., 1.86365490e+001,
          6.38529358e+001, 2.92678719e+001, 1.82426414e+001, 8., 0.,
          2.48528147e+000, 0., 9.27466571e-001, 6.89266052e+001,
          9.28852921e+001, 1.72606316e+001, 1., 0., 0., 8.28427136e-001,
          8.83509541e+000, 2.10160999e+001, 1.32037723e+000, 0., 0.,
          1.05424337e+001, 0., 0., 1.28403215e+001, 3.91596794e+001, 7.,
          4.67541742e+000, 1.37821493e+001, 0., 4.62575972e-001, 0., 0.,
          1.24142132e+001, 1.61715736e+001, 1.48284273e+001,
          1.58267822e+001, 0., 6.60408810e-002, 0., 0., 2., 9.,
          1.52426405e+001, 1.93025703e+001, 0., 0., 0., 1.49103689e+001,
          9.35083485e+000, 5.73879623e+000, 0., 0., 0., 0.,
          2.41421366e+000, 1.37573595e+001, 1.56568546e+001,
          1.58578646e+000, 4.18730736e+000, 3.72049103e+001, 0., 0., 0.,
          0., 0., 0., 1.37480497e+000, 6.90131044e+000, 0., 0., 0., 0.,
          0., 0., 0., 0., 0., 0., 0., 9.75735950e+000, 1.85038452e+001,
          3.32458258e+000, 4.14213568e-001, 0., 0., 1.38911915e+000,
          8.91432858e+000, 1.64518604e+001, 2.51627502e+001,
          7.94810295e+000, 9.84513760e+000, 5.56601858e+000, 0.,
          2.57132626e+000, 1.19136457e+001, 2.11369610e+001,
          3.68773937e+000, 1.90743566e-001, 7.21252632e+000,
          3.06201897e+001, 0., 5.09351730e+000, 4.26630449e+000, 0., 0.,
          0., 0., 2.44621611e+000, 0., 2.17157292e+000, 2.82842708e+000,
          4.58578634e+000, 1.38284273e+001, 3.58578634e+000, 0., 0., 0.,
          9.45540714e+000, 5.15908861e+000, 1.17608166e+001,
          2.28524055e+001, 6.73180199e+000, 6.41421366e+000,
          3.02388859e+000, 0., 8.72492313e+000, 0., 1.11722937e+001,
          3.37374115e+001, 6.09029293e+000, 4.67541742e+000,
          8.17602825e+000, 0., 1.28244638e+001, 1.24610624e+001,
          1.38041954e+001, 1.02491894e+001, 6.92759231e-002, 0.,
          2.76713324e+000, 0., 1.04481554e+000, 4.73583889e+000,
          5.07905865e+000, 1.80548611e+001, 3.08542562e+000, 0., 0., 0.,
          1.66181717e+001, 1.62615108e+001, 7.99283981e+000,
          3.07177238e+001, 8.06035233e+000, 3.41421366e+000, 0., 0., 0.,
          1., 7.27425337e-001, 3.55195465e+001, 3.75302696e+000,
          4.41421366e+000, 2.58578634e+000, 0., 4.14213568e-001,
          5.06208754e+000, 1.44497404e+001, 1.80135593e+001,
          6.03997894e-002, 0., 0., 0., 2., 1., 2.58578634e+000,
          6.24264050e+000, 4.17157269e+000, 2., 3., 0., 1.83770502e+000,
          8.85555267e+000, 1.89252877e+000, 1.55325150e+000,
          2.09547005e+001, 2.86309490e+001, 1.53636255e+001,
          7.38356018e+000, 1.69374585e+000, 2.80709362e+001,
          3.17197533e+001, 2.41013813e+000, 6.91212952e-001,
          1.09573832e+001, 2.00732708e+001, 0., 0., 3.38186312e+000,
          6.39571571e+000, 1.16664133e+001, 3.55600762e+000, 0., 0.,
          1.47062349e+000, 5.21566772e+000, 6.21320343e+000,
          7.02244043e+000, 2.07806492e+000, 3.82903786e+001,
          1.32243395e+001, 4.14213562e+000, 3.92720461e+000,
          5.41594124e+000, 1.03197269e+001, 1.61239243e+001,
          1.44974747e+001, 3.11234016e+001, 3.49354706e+001, 0.,
          5.85786462e-001, 4.14213568e-001, 7.10292482e+000,
          1.68970757e+001, 0., 1.75735927e+000, 3.31370854e+000,
