%YAML:1.0
_0218: !!opencv-ml-svm
   svm_type: C_SVC
   kernel: { type:LINEAR }
   C: 100.
   term_criteria: { epsilon:9.9999999747524271e-007,
       iterations:2147483647 }
   var_all: 576
   var_count: 576
   class_count: 2
   class_labels: !!opencv-matrix
      rows: 1
      cols: 2
      dt: i
      data: [ -1, 2 ]
   sv_total: 17
   support_vectors:
      - [ 0., 2.67416739e+000, 0., 2.14880443e+000, 9.87396431e+000,
          2.97723150e+000, 0., 5.85786462e-001, 0., 1., 4.24264050e+000,
          1.52531109e+001, 3.62920418e+001, 1.70287399e+001,
          9.44887638e+000, 4.14880419e+000, 0., 0., 0., 3.58754849e+000,
          3.87768021e+001, 1.06356506e+001, 0., 0., 0., 0., 0., 0., 0.,
          0., 0., 0., 0., 5.96263409e+000, 1.41421354e+000, 1.,
          1.26120389e+000, 1.73879611e+000, 1.00999987e+000,
          2.44895983e+000, 0., 1.10686655e+001, 3.80117202e+000,
          3.58578634e+000, 6.42691016e-001, 7.75537300e+000,
          1.43838120e+001, 1.77368526e+001, 0., 2.32042866e+001,
          1.23322716e+001, 1.05220051e+001, 3.06904755e+001,
          7.28367567e+000, 1.22426405e+001, 1.29877701e+001, 0.,
          1.25225582e+001, 1.09382381e+001, 1.39991598e+001,
          6.04588928e+001, 1.61091690e+001, 1.76467018e+001,
          1.38264513e+001, 0., 0., 0., 0., 0., 0., 0., 0., 0., 0., 0.,
          0., 0., 0., 0., 0., 0., 0., 0., 0., 0., 0., 0., 0., 0.,
          2.20026798e+001, 3.96834040e+000, 0., 0., 0., 0.,
          1.68074355e-001, 0., 0., 0., 0., 0., 0., 0., 0., 0., 0., 0.,
          0., 0., 0., 0., 0., 0., 0., 0., 0., 0., 0., 0., 0., 0., 0., 0.,
          0., 0., 0., 0., 0., 0., 0., 0., 0., 0., 0., 0., 0., 0., 0., 0.,
          0., 0., 0., 0., 0., 0., 0., 0., 0., 0., 0., 0., 0., 0., 0., 0.,
          0., 0., 0., 0., 0., 0., 0., 0., 0., 0., 0., 0., 0., 0., 0., 0.,
          0., 0., 0., 0., 0., 0., 0., 0., 0., 0., 0., 0., 0., 0., 0., 0.,
          0., 0., 0., 0., 0., 0., 3.20377231e-001, 0., 0., 0., 0., 0.,
          8.39350319e+000, 0., 7.06050539e+000, 2.27924805e+001,
          1.30031796e+001, 1.56301796e+000, 8.46262646e+000,
          3.38856864e+000, 3.21609879e+000, 0., 0., 0., 0., 0., 0., 0.,
          0., 0., 0., 0., 0., 0., 0., 0., 0., 0., 5.21650743e+000, 0.,
          0., 7.19434118e+000, 8.05658638e-001, 0., 1.17755699e+000, 0.,
          1.32037723e+000, 6.36401081e+000, 2.81458664e+001,
          3.21717148e+001, 1.69980335e+001, 1., 0., 0., 0.,
          3.68183064e+000, 6.76046610e+000, 1.10032301e+001,
          2.55447340e+000, 0., 0., 0., 0., 0., 0., 0., 0., 0., 0.,
          1.64115191e+000, 1.06309261e+001, 6.21320343e+000,
          5.51471853e+000, 0., 4.75380754e+000, 1.85477085e+001,
          1.57401152e+001, 2.51098843e+001, 6.84848452e+000,
          6.83558512e+000, 3.92177415e+000, 2.07106781e+000,
          5.53312349e+000, 1.66384487e+001, 0., 0., 0., 0., 0.,
          9.26290226e+000, 7.49445677e+000, 2.07106781e+000,
          4.30914354e+000, 4.86242914e+000, 1.31040621e+001,
          1.06532974e+001, 4.14213562e+000, 2.30303535e+001,
          2.70701523e+001, 2.65444660e+001, 4.38281174e+001,
          1.90538235e+001, 3.42204056e+001, 3.35318637e+000,
          1.30111132e+001, 3.30477600e+001, 2.19533195e+001,
          4.65006599e+001, 9.48714638e+000, 0., 0., 0., 0., 0., 0., 0.,
          0., 0., 0., 0., 0., 0., 0., 0., 2.35173798e+001,
          6.06840611e+000, 8.28427136e-001, 5.85786462e-001, 0., 0., 0.,
          0., 0., 0., 0., 0., 0., 0., 0., 0., 0., 0., 0., 0., 0., 0., 0.,
          0., 0., 0., 0., 0., 0., 0., 0., 0., 0., 0., 0., 0., 0., 0., 0.,
          0., 0., 0., 0., 0., 0., 0., 0., 0., 0., 0., 0., 0., 0., 0., 0.,
          0., 0., 0., 0., 0., 0., 0., 0., 0., 0., 5.14718652e-001,
          4.85281378e-001, 8.28427136e-001, 4.70192432e+000,
          1.14696484e+001, 3.88756371e+001, 8.12436199e+000,
          1.24264073e+000, 1.21714230e+001, 6.58593607e+000, 0., 0., 0.,
          0., 0., 0., 0., 0., 0., 0., 6.04798031e+000, 3.12359262e+000,
          2.48528147e+000, 4.34314585e+000, 0., 2.60645447e+001,
          1.02786016e+001, 1.07695522e+001, 2.01887455e+001,
          2.69855571e+000, 9.06901360e+000, 2.93098688e+000, 0.,
          2.02490568e+000, 4.97509432e+000, 0., 0., 0., 0., 0.,
          1.01086950e+001, 6.06287813e+000, 2.07106781e+000,
          9.84699059e+000, 3.91036892e+000, 7.83611596e-001,
          7.90267992e+000, 1.40832615e+001, 4.42001915e+001,
          1.90302563e+001, 0., 0., 0., 7.85748816e+000, 4.51425133e+001,
          0., 0., 0., 0., 0., 2.09608059e+001, 3.62498021e+000,
          8.28427136e-001, 3.06337857e+000, 5.22407770e-001,
          4.54478455e+001, 1.48953009e+001, 2.07106781e+000,
          1.22086992e+001, 3.37708712e+000, 3.61035233e+001,
          3.73695641e+001, 1.28406200e+001, 2.06847668e+001,
          2.70015259e+001, 1.58384256e+001, 3.00488758e+001,
          1.44974747e+001, 4.21407890e+001, 4.54744339e+001,
          3.92390394e+000, 1.07609606e+000, 0., 0., 0., 5.85786462e-001,
          4.14213568e-001, 0., 0., 0., 1.32397509e+000, 6.76024973e-001,
          0., 0., 0., 2.57237644e+001, 6.86202192e+000, 4.14213568e-001,
          0., 0., 0., 0., 0., 0., 0., 0., 0., 0., 0., 0., 0., 0., 0., 0.,
          0., 0., 0., 0., 0., 0., 0., 0., 0., 0., 0., 0., 0., 0., 0., 0.,
          0., 0., 0., 0., 0., 0., 0., 0., 0., 0., 0., 0., 0., 0., 0., 0.,
          0., 0., 0., 0., 0., 0., 0., 0., 0., 0., 0., 0., 0., 0.,
          1.85006714e+001, 3.49932837e+000, 0., 0., 0., 2.06121693e+001,
          3.97361636e+000, 1.24264073e+000, 1.43097162e+001,
          1.88618565e+001, 0., 0., 0., 0., 0., 0., 0., 0., 0., 0.,
          1.35044832e+001, 5.83866310e+000, 2.89949489e+000,
          5.15300989e+000, 1.60434961e+000, 2.61203885e-001,
          1.91036904e+000, 5.79898977e+000, 4.07542725e+001,
          3.72751656e+001, 0., 0., 0., 4.01540232e+000, 1.79845982e+001,
          0., 0., 0., 0., 0. ]
      - [ 0., 2.31368756e+000, 1., 1., 1.09774561e+001, 2.02254343e+000,
          0., 0., 0., 2.34314585e+000, 7.82842731e+000, 1.64781761e+001,
          3.51287346e+001, 8.51973343e+000, 1.28733549e+001,
          2.49615550e+000, 0., 1.32458258e+000, 6.75417423e-001,
          4.37240219e+000, 4.91165581e+001, 5.51103926e+000,
          1.90743566e-001, 8.09256434e-001, 0., 0., 0., 0., 0., 0., 0.,
          0., 0., 4.36586475e+000, 0., 0., 5.85786462e-001, 1.,
          7.27493703e-001, 3.06566477e+000, 0., 9.81230640e+000,
          3.42166615e+000, 5.91036892e+000, 6.35083485e+000,
          8.17157269e+000, 9.33407307e+000, 1.34763613e+001, 0.,
          1.55692892e+001, 1.26568546e+001, 8.73233604e+000,
          3.14628296e+001, 8.39062023e+000, 5.24264050e+000,
          8.53899479e+000, 0., 1.77665272e+001, 1.52450886e+001,
          1.62879124e+001, 6.40295715e+001, 1.20711117e+001,
          2.21438618e+001, 1.00032606e+001, 0., 0., 0., 0., 0., 0., 0.,
          0., 0., 0., 0., 0., 0., 0., 0., 0., 0., 0., 0., 0., 0., 0., 0.,
          0., 0., 1.42380610e+001, 4.07714844e+000, 0., 0., 0.,
          5.14718652e-001, 2.51840186e+000, 0., 0., 0., 0., 0., 0., 0.,
          0., 0., 0., 0., 0., 0., 0., 0., 0., 0., 0., 0., 0., 0., 0., 0.,
          0., 0., 0., 0., 0., 0., 0., 0., 0., 0., 0., 0., 0., 0., 0., 0.,
          0., 0., 0., 0., 0., 0., 0., 0., 0., 0., 0., 0., 0., 0., 0., 0.,
          0., 0., 0., 0., 0., 0., 0., 0., 0., 0., 0., 0., 0., 0., 0., 0.,
          0., 0., 0., 0., 0., 0., 0., 0., 0., 0., 0., 0., 0., 0., 0., 0.,
          0., 0., 0., 0., 0., 0., 0., 0., 0., 0., 3.06490690e-001, 0.,
          0., 0., 0., 1.39123869e+000, 8.42719269e+000, 0.,
          7.01613855e+000, 2.02644005e+001, 1.30865984e+001,
          1.09989607e+000, 4.05610228e+000, 5.01934147e+000,
          5.55065536e+000, 0., 0., 0., 0., 0., 0., 0., 0., 0., 0., 0.,
          0., 0., 0., 0., 0., 0., 3.90654612e+000, 1., 0.,
          4.76156473e+000, 3.23843527e+000, 0., 1.35370159e+000, 0., 0.,
          1.09902296e+001, 2.49482307e+001, 3.75087662e+001,
          1.77243481e+001, 8.28427136e-001, 0., 0., 0., 2.44537878e+000,
          9.92466354e+000, 1.30610399e+001, 2.56891751e+000, 0., 0., 0.,
          0., 0., 0., 0., 0., 0., 0., 8.99901807e-001, 9.20060349e+000,
          5.38477612e+000, 3.51471853e+000, 0., 7.83611596e-001,
          2.66184082e+001, 1.69827557e+001, 1.97048550e+001,
          3.91036892e+000, 7.17328882e+000, 8.75564289e+000,
          3.72792196e+000, 5.96165037e+000, 9.38149548e+000, 0., 0., 0.,
          0., 0., 8.53144264e+000, 2.46855760e+000, 4.14213568e-001,
          2.24784660e+000, 5.33793974e+000, 1.31588392e+001,
          1.23558788e+001, 4.97056293e+000, 1.93767624e+001,
          1.91379566e+001, 1.63279743e+001, 3.13166866e+001,
          1.86396103e+001, 2.81719017e+001, 2.54382634e+000,
          2.28463516e+001, 4.33840942e+001, 2.07106781e+001,
          3.80357323e+001, 1.50231438e+001, 0., 0., 0., 0., 0., 0., 0.,
          0., 0., 0., 0., 0., 0., 0., 0., 1.84377594e+001,
          5.56224060e+000, 0., 2.04196024e+000, 1.95803988e+000, 0., 0.,
          0., 0., 0., 0., 0., 0., 0., 0., 0., 0., 0., 0., 0., 0., 0., 0.,
          0., 0., 0., 0., 0., 0., 0., 0., 0., 0., 0., 0., 0., 0., 0., 0.,
          0., 0., 0., 0., 0., 0., 0., 0., 0., 0., 0., 0., 0., 0., 0., 0.,
          0., 0., 0., 0., 0., 0., 0., 0., 0., 0., 5.14718652e-001,
          4.85281378e-001, 0., 2.39775658e+000, 1.16022434e+001,
          3.88776703e+001, 7.70811701e+000, 8.28427136e-001,
          1.08393574e+001, 7.74642944e+000, 0., 0., 0., 0., 0., 0., 0.,
          0., 0., 0., 8.09404469e+000, 4.66331482e+000, 4.55634928e+000,
          6.27207804e+000, 4.14213568e-001, 2.47279892e+001,
          1.48872347e+001, 1.20121937e+001, 2.37976017e+001,
          1.57498169e+000, 1.06847448e+001, 4.90104103e+000,
          4.14213568e-001, 1.37540686e+000, 4.62459326e+000, 0., 0., 0.,
          0., 0., 1.27985888e+001, 2.78719735e+000, 8.28427136e-001,
          8.51922321e+000, 5.06656361e+000, 2.61203885e-001,
          1.06677284e+001, 1.15979795e+001, 3.81566887e+001,
          1.63164005e+001, 2.61203885e-001, 2.73879623e+000, 0.,
          7.99467754e+000, 5.10053215e+001, 0., 0., 0., 0., 0.,
          2.12420120e+001, 2.75798702e+000, 0., 1.47759223e+000,
          5.22407770e-001, 3.85739517e+001, 1.13549814e+001,
          6.21320343e+000, 1.74622135e+001, 2.39565039e+000,
          3.58323631e+001, 3.28122978e+001, 1.69827557e+001,
          2.70299397e+001, 1.63426437e+001, 2.12844582e+001,
          2.81886311e+001, 1.61543293e+001, 4.07865219e+001,
          4.95860634e+001, 0., 0., 0., 0., 0., 0., 0., 0., 0., 0., 0.,
          0., 0., 0., 0., 2.32881012e+001, 6.71189880e+000, 0., 0., 0.,
          0., 0., 0., 0., 0., 0., 0., 0., 0., 0., 0., 0., 0., 0., 0., 0.,
          0., 0., 0., 0., 0., 0., 0., 0., 0., 0., 0., 0., 0., 0., 0., 0.,
          0., 0., 0., 0., 0., 0., 0., 0., 0., 0., 0., 0., 0., 0., 0., 0.,
          0., 0., 0., 0., 0., 0., 0., 0., 0., 0., 0., 0.,
          1.44188147e+001, 2.58118510e+000, 0., 0., 0., 2.49680882e+001,
          5.03191233e+000, 1.24264073e+000, 9.46256638e+000,
          1.92947922e+001, 0., 0., 0., 0., 0., 0., 0., 0., 0., 0.,
          1.70841179e+001, 2.50166869e+000, 1.24264073e+000,
          5.31370831e+000, 1.85786438e+000, 0., 0., 6.21320343e+000,
          4.35612183e+001, 3.82255783e+001, 0., 0., 0., 4.69662285e+000,
          2.13033772e+001, 0., 0., 0., 0., 0. ]
      - [ 0., 0., 2., 1., 7., 4., 3., 1., 0., 2., 4., 2.,
          2.58284264e+001, 2.27573586e+001, 1.04142132e+001, 2., 0.,
          4.14213568e-001, 1.73600757e+000, 1.52939835e+001,
          4.71587601e+001, 2.62840309e+001, 2.21109505e+001,
          2.53122807e+001, 0., 2.82842708e+000, 2.12389946e+000,
          3.08057194e+001, 4.63268089e+001, 1.32936108e+000,
          6.22120142e+000, 1.94006824e+001, 0., 2., 2., 2., 6., 4., 7.,
          0., 0., 2., 6., 3., 2.44142132e+001, 1.35857868e+001, 18., 5.,
          0., 1., 0., 1.00386429e+001, 4.52859383e+001, 2.76754169e+001,
          35., 6.39504290e+000, 0., 2.58578634e+000, 2.08963108e+000,
          1.12276754e+001, 4.85111198e+001, 4.35857849e+001,
          3.42426414e+001, 9.51532650e+000, 0., 3., 1., 1., 3., 6., 8.,
          2., 0., 5., 6., 3., 1.06568546e+001, 2.12720776e+001,
          2.20710678e+001, 6., 0., 1.13175297e+001, 6.68115711e+000, 1.,
          1.40710678e+001, 9.51471901e+000, 1.18284273e+001,
          1.18318081e+001, 0., 1.06447296e+001, 2.16305962e+001,
          1.91715736e+001, 3.54142151e+001, 1.67573586e+001,
          2.02426414e+001, 7.23648167e+000, 0., 1.58578646e+000, 4., 1.,
          4.41421366e+000, 4.58578634e+000, 2., 2.58578634e+000, 0.,
          8.56191063e+000, 1.03555346e+001, 9.03175926e+000,
          6.90892744e+000, 1.37060094e+000, 6.37587261e+000,
          1.43796768e+001, 0., 0., 0., 0., 0., 0., 0., 9.04000568e+000,
          0., 0., 0., 0., 0., 0., 0., 0., 0., 2.69897056e+000, 4., 1.,
          3., 1., 3., 1.26549947e+000, 0., 1.19394369e+001,
          1.33929672e+001, 1.25023737e+001, 1.28356638e+001,
          5.36966896e+000, 1.07210274e+001, 1.15825014e+001, 0.,
          1.18616228e+001, 7.27838993e+000, 1.38124931e+000,
          7.54547179e-001, 1.44998991e+000, 0., 3.20558834e+000, 0., 0.,
          0., 0., 0., 0., 0., 0., 0., 6.58578634e+000, 1., 0., 1.,
          1.58578646e+000, 5.82842731e+000, 3.17157292e+000, 0.,
          4.84366512e+000, 8.31136227e+000, 4.24340820e+000,
          9.65685463e+000, 1.38932447e+001, 1.66061668e+001,
          1.11393032e+001, 0., 2.42728920e+001, 3.31921692e+001, 0., 0.,
          0., 0., 1.97399691e-001, 0., 0., 0., 0., 0., 0., 0., 0., 0.,
          0., 1., 1.58578646e+000, 6.82842731e+000, 6.58578634e+000, 4.,
          0., 0., 6.17157269e+000, 9.41421318e+000, 7.58578634e+000,
          1.86568546e+001, 1.96862907e+001, 8.65685463e+000, 2., 0.,
          1.91199703e+001, 5.01824455e+001, 1.28185368e+001,
          9.70747375e+000, 9.75735950e+000, 8.82842731e+000,
          6.91036892e+000, 0., 1.31584778e-001, 9.42817497e+000,
          1.26059780e+001, 1.83426213e+000, 0., 0., 0., 0., 0., 0., 0.,
          10., 8., 2., 0., 0., 1., 4., 8., 2.24142132e+001,
          7.17157269e+000, 1.44142132e+001, 3., 0., 0., 3.,
          2.39370689e+001, 6.18989716e+001, 8.33553028e+000,
          1.36568546e+001, 1.09653368e+001, 0., 0., 0., 1.03505528e+000,
          3.96494460e+000, 0., 0., 0., 0., 1.75735927e+000,
          4.55634928e+000, 4.68629169e+000, 0., 0., 4.68629169e+000,
          1.69827557e+001, 2.23309517e+001, 0., 1.55040693e+001,
          1.25964355e+001, 2.23675327e+001, 6.02251282e+001,
          8.30683327e+000, 3.62579765e+001, 2.76709576e+001,
          7.87005758e+000, 3.06075344e+001, 3.59347558e+000, 0.,
          3.51471853e+000, 7.04163074e+000, 6.44365072e+000, 0., 0.,
          6.44365072e+000, 1.94680367e+001, 2.20883121e+001, 0.,
          2.61203885e-001, 1.07682333e+001, 3.31370850e+001,
          4.35722733e+001, 2.61203885e-001, 1.82842708e+000,
          1.38578644e+001, 3.81076469e+001, 5.47918472e+001,
          4.14213568e-001, 0., 2.92893219e+000, 8.69848442e+000,
          9.37258339e+000, 0., 0., 8.20100975e+000, 2.36101723e+001,
          3.39276123e+001, 2.61203885e-001, 9.14476204e+000,
          1.17131023e+001, 1.32548342e+001, 2.49174175e+001,
          9.96988392e+000, 1.91552944e+001, 2.71756573e+001,
          2.89949493e+001, 2.99498444e+001, 6.72425413e+000, 0.,
          4.10050488e+000, 7.04163074e+000, 5.85786438e+000, 0.,
          1.85142879e+001, 2.21720028e+001, 5.38477612e+000,
          1.69638958e+001, 2.09650364e+001, 0., 0., 0., 6.73509645e+000,
          1.62649040e+001, 0., 0., 0., 0., 0., 1.25351477e+000,
          5.43277693e+000, 6.21320343e+000, 4.10050488e+000, 0.,
          3.63798218e+001, 1.42059650e+001, 2.07106781e+000,
          1.17183828e+001, 2.56247635e+001, 2.43763657e+001,
          1.03809948e+001, 2.07106781e+000, 5.69086027e+000,
          7.48071241e+000, 0., 0., 0., 0., 0., 0., 4.68629169e+000,
          6.21320343e+000, 8.10050488e+000, 0., 8.13890743e+000,
          9.89052963e+000, 1.61543293e+001, 2.83978634e+001,
          1.04183712e+001, 5.19395714e+001, 8.06042862e+000, 0.,
          5.85786462e-001, 4.14213568e-001, 0., 0., 0., 0., 0., 0.,
          1.75735927e+000, 5.38477612e+000, 6.85786438e+000, 0., 0.,
          1.48873014e+001, 1.90538235e+001, 2.20588741e+001, 0.,
          5.88196411e+001, 2.06240101e+001, 1.24264069e+001,
          1.96075344e+001, 5.22407770e-001, 1.92008839e+001,
          3.79911542e+000, 0., 0., 0., 0., 0., 4.14213562e+000,
          5.85786438e+000, 0., 0., 7.61522388e+000, 1.49116879e+001,
          1.54730883e+001, 0., 4.20170479e+001, 1.77403126e+001,
          1.32548342e+001, 3.17266026e+001, 2.61203885e-001,
          1.43556535e+000, 5.64434648e-001, 0., 0., 0., 0.,
          1.75735927e+000, 5.38477612e+000, 7.85786438e+000, 0., 0.,
          6.68629169e+000, 2.11248913e+001, 3.31888161e+001, 0.,
          3.27976704e+000, 3.47791061e+001, 2.81665230e+001,
          4.91423225e+001, 2.86322823e+001, 1.29801178e+001,
          2.73630276e+001, 2.48528147e+000, 1.91984806e+001,
          5.89730911e+001, 0., 1.17157292e+000, 5.79898977e+000,
          7.02943707e+000, 0., 0., 5.27207804e+000, 1.98822517e+001,
          2.48456707e+001, 0., 4.14213568e-001, 6.27207804e+000,
          2.77523079e+001, 5.22675743e+001, 6.29382610e+000,
          2.87364936e+000, 1.44989338e+001, 4.18355713e+001,
          6.54749527e+001, 3.31689334e+000, 0., 4.68629169e+000,
          7.45584393e+000, 5.85786438e+000, 0., 0., 1.27157288e+001,
          2.02964649e+001, 2.47266026e+001, 2.61203885e-001,
          3.51343613e+001, 1.61377163e+001, 1.07695522e+001,
          1.79583702e+001, 0., 3.77805367e+001, 1.19057570e+001,
          3.10660172e+001, 4.52476921e+001, 0., 0., 5.51471853e+000,
          5.79898977e+000, 6.68629169e+000, 0., 4.34011116e+001,
          1.45278196e+001, 5.38477612e+000, 9.48991680e+000,
          1.21963749e+001, 2.85279045e+001, 5.47209501e+000, 0., 0., 0.,
          0., 0., 0., 0., 0., 3.51336694e+000, 8.17292404e+000,
          5.38477612e+000, 2.92893219e+000, 0., 3.71726875e+001,
          1.49988842e+001, 1.65685427e+000, 1.22033339e+001,
          2.79682388e+001, 4.94370346e+001, 8.56296539e+000, 0.,
          9.14912581e-001, 3.08508730e+000, 0., 0., 0., 0., 0., 0.,
          9.02943707e+000, 6.21320343e+000, 1.75735927e+000, 0.,
          1.61226101e+001, 1.79068260e+001, 1.40832615e+001,
          2.20553761e+001, 1.83192563e+000, 4.03085175e+001,
          9.69148159e+000, 0., 0., 0., 0., 0., 0., 0., 0., 0.,
          1.75735927e+000, 5.79898977e+000, 1.04436512e+001, 0., 0.,
          1.22010098e+001, 2.27817459e+001, 3.10172443e+001, 0.,
          3.01677914e+001, 2.34474316e+001, 1.57401152e+001,
          2.43146496e+001, 6.33001184e+000, 5.85786462e-001,
          4.14213568e-001, 0., 3.22622061e+000, 1.37737789e+001, 0., 0.,
          7.45584393e+000, 1.05441561e+001, 0., 0., 5.85786438e+000,
          1.86396103e+001, 2.35025253e+001, 0., 2.80986404e+000,
          1.78764267e+001, 9.94112587e+000, 2.09207230e+001,
          6.74518585e+001, 0., 0., 0., 9.15944278e-001, 4.08405590e+000 ]
      - [ 0., 0., 0., 1., 16., 1., 1., 0., 0., 0., 1.41421354e+000,
          1.67451477e+001, 3.00317955e+001, 2.61334267e+001,
          6.67541742e+000, 3., 4.14213568e-001, 0., 8.28427136e-001,
          4.13509674e+001, 4.69743347e+001, 1.74320564e+001,
          8.41421318e+000, 5.85786462e-001, 4.14213568e-001, 0.,
          1.19074357e+000, 3.35476913e+001, 3.52657700e+001,
          4.39083767e+000, 2.60495710e+000, 1.58578646e+000, 0., 0., 0.,
          1.58578646e+000, 7.41421366e+000, 6., 4., 0., 0., 0.,
          7.41421366e+000, 7.17157269e+000, 2.87506905e+001,
          2.30066681e+001, 1.36568546e+001, 1., 0., 7.47759247e+000,
          4.10819435e+000, 5.89180565e+000, 3.71792603e+001,
          5.83873520e+001, 2.11088009e+001, 6.17157269e+000, 0., 1., 1.,
          4.17157269e+000, 6.18175545e+001, 8.05255890e+001,
          2.34852810e+001, 4., 0., 0., 1., 1., 3., 5.58578634e+000,
          4.41421366e+000, 1., 0., 5.85786462e-001, 9.41421318e+000,
          3.58578634e+000, 1.70896301e+001, 2.44961548e+001,
          1.96796227e+001, 8.28264332e+000, 0., 2.99579477e+000,
          1.23508348e+001, 1.92941246e+001, 3.54488754e+001,
          1.90777359e+001, 1.59222631e+001, 1.03795509e+001, 0.,
          6.92503405e+000, 1.78284264e+001, 1.27573595e+001,
          3.16568546e+001, 1.67573586e+001, 1.86512852e+001,
          5.19166908e+001, 0., 0., 2., 1., 7., 4., 4., 0., 0.,
          1.58578646e+000, 3., 2.58578634e+000, 1.80710678e+001,
          1.06862917e+001, 1.34852810e+001, 4.17157269e+000, 0.,
          9.75735950e+000, 1.78284264e+001, 7.58578634e+000,
          2.43508358e+001, 2.35518456e+001, 3.53931885e+001,
          1.54614925e+001, 0., 3.20041347e+000, 2.08963108e+000,
          4.96954250e+000, 5.35504007e+000, 7.80986404e+000,
          5.92718458e+000, 6.02114716e+001, 0., 0., 0., 1., 6., 6., 7.,
          3., 0., 2.82185650e+000, 7.40161371e+000, 1.75338898e+001,
          1.64852810e+001, 6.75735950e+000, 8.82842731e+000,
          5.17157269e+000, 0., 4.51660843e+001, 2.73687057e+001,
          5.75735950e+000, 9.82842731e+000, 3.58578634e+000,
          4.41421366e+000, 7.17157269e+000, 0., 2.06137714e+001,
          1.11043634e+001, 1., 1., 1., 0., 0., 0., 0., 5., 2., 11., 6.,
          2., 1., 0., 1.36966629e+001, 1.79589577e+001, 1.22048116e+000,
          1.84142132e+001, 1.81715736e+001, 6.82842731e+000,
          2.58578634e+000, 0., 1.21609955e+001, 1.88390045e+001, 0., 0.,
          0., 0., 0., 0., 0., 0., 0., 0., 0., 0., 0., 0., 0., 1., 3., 7.,
          5., 3., 0., 0., 6.31978512e-001, 8.27143955e+000,
          1.72695293e+001, 3.02412663e+001, 9.58578682e+000,
          8.41421318e+000, 3.17157292e+000, 0., 3.95943666e+000,
          2.21391888e+001, 1.32637424e+001, 5.63763189e+000, 0., 0., 0.,
          0., 0., 0., 0., 0., 0., 0., 0., 0., 0., 3., 1.58578646e+000,
          1.22426405e+001, 7.75735950e+000, 4.14213568e-001, 0., 0.,
          5.85786462e-001, 3.68691730e+000, 3.55619545e+001,
          3.06744194e+001, 3.49092150e+000, 8.41421318e+000,
          1.58578646e+000, 0., 0., 1.23899341e-001, 1.54898667e+000,
          1.32711399e+000, 0., 0., 0., 0., 0., 0., 0., 0., 0., 0., 0.,
          0., 5.85786462e-001, 1.24264073e+000, 1.17157292e+000, 0.,
          4.33578920e+000, 1.18652210e+001, 1.73969688e+001,
          2.91408157e+001, 2.61203885e-001, 3.60635300e+001,
          2.35516930e+001, 1.73969688e+001, 1.97266026e+001,
          2.61203885e-001, 2.77060452e+001, 1.97376060e+001,
          7.87005758e+000, 8.27207756e+000, 4.14213568e-001, 0.,
          1.17157292e+000, 4.97056293e+000, 5.85786438e+000, 0., 0.,
          9.20100975e+000, 2.07106781e+001, 2.60883121e+001, 0.,
          7.83611596e-001, 1.34884663e+001, 3.23086586e+001,
          5.78072243e+001, 1.61203873e+000, 0., 4.10050488e+000,
          4.14213562e+001, 7.49557343e+001, 5.22407770e-001, 0.,
          1.17157292e+000, 4.97056293e+000, 6.85786438e+000, 0.,
          5.22407770e-001, 9.33545685e+000, 1.94680367e+001,
          3.70172424e+001, 2.65685415e+000, 7.83611596e-001,
          2.67899818e+001, 2.89949493e+001, 3.50806236e+001,
          1.35083485e+000, 8.49778891e-001, 2.76527462e+001,
          3.18944435e+001, 4.93310585e+001, 4.02719727e+001, 0.,
          1.75735927e+000, 4.55634928e+000, 4.68629169e+000, 0., 0.,
          4.68629169e+000, 9.94112587e+000, 2.23277683e+001,
          1.04481554e+000, 2.61203885e-001, 2.37266026e+001,
          3.02375908e+001, 5.65505257e+001, 4.22407770e+000,
          2.26520705e+000, 1.08352976e+001, 5.38477612e+000,
          3.03303490e+001, 7.21843719e+001, 0., 5.85786462e-001,
          7.04163074e+000, 9.37258339e+000, 0., 2.40528107e+000,
          1.84820213e+001, 1.44974747e+001, 1.63540192e+001,
          2.61203885e-001, 5.46739311e+001, 1.97697182e+001,
          1.15979795e+001, 1.09583693e+001, 0., 2.90370903e+001,
          6.96291065e+000, 4.14213568e-001, 5.85786462e-001, 0., 0.,
          4.51471853e+000, 6.21320343e+000, 5.27207804e+000, 0.,
          2.75522804e+001, 5.03350544e+000, 1.07695522e+001,
          1.76446609e+001, 0., 2.59737797e+001, 5.02621937e+000, 0., 0.,
          0., 0., 0., 0., 0., 0., 0., 2.34314585e+000, 4.97056293e+000,
          4.68629169e+000, 0., 1.66265774e+001, 1.26455011e+001,
          1.07695522e+001, 1.76971664e+001, 2.61203885e-001,
          3.64017296e+001, 5.59826946e+000, 0., 0., 0., 0., 0., 0., 0.,
          0., 0., 2.92893219e+000, 5.38477612e+000, 5.68629169e+000, 0.,
          3.33598938e+001, 1.93263969e+001, 7.45584393e+000,
          1.15966606e+001, 2.61203885e-001, 1.41771209e+000,
          5.82287908e-001, 0., 0., 0., 0., 0., 0., 0., 0., 0., 0.,
          7.45584393e+000, 1.05441561e+001, 0., 0., 3.34314585e+000,
          1.90538235e+001, 4.90428543e+001, 7.56017780e+000, 0., 1.,
          1.11837664e+001, 4.81083565e+001, 4.77078781e+001, 0.,
          1.58578646e+000, 5.38477612e+000, 3.01985703e+001,
          3.88308678e+001, 0., 0., 5.38477612e+000, 9.61522388e+000, 0.,
          0., 5.85786462e-001, 2.11248913e+001, 3.96139030e+001,
          6.75417423e-001, 2.61203885e-001, 1.11824465e+001,
          3.93502884e+001, 7.00082321e+001, 1.19782519e+000, 0.,
          7.61522388e+000, 5.09482689e+001, 1.04652893e+002,
          7.83611596e-001, 0., 5.85786462e-001, 4.55634928e+000,
          5.85786438e+000, 0., 9.36621308e-001, 1.13354568e+001,
          1.94680367e+001, 2.94762726e+001, 7.83611596e-001,
          3.43277669e+000, 2.29398060e+001, 2.56812401e+001,
          5.39384880e+001, 4.00768900e+000, 5.02676392e+001,
          3.96196632e+001, 2.65096684e+001, 4.43418274e+001,
          2.61203885e-001, 0., 1.17157292e+000, 5.79898977e+000,
          7.02943707e+000, 0., 0., 6.85786438e+000, 1.28406200e+001,
          2.43015156e+001, 0., 5.22407770e-001, 3.51516914e+001,
          3.23086586e+001, 4.30358086e+001, 1.98143685e+000,
          9.03316956e+001, 2.31830254e+001, 8.28427124e+000,
          1.48501749e+001, 1.35083485e+000, 0., 1.75735927e+000,
          6.21320343e+000, 8.02943707e+000, 0., 1.76854694e+000,
          1.05035315e+001, 1.65685425e+001, 2.91593800e+001, 0.,
          4.63172226e+001, 2.50553608e+001, 1.11837664e+001,
          1.49212427e+001, 5.22407770e-001, 2.73409576e+001,
          5.65904188e+000, 8.28427136e-001, 2.17157292e+000, 0., 0.,
          5.85786462e-001, 7.04163074e+000, 1.23725834e+001, 0.,
          2.02777576e+001, 8.65117455e+000, 1.73969688e+001,
          2.36740990e+001, 0., 1.79920311e+001, 5.00796843e+000, 0., 0.,
          0., 0., 0., 0., 0., 0., 0., 0., 5.79898977e+000,
          9.20100975e+000, 0., 5.14718652e-001, 6.58578634e+000,
          1.32548342e+001, 2.89318733e+001, 1.87127876e+001,
          7.01290894e+000, 3.15866423e+000, 8.28427136e-001,
          5.00001431e+000, 1.99999847e+001, 0., 0., 0., 0., 0., 0., 0.,
          7.45584393e+000, 1.45441561e+001, 0., 0., 2.92893219e+000,
          7.87005758e+000, 2.19816952e+001, 4.42193146e+001, 0., 0., 0.,
          1.00113297e+000, 1.99886703e+000, 0., 0., 0., 0., 0. ]
      - [ 0., 2., 2., 2., 3., 3., 7., 8.58578682e+000, 0., 0., 1.,
          1.08598976e+001, 5.24969139e+001, 1.86431885e+001, 4., 0., 0.,
          0., 9.95664883e+000, 2.45491886e+001, 5.10609665e+001,
          1.44331970e+001, 4., 0., 0., 0., 7.57411861e+000,
          1.82065105e+001, 2.91570358e+001, 4.06233549e+000, 0., 0., 0.,
          1., 4., 1., 8., 4., 0., 0., 0., 0., 0., 1., 10.,
          1.51715727e+001, 3.69180565e+001, 1.39103689e+001, 0., 0., 1.,
          6.58578634e+000, 2.52426414e+001, 5.43725815e+001,
          4.94558449e+001, 1.45147190e+001, 0., 4.17157269e+000, 1.,
          2.34314585e+000, 4.12583275e+001, 8.90985718e+001,
          4.54715309e+001, 1.08284273e+001, 0., 4., 2., 0., 0., 2.,
          2.41421366e+000, 1.58578646e+000, 0., 0., 0., 0.,
          2.64142132e+001, 2.03431454e+001, 2.18284264e+001, 8., 0., 0.,
          2., 2.58578634e+000, 1.28284273e+001, 2.31005058e+001,
          4.35749130e+001, 2.59020786e+001, 0., 0., 0., 1., 12.,
          5.58578634e+000, 1.44032917e+001, 3.63138008e+001, 0., 0., 7.,
          2., 7., 1., 0., 0., 0., 2.37445374e+001, 2.17148132e+001, 2.,
          3., 2., 1.04142132e+001, 8.95229053e+000, 0., 5.40964365e+000,
          2.98267845e-002, 0., 0., 0., 0., 1.78506584e+001, 0., 0., 0.,
          0., 0., 0., 0., 0., 0., 8.09888935e+000, 1.59011106e+001, 0.,
          0., 0., 3., 0., 0., 7.36321259e+000, 1.36367874e+001, 0., 0.,
          0., 0., 0., 0., 0., 0., 0., 0., 0., 0., 0., 0., 0., 0., 0., 0.,
          0., 0., 0., 0., 3.71168303e+000, 8.28831673e+000, 0., 0., 0.,
          1., 0., 0., 0., 0., 0., 0., 0., 0., 0., 0., 0., 0., 0., 0., 0.,
          0., 0., 0., 0., 0., 0., 0., 0., 0., 0., 0., 4.39938354e+000,
          1.43585024e+001, 2.42114723e-001, 1., 0., 0., 0., 0., 0., 1.,
          0., 0., 0., 0., 0., 0., 0., 0., 0., 0., 0., 0., 0., 0., 0., 0.,
          0., 0., 0., 0., 0., 0., 6.39768505e+000, 1.68183498e+001,
          4.78396606e+000, 2., 0., 0., 0., 0., 6.55344915e+000,
          2.38410778e+001, 1.82592125e+001, 1.48679981e+001,
          2.41421366e+000, 2., 0., 0., 0., 0., 1.62565649e+000,
          1.37434351e+000, 0., 0., 0., 0., 0., 0., 0., 0., 0., 0., 0.,
          0., 3.51471853e+000, 1.03553391e+001, 1.11299419e+001, 0.,
          6.00976276e+000, 8.26231480e+000, 1.32548342e+001,
          1.67934647e+001, 1.67962277e+000, 3.61191521e+001,
          1.48097792e+001, 9.94112587e+000, 1.65803070e+001,
          2.54963613e+000, 2.42093639e+001, 1.09622097e+001,
          2.07106781e+000, 9.64981556e+000, 2.10754418e+000, 0.,
          3.51471853e+000, 4.14213562e+000, 2.34314585e+000, 0., 0.,
          5.85786462e-001, 1.73969688e+001, 4.79724274e+001,
          1.04481554e+000, 0., 5.68629169e+000, 3.10660172e+001,
          9.17252808e+001, 5.22407770e-001, 0., 5.85786438e+000,
          4.22497826e+001, 1.15578644e+002, 5.31370831e+000, 0.,
          3.92893219e+000, 3.72792196e+000, 4.34314585e+000, 0., 0., 0.,
          1.69827557e+001, 3.29724274e+001, 1.04481554e+000, 0.,
          3.34314585e+000, 2.48528137e+001, 6.22147636e+001,
          2.45892754e+001, 0., 5.85786462e-001, 1.15979795e+001,
          3.23249054e+001, 3.24913292e+001, 6.38697922e-001,
          5.46180725e+000, 3.31370854e+000, 5.85786462e-001, 0.,
          1.94640865e+001, 2.10090008e+001, 1.69827557e+001,
          1.38319359e+001, 7.12219775e-001, 5.30301857e+000,
          1.69698119e+000, 2.48528147e+000, 1.54617176e+001,
          2.20530014e+001, 0., 0., 0., 0., 0., 2.02836227e+001,
          3.71637821e+000, 8.28427136e-001, 2.17157292e+000, 0.,
          1.75000591e+001, 3.49994159e+000, 0., 0., 0., 0., 0., 0., 0.,
          0., 0., 0., 0., 0., 0., 1.04761448e+001, 1.52385497e+000,
          4.14213568e-001, 5.85786462e-001, 0., 0., 0., 0., 0., 0., 0.,
          0., 0., 0., 0., 0., 0., 0., 0., 0., 1.65566254e+001,
          2.44337416e+000, 0., 0., 0., 8.21307123e-001, 1.78692877e-001,
          0., 0., 0., 0., 0., 0., 0., 0., 0., 0., 0., 0., 0.,
          1.34080954e+001, 1.08639832e+001, 3.72792196e+000, 0., 0.,
          4.31869621e+001, 1.11561852e+001, 3.31370854e+000,
          3.34314585e+000, 0., 1.31018150e+000, 6.89818501e-001, 0., 0.,
          0., 0., 0., 0., 0., 0., 0., 8.02943707e+000, 8.28427124e+000,
          4.68629169e+000, 0., 0., 0., 1.53259020e+001, 5.35280762e+001,
          1.31460209e+001, 0., 0., 6.62741709e+000, 2.89722042e+001,
          5.74003792e+001, 0., 0., 0., 1.42391558e+001, 4.27608452e+001,
          0., 1.75735927e+000, 5.38477612e+000, 8.85786438e+000, 0., 0.,
          1.32010098e+001, 1.65685425e+001, 1.72304478e+001, 0., 0.,
          1.26152239e+001, 3.43797264e+001, 6.37438469e+001,
          2.61203885e-001, 0., 1.64730873e+001, 4.05929298e+001,
          1.04139496e+002, 7.79448557e+000, 0., 7.61522388e+000,
          6.21320343e+000, 1.17157292e+000, 0., 0., 6.85786438e+000,
          2.27817459e+001, 2.93603897e+001, 0., 3.42708435e+001,
          1.43443804e+001, 2.15391045e+001, 2.48456707e+001, 0.,
          4.57157326e+001, 1.59705601e+001, 1.07695522e+001,
          1.15441561e+001, 0., 0., 1.17157292e+000, 4.97056293e+000,
          5.85786438e+000, 0., 1.80240860e+001, 2.24490013e+001,
          1.24264069e+001, 4.10050488e+000, 0., 4.81357994e+001,
          1.20357742e+001, 8.28427136e-001, 0., 0., 0., 0., 0., 0., 0.,
          1.29644594e+001, 5.79289961e+000, 1.24264073e+000, 0., 0.,
          1.05985165e+001, 3.98726964e+000, 4.14213568e-001, 0., 0., 0.,
          0., 0., 0., 0., 0., 0., 0., 0., 0., 6.17778158e+000,
          2.82221866e+000, 0., 0., 0., 0., 0., 0., 0., 0., 0., 0., 0.,
          0., 0., 0., 0., 0., 0., 0., 8.10097980e+000, 2.89902020e+000,
          8.28427136e-001, 3.17157292e+000, 0., 0., 0., 0., 0., 0., 0.,
          0., 0., 0., 0., 0., 0., 0., 0., 0., 6.33562899e+000,
          6.35066271e+000, 6.21320343e+000, 4.33962631e+000,
          7.60878861e-001, 9.21738529e+000, 2.78261495e+000,
          3.72792196e+000, 1.18957148e+001, 2.63763638e+001, 0., 0., 0.,
          1.08448160e+000, 1.91551840e+000, 0., 0., 0., 0., 0. ]
      - [ 0., 2.75735927e+000, 8., 2., 6., 2., 6., 2., 0., 0., 0.,
          5.83415937e+000, 2.38803482e+001, 1.62854919e+001, 20.,
          1.27573595e+001, 0., 0., 0., 1.77471409e+001, 4.83941689e+001,
          5.85869265e+000, 15., 1.91715736e+001, 0., 0., 0.,
          1.54181986e+001, 2.59960155e+001, 4.58578634e+000,
          2.82842708e+000, 1.17157292e+000, 0., 0., 4., 3., 2.,
          4.58578634e+000, 7.41421366e+000, 0., 0., 1., 1., 3.,
          2.38994942e+001, 2.66862907e+001, 1.54142132e+001, 4., 0., 0.,
          0., 0., 2.01421356e+001, 6.38873024e+001, 5.22132034e+001,
          1.07573595e+001, 0., 2., 4.41421366e+000, 1.21614990e+001,
          3.54938889e+001, 6.98753510e+001, 4.90550499e+001, 2., 0., 0.,
          0., 0., 2., 2.58578634e+000, 1.04142132e+001, 2., 0., 0., 2.,
          5., 14., 11., 23., 7., 0., 0., 1., 5.85786462e-001,
          1.76568546e+001, 2.11005058e+001, 2.06568546e+001,
          2.12922707e+001, 0., 1.80653059e+000, 4., 2., 8.82842731e+000,
          1.29289322e+001, 1.03343878e+001, 1.99830532e+001, 0., 1., 4.,
          2., 2., 0., 1., 0., 0., 5.29351616e+000, 8.61489677e+000,
          3.84699035e+000, 5.41421366e+000, 3., 1.05857868e+001,
          8.46616268e+000, 0., 2.34086234e-002, 0., 0., 0., 0., 0.,
          6.85455608e+000, 0., 0., 0., 0., 0., 0., 0., 0., 0.,
          9.08756828e+000, 1.39124317e+001, 1., 1., 0., 2., 1., 0.,
          8.74959469e+000, 1.87026119e+001, 8.85373056e-001, 0., 0., 0.,
          0., 0., 0., 0., 0., 0., 0., 0., 0., 0., 0., 0., 0., 0., 0., 0.,
          0., 0., 9.11573589e-001, 1.29503765e+001, 1.38049781e-001, 0.,
          0., 1., 0., 0., 0., 0., 0., 0., 0., 0., 0., 0., 0., 0., 0., 0.,
          0., 0., 0., 0., 0., 0., 0., 0., 0., 0., 0., 0.,
          5.26602983e+000, 1.45182371e+001, 2.15733260e-001, 1., 0., 0.,
          0., 0., 0., 1., 0., 0., 0., 0., 0., 0., 0., 0., 0., 0., 0., 0.,
          0., 0., 0., 0., 0., 0., 0., 0., 0., 0., 3.16417575e+000,
          1.14060993e+001, 3.42972493e+000, 2., 0., 8., 0., 0.,
          8.01358032e+000, 3.93164711e+001, 4.02700424e+000,
          5.42745447e+000, 2.15489298e-001, 5., 2.58578634e+000, 0., 0.,
          3.26559353e+000, 5.89190960e+000, 1.47015095e+001,
          1.40987366e-001, 0., 0., 0., 0., 0., 0., 0., 0., 0., 0., 0.,
          9.02943707e+000, 8.69848442e+000, 6.27207804e+000, 0., 0.,
          4.68629169e+000, 2.36101723e+001, 3.27035370e+001, 0.,
          3.22161484e+001, 1.17838507e+001, 1.44974747e+001,
          3.15659046e+001, 1.93662131e+000, 2.38355961e+001,
          9.16440296e+000, 1.65685427e+000, 7.82073784e+000,
          5.22407770e-001, 0., 4.51471853e+000, 6.62741709e+000,
          7.85786438e+000, 0., 0., 2.92893219e+000, 2.15391045e+001,
          2.95319633e+001, 0., 0., 0., 3.85218620e+001, 9.34781418e+001,
          0., 2.61203885e-001, 1.34545250e+001, 3.10660172e+001,
          9.71580582e+001, 9.06019402e+000, 0., 0., 4.97056293e+000,
          1.00294371e+001, 0., 0., 4.10050488e+000, 1.73969688e+001,
          2.65025253e+001, 0., 0., 1.17157292e+000, 1.61543293e+001,
          4.43047256e+001, 2.93693733e+001, 2.61203885e-001,
          8.59666061e+000, 1.20121937e+001, 2.92204380e+001,
          2.29095039e+001, 0., 4.10050488e+000, 3.31370854e+000,
          5.85786462e-001, 0., 6.46738195e+000, 1.79052010e+001,
          1.69827557e+001, 2.10455360e+001, 2.59912515e+000, 0.,
          5.85786462e-001, 4.14213568e-001, 2.99887300e+000,
          1.10011272e+001, 0., 0., 0., 0., 0., 1.88023109e+001,
          4.36926222e+000, 2.07106781e+000, 1.75735927e+000, 0.,
          2.60759830e+001, 3.92401743e+000, 0., 0., 0., 0., 0., 0., 0.,
          0., 0., 0., 0., 0., 0., 1.23200731e+001, 1.67992723e+000,
          4.14213568e-001, 5.85786462e-001, 0., 0., 0., 0., 0., 0., 0.,
          0., 0., 0., 0., 0., 0., 0., 0., 0., 1.74501991e+001,
          2.54980087e+000, 0., 0., 0., 8.21307123e-001, 1.78692877e-001,
          0., 0., 0., 0., 0., 0., 0., 0., 0., 0., 0., 0., 0.,
          1.19747143e+001, 4.36843157e+000, 4.97056293e+000,
          4.68629169e+000, 0., 3.63248024e+001, 1.33614874e+001,
          6.62741709e+000, 6.68629169e+000, 0., 9.48248863e+000,
          3.68908405e+000, 1.65685427e+000, 3.17157292e+000, 0., 0., 0.,
          0., 0., 0., 0., 5.34314585e+000, 4.55634928e+000,
          7.10050488e+000, 0., 0., 1.23725834e+001, 1.98822517e+001,
          3.08546638e+001, 1.89050162e+000, 7.75922477e-001,
          1.51824465e+001, 9.52691174e+000, 1.30180225e+001,
          5.64966965e+001, 0., 1.17157292e+000, 2.07106781e+000,
          8.76137829e+000, 3.59959831e+001, 0., 5.85786462e-001,
          4.14213562e+000, 6.27207804e+000, 0., 0., 6.68629169e+000,
          2.15391045e+001, 3.57746048e+001, 0., 0., 8.78679657e+000,
          3.27228699e+001, 6.22291298e+001, 2.61203885e-001, 0.,
          7.02943707e+000, 3.35513000e+001, 8.97417984e+001,
          9.67746925e+000, 0., 1.17157292e+000, 2.89949489e+000,
          2.92893219e+000, 0., 5.85786462e-001, 5.68629169e+000,
          1.61543293e+001, 1.75735931e+001, 0., 4.36017036e+001,
          1.01556559e+001, 1.40832615e+001, 2.78981762e+001,
          2.61203885e-001, 4.07657013e+001, 1.25774450e+001,
          1.11837664e+001, 1.54730883e+001, 0., 0., 2.92893219e+000,
          3.72792196e+000, 2.34314585e+000, 0., 3.33942070e+001,
          1.54636564e+001, 9.11269855e+000, 8.02943707e+000, 0.,
          2.00251427e+001, 2.97485733e+000, 0., 0., 0., 0., 0., 0., 0.,
          0., 1.27001019e+001, 6.81461668e+000, 3.31370854e+000,
          1.17157292e+000, 0., 1.42947416e+001, 7.46261740e+000,
          1.24264073e+000, 7.99401522e-001, 2.20059848e+000, 0., 0., 0.,
          0., 0., 0., 0., 0., 0., 0., 2.25546789e+000, 1.91610503e+000,
          1.65685427e+000, 2.17157292e+000, 0., 0., 0., 0., 0., 0., 0.,
          0., 0., 0., 0., 0., 0., 0., 0., 0., 1.00344772e+001,
          3.96552253e+000, 8.28427136e-001, 2.17157292e+000, 0., 0., 0.,
          0., 0., 0., 0., 0., 0., 0., 0., 0., 0., 0., 0., 0.,
          6.34601021e+000, 2.65398979e+000, 3.31370854e+000,
          4.68629169e+000, 0., 1.02292614e+001, 1.72143898e+001,
          6.62741709e+000, 4.90217638e+000, 6.02675581e+000, 0., 0., 0.,
          2.74797606e+000, 1.92520237e+001, 0., 0., 0., 0., 0. ]
      - [ 0., 5.92893219e+000, 9.89949512e+000, 1.01715727e+001, 3., 0.,
          0., 0., 0., 1.14208822e+001, 1.51649046e+001, 1.,
          4.14213568e-001, 1.22720776e+001, 3.57279205e+001,
          2.58578634e+000, 0., 1., 0., 1.45147190e+001, 2.37464848e+001,
          4.05662041e+001, 7.11725922e+001, 3., 0., 2.49698901e+000,
          1.69755554e+001, 1.98775444e+001, 5.37862129e+001,
          4.64078522e+001, 6.35269127e+001, 3.92893219e+000, 0., 1.,
          9.82842731e+000, 7.17157269e+000, 2., 2., 1., 3., 0., 0., 0.,
          0., 5.07106781e+000, 2.80031853e+001, 5.45825996e+001,
          2.34314585e+000, 0., 5.85786462e-001, 0., 0., 4.74648523e+000,
          5.49720039e+001, 8.75427094e+001, 6.32458258e+000, 0., 0., 0.,
          1., 6.35083485e+000, 4.74442596e+001, 9.62264328e+001,
          4.00161743e+001, 0., 8., 7., 4., 0., 0., 1., 0., 0.,
          1.01789064e+001, 4.14213568e-001, 1., 1.41421354e+000,
          2.24250870e+001, 4.39891243e+001, 3.94810295e+000, 0.,
          3.03571725e+000, 0., 0., 1.41421354e+000, 1.41005049e+001,
          4.74912834e+001, 4.49399529e+001, 6.97641596e-002, 0., 0., 0.,
          0., 0., 8.99975109e+000, 1.29304848e+001, 0., 3.90421677e+000,
          8.26120377e+000, 2.32458258e+000, 1., 0., 0., 1.68547481e-001,
          0., 9.01815891e+000, 0., 0., 0., 0., 0., 6.30944967e-002, 0.,
          3.61302108e-001, 0., 0., 0., 0., 0., 0., 0., 0., 0., 0., 0.,
          0., 0., 0., 0., 1.41580772e+001, 9.18460131e-001, 0., 0., 0.,
          0., 0., 0., 0., 0., 0., 0., 0., 0., 0., 0., 0., 0., 0., 0., 0.,
          0., 0., 0., 0., 0., 0., 0., 0., 0., 0., 0., 7.97669029e+000,
          7.07106781e+000, 1., 0., 0., 0., 1.25549293e+000, 0.,
          9.28777122e+000, 1.15013199e+001, 2.57800674e+000, 0., 0., 0.,
          0., 0., 0., 0., 0., 0., 0., 0., 0., 0., 0., 0., 0., 0., 0., 0.,
          0., 0., 4.92893219e+000, 7.48528147e+000, 9.17157269e+000, 3.,
          3., 1., 5.85786462e-001, 4.47436857e+000, 1.32597065e+001,
          3.48705635e+001, 5.94961882e+000, 8.11089420e+000,
          2.92063427e+000, 0., 4.14213568e-001, 0., 1.26524305e+001,
          1.05740623e+001, 2.49675184e-001, 0., 0., 0., 0., 0., 0., 0.,
          0., 0., 0., 0., 0., 0., 5.38796139e+000, 2.35083485e+000,
          2.17157292e+000, 4.58578634e+000, 3.15300965e+000,
          6.75417423e-001, 3., 0., 1.67403240e+001, 1.62188206e+001,
          8.90846157e+000, 7.83076382e+000, 2.83509588e+000, 5.,
          6.42289448e+000, 0., 1.46962433e+001, 4.90874710e+001,
          4.85010872e+001, 2.75749130e+001, 3., 5.85786462e-001, 1., 0.,
          1., 2.20119495e+001, 4.37112083e+001, 3.99864883e+001,
          1.14463930e+001, 7.57500505e+000, 1.26895416e+000,
          2.61203885e-001, 1.95255928e+001, 6.21320343e+000, 0., 0.,
          2.24264073e+000, 2.20294380e+001, 1.36690474e+001,
          4.02752647e+001, 7.83611596e-001, 0., 1.15441561e+001,
          2.31959591e+001, 9.72970123e+001, 3.96287370e+000,
          3.09795055e+001, 2.50499325e+001, 2.40243874e+001,
          1.05875107e+002, 7.07106781e+000, 0., 1.34436512e+001,
          7.04163074e+000, 3.51471853e+000, 0., 0., 0., 9.94112587e+000,
          7.36632233e+001, 3.39565039e+000, 0., 5.85786462e-001,
          1.73969688e+001, 1.24207382e+002, 1.18098640e+001, 0.,
          5.85786462e-001, 1.53259020e+001, 1.29574722e+002,
          4.65135841e+001, 0., 1.23725834e+001, 7.04163074e+000,
          5.85786462e-001, 0., 1.04958820e+001, 7.84726334e+000,
          1.15979795e+001, 5.98162346e+001, 2.24264073e+000,
          5.23804426e+000, 2.76195574e+000, 4.55634928e+000,
          6.43246231e+001, 4.81190300e+001, 0., 0., 0., 5.47989082e+000,
          1.65201092e+001, 6.82789278e+000, 1.28583984e+001,
          4.14213562e+000, 1.17157292e+000, 0., 1.43628178e+001,
          6.63718224e+000, 4.14213568e-001, 5.85786462e-001, 0.,
          4.14213568e-001, 5.85786462e-001, 0., 0., 0., 0., 0., 0., 0.,
          0., 1.58129606e+001, 8.11597157e+000, 2.07106781e+000, 0., 0.,
          0., 0., 0., 0., 0., 0., 0., 0., 0., 0., 0., 0., 0., 0., 0.,
          4.48025942e+000, 1.63776054e+001, 4.55634928e+000,
          1.91036904e+000, 6.75417423e-001, 2.09833031e+001,
          7.77405548e+000, 1.24264073e+000, 0., 0., 0., 0., 0., 0., 0.,
          0., 0., 0., 0., 0., 0., 1.62010098e+001, 7.87005758e+000,
          2.92893219e+000, 0., 4.39392891e+001, 1.35754290e+001,
          3.31370854e+000, 3.09231520e+000, 3.07925773e+000,
          1.92258205e+001, 4.77418041e+000, 0., 0., 0., 0., 0., 0., 0.,
          0., 7.83611596e-001, 8.55953407e+000, 4.14213562e+000,
          5.25351477e+000, 2.61203885e-001, 1.42518482e+001,
          2.52212410e+001, 1.36690474e+001, 1.05831347e+001,
          3.27472973e+000, 2.13582897e+001, 6.74751892e+001,
          2.98233757e+001, 3.08194184e+000, 2.61203885e-001,
          4.92743073e+001, 2.80982780e+001, 6.62741709e+000,
          7.11895514e+000, 2.08810444e+001, 0., 5.85786438e+000,
          9.94112587e+000, 9.20100975e+000, 0., 0., 1.63015156e+001,
          1.61543293e+001, 1.15441561e+001, 0., 0., 2.34314585e+000,
          2.89949493e+001, 6.63558884e+001, 1.30601943e+000,
          2.62624145e+000, 8.47426319e+000, 1.90538235e+001,
          6.22060242e+001, 6.06396484e+001, 0., 2.34314585e+000,
          6.62741709e+000, 7.02943707e+000, 0., 0., 2.34314585e+000,
          1.36690474e+001, 2.99878063e+001, 0., 2.61203885e-001,
          1.02535143e+001, 2.85807362e+001, 5.66433411e+001,
          2.61203885e-001, 2.80192966e+001, 2.97258682e+001,
          3.43797264e+001, 5.43526993e+001, 5.22407770e-001, 0.,
          9.20100975e+000, 7.45584393e+000, 2.34314585e+000, 0.,
          1.54659195e+001, 9.46301270e+000, 1.32548342e+001,
          2.08162346e+001, 0., 5.56631088e+001, 2.16089706e+001,
          9.52691174e+000, 1.42010098e+001, 0., 1.23290997e+001,
          5.67090082e+000, 0., 0., 0., 1.24781103e+001, 5.27924919e+000,
          2.07106781e+000, 3.17157292e+000, 0., 2.54211712e+001,
          4.57882929e+000, 0., 0., 0., 1.22346997e+000, 7.76530027e-001,
          0., 0., 0., 0., 0., 0., 0., 0., 1.96417942e+001,
          1.01155643e+001, 1.24264073e+000, 0., 0., 2.84649229e+000,
          1.15350783e+000, 0., 0., 0., 0., 0., 0., 0., 0., 0., 0., 0.,
          0., 0., 1.26616774e+001, 7.02461433e+000, 3.72792196e+000,
          5.85786462e-001, 0., 1.95291386e+001, 6.47086143e+000, 0.,
          2.79582095e+000, 3.20417905e+000, 0., 0., 0., 0., 0., 0., 0.,
          0., 0., 0., 0., 6.10050488e+000, 8.69848442e+000,
          1.02010098e+001, 0., 1.49405756e+001, 1.08167839e+001,
          4.14213562e+000, 1.40151567e+001, 1.30853481e+001,
          1.45464106e+001, 3.45358920e+000, 0., 3.20377231e-001,
          6.79622769e-001, 0., 0., 0., 0., 0., 2.61203885e-001,
          1.13540201e+001, 7.87005758e+000, 7.73110723e+000,
          7.83611596e-001, 1.50176296e+001, 2.06980991e+001,
          1.53259020e+001, 1.16871376e+001, 5.27123165e+000,
          4.19313669e+000, 1.14220877e+001, 3.14802303e+001,
          6.30452957e+001, 5.85924911e+000, 1.88929915e+000,
          1.69648731e+000, 3.31370854e+000, 2.95327587e+001,
          7.65677490e+001 ]
      - [ 0., 0., 2., 2., 9., 7., 0., 0., 0., 0., 2., 1.17216110e+001,
          5.23510551e+001, 1.85131207e+001, 2.82842708e+000,
          2.58578634e+000, 0., 0., 0., 6.32558966e+000, 5.62925682e+001,
          1.38184261e+000, 0., 0., 0., 0., 1., 0., 2., 0., 0., 0., 0.,
          0., 2., 2., 7., 4., 2., 4., 0., 0., 5., 13., 2.24142132e+001,
          1.65857868e+001, 9., 1., 0., 1., 3.41421366e+000,
          5.39904118e+000, 6.15536842e+001, 3.28046341e+001,
          2.08284264e+001, 1.58578646e+000, 0., 2.58578634e+000,
          7.97099209e+000, 1.90416985e+001, 8.06628723e+001,
          4.30757790e+001, 3.89874535e+001, 8.84699059e+000, 0.,
          6.68487430e-001, 1., 0., 0., 0., 3.41421366e+000,
          1.39614544e+001, 0., 7.39166832e+000, 2.08396006e+000, 0., 0.,
          0., 0., 1.61439419e+001, 0., 1.32762604e+001, 1.10406618e+001,
          0., 0., 0., 6.23501587e+000, 2.16491108e+001, 0.,
          1.22781115e+001, 9.21384239e+000, 0., 0., 1.58578646e+000,
          1.09796848e+001, 1.66311417e+001, 0., 2.74616987e-001, 0., 0.,
          0., 0., 1., 3.87602854e+000, 0., 0., 0., 0., 0., 0., 0., 0.,
          0., 0., 0., 0., 0., 0., 0., 0., 0., 0., 0., 0., 0., 0., 0., 0.,
          0., 7.73888540e+000, 2.44558501e+000, 0., 0., 0., 0.,
          1.34058595e+000, 0., 0., 0., 0., 0., 0., 0., 0., 0., 0., 0.,
          0., 0., 0., 0., 0., 0., 0., 0., 0., 0., 0., 0., 0., 0.,
          1.48472614e+001, 4.58969927e+000, 0., 0., 0., 1., 0., 0., 0.,
          2., 0., 0., 0., 0., 0., 0., 0., 0., 0., 0., 0., 0., 0., 0., 0.,
          0., 0., 0., 0., 0., 0., 0., 4.32832098e+000, 1.26716795e+001,
          1., 3., 4., 2.41421366e+000, 5.85786462e-001, 0.,
          1.61500263e+000, 1.96918087e+001, 6.93189621e-001, 0., 0., 0.,
          0., 0., 0., 0., 0., 0., 0., 0., 0., 0., 0., 0., 0., 0., 0., 0.,
          0., 4.14213568e-001, 1., 3., 3.58578634e+000, 4.82842731e+000,
          4.58578634e+000, 2.41421366e+000, 1.17157292e+000, 0., 0.,
          1.29658260e+001, 3.35701714e+001, 1.88039780e+001,
          5.66002464e+000, 1., 0., 0., 0., 0., 0., 2., 0., 0., 0., 0.,
          0., 0., 0., 0., 0., 0., 0., 0., 2.34314585e+000,
          4.55634928e+000, 4.10050488e+000, 0., 6.66147137e+000,
          1.21963930e+001, 1.61543293e+001, 2.19878063e+001, 0.,
          9.87800980e+000, 1.14651356e+001, 4.97056293e+000,
          1.11638842e+001, 5.22407770e-001, 5.14718652e-001,
          4.85281378e-001, 0., 0., 0., 0., 2.34314585e+000,
          5.79898977e+000, 5.85786438e+000, 0., 0., 1.05441561e+001,
          1.86396103e+001, 1.58162336e+001, 0., 1.78268003e+000,
          7.48939800e+000, 2.65096684e+001, 4.01734390e+001,
          1.04481554e+000, 2.34741039e+001, 1.16264009e+001,
          1.82253971e+001, 6.16998901e+001, 2.99742088e+001, 0.,
          2.34314585e+000, 9.52691174e+000, 1.31299419e+001, 0.,
          5.12638950e+000, 6.55990171e+000, 1.20121937e+001,
          1.97144089e+001, 8.58710575e+000, 1.59708166e+001,
          1.03012609e+001, 9.94112587e+000, 1.97940502e+001,
          2.19927464e+001, 1.59759760e+001, 7.78138304e+000,
          4.55634928e+000, 2.01959801e+001, 2.14903107e+001,
          4.14213568e-001, 3.17157292e+000, 4.55634928e+000,
          7.18244696e+000, 6.75417423e-001, 0., 0., 0., 0., 0., 0., 0.,
          0., 0., 0., 0., 0., 0., 0., 0., 8.97382545e+000,
          4.61196041e+000, 8.28427136e-001, 2.54866004e+000,
          1.03712642e+000, 0., 0., 0., 0., 0., 0., 0., 0., 0., 0., 0.,
          0., 0., 0., 0., 1.70049763e+001, 6.75238323e+000,
          1.65685427e+000, 5.85786462e-001, 0., 1.34664428e+000,
          6.53355718e-001, 0., 0., 0., 0., 0., 0., 0., 0., 0., 0., 0.,
          0., 0., 1.24505672e+001, 4.30679178e+000, 2.89949489e+000,
          5.34314585e+000, 0., 1.94258385e+001, 2.57416105e+000, 0., 0.,
          0., 0., 0., 0., 0., 0., 0., 0., 0., 0., 0., 0.,
          4.68629169e+000, 6.62741709e+000, 5.68629169e+000, 0.,
          4.05292931e+001, 1.23996410e+001, 5.79898977e+000,
          5.27207804e+000, 0., 0., 0., 0., 0., 0., 0., 0., 0., 0., 0.,
          0., 0., 6.62741709e+000, 1.13725834e+001, 0., 0.,
          3.34314585e+000, 1.03553391e+001, 5.39234962e+001,
          2.03780193e+001, 0., 0., 0., 1.04756403e+001, 5.35243607e+001,
          0., 0., 0., 6.21077836e-001, 1.37892210e+000, 0.,
          5.85786438e+000, 9.11269855e+000, 8.02943707e+000, 0., 0.,
          5.10050488e+000, 2.02964649e+001, 3.46030312e+001, 0., 0.,
          4.92893219e+000, 2.02964649e+001, 7.32911224e+001,
          9.48348331e+000, 2.61203885e-001, 1.51824465e+001,
          2.52670269e+001, 1.07403236e+002, 4.68860855e+001,
          5.43615627e+000, 1.39364262e+001, 6.62741709e+000, 0., 0.,
          3.81749878e+001, 2.58544483e+001, 4.97056293e+000, 0., 0.,
          4.85249367e+001, 4.22618599e+001, 6.21320343e+000, 0., 0.,
          4.25984573e+001, 1.96736221e+001, 4.55634928e+000,
          1.17157292e+000, 0., 1.86183357e+001, 4.72481012e+000,
          1.65685427e+000, 0., 0., 1.72840703e+000, 2.71592975e-001, 0.,
          0., 0., 0., 0., 0., 0., 0., 0., 0., 0., 0., 0.,
          1.62826462e+001, 4.47471333e+000, 1.24264073e+000, 0., 0., 0.,
          0., 0., 0., 0., 0., 0., 0., 0., 0., 0., 0., 0., 0., 0.,
          1.92079792e+001, 6.54937983e+000, 1.24264073e+000, 0., 0., 0.,
          0., 0., 0., 0., 0., 0., 0., 0., 0., 0., 0., 0., 0., 0.,
          7.01608944e+000, 5.91284275e+000, 4.97056293e+000,
          5.10050488e+000, 0., 2.66266012e+000, 5.09469938e+000,
          1.24264073e+000, 8.92476916e-001, 2.10752320e+000, 0., 0., 0.,
          0., 0., 0., 0., 0., 0., 0., 0., 2.17157292e+000,
          5.38477612e+000, 8.44365120e+000, 0., 0., 0., 2.48528147e+000,
          2.51077042e+001, 4.04070129e+001, 0., 0., 0., 6.63974226e-001,
          1.33602571e+000, 0., 0., 0., 0., 0. ]
      - [ 0., 5.85786462e-001, 6.65685415e+000, 1.11005049e+001,
          5.65685415e+000, 4., 0., 0., 0., 1., 2.44427657e+000,
          3.24911575e+001, 3.08033619e+001, 2.61203885e-001, 2., 2., 0.,
          0., 0., 2.55157719e+001, 1.94074268e+001, 1.07680011e+000,
          4.14213568e-001, 5.85786462e-001, 6.75417423e-001,
          2.25212023e-001, 1.75347443e+001, 1.30255280e+001,
          1.18083982e+001, 3.62182951e+000, 2.08233500e+000,
          4.02653551e+000, 0., 0., 3.41421366e+000, 6.75735950e+000,
          9.82842731e+000, 4., 3., 0., 0., 3., 5., 1.85857868e+001,
          2.34142132e+001, 8.58578682e+000, 8.41421318e+000, 2., 0., 1.,
          1.54142132e+001, 9.17157269e+000, 3.34100075e+001,
          2.44936924e+001, 1.89247265e+001, 1.63245831e+001, 0.,
          1.36991577e+001, 2.97417164e+001, 1.94368992e+001,
          2.12920494e+001, 5.11685257e+001, 3.81419907e+001,
          2.49010315e+001, 0., 4.17157269e+000, 6.41421366e+000, 0., 1.,
          0., 2.41421366e+000, 1.58578646e+000, 0., 6.58578634e+000, 0.,
          0., 1., 1., 6.82842731e+000, 2.75373993e+001, 0.,
          8.94856930e+000, 1., 0., 0., 2.32037735e+000, 6.94082642e+000,
          1.56264677e+001, 0., 4.41923141e-001, 0., 0., 0., 0.,
          2.51963997e+000, 2.90528965e+001, 0., 0., 0., 0., 4., 6., 7.,
          3.17157292e+000, 0., 3.56476808e+000, 0., 0., 0., 0., 0.,
          1.54710331e+001, 0., 0., 0., 0., 0., 0., 0., 0., 0., 0., 0.,
          0., 0., 0., 0., 0., 0., 7.62195921e+000, 7., 2., 5., 1., 0.,
          0., 0., 1.19597692e+001, 1.70043886e+000, 0., 0., 0., 0., 0.,
          0., 0., 0., 0., 0., 0., 0., 0., 0., 0., 0., 0., 0., 0., 0., 0.,
          0., 4.39207649e+000, 1.14779205e+001, 2.90952206e+000, 1.,
          5.85786462e-001, 3.41421366e+000, 0., 0., 8.40987492e+000,
          1.15901251e+001, 0., 0., 0., 0., 0., 0., 0., 0., 0., 0., 0.,
          0., 0., 0., 0., 0., 0., 0., 0., 0., 0., 0., 0.,
          8.49813652e+000, 1.43679047e+001, 5.13395882e+000, 1., 2., 0.,
          0., 5.22566915e-001, 9.78881168e+000, 4.45407581e+000,
          1.23454523e+000, 0., 0., 0., 0., 0., 0., 0., 0., 0., 0., 0.,
          0., 0., 0., 0., 0., 0., 0., 0., 0., 2.58578634e+000,
          2.43881941e+000, 1.04729128e+001, 7.33090830e+000,
          4.75735950e+000, 4.14213568e-001, 0., 0., 0., 3.95981640e-001,
          1.71696091e+001, 5.43440866e+000, 0., 0., 0., 0., 0., 0., 0.,
          0., 0., 0., 0., 0., 0., 0., 0., 0., 0., 0., 0., 0.,
          1.47867966e+001, 7.87005758e+000, 2.34314585e+000, 0.,
          2.92397881e+001, 1.77896481e+001, 7.04163074e+000,
          2.92893219e+000, 0., 2.58055401e+001, 1.05376062e+001,
          2.48528147e+000, 2.17157292e+000, 0., 3.00974426e+001,
          7.90255737e+000, 4.14213568e-001, 5.86314964e+000,
          5.72263718e+000, 0., 6.85786438e+000, 7.04163074e+000,
          4.10050488e+000, 0., 0., 1.80588741e+001, 1.73969688e+001,
          1.15441561e+001, 0., 2.61203885e-001, 1.67976704e+001,
          2.77523079e+001, 4.41145630e+001, 2.07425284e+000,
          2.74138050e+001, 3.75445633e+001, 1.44974747e+001,
          6.47762985e+001, 5.87678528e+001, 0., 6.85786438e+000,
          5.38477612e+000, 2.75735927e+000, 0., 0., 4.51471853e+000,
          8.28427124e+000, 2.81997910e+001, 2.30012188e+001,
          1.01746874e+001, 1.13400307e+001, 7.04163074e+000,
          2.17573357e+001, 8.68631554e+000, 4.14213568e-001,
          1.58578646e+000, 0., 1.82289410e+001, 2.77710590e+001, 0., 0.,
          7.45584393e+000, 1.05441561e+001, 0., 5.57184935e+000,
          1.42815077e+000, 4.14213568e-001, 7.35028982e+000,
          1.92354965e+001, 0., 0., 0., 0., 0., 0., 0., 0., 0., 0.,
          3.64722753e+000, 1.30390635e+001, 3.72792196e+000,
          5.85786462e-001, 0., 1.87998962e+001, 5.20010376e+000, 0., 0.,
          0., 0., 0., 0., 0., 0., 0., 0., 0., 0., 0., 9.56429005e+000,
          7.77885580e+000, 2.07106781e+000, 3.58578634e+000, 0.,
          1.70430260e+001, 2.95697498e+000, 0., 0., 0., 0., 0., 0., 0.,
          0., 0., 0., 0., 0., 0., 1.55598135e+001, 5.36911821e+000,
          3.31370854e+000, 1.75735927e+000, 0., 1.20878906e+001,
          2.91210938e+000, 0., 0., 0., 0., 0., 0., 0., 0., 0., 0., 0.,
          0., 0., 8.00886726e+000, 6.50585175e+000, 4.55634928e+000,
          3.92893219e+000, 0., 1.67878361e+001, 4.21216488e+000, 0., 0.,
          0., 0., 0., 0., 0., 0., 0., 0., 0., 0., 0., 0.,
          5.85786462e-001, 6.62741709e+000, 1.55255928e+001,
          2.61203885e-001, 0., 2.34314585e+000, 6.21320343e+000,
          2.00676861e+001, 3.93759651e+001, 0., 5.85786462e-001,
          2.07106781e+000, 9.44990253e+000, 3.48932419e+001,
          2.86263871e+000, 5.72314739e+000, 8.28427136e-001,
          1.07351255e+001, 2.68506603e+001, 0., 0., 6.62741709e+000,
          1.43725834e+001, 0., 0., 3.51471853e+000, 1.94680367e+001,
          3.37560387e+001, 2.61203885e-001, 7.83611596e-001,
          2.27605438e+001, 2.85807362e+001, 4.71096535e+001,
          2.76545525e+000, 2.06490364e+001, 4.54809074e+001,
          1.82253971e+001, 6.74538879e+001, 4.81907730e+001,
          5.22407770e-001, 1.09212427e+001, 4.97056293e+000,
          5.85786462e-001, 0., 3.55756683e+001, 2.81400585e+001,
          9.11269855e+000, 1.17157292e+000, 0., 3.95825958e+001,
          2.65179081e+001, 4.55634928e+000, 3.34314585e+000, 0.,
          3.71920280e+001, 1.75653305e+001, 1.24264073e+000, 0., 0.,
          5.22407770e-001, 8.23495197e+000, 5.38477612e+000,
          5.85786438e+000, 0., 3.47517509e+001, 7.24824905e+000, 0., 0.,
          0., 0., 0., 0., 0., 0., 0., 0., 0., 0., 0., 6.37488461e+000,
          9.55404758e+000, 4.55634928e+000, 5.51471853e+000, 0.,
          2.43359280e+001, 3.66407228e+000, 0., 0., 0., 0., 0., 0., 0.,
          0., 0., 0., 0., 0., 0., 5.17731428e+000, 5.58004475e+000,
          4.55634928e+000, 5.68629169e+000, 0., 1.07783346e+001,
          3.22166586e+000, 0., 0., 0., 0., 0., 0., 0., 0., 0., 0., 0.,
          0., 0., 0., 0., 4.97056293e+000, 1.14431105e+001,
          1.15863276e+001, 1.50768256e+000, 4.92317408e-001, 0.,
          1.97405148e+000, 6.02594852e+000, 0., 0., 0., 0., 0., 0., 0.,
          0., 0., 0., 0., 1.75735927e+000, 4.55634928e+000,
          1.22894764e+001, 8.39681530e+000, 0., 0., 0., 4.55157757e+000,
          1.84484234e+001, 0., 0., 0., 0., 0., 0., 0., 0., 0., 0. ]
      - [ 0., 0., 4., 6.73879623e+000, 7.26120377e+000, 7.17157269e+000,
          5.82842731e+000, 0., 0., 0., 1., 2.14782906e+001,
          4.68696480e+001, 6.65205908e+000, 12., 1., 0., 0., 0.,
          6.43050718e+000, 3.32763252e+001, 1.87895238e+000,
          4.14213568e-001, 1., 0., 0., 0., 0., 1., 0., 0., 0., 0., 0.,
          1., 1.17157292e+000, 5.82842731e+000, 3.58578634e+000,
          1.54142132e+001, 1., 0., 5.85786462e-001, 5., 6.58578634e+000,
          1.92426414e+001, 9.58578682e+000, 20., 6.91036892e+000, 0.,
          5.85786462e-001, 0., 5.35482693e+000, 4.00931854e+001,
          5.24623566e+001, 3.37464867e+001, 1.35147190e+001, 0., 2., 6.,
          6.39363480e+000, 6.97002640e+001, 4.81071091e+001,
          2.77989902e+001, 3.84699035e+000, 0., 0., 0., 0., 4.,
          7.17157269e+000, 1.22426405e+001, 1.58578646e+000, 0.,
          6.30944967e-002, 0., 4., 5.41421366e+000, 1.91005058e+001,
          2.38994942e+001, 1.17269440e+001, 0., 0., 0., 1., 6., 12.,
          1.35639706e+001, 2.95849228e+001, 0., 0., 0., 0., 0.,
          2.58578634e+000, 3.93564487e+000, 2.58904991e+001, 0.,
          5.01677132e+000, 2., 0., 4., 5., 6., 1., 0., 7.50720596e+000,
          0., 0., 0., 0., 1., 6.10781765e+000, 0., 0., 0., 0., 0., 0.,
          0., 0., 0., 0., 0., 0., 0., 0., 0., 0., 0., 8.54935074e+000,
          0., 0., 0., 3., 4., 2.23777533e+000, 0., 3.47996855e+000, 0.,
          0., 0., 0., 0., 0., 0., 0., 0., 0., 0., 0., 0., 0., 0., 0., 0.,
          0., 0., 0., 0., 0., 4.03743124e+000, 4.41877985e+000,
          5.93435240e+000, 8.65143394e+000, 2.82842708e+000, 0., 1.,
          1.12957537e+000, 0., 3.58425927e+000, 1., 9.46522522e+000,
          1.33632021e+001, 4.75735950e+000, 5.41421366e+000,
          1.94808960e+001, 0., 2.61203885e-001, 3.27352405e+000,
          2.24961967e+001, 2.51281776e+001, 4.84089708e+000,
          1.15022111e+000, 1.65785294e+001, 0., 4.91108561e+000,
          1.19220982e+001, 8.25569820e+000, 3.90556026e+000, 0., 0.,
          1.04622018e+000, 0., 5.88381410e-001, 1.18406458e+001,
          1.49529734e+001, 1.13271856e+000, 1.48528135e+000, 0., 0., 0.,
          9.11125183e+000, 1.95012644e-001, 1.28446684e+001,
          1.29645882e+001, 7.76530027e-001, 2.08963108e+000,
          4.54596281e+000, 0., 6.82937050e+000, 0., 2.21910787e+000,
          3.05573196e+001, 4.22357321e+000, 4.41421366e+000,
          8.82621098e+000, 0., 7.88809776e+000, 1.19610605e+001,
          1.28545914e+001, 1.71162949e+001, 1.35373795e+000, 0., 0., 0.,
          5.67698121e-001, 7.85843468e+000, 1.74394207e+001,
          4.13444662e+000, 0., 0., 0., 0., 3.61248589e+000,
          2.29788303e+000, 9.67157841e+000, 3.91456528e+001,
          8.18277073e+000, 3., 4., 0., 0., 0., 7.14878812e-002,
          1.77583923e+001, 1.70120478e-001, 0., 0., 0., 0., 0., 0., 0.,
          0., 0., 0., 5.22407770e-001, 8.82073784e+000, 4.55634928e+000,
          1.08393011e+001, 2.61203885e-001, 1.52586412e+001,
          2.38713017e+001, 1.44974747e+001, 1.83725834e+001, 0.,
          1.17242126e+001, 6.27578735e+000, 1.65685427e+000,
          7.66772842e+000, 6.75417423e-001, 0., 0., 0., 0., 0., 0.,
          1.75735927e+000, 3.31370854e+000, 1.76677284e+001,
          2.61203885e-001, 0., 8.44365120e+000, 1.32548342e+001,
          2.74730873e+001, 1.82842708e+000, 4.91265154e+000,
          5.01628065e+000, 2.98233757e+001, 8.25908356e+001,
          3.65685415e+000, 5.32597542e+000, 1.42181807e+001,
          2.36101723e+001, 7.47138748e+001, 1.21317968e+001, 0., 0.,
          5.38477612e+000, 1.53540201e+001, 2.61203885e-001, 0.,
          2.92893219e+000, 1.86396103e+001, 4.41941490e+001,
          5.23730946e+000, 0., 5.85786462e-001, 1.24264069e+001,
          3.48683662e+001, 3.21194420e+001, 0., 0., 1.24264073e+000,
          1.53667183e+001, 2.93906403e+001, 4.71020746e+000,
          4.04715204e+000, 5.79898977e+000, 7.44365072e+000, 0.,
          1.20282898e+001, 3.97171021e+000, 8.28427136e-001,
          1.13486366e+001, 4.82293606e+000, 0., 0., 0., 0., 0., 0., 0.,
          0., 0., 0., 9.69694233e+000, 4.47463036e+000, 5.38477612e+000,
          9.44365120e+000, 0., 3.57724357e+000, 1.42275643e+000, 0., 0.,
          0., 0., 0., 0., 0., 0., 0., 0., 0., 0., 0., 7.37905455e+000,
          1.39640913e+001, 2.48528147e+000, 2.17157292e+000, 0.,
          1.31075783e+001, 7.23556805e+000, 5.38477612e+000,
          1.82872601e+001, 2.39848175e+001, 2.86968422e+001,
          9.06051826e+000, 4.55634928e+000, 1.65135937e+001,
          2.51726971e+001, 2.48017883e+001, 7.78399849e+000,
          4.14213568e-001, 1.29726315e+000, 2.70273685e+000,
          1.55370426e+001, 1.20487442e+001, 8.28427136e-001,
          1.58578646e+000, 0., 3.16549854e+001, 1.33450146e+001,
          2.07106781e+000, 1.13536129e+001, 2.57531929e+000,
          7.97781944e+000, 1.16374044e+001, 1.86396103e+001,
          3.19615536e+001, 7.83611596e-001, 2.97139473e+001,
          1.00434122e+001, 2.89949489e+000, 5.34314585e+000, 0.,
          4.24776459e+000, 2.20953808e+001, 1.65685427e+000, 0., 0.,
          8.57322502e+000, 1.66988525e+001, 8.69848442e+000,
          1.37877731e+001, 1.12416649e+001, 0., 1.58578646e+000,
          2.48528147e+000, 2.92893219e+000, 0., 0., 0., 0., 0., 0., 0.,
          0., 6.62741709e+000, 1.65889721e+001, 7.83611596e-001, 0.,
          5.85786462e-001, 4.14213562e+000, 3.24510765e+001,
          3.88210030e+001, 0., 1., 8.28427136e-001, 6.75767756e+000,
          3.44138947e+001, 0., 0., 0., 4.85281378e-001, 5.14718652e-001,
          0., 5.85786462e-001, 2.89949489e+000, 9.25351429e+000,
          2.61203885e-001, 2.61203885e-001, 1.27682333e+001,
          1.61543293e+001, 2.58162346e+001, 0., 0., 1.45441561e+001,
          2.36101723e+001, 6.63008957e+001, 1.85447731e+001,
          2.87564659e+000, 1.09822178e+001, 2.44386005e+001,
          6.51694641e+001, 4.95340691e+001, 0., 1.17157292e+000,
          5.79898977e+000, 8.02943707e+000, 0., 1.86975899e+001,
          1.37460604e+001, 1.61543293e+001, 1.94020195e+001, 0.,
          4.79418221e+001, 1.38155394e+001, 8.69848442e+000,
          1.15441561e+001, 0., 3.51834984e+001, 8.40228653e+000,
          1.65685427e+000, 1.75735927e+000, 0., 6.59710026e+000,
          3.16025877e+000, 4.97056293e+000, 5.27207804e+000, 0.,
          3.37976303e+001, 8.37394428e+000, 8.28427136e-001, 0., 0., 0.,
          0., 0., 0., 0., 0., 0., 0., 0., 0., 1.67686539e+001,
          5.98870564e+000, 2.48528147e+000, 1.75735927e+000, 0.,
          7.69509554e+000, 2.30490446e+000, 0., 0., 0., 0., 0., 0., 0.,
          0., 0., 0., 0., 0., 0., 6.74420881e+000, 2.42736411e+000,
          3.31370854e+000, 1.17311068e+001, 7.83611596e-001,
          3.35484657e+001, 1.03804674e+001, 4.14213562e+000,
          1.04013433e+001, 1.55275888e+001, 3.49055519e+001,
          8.43759537e+000, 3.31370854e+000, 1.38815889e+001,
          3.74615555e+001, 1.91778069e+001, 2.82219362e+000, 0.,
          3.40870523e+000, 1.25912943e+001, 1.44998991e+000,
          5.50010026e-001, 4.14213562e+000, 1.24410391e+001,
          9.41682529e+000, 3.56587944e+001, 9.92699337e+000,
          8.28427136e-001, 4.88524771e+000, 2.17005386e+001,
          3.54698563e+001, 1.43880072e+001, 6.62741709e+000,
          6.40117931e+000, 2.81135387e+001, 1.57673931e+001,
          4.23260689e+000, 1.24264073e+000, 6.54384565e+000,
          2.72135143e+001, 7.95462847e-001, 2.04537153e-001,
          6.21320343e+000, 1.95441551e+001, 2.24264073e+000,
          2.81851172e+000, 1.16251392e+001, 6.21320343e+000,
          1.60786400e+001, 3.92645073e+001, 0., 0., 0., 1.64922178e+000,
          1.63507786e+001, 0., 0., 0., 0., 0. ]
      - [ 0., 0., 7.28530121e+000, 1.37189035e+001, 6.99579477e+000,
          4.58578634e+000, 4.14213568e-001, 0., 0., 0., 0.,
          2.30991230e+001, 2.78856182e+001, 7.60104513e+000,
          4.82842731e+000, 1.58578646e+000, 0., 0., 0., 4.10821962e+000,
          1.68667126e+001, 2.50683911e-002, 0., 0., 0., 0., 0., 0., 0.,
          0., 0., 0., 0., 0., 0., 0., 2., 1.24142132e+001,
          1.45857868e+001, 0., 0., 0., 4., 2., 2.42426414e+001,
          1.13431454e+001, 16., 5.17157269e+000, 0., 0., 3.,
          5.64011765e+000, 4.77002029e+001, 4.20662041e+001,
          3.24219017e+001, 9.17157269e+000, 0., 0., 7., 1.31776114e+001,
          6.09822807e+001, 5.30062599e+001, 1.88338470e+001, 2., 0., 0.,
          0., 0., 4., 1.85857868e+001, 7.41421366e+000, 1., 0.,
          1.30391622e+000, 0., 2., 1.24142132e+001, 2.68578644e+001,
          3.07989902e+001, 1.10899572e+001, 0., 9.97141480e-001, 0., 2.,
          2.62426414e+001, 1.67573586e+001, 9., 2.76296196e+001, 0., 0.,
          0., 0., 1., 13., 1.29412651e+001, 3.61342354e+001, 0.,
          1.22048116e+000, 0., 0., 2., 2., 7.41421366e+000,
          3.17157292e+000, 0., 1.32643929e+001, 1.23899341e-001, 0., 0.,
          1., 4.14213568e-001, 5.75091267e+000, 0., 5.34677804e-001, 0.,
          0., 0., 0., 0., 0., 0., 0., 0., 0., 0., 0., 0., 0., 0.,
          1.99418414e+000, 4.43277693e+000, 7.30601931e+000,
          3.26120377e+000, 0., 2., 6.41433001e-001, 0., 3.43813896e+000,
          0., 0., 0., 0., 0., 5.67054462e+000, 0., 0., 0., 0., 0., 0.,
          0., 0., 0., 0., 0., 0., 0., 0., 0., 0., 0., 1.58578646e+000,
          5.13444662e+000, 1.50315123e+001, 5.44198704e+000,
          8.06267619e-001, 0., 0., 0., 2.10740757e+000, 2.,
          1.85032578e+001, 2.36874847e+001, 3.98082924e+000,
          1.18284273e+001, 8.03768349e+000, 0., 0., 0., 1.93928623e+001,
          2.04855614e+001, 1.53578961e+000, 6.82842731e+000,
          2.67933254e+001, 0., 4.64302111e+000, 1.55517435e+001,
          9.60519886e+000, 2.01316309e+000, 0., 1., 4.71525526e+000, 0.,
          5.51511526e+000, 1.08848686e+001, 8.62434864e+000,
          6.20611012e-001, 0., 0., 0., 0., 5.88533878e+000, 0.,
          9.44352210e-001, 1.81707478e+001, 2.88489938e+000,
          3.50384450e+000, 1.07624073e+001, 0., 4.09501839e+000, 0.,
          4.93010521e+000, 4.20958366e+001, 1.38827097e+000,
          7.26120377e+000, 4.10112762e+000, 0., 5.18591309e+000,
          1.05016327e+001, 8.27806664e+000, 7.39693880e+000, 0., 0., 0.,
          0., 1., 1.02995453e+001, 1.26070538e+001, 6.09340048e+000, 0.,
          0., 0., 0., 0., 0., 2.45027995e+000, 3.32150536e+001,
          4.33466768e+000, 0., 1., 0., 0., 0., 0., 0., 0., 0., 0., 0.,
          0., 0., 0., 0., 0., 0., 0., 5.49615526e+000, 1.54327765e+001,
          3.72792196e+000, 3.34314585e+000, 0., 2.82171478e+001,
          1.09544249e+001, 5.79898977e+000, 1.35070295e+001,
          5.22407770e-001, 7.39442492e+000, 3.60557508e+000,
          4.14213568e-001, 5.85786462e-001, 0., 0., 0., 0., 0., 0., 0.,
          0., 4.97056293e+000, 2.12458248e+001, 7.83611596e-001, 0.,
          3.51471853e+000, 1.11837664e+001, 2.37976704e+001,
          2.50384450e+000, 8.24103546e+000, 6.27368355e+000,
          2.65096684e+001, 7.15582733e+001, 6.41734314e+000,
          1.06420040e+001, 1.73163643e+001, 2.23675327e+001,
          6.44945984e+001, 1.31794987e+001, 0., 0., 9.94112587e+000,
          1.70588741e+001, 0., 2.83089042e+000, 2.34068251e+000,
          1.53259020e+001, 5.66740990e+001, 1.82842708e+000,
          1.67001045e+000, 2.08734894e+000, 1.78111839e+001,
          3.98734550e+001, 2.65580006e+001, 0., 0., 5.79898977e+000,
          3.07465172e+001, 3.84544907e+001, 0., 1.17157292e+000,
          4.97056293e+000, 8.85786438e+000, 0., 2.00261116e+001,
          6.97388792e+000, 3.72792196e+000, 9.80016518e+000,
          6.47191286e+000, 7.95462847e-001, 2.04537153e-001, 0., 0., 0.,
          0., 0., 0., 0., 0., 5.24372816e+000, 1.09278450e+001,
          2.48528147e+000, 2.34314585e+000, 0., 6.95323849e+000,
          3.63254786e+000, 8.28427136e-001, 3.49632716e+000,
          9.08945942e+000, 0., 0., 0., 0., 0., 0., 0., 0., 0., 0.,
          7.66082478e+000, 1.56823215e+001, 2.48528147e+000,
          1.17157292e+000, 0., 2.48137817e+001, 1.22867231e+001,
          6.21320343e+000, 2.08917751e+001, 1.07945156e+001,
          2.62794762e+001, 6.72052383e+000, 3.72792196e+000,
          2.52800426e+001, 2.69920349e+001, 2.78328285e+001,
          5.16717243e+000, 4.14213568e-001, 3.18178201e+000,
          7.40400457e+000, 1.78817806e+001, 1.17040052e+001,
          4.14213568e-001, 0., 0., 8.75320911e+000, 6.00414991e+000,
          1.03553391e+001, 2.58501759e+001, 1.03712642e+000,
          1.77170181e+001, 1.37977009e+001, 5.38477612e+000,
          2.28578644e+001, 2.24264073e+000, 2.51032219e+001,
          4.89677858e+000, 0., 0., 0., 2.28745627e+000, 2.05704079e+001,
          4.14213562e+000, 0., 0., 4.36800957e+000, 2.21777701e+000,
          2.48528147e+000, 5.89783096e+000, 8.03110123e+000, 0., 0., 0.,
          0., 0., 0., 0., 0., 0., 0., 0., 0., 5.79898977e+000,
          2.46414757e+001, 1.55953407e+000, 0., 1.17157292e+000,
          3.72792196e+000, 1.31574965e+001, 4.39430084e+001, 0., 0., 0.,
          2.81774282e+000, 1.81822567e+001, 0., 0., 0., 0., 0., 0., 0.,
          4.97056293e+000, 1.10294371e+001, 0., 0., 1.00294371e+001,
          1.49116879e+001, 2.80588741e+001, 0., 0., 9.37258339e+000,
          1.98822517e+001, 5.89933434e+001, 2.87518234e+001, 0.,
          1.17157292e+000, 2.02964649e+001, 7.41636734e+001,
          4.43682899e+001, 0., 5.85786462e-001, 9.11269855e+000,
          1.43015156e+001, 0., 7.30003738e+000, 9.90097237e+000,
          2.19533195e+001, 2.98456707e+001, 0., 4.90183907e+001,
          2.16679020e+001, 1.73969688e+001, 3.09167385e+001, 0.,
          4.27247314e+001, 1.20326262e+001, 7.87005758e+000,
          1.03725834e+001, 0., 2.32164645e+000, 4.60728598e+000,
          3.72792196e+000, 2.34314585e+000, 0., 4.45019073e+001,
          1.32554512e+001, 1.65685427e+000, 5.85786462e-001, 0.,
          2.21535826e+000, 7.84641743e-001, 0., 0., 0., 0., 0., 0., 0.,
          0., 7.34901094e+000, 3.65098882e+000, 2.89949489e+000,
          9.31689358e+000, 7.83611596e-001, 3.11504555e+001,
          3.84954381e+000, 0., 0., 0., 0., 0., 0., 0., 0., 0., 0., 0.,
          0., 0., 0., 1.58578646e+000, 1.24264073e+000, 1.60950012e+001,
          7.07657194e+000, 1.97776871e+001, 6.15124464e+000,
          5.38477612e+000, 1.08643341e+001, 3.28219566e+001,
          3.53505669e+001, 1.33357248e+001, 3.72792196e+000,
          6.93786478e+000, 3.46479225e+001, 2.12819366e+001,
          3.71806359e+000, 4.14213568e-001, 3.69836974e+000,
          1.38874168e+001, 9.50156498e+000, 3.67000771e+000,
          1.65685427e+000, 1.04446049e+001, 4.72696781e+000,
          3.36995583e+001, 1.86730251e+001, 8.28427124e+000,
          5.02114820e+000, 1.53219976e+001, 3.42264404e+001,
          9.28827667e+000, 3.31370854e+000, 7.57515669e+000,
          4.05964165e+001, 9.88426018e+000, 2.11574006e+000, 0.,
          3.00217700e+000, 1.49978228e+001, 0., 5.85786462e-001,
          4.14213562e+000, 1.40813971e+001, 4.19068050e+000, 0.,
          1.17157292e+000, 8.28427136e-001, 4.41990471e+000,
          3.55800972e+001, 0., 0., 0., 0., 0., 0., 0., 0., 0., 0. ]
      - [ 0., 8.05658638e-001, 1.08178616e+001, 6.84295273e+000,
          4.51496363e+000, 6.60434961e+000, 1.41421354e+000, 0.,
          4.14213568e-001, 0., 1.90743566e-001, 3.00818729e+001,
          2.28761883e+001, 8.78012753e+000, 6.07106781e+000,
          5.85786462e-001, 0., 0., 0., 5.18843603e+000, 2.31909218e+001,
          6.20642066e-001, 0., 5.85786462e-001, 0., 0., 0., 0., 0., 0.,
          0., 0., 0., 0., 0., 1., 5.24264050e+000, 7.92893219e+000,
          1.02426405e+001, 3.58578634e+000, 0., 9.17157269e+000,
          5.41421366e+000, 1., 1.52426405e+001, 1.83431454e+001, 13.,
          4.41421366e+000, 0., 0., 1., 2., 4.50697823e+001,
          5.38328972e+001, 3.09257469e+001, 8.17157269e+000, 0., 1., 6.,
          6.93894243e+000, 7.62427216e+001, 5.63516159e+001,
          1.34667177e+001, 0., 0., 0., 0., 3., 1.34142132e+001,
          7.75735950e+000, 6.82842731e+000, 0., 0., 1.12273216e+000, 0.,
          3., 1.12426405e+001, 3.43168945e+001, 2.90973206e+001,
          5.99529028e+000, 0., 6.13702774e-001, 1., 2., 28., 16.,
          1.04142132e+001, 2.25268192e+001, 0., 0., 0., 0.,
          2.41421366e+000, 1.65857868e+001, 8.43874836e+000,
          3.85808907e+001, 0., 1.58647031e-001, 3., 1., 5., 2.,
          6.24264050e+000, 3.82045388e+000, 0., 1.03808680e+001, 0., 0.,
          0., 0., 0., 1.41484082e+000, 0., 2.61203885e-001, 0., 0., 0.,
          0., 0., 0., 0., 0., 0., 0., 0., 0., 0., 0., 0.,
          5.50851393e+000, 2.51112080e+000, 8.96647167e+000,
          3.52240777e+000, 0., 2., 1.58578646e+000, 0., 4.20774889e+000,
          0., 0., 0., 0., 0., 3.59836268e+000, 0., 0., 0., 0., 0., 0.,
          0., 0., 0., 0., 0., 0., 0., 0., 0., 0., 0., 8.61578658e-002,
          2., 9.81578255e+000, 6.93493319e+000, 2.83507109e+000,
          4.41421366e+000, 0., 0., 2.64479041e+000, 2., 1.33046103e+001,
          2.50048828e+001, 7.27629375e+000, 3.41421366e+000,
          1.15570793e+001, 0., 0., 0., 1.76999798e+001, 2.48032570e+001,
          4.66833591e+000, 3.82842708e+000, 1.44700546e+001, 0.,
          7.23483038e+000, 1.18204775e+001, 4.72127628e+000,
          3.21129370e+000, 0., 0., 1.41624704e-001, 0., 7.93401194e+000,
          8.16330719e+000, 8.38111782e+000, 9.42300498e-001, 0., 0., 0.,
          0., 4.72010565e+000, 7.55272269e-001, 4.37513638e+000,
          2.05984592e+001, 7.02640533e+000, 9.41421318e+000,
          4.03999901e+000, 0., 4.07973909e+000, 1., 7.62099886e+000,
          3.80798340e+001, 3.29916763e+000, 7., 2.88058853e+000, 0.,
          4.20446777e+000, 1.03639412e+001, 8.38198853e+000,
          6.40524244e+000, 0., 0., 0., 4.14213568e-001, 3.49615550e+000,
          7.63120937e+000, 7.65800333e+000, 4.80041790e+000, 2., 1., 0.,
          0., 0., 0., 6.42727494e-001, 3.41184464e+001, 3.23882627e+000,
          0., 0., 0., 0., 0., 0., 0., 0., 0., 0., 0., 0., 0., 0., 0., 0.,
          0., 0., 5.99549580e+000, 1.31760769e+001, 4.14213562e+000,
          6.68629169e+000, 0., 3.11181164e+001, 1.22250290e+001,
          3.72792196e+000, 1.44065247e+001, 5.22407770e-001,
          8.27789783e+000, 2.72210217e+000, 1.65685427e+000,
          6.82073784e+000, 5.22407770e-001, 0., 0., 0., 0., 0., 0.,
          5.85786462e-001, 4.55634928e+000, 1.73988361e+001,
          1.45902908e+000, 0., 1.07867966e+001, 1.44974747e+001,
          2.74730873e+001, 2.24264073e+000, 0., 1.75735927e+000,
          2.94091625e+001, 8.09679260e+001, 2.86555362e+000,
          1.12643337e+000, 9.07457638e+000, 2.40243874e+001,
          6.92234344e+001, 1.15511713e+001, 0., 1.75735927e+000,
          6.21320343e+000, 1.00294371e+001, 0., 2.39773035e+000,
          2.35962892e+000, 1.36690474e+001, 5.99842873e+001,
          2.58930588e+000, 1.50804985e+000, 4.42088223e+000,
          1.78111839e+001, 3.34645462e+001, 2.27953377e+001, 0., 0.,
          7.04163074e+000, 3.46872139e+001, 3.62711563e+001, 0.,
          3.75735927e+000, 4.14213562e+000, 1.01005049e+001, 0.,
          2.07646542e+001, 8.82113171e+000, 1.65685427e+000,
          2.75735927e+000, 0., 7.38796115e-001, 2.61203885e-001, 0., 0.,
          0., 0., 0., 0., 0., 0., 9.61501503e+000, 1.41423445e+001,
          2.89949489e+000, 2.34314585e+000, 0., 6.95491552e+000,
          3.04508448e+000, 0., 1.62731266e+000, 6.37268734e+000, 0., 0.,
          0., 0., 0., 0., 0., 0., 0., 0., 4.12671900e+000,
          9.63064003e+000, 4.14213562e+000, 6.10050488e+000, 0.,
          2.53230915e+001, 1.00200548e+001, 8.69848442e+000,
          1.98097286e+001, 1.41486416e+001, 2.55406551e+001,
          6.45934486e+000, 3.72792196e+000, 1.83017006e+001,
          2.29703770e+001, 2.36042099e+001, 5.39578962e+000, 0.,
          3.61302108e-001, 6.38697922e-001, 1.76231747e+001,
          1.19626112e+001, 4.14213568e-001, 0., 0., 1.57805004e+001,
          9.39107227e+000, 1.03553391e+001, 2.26982708e+001,
          6.77481747e+000, 1.79274063e+001, 1.35162439e+001,
          1.24264069e+001, 1.99398060e+001, 1.19013608e+000,
          2.38056583e+001, 5.19434214e+000, 0., 0., 0., 3.11588335e+000,
          1.61561947e+001, 4.97056293e+000, 1.75735927e+000, 0.,
          7.60878861e-001, 6.33962631e+000, 4.55634928e+000,
          4.28338337e+000, 6.05976248e+000, 0., 0., 0., 0., 0., 0., 0.,
          0., 0., 0., 0., 1.58578646e+000, 4.14213562e+000,
          1.58250694e+001, 2.44700861e+000, 0., 1., 4.14213562e+000,
          2.22541275e+001, 3.86037369e+001, 4.14213568e-001,
          1.58578646e+000, 0., 3.52609348e+000, 2.54739075e+001, 0., 0.,
          0., 0., 0., 0., 2.92893219e+000, 6.21320343e+000,
          1.28578644e+001, 0., 0., 1.50588741e+001, 1.94680367e+001,
          2.86894760e+001, 7.83611596e-001, 0., 5.85786438e+000,
          2.40243874e+001, 6.47045593e+001, 2.24131908e+001, 0.,
          1.17157292e+000, 1.86396103e+001, 8.56268082e+001,
          4.35620079e+001, 0., 0., 7.45584393e+000, 1.75441551e+001, 0.,
          7.00114536e+000, 8.51357365e+000, 1.69827557e+001,
          3.95025253e+001, 0., 4.69512024e+001, 1.21493015e+001,
          1.86396103e+001, 3.02598839e+001, 0., 4.25603828e+001,
          1.63685493e+001, 9.52691174e+000, 1.35441561e+001, 0.,
          3.47485447e+000, 5.03986406e+000, 5.79898977e+000,
          4.68629169e+000, 0., 4.00895348e+001, 6.66782570e+000,
          1.24264073e+000, 0., 0., 3.10168624e+000, 8.98313701e-001, 0.,
          0., 0., 0., 0., 0., 0., 0., 1.12742252e+001, 3.31156158e+000,
          2.07106781e+000, 1.05147190e+001, 1.82842708e+000,
          2.31064034e+001, 3.89359593e+000, 0., 0., 0., 0., 0., 0., 0.,
          0., 0., 0., 0., 0., 0., 8.31925631e-001, 7.53860772e-001,
          2.48528147e+000, 1.25413237e+001, 6.38760805e+000,
          2.85884056e+001, 8.99738121e+000, 2.48528147e+000,
          1.41397514e+001, 2.97891808e+001, 3.60889587e+001,
          7.66840124e+000, 2.48528147e+000, 9.85652161e+000,
          3.69008369e+001, 1.66210194e+001, 3.37898111e+000, 0.,
          1.70645511e+000, 8.29354477e+000, 9.82656956e+000,
          6.34500360e+000, 1.65685427e+000, 8.75889492e+000,
          5.41267824e+000, 3.22369843e+001, 1.12777348e+001,
          4.55634928e+000, 9.17048454e+000, 2.07584476e+001,
          3.33091011e+001, 8.03404331e+000, 2.07106781e+000,
          7.28766870e+000, 4.12981186e+001, 1.00051260e+001,
          1.99487436e+000, 0., 3.15169001e+000, 1.38483105e+001, 0.,
          3.75735927e+000, 2.89949489e+000, 1.07175312e+001,
          3.62561440e+000, 0., 0., 0., 4.08939266e+000, 3.39106064e+001,
          0., 0., 0., 0., 0., 0., 0., 0., 0., 0. ]
      - [ 0., 0., 1.04674397e+001, 7.68446732e+000, 5.67652035e+000,
          5.51471853e+000, 1.65685427e+000, 0., 0., 0., 0.,
          2.93354836e+001, 2.02503014e+001, 8.73879623e+000,
          1.16754179e+001, 0., 0., 0., 0., 5.34138536e+000,
          2.33768387e+001, 2.81776309e-001, 0., 5.85786462e-001, 0., 0.,
          0., 0., 0., 0., 0., 0., 0., 0., 0., 2., 2.67541742e+000,
          9.23495197e+000, 8.74648571e+000, 5.34314585e+000, 0., 10., 7.,
          5., 1.00710678e+001, 1.79289322e+001, 21., 2., 0., 0., 0., 0.,
          4.32812233e+001, 5.17296486e+001, 3.82317657e+001,
          6.75735950e+000, 0., 6., 9., 6.97704268e+000, 6.85686569e+001,
          5.61329041e+001, 1.63213978e+001, 1.41421354e+000, 0., 0., 0.,
          0., 13., 1.11715727e+001, 3.82842708e+000, 0., 0.,
          8.83964539e-001, 0., 0., 1.33137083e+001, 3.49212418e+001,
          2.37650490e+001, 9.67717934e+000, 0., 2.41767216e+000, 0., 5.,
          2.56568546e+001, 2.29289322e+001, 6.24264050e+000,
          2.18412971e+001, 0., 0., 2., 0., 5.65685415e+000,
          1.32535143e+001, 1.21032495e+001, 3.00370998e+001, 0.,
          1.45116472e+000, 1., 1., 4.82842731e+000, 7.75735950e+000,
          4.82842731e+000, 2.17157292e+000, 0., 8.62654781e+000, 0., 0.,
          1., 1., 4.14213568e-001, 1.92883027e+000, 0., 3.20377231e-001,
          0., 0., 0., 0., 0., 0., 0., 0., 0., 0., 0., 0., 0., 0., 0.,
          5.82902431e+000, 3.84699035e+000, 6.73879623e+000,
          2.41421366e+000, 1., 1., 4.68324244e-001, 0., 4.01166773e+000,
          0., 0., 0., 0., 0., 2.98008323e+000, 0., 0., 0., 0., 0., 0.,
          0., 0., 0., 0., 0., 0., 0., 0., 0., 0., 9.08252656e-001,
          9.17473733e-002, 3.08963108e+000, 1.14242964e+001,
          1.14860725e+001, 1., 1., 0., 0., 5.14811873e-001, 2.,
          1.55253410e+001, 2.29929733e+001, 4.48168516e+000,
          5.51963997e+000, 1.13527040e+001, 0., 0., 1.13579643e+000,
          1.66346474e+001, 2.59439850e+001, 4.87135744e+000,
          3.82842708e+000, 1.83522224e+001, 0., 6.71484184e+000,
          1.47284603e+001, 2.82222414e+000, 1., 0., 0., 6.78505003e-001,
          0., 6.35074329e+000, 5.58786535e+000, 7.65161753e+000,
          3.22410583e+000, 0., 0., 0., 0., 5.50872993e+000,
          2.47059846e+000, 4.24149466e+000, 1.93330250e+001,
          8.27525902e+000, 7.82842731e+000, 4.89481878e+000, 0.,
          8.87883961e-001, 0., 8.90223694e+000, 4.15723495e+001,
          4.11120081e+000, 3.41421366e+000, 3.55118728e+000, 0.,
          6.73931122e+000, 7.66148329e+000, 1.18179636e+001,
          6.13686800e+000, 0., 0., 0., 0., 1., 8.03045750e+000,
          8.26682377e+000, 3.70271873e+000, 0., 0., 1., 0., 2., 0.,
          3.22885066e-001, 3.36771164e+001, 0., 0., 0., 0., 0., 0., 0.,
          0., 0., 0., 0., 0., 0., 0., 0., 0., 0., 0., 0.,
          4.98912573e+000, 1.45966606e+001, 2.07106781e+000,
          6.34314585e+000, 0., 3.16426735e+001, 1.19431133e+001,
          3.31370854e+000, 1.85780964e+001, 5.22407770e-001,
          8.15499020e+000, 3.43079638e+000, 2.48528147e+000,
          3.92893219e+000, 0., 0., 0., 0., 0., 0., 0., 1.17157292e+000,
          5.38477612e+000, 1.85070286e+001, 9.36621308e-001, 0.,
          1.40588741e+001, 1.94680367e+001, 3.16446609e+001,
          1.82842708e+000, 0., 0., 3.06518040e+001, 8.97809753e+001,
          1.56722319e+000, 2.87222219e+000, 1.74292927e+001,
          2.48528137e+001, 7.21351929e+001, 9.71048164e+000, 0., 0.,
          4.97056293e+000, 1.00294371e+001, 0., 2.37647963e+000,
          1.62352037e+000, 1.73969688e+001, 5.49909935e+001,
          2.61203885e+000, 4.06827974e+000, 4.44643879e+000,
          1.78111839e+001, 3.69919968e+001, 2.36821003e+001, 0.,
          1.17157292e+000, 6.21320343e+000, 3.03172855e+001,
          3.52979393e+001, 4.14213568e-001, 3.92893219e+000,
          6.62741709e+000, 1.10294371e+001, 0., 1.81735535e+001,
          7.99802017e+000, 2.48528147e+000, 5.34314585e+000, 0.,
          5.14718652e-001, 4.85281378e-001, 0., 0., 0., 0., 0., 0., 0.,
          0., 8.23875523e+000, 1.48617496e+001, 3.72792196e+000,
          2.65685415e+000, 5.14718652e-001, 6.36181545e+000,
          1.63818455e+000, 0., 1.91909254e+000, 6.08090734e+000, 0., 0.,
          0., 0., 0., 0., 0., 0., 0., 0., 1.86905205e+000,
          1.29888124e+001, 4.97056293e+000, 1.17157292e+000, 0.,
          2.20272446e+001, 1.24874744e+001, 7.87005758e+000,
          1.60874996e+001, 1.25277243e+001, 2.64541302e+001,
          6.54586935e+000, 5.38477612e+000, 2.29924698e+001,
          2.46227531e+001, 2.26685848e+001, 3.33141613e+000, 0.,
          3.39180917e-001, 1.66081905e+000, 1.83355255e+001,
          8.83604622e+000, 8.28427136e-001, 0., 0., 1.11490917e+001,
          1.52945595e+001, 1.28406200e+001, 2.12151604e+001,
          8.50056934e+000, 1.88179874e+001, 1.25251589e+001,
          7.45584393e+000, 2.04250870e+001, 1.77592254e+000,
          2.60278358e+001, 6.97216415e+000, 0., 0., 0., 3.48528147e+000,
          1.34436512e+001, 2.48528147e+000, 5.85786462e-001, 0.,
          2.61203885e-001, 5.42508745e+000, 3.31370854e+000, 0., 0., 0.,
          0., 0., 0., 0., 0., 0., 0., 0., 0., 0., 0., 7.04163074e+000,
          1.77846146e+001, 2.17375398e+000, 0., 0., 2.89949489e+000,
          1.75105515e+001, 3.95899544e+001, 0., 1.58578646e+000,
          4.14213568e-001, 3.56914520e+000, 2.54308548e+001, 0., 0., 0.,
          0., 0., 0., 4.68629169e+000, 7.87005758e+000, 1.11824465e+001,
          2.61203885e-001, 0., 1.05441561e+001, 1.69827557e+001,
          2.71670685e+001, 1.30601943e+000, 0., 7.02943707e+000,
          1.90538235e+001, 5.87657509e+001, 2.61509857e+001,
          2.61203885e-001, 5.42508745e+000, 1.98822517e+001,
          7.90482941e+001, 4.43831596e+001, 0., 0., 7.87005758e+000,
          1.71299419e+001, 0., 7.92319679e+000, 1.09346676e+001,
          1.82253971e+001, 3.99167404e+001, 0., 4.54999695e+001,
          1.43578939e+001, 1.94680367e+001, 3.86740990e+001, 0.,
          4.33414574e+001, 1.08301153e+001, 7.87005758e+000,
          1.59583693e+001, 0., 3.47485447e+000, 4.28250456e+000,
          6.21320343e+000, 9.02943707e+000, 0., 3.94343452e+001,
          6.32301283e+000, 2.07106781e+000, 1.17157292e+000, 0.,
          1.37892210e+000, 6.21077836e-001, 0., 0., 0., 0., 0., 0., 0.,
          0., 1.30645618e+001, 3.10701084e+000, 3.72792196e+000,
          9.42508793e+000, 6.75417423e-001, 1.98915958e+001,
          3.10840440e+000, 0., 0., 0., 0., 0., 0., 0., 0., 0., 0., 0.,
          0., 0., 8.21307123e-001, 1.78692877e-001, 3.72792196e+000,
          1.50240707e+001, 6.24800730e+000, 2.69177952e+001,
          5.66799021e+000, 3.72792196e+000, 1.00510073e+001,
          2.96352844e+001, 3.65157471e+001, 8.82739830e+000,
          2.48528147e+000, 1.11977062e+001, 3.59738655e+001,
          1.46329060e+001, 3.36709428e+000, 0., 1.28619182e+000,
          4.71380806e+000, 1.09019394e+001, 4.26963377e+000,
          1.65685427e+000, 6.82828236e+000, 8.34329033e+000,
          3.27463760e+001, 1.17683439e+001, 4.55634928e+000,
          7.77061462e+000, 2.21583176e+001, 3.28151817e+001,
          6.11375046e+000, 3.31370854e+000, 1.08445854e+001,
          4.29127731e+001, 1.26319742e+001, 2.36802554e+000, 0.,
          3.62106299e+000, 1.63789368e+001, 0., 3.51471853e+000,
          5.38477612e+000, 1.07013893e+001, 3.39911556e+000, 0.,
          1.17157292e+000, 8.28427136e-001, 2.98137212e+000,
          3.10186272e+001, 0., 0., 0., 0., 0., 0., 0., 0., 0., 0. ]
      - [ 0., 1., 6.35083485e+000, 1.06229124e+001, 1.10262527e+001, 2.,
          0., 0., 0., 0., 0., 1.18058681e+001, 5.73950539e+001,
          6.79907751e+000, 6., 3., 0., 0., 0., 2.59110522e+000,
          2.89681454e+001, 1.44074857e+000, 0., 4.14213568e-001, 0., 0.,
          0., 0., 0., 0., 0., 0., 0., 0., 8.46990287e-001,
          1.15432396e+001, 1.06097698e+001, 1., 3., 1., 0., 0., 2.,
          8.46497631e+000, 3.92738190e+001, 1.32612038e+001,
          6.24264050e+000, 4.34314585e+000, 0., 0., 0., 5.82633686e+000,
          6.89429169e+001, 4.77454643e+001, 1.68886204e+001,
          1.31824465e+001, 0., 0., 0., 8.34020233e+000, 6.65839767e+001,
          4.58069267e+001, 3.05115337e+001, 6.08194208e+000, 0., 0.,
          2.77345920e+000, 3.81232738e+000, 4.82842731e+000,
          3.17157292e+000, 1.38284273e+001, 1.58578646e+000, 0., 0., 1.,
          1., 9.24264050e+000, 1.16862917e+001, 3.27464867e+001,
          2.29700928e+001, 0., 2.33695793e+000, 0., 0., 5., 5.,
          1.78284264e+001, 3.28014679e+001, 0., 0., 0., 0., 0., 1.,
          1.87608337e+001, 3.99681396e+001, 0., 0., 8.66160989e-001,
          7.71962547e+000, 1.41421354e+000, 1., 3.24264073e+000,
          7.34314585e+000, 0., 1.18549747e+001, 2.21557665e+000, 0.,
          1.41421354e+000, 1.58578646e+000, 2.41421366e+000,
          2.11075363e+001, 0., 0., 0., 0., 0., 0., 0., 0., 0., 0., 0.,
          0., 0., 0., 0., 0., 0., 2.29397035e+000, 9.51440430e+000,
          1.80050869e+001, 2.18653822e+000, 0., 0., 0., 0.,
          1.15884304e+001, 7.83876038e+000, 0., 0., 0., 0.,
          4.16493155e-002, 0., 0., 0., 0., 0., 0., 0., 0., 0., 0., 0.,
          0., 0., 0., 0., 0., 4.18293667e+000, 2.73019767e+000,
          2.04481554e+000, 4.15300989e+000, 1.26120389e+000, 0.,
          5.07106781e+000, 9.55676842e+000, 0., 3.00901115e-001,
          3.11946559e+000, 1.55960293e+001, 6.86362314e+000,
          3.59245515e+000, 7.47031403e+000, 3.20456657e+001, 0., 1.,
          1.03993344e+000, 2.22524719e+001, 1.83161507e+001,
          1.39144504e+000, 4.24264050e+000, 3.13648243e+001, 0.,
          6.85234785e+000, 1.11568832e+001, 1.61592751e+001, 0., 1., 0.,
          5.50958872e+000, 0., 4.14966631e+000, 2.92228508e+000,
          8.85955429e+000, 4.22482967e+000, 2.16490412e+000,
          3.41421366e+000, 1.58578646e+000, 0., 4.47736311e+000, 0.,
          1.17199621e+001, 1.11504622e+001, 1.29575402e-001,
          2.24264073e+000, 9.35430145e+000, 0., 1.86967456e+000, 0.,
          4.12221003e+000, 3.57522736e+001, 1.12551689e+000,
          4.41421366e+000, 1.00968208e+001, 0., 6.05298662e+000,
          1.32388353e+001, 7.57557583e+000, 8.79831600e+000, 0., 0., 0.,
          0., 2.08246255e+000, 5.90595770e+000, 2.03086615e+000, 3., 2.,
          2., 0., 0., 1.09174740e+000, 0., 8.99670315e+000,
          4.20919495e+001, 1.34971333e+001, 5.82842731e+000,
          4.17157269e+000, 0., 0., 0., 2.16000986e+000, 1.18399906e+001,
          0., 0., 0., 0., 0., 0., 0., 0., 0., 0., 0., 1.19782519e+000,
          1.58316116e+001, 5.79898977e+000, 1.17157292e+000, 0.,
          1.22807217e+001, 1.02339964e+001, 1.03553391e+001,
          1.61299419e+001, 0., 4.74299145e+000, 2.25700879e+000,
          2.48528147e+000, 7.33612776e+000, 2.17859101e+000, 0., 0., 0.,
          0., 0., 1.30601943e+000, 1.26229124e+001, 3.72792196e+000,
          3.34314585e+000, 0., 0., 1.19583693e+001, 1.57401152e+001,
          1.73015156e+001, 0., 4.83299637e+000, 5.85329485e+000,
          2.85807362e+001, 6.86932678e+001, 1.00397053e+001,
          9.45667458e+000, 8.47225761e+000, 2.23675327e+001,
          7.40323105e+001, 7.67122698e+000, 1.08963096e+000,
          5.08194208e+000, 3.31370854e+000, 1.54699030e+001,
          1.04481554e+000, 0., 1.17157292e+000, 1.49116879e+001,
          5.42023659e+001, 8.71437454e+000, 4.77315760e+000,
          1.22684240e+000, 1.69827557e+001, 4.00068016e+001,
          2.40104427e+001, 0., 0., 3.31370854e+000, 3.50943222e+001,
          3.55919685e+001, 1.08963096e+000, 6.66772842e+000,
          3.72792196e+000, 9.25351429e+000, 2.61203885e-001,
          1.79340782e+001, 5.06592178e+000, 3.72792196e+000,
          1.51666889e+001, 1.81053886e+001, 0., 0., 0., 0., 0., 0., 0.,
          0., 0., 0., 1.05418196e+001, 1.96297531e+001, 8.28427136e-001,
          0., 0., 2.02615719e+001, 5.32421446e+000, 1.24264073e+000,
          1.17157292e+000, 0., 0., 0., 0., 0., 0., 0., 0., 0., 0., 0.,
          3.80011272e+000, 5.37145996e+000, 2.89949489e+000,
          1.42791977e+001, 1.64973426e+000, 1.86589642e+001,
          5.34103584e+000, 5.79898977e+000, 2.39511585e+001,
          2.62498512e+001, 2.83980618e+001, 8.18772411e+000,
          3.31370854e+000, 2.29048843e+001, 2.81956215e+001,
          3.10091381e+001, 6.99086189e+000, 8.28427136e-001,
          4.12471199e+000, 7.04686069e+000, 1.37793417e+001,
          5.39223146e+000, 2.48528147e+000, 6.08194208e+000,
          2.61203885e-001, 2.47490826e+001, 9.25091743e+000,
          6.21320343e+000, 1.67867966e+001, 0., 1.19826517e+001,
          1.13604937e+001, 1.40832615e+001, 3.21145630e+001,
          1.45902908e+000, 2.60673218e+001, 4.93267822e+000, 0., 0., 0.,
          6.59719181e+000, 5.57438087e+000, 2.48528147e+000,
          2.34314585e+000, 0., 9.01007366e+000, 1.21909370e+001,
          1.57401152e+001, 1.99168129e+001, 5.14206123e+000,
          4.22921371e+000, 2.35657263e+000, 4.14213568e-001, 0., 0., 0.,
          0., 0., 0., 0., 0., 5.85786462e-001, 4.97056293e+000,
          1.84622135e+001, 1.98143685e+000, 9.36621308e-001,
          6.40652466e+000, 1.28406200e+001, 3.20302010e+001,
          3.27860336e+001, 5.22407770e-001, 1.47759223e+000, 0.,
          4.03272104e+000, 2.89672794e+001, 0., 0., 0., 0., 0., 0.,
          5.85786462e-001, 3.31370854e+000, 1.80294380e+001,
          3.07106781e+000, 0., 6.68629169e+000, 1.36690474e+001,
          4.46709137e+001, 5.97374773e+000, 0., 1.52010098e+001,
          2.27817459e+001, 7.30167160e+001, 3.50005302e+001,
          2.61203885e-001, 7.01087427e+000, 1.61543293e+001,
          7.19556122e+001, 4.16179810e+001, 0., 1.75735927e+000,
          5.79898977e+000, 1.04436512e+001, 0., 9.72806549e+000,
          2.25023823e+001, 1.86396103e+001, 1.61299419e+001, 0.,
          4.69764633e+001, 3.50824089e+001, 1.40832615e+001,
          5.85786438e+000, 0., 4.17071991e+001, 1.77364521e+001,
          4.97056293e+000, 5.85786462e-001, 0., 0., 7.10050488e+000,
          4.55634928e+000, 9.08194160e+000, 2.61203885e-001,
          4.93934212e+001, 1.67070827e+001, 3.72792196e+000,
          2.17157292e+000, 0., 1.33602571e+000, 6.63974226e-001, 0., 0.,
          0., 0., 0., 0., 0., 0., 2.64118218e+000, 2.35881782e+000,
          1.65685427e+000, 1.90896301e+001, 4.25351477e+000,
          2.67421780e+001, 4.25782156e+000, 0., 0., 0., 0., 0., 0., 0.,
          0., 0., 0., 0., 0., 0., 6.67933655e+000, 9.42116833e+000,
          4.14213562e+000, 3.82073808e+000, 9.36621308e-001,
          3.19636478e+001, 1.43084307e+001, 4.97056293e+000,
          7.74162245e+000, 2.00157375e+001, 3.48708229e+001,
          1.93301849e+001, 5.79898977e+000, 6.96801186e+000,
          3.50319901e+001, 2.42899342e+001, 4.88163805e+000,
          1.65685427e+000, 6.59745550e+000, 1.45741177e+001,
          2.12250090e+000, 4.39221764e+000, 2.89949489e+000,
          3.88364291e+000, 1.27021437e+001, 3.51668930e+001,
          1.16909733e+001, 4.14213562e+000, 3.30363107e+000,
          1.96963692e+001, 3.67576370e+001, 1.61712952e+001,
          2.07106781e+000, 4.37457705e+000, 3.66254234e+001,
          8.49222565e+000, 2.50777483e+000, 0., 3.41905642e+000,
          1.65809441e+001, 4.60514832e+000, 2.56642437e+000,
          4.14213562e+000, 5.92541265e+000, 7.60878861e-001,
          1.93986595e+000, 8.16063881e+000, 8.28427124e+000,
          1.93252544e+001, 4.02899704e+001, 0., 0., 0., 1.71676338e+000,
          1.22832365e+001, 0., 0., 0., 0., 0. ]
      - [ 0., 1., 1.41421354e+000, 7.17157269e+000, 1.04142132e+001, 3.,
          4., 3., 0., 0., 2., 1.47399817e+001, 4.94870682e+001,
          9.77295113e+000, 2.41421366e+000, 1.58578646e+000, 0., 0., 0.,
          4.88148308e+000, 2.45633507e+001, 5.55166602e-001, 0., 0., 0.,
          0., 0., 0., 0., 0., 0., 0., 0., 0., 7.37708712e+000,
          1.79474945e+001, 2.67541742e+000, 0., 0., 0., 0., 1., 1.,
          1.60997829e+001, 1.99002171e+001, 1.82307453e+001,
          2.27692547e+001, 6., 0., 1., 1., 6.20209455e+000,
          6.09421616e+001, 3.47846756e+001, 1.18994951e+001,
          1.59289322e+001, 0., 0., 1.82842708e+000, 1.53026829e+001,
          5.15152588e+001, 6.37026443e+001, 3.70652008e+001,
