%YAML:1.0
_0218: !!opencv-ml-svm
   svm_type: C_SVC
   kernel: { type:LINEAR }
   C: 100.
   term_criteria: { epsilon:9.9999999747524271e-007,
       iterations:2147483647 }
   var_all: 576
   var_count: 576
   class_count: 2
   class_labels: !!opencv-matrix
      rows: 1
      cols: 2
      dt: i
      data: [ -1, 2 ]
   sv_total: 20
   support_vectors:
      - [ 0., 1., 1., 0., 2.26120377e+000, 9.87991142e+000,
          1.08588848e+001, 0., 0., 5.53388929e+000, 4., 6.01417398e+000,
          1.99041996e+001, 1.82889194e+001, 1.80121689e+001,
          8.70273972e+000, 0., 1.32458258e+000, 4.14213568e-001,
          1.67910881e+001, 4.52763977e+001, 9.51551723e+000,
          1.44209309e+001, 1.92601166e+001, 0., 0., 0., 0., 3.,
          9.64119196e-001, 2.03588080e+000, 0., 0., 1.64276505e+000, 0.,
          1., 3., 5.58578634e+000, 4.19373226e+000, 3.57610607e+000, 0.,
          4.63876438e+000, 4.82842731e+000, 1.34445410e+001,
          1.71928596e+001, 1.45150013e+001, 1.54011850e+001,
          1.12111549e+001, 0., 5.09016418e+000, 1.26568546e+001,
          2.17715988e+001, 4.75025940e+001, 1.70120487e+001,
          1.80569038e+001, 1.13598537e+001, 0., 4.76918173e+000,
          1.68326321e+001, 2.67048168e+001, 4.82078362e+001,
          1.12547169e+001, 1.42612038e+001, 1.34660749e+001, 0.,
          7.32718349e-001, 0., 0., 0., 0., 1.39136553e-001,
          7.17505980e+000, 0., 1.63932419e+000, 0., 0., 0., 0., 0.,
          2.59452295e+000, 0., 4.17428446e+000, 0., 0., 0., 0., 0.,
          1.64173985e+000, 0., 9.09320927e+000, 6.60408810e-002, 0., 0.,
          0., 0., 8.97104740e-001, 0., 0., 0., 0., 0., 0., 0.,
          3.89990044e+000, 0., 0., 0., 0., 0., 0., 0., 0., 0., 0., 0.,
          0., 0., 0., 0., 0., 0., 0., 0., 0., 0., 0., 0., 0., 0.,
          3.64037514e-001, 0., 0., 0., 0., 0., 8.97355652e+000, 0., 0.,
          0., 0., 0., 0., 0., 0., 0., 0., 0., 0., 0., 0., 0., 0., 0., 0.,
          0., 0., 0., 0., 0., 0., 2.39077163e+000, 1.11191282e+001,
          8.23895645e+000, 0., 0., 0., 1., 2.25114346e+000, 0., 0., 0.,
          0., 0., 0., 0., 0., 0., 0., 0., 0., 0., 0., 0., 0., 0., 0., 0.,
          0., 0., 0., 0., 0., 0., 8.11303318e-001, 2.11330509e+001,
          5.56465611e-002, 0., 0., 5.82842731e+000, 4.17157269e+000, 0.,
          3.20377231e-001, 4.67962265e+000, 0., 0., 0., 0., 0., 0., 0.,
          0., 0., 0., 0., 0., 0., 0., 0., 0., 0., 0., 0., 0., 0., 0., 0.,
          3.85993695e+000, 1.40063062e-001, 0., 5.17157269e+000,
          1.48284273e+001, 5., 0., 4.24787903e+000, 3.34702644e+001,
          2.81857163e-001, 3.67541742e+000, 1.65595341e+001,
          2.17650490e+001, 2., 2.09383631e+000, 9.75875378e-001,
          2.72430439e+001, 9.04145241e+000, 1.30447588e+001,
          1.17896223e+001, 1.13709030e+001, 5.44050646e+000, 0., 0., 0.,
          0., 0., 0., 0., 0., 0., 1.17157292e+000, 4.14213562e+000,
          1.53988352e+001, 2.28745627e+000, 8.67089653e+000,
          1.66011810e+001, 7.87005758e+000, 2.98308582e+001,
          2.00270061e+001, 2.43221951e+001, 1.76067371e+001,
          3.31370854e+000, 1.25986919e+001, 4.11586685e+001, 0., 0., 0.,
          6.39743626e-001, 2.36025643e+000, 1.22693837e+000,
          2.53042102e+000, 4.55634928e+000, 1.31789484e+001,
          2.50734305e+000, 2.00245857e+000, 1.93701248e+001,
          1.61543293e+001, 3.32037468e+001, 8.26933956e+000,
          1.10248327e+001, 3.78624687e+001, 2.02964649e+001,
          4.41267357e+001, 1.16894979e+001, 1.74241505e+001,
          3.92205124e+001, 2.27817459e+001, 3.43200798e+001,
          6.25351477e+000, 1.86420357e+000, 2.30736947e+000,
          8.28427136e-001, 2.48041916e+000, 9.51958084e+000,
          3.27195072e+000, 3.89962220e+000, 2.07106781e+000,
          2.88835669e+000, 4.86900234e+000, 9.15097618e+000,
          4.60638285e+000, 1.65685427e+000, 1.21352291e+000,
          2.37226343e+000, 1.39346495e+001, 1.16511364e+001,
          1.65685427e+000, 3.23495150e+000, 5.22407770e-001, 0., 0., 0.,
          1.44008195e+000, 5.55991793e+000, 0., 0., 0., 0., 0., 0., 0.,
          0., 0., 0., 0., 0., 0., 0., 0., 8.41352940e-001,
          1.58647031e-001, 8.28427136e-001, 2.87406397e+000,
          1.02975092e+001, 0., 0., 0., 0., 0., 0., 0., 0., 0., 0., 0.,
          0., 0., 0., 0., 1.68457317e+001, 3.15426826e+000,
          1.65685427e+000, 2.70444775e+000, 6.38697922e-001, 0., 0., 0.,
          0., 0., 0., 0., 0., 0., 0., 0., 0., 0., 0., 0.,
          2.03975410e+001, 1.60245991e+000, 2.89949489e+000,
          7.10050488e+000, 0., 4.20571899e+000, 7.94281065e-001, 0., 0.,
          0., 0., 0., 0., 0., 0., 0., 0., 0., 0., 0., 3.61037087e+000,
          3.89629126e-001, 6.62741709e+000, 1.83725834e+001, 0.,
          3.48384972e+001, 3.16150451e+000, 1.11837664e+001,
          2.82490101e+001, 1.56722319e+000, 3.44790001e+001,
          5.10678577e+000, 2.48528147e+000, 1.30799122e+001,
          1.98490200e+001, 0., 0., 0., 0., 0., 0., 1.75735927e+000,
          4.97056293e+000, 1.17496700e+001, 5.22407770e-001,
          1.26008492e+001, 1.78428020e+001, 1.11837664e+001,
          2.49675903e+001, 2.04049931e+001, 2.40916824e+001,
          8.49410343e+000, 4.14213568e-001, 1.10864210e+001,
          6.49135818e+001, 0., 0., 0., 7.45170116e-001, 3.25482988e+000,
          9.78281593e+000, 4.56033039e+000, 4.14213562e+000,
          7.25351477e+000, 2.61203885e-001, 1.22288723e+001,
          1.42147779e+001, 1.40832615e+001, 3.41463394e+001,
          4.32674885e+000, 1.06138678e+001, 1.96582108e+001,
          1.36690474e+001, 4.24571609e+001, 3.96017151e+001,
          6.84963942e+000, 2.13513699e+001, 1.78111839e+001,
          3.90435219e+001, 4.09442863e+001, 1.94669075e+001,
          2.53309345e+000, 0., 0., 0., 2.32706337e+001, 2.72936678e+000,
          0., 0., 0., 2.72760754e+001, 2.72392416e+000, 0., 0., 0.,
          3.50395660e+001, 5.96043491e+000, 0., 0., 0., 6.91006470e+000,
          1.08993542e+000, 0., 0., 0., 0., 0., 0., 0., 0., 0., 0., 0.,
          0., 0., 0., 0., 0., 0., 0., 1.74390583e+001, 2.56094241e+000,
          0., 0., 0., 0., 0., 0., 0., 0., 0., 0., 0., 0., 0., 0., 0., 0.,
          0., 0., 1.57290611e+001, 4.44251156e+000, 8.28427136e-001, 0.,
          0., 0., 0., 0., 0., 0., 0., 0., 0., 0., 0., 0., 0., 0., 0., 0.,
          1.93245173e+000, 6.75383997e+000, 3.72792196e+000,
          5.85786462e-001, 0., 5.85786462e-001, 4.14213568e-001, 0., 0.,
          0., 0., 0., 0., 0., 0., 0., 0., 0., 0., 0., 0.,
          2.92893219e+000, 5.38477612e+000, 5.68629169e+000, 0.,
          8.49084473e+000, 7.60966063e+000, 1.32548342e+001,
          2.03834572e+001, 2.61203885e-001, 1.61203873e+000,
          1.34884663e+001, 3.31370854e+000, 7.24894142e+000,
          3.53368454e+001, 0., 0., 0., 0., 0. ]
      - [ 0., 0., 0., 0., 3., 1., 2.41421366e+000, 1.25052786e+001,
          4.14213568e-001, 5.85786462e-001, 3.41421366e+000,
          1.68413658e+001, 2.01033936e+001, 2.82470684e+001,
          1.88081741e+001, 3.58578634e+000, 0., 1.58578646e+000, 0.,
          1.53222065e+001, 6.01642113e+001, 9.32349968e+000,
          8.49117470e+000, 3.33761406e+001, 0., 0., 0., 4.74404287e+000,
          1.45337553e+001, 6.29237652e+000, 1.01164465e+001,
          2.31337786e+000, 0., 1.84432894e-001, 0., 0., 0., 0., 0.,
          2.61333656e+000, 0., 3.97455430e+000, 4., 2., 3., 0.,
          1.39509792e+001, 1.19224682e+001, 0., 1.30030289e+001,
          1.24142132e+001, 8.97666931e+000, 2.53340321e+001,
          1.90496788e+001, 1.81476707e+001, 9.29771423e+000, 0.,
          1.48996859e+001, 1.07004833e+001, 1.83465862e+001,
          6.44964218e+001, 1.69757423e+001, 1.24466610e+001,
          1.12921953e+001, 0., 0., 0., 0., 0., 0., 0., 0., 0., 0., 0.,
          0., 0., 0., 0., 0., 0., 0., 0., 0., 0., 0., 0., 0., 0., 0., 0.,
          0., 0., 0., 0., 0., 0., 0., 0., 0., 0., 0., 0., 0., 0., 0., 0.,
          0., 0., 0., 0., 0., 0., 0., 0., 0., 0., 0., 0., 0., 0., 0., 0.,
          0., 0., 0., 0., 0., 0., 0., 0., 0., 0., 0., 0., 0., 0., 0., 0.,
          0., 0., 0., 0., 0., 0., 0., 0., 0., 0., 0., 0., 0., 0., 0., 0.,
          0., 0., 0., 0., 0., 0., 1.83603716e+000, 1.23899341e-001, 0.,
          0., 0., 1.23899341e-001, 1.84273708e+000, 0., 0., 0., 0., 0.,
          0., 0., 0., 0., 0., 0., 0., 0., 0., 0., 0., 0., 0., 0., 0., 0.,
          0., 0., 0., 1.27882028e+000, 1.05216389e+001, 1.28972130e+001,
          0., 0., 0., 1.54405251e-001, 5.14792299e+000, 0.,
          1.91516531e+000, 5.08483458e+000, 0., 0., 0., 0., 0., 0., 0.,
          0., 0., 0., 0., 0., 0., 0., 0., 0., 0., 0., 0., 0., 0., 0.,
          3.64037514e-001, 3.63596249e+000, 1., 1., 0., 1.15319195e+001,
          7.38230944e+000, 0., 2.16107512e+000, 3.35654564e+001,
          2.73467422e-001, 0., 1.14961557e+001, 3.05038452e+001, 2., 0.,
          8.83944392e-001, 3.70756645e+001, 2.04039121e+000,
          1.49542391e+000, 8.64420700e+000, 2.62257748e+001,
          7.63459539e+000, 0., 0., 5.67106152e+000, 6.85949278e+000,
          1.44559793e+001, 4.94476748e+000, 2.06869864e+000, 0., 0., 0.,
          3.72792196e+000, 1.40988617e+001, 9.17321682e+000,
          1.64524174e+000, 1.58278465e+001, 1.73969688e+001,
          3.89662170e+001, 6.16372490e+000, 2.64478416e+001,
          1.44810905e+001, 9.94112587e+000, 3.37248955e+001,
          4.14050446e+001, 7.02524328e+000, 3.56054306e+000,
          4.14213568e-001, 3.13965297e+000, 1.68603477e+001, 0.,
          3.75735927e+000, 2.07106781e+000, 4.23398495e+000,
          4.93758774e+000, 5.06886101e+000, 1.13747902e+001,
          7.45584393e+000, 2.21633377e+001, 1.49371672e+001,
          1.59517078e+001, 3.23498077e+001, 2.02964649e+001,
          4.22230835e+001, 6.17893791e+000, 1.73417625e+001,
          5.18470535e+001, 2.44386005e+001, 3.76057129e+001,
          1.47668705e+001, 0., 0., 0., 0., 0., 0., 0., 0., 0., 0., 0.,
          0., 0., 0., 0., 0., 0., 0., 0., 0., 0., 0., 0., 0., 0., 0., 0.,
          0., 0., 0., 0., 0., 0., 0., 0., 0., 0., 0., 0., 0., 0., 0., 0.,
          0., 0., 0., 0., 0., 0., 0., 0., 0., 0., 0., 0., 0., 0., 0., 0.,
          0., 2.20665812e+000, 7.93341815e-001, 0., 8.03555846e-001,
          2.19644427e+000, 0., 0., 0., 0., 0., 0., 0., 0., 0., 0., 0.,
          0., 0., 0., 0., 2.09707012e+001, 3.02929807e+000, 0.,
          7.27856278e-001, 5.27214384e+000, 6.03679371e+000,
          9.63206053e-001, 0., 0., 0., 0., 0., 0., 0., 0., 0., 0., 0.,
          0., 0., 3.18489671e+000, 1.40088987e+000, 1.65685427e+000,
          1.43838758e+001, 4.37348318e+000, 3.32275848e+001,
          2.77241325e+000, 1.28406200e+001, 3.08981762e+001,
          2.61203885e-001, 3.62879410e+001, 3.71205831e+000,
          4.14213562e+000, 2.86953869e+001, 1.01624784e+001,
          1.25086651e+001, 2.49133468e+000, 4.14213568e-001,
          2.74570107e+000, 7.84008551e+000, 1.46293087e+001,
          9.12805080e+000, 2.89949489e+000, 2.34314585e+000, 0., 0.,
          3.34314585e+000, 1.69827557e+001, 5.22794762e+001,
          6.39462280e+000, 3.64077492e+001, 2.76927567e+001,
          2.89949489e+000, 1.26075916e+001, 7.33924103e+001,
          3.45095038e+000, 5.49049556e-001, 0., 4.23179388e+000,
          2.37682056e+001, 2.20146389e+001, 2.98536015e+000, 0., 0., 0.,
          3.66552467e+001, 1.58594713e+001, 4.55634928e+000,
          2.92893219e+000, 0., 3.72983017e+001, 2.64884968e+001,
          1.61543293e+001, 3.49470215e+001, 1.41118517e+001,
          3.50186348e+001, 3.10108032e+001, 1.53259020e+001,
          4.85526733e+001, 4.70919876e+001, 0., 0., 0., 0., 0., 0., 0.,
          0., 0., 0., 0., 0., 0., 0., 0., 4.60415506e+000,
          1.39584470e+000, 0., 0., 0., 0., 0., 0., 0., 0., 0., 0., 0.,
          0., 0., 0., 0., 0., 0., 0., 0., 0., 0., 0., 0., 0., 0., 0., 0.,
          0., 0., 0., 0., 0., 0., 0., 0., 0., 0., 0., 0., 0., 0., 0., 0.,
          7.59892702e+000, 2.40107274e+000, 0., 0., 0., 0., 0., 0., 0.,
          0., 0., 0., 0., 0., 0., 0., 0., 0., 0., 0., 2.05831585e+001,
          5.41684151e+000, 0., 0., 0., 3.20854402e+000, 7.91455865e-001,
          0., 0., 0., 0., 0., 0., 0., 0., 0., 0., 0., 0., 0.,
          5.94907331e+000, 3.80828595e+000, 2.07106781e+000,
          1.17157292e+000, 0., 3.72407055e+000, 7.96222115e+000,
          1.11837664e+001, 1.31299419e+001, 0., 0., 1.33725834e+001,
          1.11837664e+001, 1.04103794e+001, 1.00332718e+001, 0., 0., 0.,
          4.00008106e+000, 2.69999180e+001 ]
      - [ 0., 6.55028820e+000, 3.79546285e+000, 2.04537153e-001,
          2.09383631e+000, 2.87642598e+000, 2.44395113e+000,
          3.41421366e+000, 0., 5.45902920e+000, 8.08963108e+000,
          2.58578634e+000, 6.41421366e+000, 4.17157269e+000,
          1.02426405e+001, 1.46635227e+001, 0., 1.09061632e+001,
          1.49222631e+001, 1.37054625e+001, 8.55574131e+000,
          1.09881058e+001, 2.30118942e+001, 2.08393021e+001, 0.,
          1.71141934e+000, 1.01183167e+001, 1.90622044e+001,
          4.80362930e+001, 5.18880119e+001, 3.88889847e+001,
          2.19167595e+001, 0., 3.78249073e+000, 6.60308599e+000,
          2.35321927e+000, 1.41421354e+000, 3.98892713e+000,
          4.42528629e+000, 3., 0., 11., 10., 3., 4., 1., 1.82426414e+001,
          1.59289322e+001, 0., 6.39205408e+000, 1.38284273e+001,
          9.75735950e+000, 1.34142132e+001, 9.36130238e+000,
          3.75009575e+001, 3.65238609e+001, 0., 8.91036892e+000,
          3.41421366e+000, 1., 1.16897764e+001, 2.61337223e+001,
          5.58983879e+001, 2.40425110e+001, 0., 4.03024673e+000, 3., 2.,
          3.41421366e+000, 5.85786462e-001, 3., 3.23215723e+000, 0.,
          1.13824534e+000, 2.24264073e+000, 3.75735927e+000, 2.,
          1.58578646e+000, 5.66232443e+000, 9.30095577e+000, 0.,
          7.68001080e-002, 0., 0., 0., 0., 1.25448906e+000,
          1.45710964e+001, 0., 0., 0., 0., 0., 0., 0., 0., 0.,
          5.02617455e+000, 0., 0., 0., 0., 0., 0., 0., 0., 0., 0., 0.,
          0., 0., 0., 0., 0., 0., 0., 0., 0., 0., 0., 0., 0., 0., 0., 0.,
          0., 0., 0., 0., 2.53091669e+000, 0., 0., 0., 0., 0., 0., 0.,
          0., 0., 0., 0., 0., 0., 0., 0., 0., 0., 0., 0., 0., 0., 0., 0.,
          0., 0., 0., 0., 0., 0., 0., 0., 7.79500341e+000,
          7.00756833e-002, 0., 0., 0., 0., 0., 0., 0., 0., 0., 0., 0.,
          0., 0., 0., 0., 0., 0., 0., 0., 0., 0., 0., 0., 0., 0., 0., 0.,
          0., 0., 3.38330650e+000, 1.69049129e+001, 8.71178055e+000, 0.,
          0., 1., 1.90743566e-001, 8.09256434e-001, 0., 1.08303032e+001,
          1.35486116e+001, 1.11670069e-001, 0., 0., 0., 0., 0., 0., 0.,
          0., 0., 0., 0., 0., 0., 0., 0., 0., 0., 0., 0., 0., 0.,
          5.85786462e-001, 1.09383631e+000, 2.49195004e+000,
          5.89527130e+000, 3.44354558e+000, 7.80998755e+000,
          4.13104486e+000, 0., 8.08085728e+000, 2.56074486e+001,
          4.72590780e+000, 5.82842731e+000, 7.17157269e+000,
          1.32468462e+001, 7.75315380e+000, 0., 3.04482412e+000,
          2.39521732e+001, 3.21373825e+001, 5.91044569e+000,
          2.61203885e-001, 1.82842708e+000, 9.37498760e+000,
          9.13817692e+000, 2.58571315e+000, 2.20230675e+001,
          1.43602276e+001, 5.35859776e+000, 2.32567251e-001,
          1.26120389e+000, 5.04044771e+000, 3.67957950e+000,
          9.07777977e+000, 3.72792196e+000, 6.54435635e+000,
          1.97036207e+000, 6.75417423e-001, 1.23540201e+001,
          1.28406200e+001, 2.28687382e+001, 2.61203885e-001,
          2.34032941e+000, 2.94759045e+001, 2.69238815e+001,
          4.28008537e+001, 1.45902908e+000, 1.69416351e+001,
          2.38451614e+001, 2.48528137e+001, 9.23721237e+001,
          2.59882641e+001, 5.18472910e+000, 7.15841675e+000,
          2.89949489e+000, 8.64564514e+000, 2.11171365e+000, 0.,
          1.57157288e+001, 1.86396103e+001, 2.56446609e+001, 0.,
          1.30601943e+000, 2.24097099e+001, 2.65096684e+001,
          5.26497192e+001, 1.71248856e+001, 0., 9.85786438e+000,
          9.94112587e+000, 3.41276474e+001, 7.30733643e+001,
          6.51237154e+000, 9.83077431e+000, 4.14213562e+000,
          6.99231100e+000, 5.22407770e-001, 2.61203885e-001,
          1.04250879e+001, 4.55634928e+000, 1.20875893e+001,
          1.46697702e+001, 0., 5.85786462e-001, 4.14213568e-001,
          6.13580656e+000, 1.88641930e+001, 0., 0., 0., 0., 0.,
          8.61548996e+000, 2.38450980e+000, 0., 0., 0., 0., 0., 0., 0.,
          0., 0., 0., 0., 0., 0., 0., 0., 0., 0., 0., 4.59782600e+000,
          1.98796058e+000, 4.14213568e-001, 0., 0., 0., 0., 0., 0., 0.,
          0., 0., 0., 0., 0., 0., 0., 0., 0., 0., 7.01899385e+000,
          1.98100615e+000, 0., 0., 0., 0., 0., 0., 0., 0., 0., 0., 0.,
          0., 0., 0., 0., 0., 0., 0., 2.32250938e+001, 5.77490616e+000,
          4.14213568e-001, 9.06163692e-001, 6.79622769e-001,
          2.11223850e+001, 3.87761521e+000, 0., 0., 0., 0., 0., 0., 0.,
          0., 0., 0., 0., 0., 0., 6.79622769e-001, 3.07773662e+000,
          2.89949489e+000, 1.15472755e+001, 5.79587030e+000,
          2.17682743e+001, 1.46753759e+001, 1.07695522e+001,
          2.16600399e+001, 2.12675738e+000, 5.14377022e+001,
          1.19054422e+001, 5.38477612e+000, 1.00108738e+001,
          2.61203885e-001, 3.66236801e+001, 9.37632179e+000,
          4.14213568e-001, 7.73729372e+000, 5.84849262e+000,
          6.74134350e+000, 1.26018019e+001, 2.07106781e+000,
          5.03034496e+000, 1.55544126e+000, 1.45133996e+000,
          3.18501759e+001, 1.20121937e+001, 1.06862917e+001, 0.,
          5.22407770e-001, 5.17669144e+001, 2.77523079e+001,
          2.69159641e+001, 3.04240584e+000, 1.14179802e+001,
          2.80551071e+001, 1.98822517e+001, 6.87017975e+001,
          5.39428635e+001, 1.46323442e+000, 1.00514841e+001,
          4.14213562e+000, 6.11587286e+000, 2.22727299e+000, 0.,
          2.84314575e+001, 1.98822517e+001, 4.68629169e+000, 0.,
          1.46717491e+001, 4.21028557e+001, 3.14802303e+001,
          2.17451668e+001, 0., 2.97682247e+001, 2.75332890e+001,
          1.32548342e+001, 2.90975361e+001, 1.83461151e+001,
          1.36805372e+001, 4.49103594e+000, 8.28427136e-001,
          4.23074627e+000, 1.76925373e+000, 3.75212479e+001,
          7.65032625e+000, 4.55634928e+000, 5.27207804e+000, 0.,
          2.60626907e+001, 4.93730927e+000, 0., 0., 0., 0., 0., 0., 0.,
          0., 1.46104603e+001, 2.38953996e+000, 0., 0., 0., 0., 0., 0.,
          0., 0., 0., 0., 0., 0., 0., 0., 0., 0., 0., 0.,
          7.74331570e+000, 1.25668430e+000, 0., 0., 0., 0., 0., 0., 0.,
          0., 0., 0., 0., 0., 0., 0., 0., 0., 0., 0., 7.91958141e+000,
          2.08041835e+000, 0., 0., 0., 0., 0., 0., 0., 0., 0., 0., 0.,
          0., 0., 0., 0., 0., 0., 0., 2.16176090e+001, 5.55396318e+000,
          1.24264073e+000, 5.85786462e-001, 0., 1.47330608e+001,
          3.26693940e+000, 0., 5.85786462e-001, 4.14213568e-001, 0., 0.,
          0., 0., 0., 0., 0., 0., 0., 0., 2.86381221e+000,
          5.89354706e+000, 3.72792196e+000, 8.77338886e+000,
          2.74133015e+000, 5.95494127e+000, 3.07607880e+001,
          1.32548342e+001, 1.38802176e+001, 6.14921951e+000,
          4.52060699e+000, 1.85088310e+001, 5.38477612e+000,
          1.18555689e+001, 4.07302170e+001, 1.33299150e+001,
          5.25587177e+000, 4.14213568e-001, 5.85287333e+000,
          2.51471272e+001 ]
      - [ 0., 2., 4., 6., 10., 1., 2., 1., 0., 0., 0., 6.17157269e+000,
          4.32426414e+001, 2.65857868e+001, 10., 0., 0., 0.,
          1.12917652e+001, 3.74945869e+001, 6.35368958e+001,
          3.31729088e+001, 3.91805816e+000, 3.58578634e+000, 0.,
          5.85786462e-001, 5.46364403e+000, 2.25327473e+001,
          6.99398270e+001, 2.77983723e+001, 1.09383631e+000,
          5.85786462e-001, 0., 0., 1., 1., 9., 4., 2., 1., 0., 0., 0.,
          1., 2.78284264e+001, 2.73431454e+001, 8.82842731e+000, 1., 0.,
          0., 3., 1.05857868e+001, 4.69180565e+001, 4.49923096e+001,
          2.79180584e+001, 2.58578634e+000, 0., 2., 3.41421366e+000,
          1.73981133e+001, 9.67667923e+001, 5.11782417e+001,
          1.22426405e+001, 4., 0., 4., 3., 0., 1., 4., 7., 0., 0., 1.,
          1., 0., 8., 2., 1.98284264e+001, 3.02764091e+001, 0.,
          1.35976343e+001, 5.41421366e+000, 0., 4., 1.11715727e+001,
          1.26074553e+001, 2.39717789e+001, 0., 1.79316864e+001,
          9.99723244e+000, 6.17157269e+000, 3., 4.17157269e+000,
          8.82842731e+000, 1.45703287e+001, 0., 5.78528452e+000,
          1.45010834e+001, 7.13631511e-001, 0., 1., 0., 0., 0.,
          1.76515636e+001, 2.26517272e+000, 4.02565062e-001, 0., 0., 1.,
          9.01346779e+000, 0., 0., 0., 0., 0., 0., 0., 6.93706691e-001,
          0., 0., 0., 0., 0., 0., 0., 0., 0., 6.60535669e+000,
          5.18099976e+000, 2.33732015e-001, 0., 0., 1., 2.93250036e+000,
          0., 1.52662337e+000, 6.36096716e+000, 1.12409748e-001, 0., 0.,
          0., 0., 0., 0., 0., 0., 0., 0., 0., 0., 0., 0., 0., 0., 0., 0.,
          0., 0., 0., 1.07847881e+001, 3.64804173e+000, 5.81581116e-001,
          0., 0., 0., 2.98188043e+000, 0., 6.33546448e+000,
          6.40333176e+000, 0., 0., 0., 0., 0., 0., 0., 0., 0., 0., 0.,
          0., 0., 0., 0., 0., 0., 0., 0., 0., 0., 0., 7.84610748e+000,
          2.56943059e+000, 1.58578646e+000, 2.41421366e+000,
          4.17157269e+000, 4.41421366e+000, 2.82842708e+000, 0.,
          4.23531532e+000, 2.92120914e+001, 4.55259418e+000, 0., 0., 1.,
          0., 0., 0., 0., 0., 0., 0., 0., 0., 0., 0., 0., 0., 0., 0., 0.,
          0., 0., 3., 2., 5.85786462e-001, 4.41421366e+000,
          5.17157269e+000, 6.82842731e+000, 2., 4.14213568e-001, 1.,
          2.64889774e+001, 1.74904118e+001, 1.70399532e+001,
          1.27380152e+001, 5.65685415e+000, 2.17157292e+000, 0.,
          7.40938425e-001, 2.09468079e+001, 1.75188503e+001,
          1.75758915e+001, 6.21751261e+000, 0., 0., 0., 0., 0., 0., 0.,
          0., 0., 0., 0., 7.02943707e+000, 6.62741709e+000,
          2.34314585e+000, 0., 0., 4.51471853e+000, 1.57401152e+001,
          2.34839630e+001, 2.61203885e-001, 2.23057728e+001,
          3.13388882e+001, 2.27817459e+001, 3.95287781e+001,
          1.04481554e+000, 2.75717106e+001, 1.50140762e+001,
          5.38477612e+000, 3.20594864e+001, 2.39699497e+001, 0.,
          1.17157292e+000, 3.72792196e+000, 4.10050488e+000, 0., 0.,
          5.85786462e-001, 1.53259020e+001, 2.30883121e+001, 0., 0.,
          8.78679657e+000, 3.23086586e+001, 5.16433411e+001,
          2.61203885e-001, 0., 1.68162346e+001, 4.22497826e+001,
          5.39339828e+001, 0., 0., 4.10050488e+000, 7.45584393e+000,
          6.44365072e+000, 0., 0., 1.17157292e+000, 1.78111839e+001,
          4.02336311e+001, 7.83611596e-001, 7.88217258e+000,
          1.33188372e+001, 2.07106781e+001, 3.51317673e+001,
          1.59565439e+001, 1.91739216e+001, 1.93702335e+001,
          1.73969688e+001, 1.89731617e+001, 4.08571291e+000,
          1.15535669e+001, 6.54693842e+000, 3.31370854e+000,
          5.85786462e-001, 0., 2.30251579e+001, 8.31798744e+000,
          5.38477612e+000, 8.46331310e+000, 9.80876541e+000, 0., 0.,
          4.14213568e-001, 1.55634916e+000, 1.02943730e+000, 0., 0., 0.,
          0., 0., 1.32553988e+001, 3.33038807e+000, 8.28427136e-001,
          1.96863914e+000, 3.61714721e+000, 6.92929792e+000,
          1.07070208e+000, 0., 0., 0., 0., 0., 0., 0., 0., 0., 0., 0.,
          0., 0., 1.31850777e+001, 8.81492233e+000, 0., 1.33428383e+000,
          4.66571617e+000, 1.07471991e+001, 2.25280094e+000, 0., 0., 0.,
          0., 0., 0., 0., 0., 0., 0., 0., 0., 0., 4.00488234e+000,
          7.50983620e+000, 6.21320343e+000, 1.00108738e+001,
          2.61203885e-001, 3.42729111e+001, 3.72708917e+000,
          4.14213568e-001, 5.85786462e-001, 0., 0., 0., 0., 0., 0., 0.,
          0., 0., 0., 0., 0., 3.51471853e+000, 6.62741709e+000,
          9.59666061e+000, 2.61203885e-001, 2.85391140e+001,
          1.26618958e+001, 1.15979795e+001, 1.78059673e+001,
          1.39504290e+000, 3.62191200e+001, 7.78087854e+000, 0.,
          1.87939322e+000, 9.12060642e+000, 0., 0., 0., 0., 0., 0.,
          4.10050488e+000, 8.69848442e+000, 1.12010098e+001, 0., 0.,
          5.85786462e-001, 1.98822517e+001, 5.72707596e+001,
          2.61203885e-001, 0., 2.92893219e+000, 1.44974747e+001,
          9.15690689e+001, 3.90045204e+001, 0., 1.75735927e+000,
          2.89949489e+000, 3.56292419e+001, 8.57139053e+001, 0.,
          2.34314585e+000, 7.45584393e+000, 8.20100975e+000, 0., 0.,
          1.75735927e+000, 2.11248913e+001, 3.71177483e+001, 0., 0.,
          3.51471853e+000, 3.43797264e+001, 6.94487000e+001,
          2.65685415e+000, 0., 5.27207804e+000, 3.56223679e+001,
          1.22045364e+002, 1.30601940e+001, 0., 2.34314585e+000,
          3.72792196e+000, 2.92893219e+000, 0., 4.85705900e+000,
          2.72018147e+001, 1.40832615e+001, 5.85786438e+000, 0.,
          4.52506447e+001, 2.89798050e+001, 1.73969688e+001,
          9.37258339e+000, 0., 3.95692787e+001, 2.93180237e+001,
          1.53259020e+001, 8.78679657e+000, 0., 4.54919052e+000,
          5.79395533e+000, 2.07106781e+000, 9.70889628e-001,
          1.61489677e+000, 4.92508774e+001, 1.86069870e+001,
          4.14213562e+000, 8.24907601e-001, 1.17509246e+000,
          5.45955896e+000, 1.54044127e+000, 0., 0., 0., 0., 0., 0., 0.,
          0., 1.62788334e+001, 3.30695295e+000, 4.14213568e-001,
          2.39121154e-001, 7.60878861e-001, 3.65064955e+000,
          1.34935057e+000, 0., 4.14213568e-001, 5.85786462e-001, 0., 0.,
          0., 0., 0., 0., 0., 0., 0., 0., 2.15686340e+001,
          6.43136644e+000, 0., 1.58578646e+000, 4.14213568e-001,
          8.86176395e+000, 2.13823605e+000, 0., 0., 0., 0., 0., 0., 0.,
          0., 0., 0., 0., 0., 0., 5.61428976e+000, 1.09004288e+001,
          4.97056293e+000, 6.25351477e+000, 2.61203885e-001,
          7.56439209e+000, 5.36454010e+000, 2.48528147e+000,
          3.04392171e+000, 9.54186440e+000, 0., 0., 0., 0., 0., 0., 0.,
          0., 0., 0., 0., 5.10050488e+000, 6.62741709e+000,
          7.27207804e+000, 0., 0., 2.75735927e+000, 1.24264069e+001,
          3.88246460e+001, 1.79915867e+001, 6.79622769e-001,
          2.32037735e+000, 4.14213568e-001, 1.13013859e+001,
          4.22844009e+001, 0., 0., 0., 0., 0. ]
      - [ 0., 2.75735927e+000, 8., 2., 6., 2., 6., 2., 0., 0., 0.,
          5.83415937e+000, 2.38803482e+001, 1.62854919e+001, 20.,
          1.27573595e+001, 0., 0., 0., 1.77471409e+001, 4.83941689e+001,
          5.85869265e+000, 15., 1.91715736e+001, 0., 0., 0.,
          1.54181986e+001, 2.59960155e+001, 4.58578634e+000,
          2.82842708e+000, 1.17157292e+000, 0., 0., 4., 3., 2.,
          4.58578634e+000, 7.41421366e+000, 0., 0., 1., 1., 3.,
          2.38994942e+001, 2.66862907e+001, 1.54142132e+001, 4., 0., 0.,
          0., 0., 2.01421356e+001, 6.38873024e+001, 5.22132034e+001,
          1.07573595e+001, 0., 2., 4.41421366e+000, 1.21614990e+001,
          3.54938889e+001, 6.98753510e+001, 4.90550499e+001, 2., 0., 0.,
          0., 0., 2., 2.58578634e+000, 1.04142132e+001, 2., 0., 0., 2.,
          5., 14., 11., 23., 7., 0., 0., 1., 5.85786462e-001,
          1.76568546e+001, 2.11005058e+001, 2.06568546e+001,
          2.12922707e+001, 0., 1.80653059e+000, 4., 2., 8.82842731e+000,
          1.29289322e+001, 1.03343878e+001, 1.99830532e+001, 0., 1., 4.,
          2., 2., 0., 1., 0., 0., 5.29351616e+000, 8.61489677e+000,
          3.84699035e+000, 5.41421366e+000, 3., 1.05857868e+001,
          8.46616268e+000, 0., 2.34086234e-002, 0., 0., 0., 0., 0.,
          6.85455608e+000, 0., 0., 0., 0., 0., 0., 0., 0., 0.,
          9.08756828e+000, 1.39124317e+001, 1., 1., 0., 2., 1., 0.,
          8.74959469e+000, 1.87026119e+001, 8.85373056e-001, 0., 0., 0.,
          0., 0., 0., 0., 0., 0., 0., 0., 0., 0., 0., 0., 0., 0., 0., 0.,
          0., 0., 9.11573589e-001, 1.29503765e+001, 1.38049781e-001, 0.,
          0., 1., 0., 0., 0., 0., 0., 0., 0., 0., 0., 0., 0., 0., 0., 0.,
          0., 0., 0., 0., 0., 0., 0., 0., 0., 0., 0., 0.,
          5.26602983e+000, 1.45182371e+001, 2.15733260e-001, 1., 0., 0.,
          0., 0., 0., 1., 0., 0., 0., 0., 0., 0., 0., 0., 0., 0., 0., 0.,
          0., 0., 0., 0., 0., 0., 0., 0., 0., 0., 3.16417575e+000,
          1.14060993e+001, 3.42972493e+000, 2., 0., 8., 0., 0.,
          8.01358032e+000, 3.93164711e+001, 4.02700424e+000,
          5.42745447e+000, 2.15489298e-001, 5., 2.58578634e+000, 0., 0.,
          3.26559353e+000, 5.89190960e+000, 1.47015095e+001,
          1.40987366e-001, 0., 0., 0., 0., 0., 0., 0., 0., 0., 0., 0.,
          9.02943707e+000, 8.69848442e+000, 6.27207804e+000, 0., 0.,
          4.68629169e+000, 2.36101723e+001, 3.27035370e+001, 0.,
          3.22161484e+001, 1.17838507e+001, 1.44974747e+001,
          3.15659046e+001, 1.93662131e+000, 2.38355961e+001,
          9.16440296e+000, 1.65685427e+000, 7.82073784e+000,
          5.22407770e-001, 0., 4.51471853e+000, 6.62741709e+000,
          7.85786438e+000, 0., 0., 2.92893219e+000, 2.15391045e+001,
          2.95319633e+001, 0., 0., 0., 3.85218620e+001, 9.34781418e+001,
          0., 2.61203885e-001, 1.34545250e+001, 3.10660172e+001,
          9.71580582e+001, 9.06019402e+000, 0., 0., 4.97056293e+000,
          1.00294371e+001, 0., 0., 4.10050488e+000, 1.73969688e+001,
          2.65025253e+001, 0., 0., 1.17157292e+000, 1.61543293e+001,
          4.43047256e+001, 2.93693733e+001, 2.61203885e-001,
          8.59666061e+000, 1.20121937e+001, 2.92204380e+001,
          2.29095039e+001, 0., 4.10050488e+000, 3.31370854e+000,
          5.85786462e-001, 0., 6.46738195e+000, 1.79052010e+001,
          1.69827557e+001, 2.10455360e+001, 2.59912515e+000, 0.,
          5.85786462e-001, 4.14213568e-001, 2.99887300e+000,
          1.10011272e+001, 0., 0., 0., 0., 0., 1.88023109e+001,
          4.36926222e+000, 2.07106781e+000, 1.75735927e+000, 0.,
          2.60759830e+001, 3.92401743e+000, 0., 0., 0., 0., 0., 0., 0.,
          0., 0., 0., 0., 0., 0., 1.23200731e+001, 1.67992723e+000,
          4.14213568e-001, 5.85786462e-001, 0., 0., 0., 0., 0., 0., 0.,
          0., 0., 0., 0., 0., 0., 0., 0., 0., 1.74501991e+001,
          2.54980087e+000, 0., 0., 0., 8.21307123e-001, 1.78692877e-001,
          0., 0., 0., 0., 0., 0., 0., 0., 0., 0., 0., 0., 0.,
          1.19747143e+001, 4.36843157e+000, 4.97056293e+000,
          4.68629169e+000, 0., 3.63248024e+001, 1.33614874e+001,
          6.62741709e+000, 6.68629169e+000, 0., 9.48248863e+000,
          3.68908405e+000, 1.65685427e+000, 3.17157292e+000, 0., 0., 0.,
          0., 0., 0., 0., 5.34314585e+000, 4.55634928e+000,
          7.10050488e+000, 0., 0., 1.23725834e+001, 1.98822517e+001,
          3.08546638e+001, 1.89050162e+000, 7.75922477e-001,
          1.51824465e+001, 9.52691174e+000, 1.30180225e+001,
          5.64966965e+001, 0., 1.17157292e+000, 2.07106781e+000,
          8.76137829e+000, 3.59959831e+001, 0., 5.85786462e-001,
          4.14213562e+000, 6.27207804e+000, 0., 0., 6.68629169e+000,
          2.15391045e+001, 3.57746048e+001, 0., 0., 8.78679657e+000,
          3.27228699e+001, 6.22291298e+001, 2.61203885e-001, 0.,
          7.02943707e+000, 3.35513000e+001, 8.97417984e+001,
          9.67746925e+000, 0., 1.17157292e+000, 2.89949489e+000,
          2.92893219e+000, 0., 5.85786462e-001, 5.68629169e+000,
          1.61543293e+001, 1.75735931e+001, 0., 4.36017036e+001,
          1.01556559e+001, 1.40832615e+001, 2.78981762e+001,
          2.61203885e-001, 4.07657013e+001, 1.25774450e+001,
          1.11837664e+001, 1.54730883e+001, 0., 0., 2.92893219e+000,
          3.72792196e+000, 2.34314585e+000, 0., 3.33942070e+001,
          1.54636564e+001, 9.11269855e+000, 8.02943707e+000, 0.,
          2.00251427e+001, 2.97485733e+000, 0., 0., 0., 0., 0., 0., 0.,
          0., 1.27001019e+001, 6.81461668e+000, 3.31370854e+000,
          1.17157292e+000, 0., 1.42947416e+001, 7.46261740e+000,
          1.24264073e+000, 7.99401522e-001, 2.20059848e+000, 0., 0., 0.,
          0., 0., 0., 0., 0., 0., 0., 2.25546789e+000, 1.91610503e+000,
          1.65685427e+000, 2.17157292e+000, 0., 0., 0., 0., 0., 0., 0.,
          0., 0., 0., 0., 0., 0., 0., 0., 0., 1.00344772e+001,
          3.96552253e+000, 8.28427136e-001, 2.17157292e+000, 0., 0., 0.,
          0., 0., 0., 0., 0., 0., 0., 0., 0., 0., 0., 0., 0.,
          6.34601021e+000, 2.65398979e+000, 3.31370854e+000,
          4.68629169e+000, 0., 1.02292614e+001, 1.72143898e+001,
          6.62741709e+000, 4.90217638e+000, 6.02675581e+000, 0., 0., 0.,
          2.74797606e+000, 1.92520237e+001, 0., 0., 0., 0., 0. ]
      - [ 0., 2.75735927e+000, 1.04142132e+001, 10., 2.82842708e+000, 3.,
          1., 0., 0., 3.56661582e+000, 8.01917076e+000, 2.41421366e+000,
          4.58578634e+000, 2.05147190e+001, 3.18994942e+001,
          1.27573595e+001, 0., 0., 1., 2.58578634e+000, 1.18546791e+001,
          7.74163818e+001, 5.09715843e+001, 7.17157269e+000, 0., 0.,
          4.76949120e+000, 1.90440540e+001, 3.78942375e+001,
          6.10790138e+001, 6.46984863e+001, 1.76862907e+001, 0., 0., 2.,
          1.58578646e+000, 3.24264073e+000, 1.21005049e+001,
          8.07106781e+000, 0., 0., 0., 0., 1., 9.41421318e+000,
          3.04436512e+001, 4.25563507e+001, 2.58578634e+000, 0., 3., 2.,
          4., 1.18361158e+001, 4.95764694e+001, 7.22028351e+001,
          6.12337208e+000, 0., 1.34012032e+000, 0., 0., 1.82842708e+000,
          5.55402489e+001, 8.30391846e+001, 4.93809090e+001, 0.,
          4.86266756e+000, 1.50804985e+000, 0., 0., 2., 7., 3., 0.,
          4.16226101e+000, 5.85786462e-001, 1., 6.41421366e+000,
          1.44436512e+001, 2.57191639e+001, 1.82510414e+001, 0., 0., 0.,
          0., 1., 8., 1.44873610e+001, 4.47838707e+001, 1.50221109e-001,
          0., 0., 0., 0., 0., 1.35607779e+000, 4.49370098e+000, 0.,
          1.21809626e+001, 2., 0., 0., 0., 0., 1.68074355e-001, 0.,
          8.42300320e+000, 1.48903430e+000, 0., 0., 0., 0., 0., 0., 0.,
          0., 0., 0., 0., 0., 0., 0., 0., 0., 0., 0., 0., 0., 0., 0.,
          5.30104399e+000, 1., 0., 0., 0., 0., 0., 0., 0., 0., 0., 0.,
          0., 0., 0., 0., 0., 0., 0., 0., 0., 0., 0., 0., 0., 0., 0., 0.,
          0., 0., 0., 0., 1.17844524e+001, 0., 0., 0., 0., 0., 0., 0.,
          2.75041342e+000, 0., 0., 0., 0., 0., 1.17062129e-001, 0., 0.,
          0., 0., 0., 0., 0., 0., 0., 0., 0., 0., 0., 0., 0., 0., 0.,
          9.13185024e+000, 7.92716217e+000, 4.54506397e+000,
          4.14213568e-001, 1., 2.41421366e+000, 5.85786462e-001, 0.,
          2.00891724e+001, 4.19738579e+001, 6.11318970e+000, 0., 0., 0.,
          1.76227486e+000, 0., 0., 5.52456474e+000, 1.47543538e+000, 0.,
          0., 0., 0., 0., 0., 0., 0., 0., 0., 0., 0., 0., 0.,
          1.88284264e+001, 6.17157269e+000, 1., 0., 1., 0., 0.,
          1.65547752e+001, 1.14371910e+001, 1.44054937e+001,
          2.39861469e+001, 5.13200760e+000, 0., 2.16726708e+000, 0.,
          4.22322693e+001, 3.92912140e+001, 2.30170746e+001,
          1.66352406e+001, 8.84630489e+000, 3.25847816e+000,
          4.90058517e+000, 0., 8.11818409e+000, 3.99418373e+001,
          4.14881668e+001, 5.57946129e+001, 1.12429857e+001, 2., 1.,
          1.04481554e+000, 1.93988361e+001, 6.21320343e+000,
          2.34314585e+000, 0., 1.71254385e+000, 1.12163887e+001,
          2.02964649e+001, 4.72521973e+001, 5.22407770e-001, 0.,
          2.34314585e+000, 2.81665230e+001, 1.09464081e+002,
          3.02625227e+000, 2.02479744e+001, 1.02667437e+001,
          4.22497826e+001, 1.10101051e+002, 3.13444638e+000,
          4.14213568e-001, 2.75735927e+000, 6.21320343e+000,
          1.56152239e+001, 0., 0., 5.85786462e-001, 1.44974747e+001,
          6.06107178e+001, 1.30601943e+000, 0., 5.85786438e+000,
          2.81665230e+001, 1.01361458e+002, 7.61415482e+000, 0.,
          2.75735927e+000, 2.31959591e+001, 1.24495697e+002,
          5.15509872e+001, 1.31411529e+000, 5.44324398e+000,
          4.97056293e+000, 8.01087379e+000, 2.61203885e-001,
          6.14041805e+000, 3.44536829e+000, 1.36690474e+001,
          5.02710686e+001, 3.47409797e+000, 0., 0., 4.14213562e+000,
          2.70489407e+001, 4.48089218e+001, 0., 0., 0., 1.98362482e+000,
          4.01637506e+000, 1.65525589e+001, 6.44744205e+000,
          4.14213568e-001, 5.85786462e-001, 0., 1.13926907e+001,
          2.60730982e+000, 0., 0., 0., 0., 0., 0., 0., 0., 0., 0., 0.,
          0., 0., 8.68241596e+000, 3.31758356e+000, 0., 0., 0., 0., 0.,
          0., 0., 0., 0., 0., 0., 0., 0., 0., 0., 0., 0., 0.,
          1.51128941e+001, 6.05867863e+000, 8.28427136e-001, 0., 0.,
          3.02636480e+000, 1.97363520e+000, 0., 7.38796115e-001,
          2.61203885e-001, 0., 0., 0., 0., 0., 0., 0., 0., 0., 0.,
          7.89566612e+000, 1.40332661e+001, 2.89949489e+000,
          3.17157292e+000, 0., 4.86598167e+001, 2.26833305e+001,
          1.65685427e+000, 6.65172935e-001, 2.33482695e+000,
          4.31892729e+000, 2.68107295e+000, 0., 0., 0., 0., 0., 0., 0.,
          0., 1.56722319e+000, 1.97048550e+001, 4.14213562e+000,
          5.85786462e-001, 0., 2.80603142e+001, 2.63833370e+001,
          6.21320343e+000, 1.02702274e+001, 6.07291794e+000,
          3.47901993e+001, 7.07833939e+001, 1.61543293e+001,
          1.08087368e+001, 7.46334124e+000, 5.77471581e+001,
          4.03827858e+001, 1.32548342e+001, 1.59987555e+001,
          1.16164675e+001, 0., 2.92893219e+000, 7.04163074e+000,
          1.27682333e+001, 2.61203885e-001, 6.75417423e-001,
          1.42829523e+001, 1.90538235e+001, 1.97266026e+001,
          2.61203885e-001, 0., 7.02943707e+000, 3.68650055e+001,
          7.47995377e+001, 1.30601943e+000, 0., 1.54730883e+001,
          3.89360733e+001, 6.70249100e+001, 3.45659294e+001, 0.,
          5.85786462e-001, 6.21320343e+000, 1.32010098e+001, 0., 0.,
          1.75735927e+000, 1.82253971e+001, 3.20172424e+001, 0.,
          1.45621109e+000, 1.12300806e+001, 2.52670269e+001,
          5.33898277e+001, 2.65685415e+000, 3.90751152e+001,
          4.20548248e+001, 3.27228699e+001, 4.78859825e+001,
          2.61203885e-001, 2.42087746e+000, 8.43698692e+000,
          5.38477612e+000, 1.75735927e+000, 0., 2.28601704e+001,
          1.73408394e+001, 1.61543293e+001, 1.66446609e+001, 0.,
          4.79940643e+001, 1.41775093e+001, 5.38477612e+000,
          6.44365072e+000, 0., 3.52197552e+000, 1.47802460e+000, 0., 0.,
          0., 2.03853912e+001, 3.61460948e+000, 0., 0., 0.,
          1.53122292e+001, 2.68777084e+000, 0., 0., 0., 0., 0., 0., 0.,
          0., 0., 0., 0., 0., 0., 1.17421904e+001, 2.25780916e+000, 0.,
          0., 0., 0., 0., 0., 0., 0., 0., 0., 0., 0., 0., 0., 0., 0., 0.,
          0., 1.99651413e+001, 5.03485823e+000, 0., 0., 0.,
          6.82021856e+000, 2.17978144e+000, 0., 0., 0., 0., 0., 0., 0.,
          0., 0., 0., 0., 0., 0., 6.40485239e+000, 7.69565296e+000,
          4.97056293e+000, 5.66772842e+000, 2.61203885e-001,
          2.46126480e+001, 2.04878578e+001, 4.55634928e+000,
          5.99163914e+000, 7.35150671e+000, 9.28932190e-001,
          1.07106781e+000, 0., 7.90323615e-001, 1.20967638e+000, 0., 0.,
          0., 0., 0., 0., 0., 4.14213562e+000, 5.85786438e+000, 0.,
          2.20537891e+001, 1.70467167e+001, 8.69848442e+000,
          1.78092289e+001, 2.53917828e+001, 4.12237511e+001,
          3.13204041e+001, 1.73969688e+001, 3.75064468e+001,
          6.55242825e+000, 1.31411529e+000, 1.43011084e+001,
          9.94112587e+000, 4.33048401e+001, 7.51388092e+001 ]
      - [ 0., 5.92893219e+000, 9.89949512e+000, 1.01715727e+001, 3., 0.,
          0., 0., 0., 1.14208822e+001, 1.51649046e+001, 1.,
          4.14213568e-001, 1.22720776e+001, 3.57279205e+001,
          2.58578634e+000, 0., 1., 0., 1.45147190e+001, 2.37464848e+001,
          4.05662041e+001, 7.11725922e+001, 3., 0., 2.49698901e+000,
          1.69755554e+001, 1.98775444e+001, 5.37862129e+001,
          4.64078522e+001, 6.35269127e+001, 3.92893219e+000, 0., 1.,
          9.82842731e+000, 7.17157269e+000, 2., 2., 1., 3., 0., 0., 0.,
          0., 5.07106781e+000, 2.80031853e+001, 5.45825996e+001,
          2.34314585e+000, 0., 5.85786462e-001, 0., 0., 4.74648523e+000,
          5.49720039e+001, 8.75427094e+001, 6.32458258e+000, 0., 0., 0.,
          1., 6.35083485e+000, 4.74442596e+001, 9.62264328e+001,
          4.00161743e+001, 0., 8., 7., 4., 0., 0., 1., 0., 0.,
          1.01789064e+001, 4.14213568e-001, 1., 1.41421354e+000,
          2.24250870e+001, 4.39891243e+001, 3.94810295e+000, 0.,
          3.03571725e+000, 0., 0., 1.41421354e+000, 1.41005049e+001,
          4.74912834e+001, 4.49399529e+001, 6.97641596e-002, 0., 0., 0.,
          0., 0., 8.99975109e+000, 1.29304848e+001, 0., 3.90421677e+000,
          8.26120377e+000, 2.32458258e+000, 1., 0., 0., 1.68547481e-001,
          0., 9.01815891e+000, 0., 0., 0., 0., 0., 6.30944967e-002, 0.,
          3.61302108e-001, 0., 0., 0., 0., 0., 0., 0., 0., 0., 0., 0.,
          0., 0., 0., 0., 1.41580772e+001, 9.18460131e-001, 0., 0., 0.,
          0., 0., 0., 0., 0., 0., 0., 0., 0., 0., 0., 0., 0., 0., 0., 0.,
          0., 0., 0., 0., 0., 0., 0., 0., 0., 0., 0., 7.97669029e+000,
          7.07106781e+000, 1., 0., 0., 0., 1.25549293e+000, 0.,
          9.28777122e+000, 1.15013199e+001, 2.57800674e+000, 0., 0., 0.,
          0., 0., 0., 0., 0., 0., 0., 0., 0., 0., 0., 0., 0., 0., 0., 0.,
          0., 0., 4.92893219e+000, 7.48528147e+000, 9.17157269e+000, 3.,
          3., 1., 5.85786462e-001, 4.47436857e+000, 1.32597065e+001,
          3.48705635e+001, 5.94961882e+000, 8.11089420e+000,
          2.92063427e+000, 0., 4.14213568e-001, 0., 1.26524305e+001,
          1.05740623e+001, 2.49675184e-001, 0., 0., 0., 0., 0., 0., 0.,
          0., 0., 0., 0., 0., 0., 5.38796139e+000, 2.35083485e+000,
          2.17157292e+000, 4.58578634e+000, 3.15300965e+000,
          6.75417423e-001, 3., 0., 1.67403240e+001, 1.62188206e+001,
          8.90846157e+000, 7.83076382e+000, 2.83509588e+000, 5.,
          6.42289448e+000, 0., 1.46962433e+001, 4.90874710e+001,
          4.85010872e+001, 2.75749130e+001, 3., 5.85786462e-001, 1., 0.,
          1., 2.20119495e+001, 4.37112083e+001, 3.99864883e+001,
          1.14463930e+001, 7.57500505e+000, 1.26895416e+000,
          2.61203885e-001, 1.95255928e+001, 6.21320343e+000, 0., 0.,
          2.24264073e+000, 2.20294380e+001, 1.36690474e+001,
          4.02752647e+001, 7.83611596e-001, 0., 1.15441561e+001,
          2.31959591e+001, 9.72970123e+001, 3.96287370e+000,
          3.09795055e+001, 2.50499325e+001, 2.40243874e+001,
          1.05875107e+002, 7.07106781e+000, 0., 1.34436512e+001,
          7.04163074e+000, 3.51471853e+000, 0., 0., 0., 9.94112587e+000,
          7.36632233e+001, 3.39565039e+000, 0., 5.85786462e-001,
          1.73969688e+001, 1.24207382e+002, 1.18098640e+001, 0.,
          5.85786462e-001, 1.53259020e+001, 1.29574722e+002,
          4.65135841e+001, 0., 1.23725834e+001, 7.04163074e+000,
          5.85786462e-001, 0., 1.04958820e+001, 7.84726334e+000,
          1.15979795e+001, 5.98162346e+001, 2.24264073e+000,
          5.23804426e+000, 2.76195574e+000, 4.55634928e+000,
          6.43246231e+001, 4.81190300e+001, 0., 0., 0., 5.47989082e+000,
          1.65201092e+001, 6.82789278e+000, 1.28583984e+001,
          4.14213562e+000, 1.17157292e+000, 0., 1.43628178e+001,
          6.63718224e+000, 4.14213568e-001, 5.85786462e-001, 0.,
          4.14213568e-001, 5.85786462e-001, 0., 0., 0., 0., 0., 0., 0.,
          0., 1.58129606e+001, 8.11597157e+000, 2.07106781e+000, 0., 0.,
          0., 0., 0., 0., 0., 0., 0., 0., 0., 0., 0., 0., 0., 0., 0.,
          4.48025942e+000, 1.63776054e+001, 4.55634928e+000,
          1.91036904e+000, 6.75417423e-001, 2.09833031e+001,
          7.77405548e+000, 1.24264073e+000, 0., 0., 0., 0., 0., 0., 0.,
          0., 0., 0., 0., 0., 0., 1.62010098e+001, 7.87005758e+000,
          2.92893219e+000, 0., 4.39392891e+001, 1.35754290e+001,
          3.31370854e+000, 3.09231520e+000, 3.07925773e+000,
          1.92258205e+001, 4.77418041e+000, 0., 0., 0., 0., 0., 0., 0.,
          0., 7.83611596e-001, 8.55953407e+000, 4.14213562e+000,
          5.25351477e+000, 2.61203885e-001, 1.42518482e+001,
          2.52212410e+001, 1.36690474e+001, 1.05831347e+001,
          3.27472973e+000, 2.13582897e+001, 6.74751892e+001,
          2.98233757e+001, 3.08194184e+000, 2.61203885e-001,
          4.92743073e+001, 2.80982780e+001, 6.62741709e+000,
          7.11895514e+000, 2.08810444e+001, 0., 5.85786438e+000,
          9.94112587e+000, 9.20100975e+000, 0., 0., 1.63015156e+001,
          1.61543293e+001, 1.15441561e+001, 0., 0., 2.34314585e+000,
          2.89949493e+001, 6.63558884e+001, 1.30601943e+000,
          2.62624145e+000, 8.47426319e+000, 1.90538235e+001,
          6.22060242e+001, 6.06396484e+001, 0., 2.34314585e+000,
          6.62741709e+000, 7.02943707e+000, 0., 0., 2.34314585e+000,
          1.36690474e+001, 2.99878063e+001, 0., 2.61203885e-001,
          1.02535143e+001, 2.85807362e+001, 5.66433411e+001,
          2.61203885e-001, 2.80192966e+001, 2.97258682e+001,
          3.43797264e+001, 5.43526993e+001, 5.22407770e-001, 0.,
          9.20100975e+000, 7.45584393e+000, 2.34314585e+000, 0.,
          1.54659195e+001, 9.46301270e+000, 1.32548342e+001,
          2.08162346e+001, 0., 5.56631088e+001, 2.16089706e+001,
          9.52691174e+000, 1.42010098e+001, 0., 1.23290997e+001,
          5.67090082e+000, 0., 0., 0., 1.24781103e+001, 5.27924919e+000,
          2.07106781e+000, 3.17157292e+000, 0., 2.54211712e+001,
          4.57882929e+000, 0., 0., 0., 1.22346997e+000, 7.76530027e-001,
          0., 0., 0., 0., 0., 0., 0., 0., 1.96417942e+001,
          1.01155643e+001, 1.24264073e+000, 0., 0., 2.84649229e+000,
          1.15350783e+000, 0., 0., 0., 0., 0., 0., 0., 0., 0., 0., 0.,
          0., 0., 1.26616774e+001, 7.02461433e+000, 3.72792196e+000,
          5.85786462e-001, 0., 1.95291386e+001, 6.47086143e+000, 0.,
          2.79582095e+000, 3.20417905e+000, 0., 0., 0., 0., 0., 0., 0.,
          0., 0., 0., 0., 6.10050488e+000, 8.69848442e+000,
          1.02010098e+001, 0., 1.49405756e+001, 1.08167839e+001,
          4.14213562e+000, 1.40151567e+001, 1.30853481e+001,
          1.45464106e+001, 3.45358920e+000, 0., 3.20377231e-001,
          6.79622769e-001, 0., 0., 0., 0., 0., 2.61203885e-001,
          1.13540201e+001, 7.87005758e+000, 7.73110723e+000,
          7.83611596e-001, 1.50176296e+001, 2.06980991e+001,
          1.53259020e+001, 1.16871376e+001, 5.27123165e+000,
          4.19313669e+000, 1.14220877e+001, 3.14802303e+001,
          6.30452957e+001, 5.85924911e+000, 1.88929915e+000,
          1.69648731e+000, 3.31370854e+000, 2.95327587e+001,
          7.65677490e+001 ]
      - [ 1.10706580e+000, 4.55641460e+000, 3.33651972e+000, 2., 5., 4.,
          3., 0., 0., 3., 1., 6.17157269e+000, 3.94852829e+001,
          2.09289322e+001, 9.41421318e+000, 1., 0., 1., 2.,
          1.65795250e+001, 8.66516495e+001, 2.27688236e+001, 3., 0., 0.,
          0., 0., 1.76515973e+000, 2.66716576e+001, 1.56318212e+000, 0.,
          0., 0., 1.87928224e+000, 0., 0., 1., 5.85786462e-001,
          3.82842708e+000, 2.95711589e+000, 0., 1.36250854e+000, 6., 5.,
          1.34142132e+001, 1.41715727e+001, 1.34142132e+001,
          7.37697029e+000, 0., 3.14880443e+000, 3., 3.16736746e+000,
          4.22174072e+001, 4.16786041e+001, 2.43508358e+001,
          1.08890381e+001, 0., 1.20004025e+001, 1.45038443e+001,
          2.65196228e+001, 7.86674576e+001, 2.91183357e+001,
          1.34333839e+001, 6.19738770e+000, 0., 1.96097064e+000, 0., 0.,
          0., 0., 0., 1.35663971e-001, 0., 7.82277524e-001, 0., 0., 0.,
          0., 0., 1.56255811e-001, 0., 7.06005573e+000, 0., 0., 0., 0.,
          0., 7.44210529e+000, 0., 5.53968048e+000, 0., 0., 0., 0., 0.,
          1.94099915e+000, 0., 5.70045054e-001, 0., 0., 0., 0., 0., 0.,
          0., 0., 0., 0., 0., 0., 0., 0., 0., 0., 0., 0., 0., 0., 0., 0.,
          0., 0., 0., 0., 0., 0., 0., 0., 6.08707786e-001,
          3.91292185e-001, 0., 0., 0., 0., 0., 0., 0., 0., 0., 0., 0.,
          0., 0., 0., 0., 0., 0., 0., 0., 0., 0., 0., 0., 0., 0., 0., 0.,
          0., 0., 0., 0., 0., 0., 0., 0., 0., 0., 0., 0., 0., 0., 0., 0.,
          0., 0., 0., 0., 0., 0., 0., 0., 0., 0., 0., 0., 0., 0., 0., 0.,
          0., 0., 0., 0., 4.38701868e+000, 3.30649066e+000, 0., 0., 0.,
          0., 0., 0., 0., 0., 0., 0., 0., 0., 0., 0., 0., 0., 0., 0., 0.,
          0., 0., 0., 0., 0., 0., 0., 0., 0., 0., 1.45019937e+000,
          1.17503242e+001, 1.12935152e+001, 5.05960941e-001, 1., 0., 2.,
          0., 0., 2.31635094e+000, 3.23888092e+001, 7.29484034e+000, 1.,
          4.15300989e+000, 4.17157269e+000, 6.75417423e-001, 0., 0.,
          3.85890174e+000, 8.96490860e+000, 4.17618990e+000, 0., 0., 0.,
          0., 0., 0., 0., 0., 0., 0., 0., 5.06218338e+000,
          3.86674905e+000, 4.97056293e+000, 4.10050488e+000, 0., 0.,
          6.44365072e+000, 1.73969688e+001, 2.01593800e+001, 0.,
          1.87330322e+001, 2.07106190e+001, 1.53259020e+001,
          3.05586643e+001, 5.67178297e+000, 3.42868710e+000,
          4.74288559e+000, 2.48528147e+000, 4.97434187e+000,
          3.36880374e+000, 2.26048636e+000, 1.32529998e+000,
          3.72792196e+000, 8.68629169e+000, 0., 2.61203885e-001,
          9.35402012e+000, 2.07106781e+001, 2.46740990e+001, 0., 0.,
          7.61522388e+000, 3.31370850e+001, 6.21580620e+001,
          2.08963108e+000, 9.57760620e+000, 4.25401421e+001,
          4.10071411e+001, 3.79107933e+001, 4.96431637e+000,
          4.01880407e+000, 1.56698251e+000, 2.07106781e+000,
          3.34314585e+000, 0., 2.16355968e+000, 4.00801325e+000,
          2.07106781e+000, 3.75735927e+000, 0., 1.12447777e+001,
          2.75522232e+000, 4.14213568e-001, 4.40462971e+000,
          1.11811571e+001, 1.05510941e+001, 5.62047911e+000,
          1.24264073e+000, 3.74061418e+000, 4.84517241e+000,
          8.21307123e-001, 1.78692877e-001, 0., 0., 0., 0., 0., 0., 0.,
          0., 0., 0., 0., 0., 0., 0., 0., 0., 0., 0., 5.14718652e-001,
          4.85281378e-001, 0., 0., 0., 0., 0., 0., 0., 0., 0., 0., 0.,
          0., 0., 0., 0., 0., 0., 0., 0., 0., 0., 0., 0., 0., 0., 0., 0.,
          0., 0., 0., 0., 0., 0., 0., 0., 0., 0., 0., 5.76643181e+000,
          2.23356795e+000, 0., 0., 0., 0., 0., 0., 0., 0., 0., 0., 0.,
          0., 0., 0., 0., 0., 0., 0., 2.20599899e+001, 2.94001007e+000,
          8.28427136e-001, 1.17157292e+000, 0., 3.56514473e+001,
          5.93433952e+000, 1.24264073e+000, 6.35083485e+000,
          1.82073796e+000, 1.23309860e+001, 2.66901374e+000, 0., 0., 0.,
          0., 0., 0., 0., 0., 4.90279436e+000, 1.09720552e+000,
          4.55634928e+000, 6.44365072e+000, 0., 0., 4.10050488e+000,
          2.11248913e+001, 4.79909935e+001, 7.83611596e-001, 0.,
          2.75735927e+000, 7.87005758e+000, 5.47504272e+001,
          6.46221542e+001, 0., 0., 0., 3.82694769e+000, 2.61730518e+001,
          8.04374599e+000, 7.29939938e+000, 2.48528147e+000,
          1.17157292e+000, 0., 8.14946175e+000, 9.29418945e+000,
          1.73969688e+001, 2.01593800e+001, 0., 6.20550823e+000,
          2.09955025e+001, 2.40243874e+001, 6.73680801e+001,
          4.40652466e+000, 6.29161358e+000, 3.02525425e+001,
          3.06518040e+001, 8.68671875e+001, 2.59368515e+001,
          1.95328407e+001, 1.46715987e+000, 0., 0., 0., 2.50054588e+001,
          1.99454200e+000, 0., 0., 0., 3.35707359e+001, 5.42926407e+000,
          0., 0., 0., 3.22675056e+001, 3.73249269e+000, 0., 0., 0.,
          2.24716091e+000, 7.52839029e-001, 0., 0., 0., 0., 0., 0., 0.,
          0., 0., 0., 0., 0., 0., 0., 0., 0., 0., 0., 8.31925631e-001,
          1.68074355e-001, 0., 0., 0., 0., 0., 0., 0., 0., 0., 0., 0.,
          0., 0., 0., 0., 0., 0., 0., 5.14718652e-001, 4.85281378e-001,
          0., 0., 0., 0., 0., 0., 0., 0., 0., 0., 0., 0., 0., 0., 0., 0.,
          0., 0., 4.41978788e+000, 1.58021235e+000, 0., 0., 0., 0., 0.,
          0., 0., 0., 0., 0., 0., 0., 0., 0., 0., 0., 0., 0.,
          1.73389263e+001, 4.24686003e+000, 1.65685427e+000,
          1.75735927e+000, 0., 2.70273685e+000, 6.05462265e+000,
          4.55634928e+000, 1.04014711e+001, 1.32848206e+001, 0., 0., 0.,
          2.61717582e+000, 1.23828239e+001, 0., 0., 0., 0., 0. ]
      - [ 0., 1., 1., 2., 4., 5., 7., 3., 0., 0., 1., 5.,
          5.05486603e+001, 2.40371265e+001, 4.41421366e+000, 2., 0., 0.,
          2., 1.27429390e+001, 7.23603287e+001, 8.89673138e+000, 3., 3.,
          0., 0., 0., 2.30274629e-002, 1.09769726e+001, 0., 0., 0., 0.,
          5.17157269e+000, 5., 0., 4., 1., 0., 8.17157269e+000, 0., 0.,
          8., 4., 1.54142132e+001, 1.79289322e+001, 1.56568546e+001,
          5.58578634e+000, 0., 5., 3., 4.63469458e+000, 5.36079445e+001,
          3.55738907e+001, 1.70118942e+001, 1.64250870e+001, 0.,
          4.96315670e+000, 8.26695919e+000, 2.70569420e+001,
          8.73212204e+001, 3.25441246e+001, 6.26181126e+000,
          9.34314537e+000, 0., 1.70975316e+000, 0., 0., 0., 0., 0.,
          5.82462311e+000, 0., 5.90815306e+000, 0., 0., 0., 0., 0.,
          3.76264954e+000, 0., 9.59684086e+000, 0., 0., 0., 0.,
          4.14213568e-001, 1.28548174e+001, 0., 5.59932375e+000, 1., 0.,
          0., 0., 1.21671247e+000, 7.35671377e+000, 0., 2.90411639e+000,
          0., 0., 0., 0., 0., 4.91225034e-001, 0., 0., 0., 0., 0., 0.,
          0., 0., 0., 0., 0., 0., 0., 0., 0., 0., 0., 0., 0., 0., 0., 0.,
          0., 0., 0., 3.83235145e+000, 0., 0., 0., 0., 0., 0., 0., 0.,
          0., 0., 0., 0., 0., 0., 0., 0., 0., 0., 0., 0., 0., 0., 0., 0.,
          0., 0., 0., 0., 0., 0., 0., 5.11147070e+000, 2.58895373e+000,
          0., 0., 0., 0., 0., 0., 0., 0., 0., 0., 0., 0., 0., 0., 0., 0.,
          0., 0., 0., 0., 0., 0., 0., 0., 0., 0., 0., 0., 0.,
          2.57992196e+000, 1.09777441e+001, 1.24423342e+001, 0., 0., 0.,
          0., 0., 0., 3.75406295e-001, 3.62459373e+000, 0., 0., 0., 0.,
          0., 0., 0., 0., 0., 0., 0., 0., 0., 0., 0., 0., 0., 0., 0., 0.,
          0., 0., 3.62919879e+000, 8.78501511e+000, 3., 4., 0.,
          1.58578646e+000, 8.28427136e-001, 0., 7.21741199e-001,
          3.20240021e+001, 2.04686489e+001, 8.19982147e+000,
          1.58578646e+000, 3.26540923e+000, 7.34590828e-001, 0., 0.,
          2.25492597e+000, 5.09670162e+000, 5.64837217e+000, 0., 0., 0.,
          0., 0., 0., 0., 0., 0., 0., 0., 5.85786462e-001,
          2.17157292e+000, 6.21320343e+000, 1.00294371e+001, 0., 0.,
          3.51471853e+000, 1.49116879e+001, 2.43123894e+001,
          2.61203885e-001, 1.76173630e+001, 1.34120731e+001,
          1.44974747e+001, 1.81785507e+001, 4.29453802e+000, 0.,
          5.85786462e-001, 4.14213568e-001, 0., 0., 0., 6.44365072e+000,
          8.69848442e+000, 5.85786438e+000, 0., 0., 7.02943707e+000,
          1.94680367e+001, 2.55025253e+001, 0., 0., 9.95836926e+000,
          3.31370850e+001, 5.29679260e+001, 9.36621308e-001,
          1.28766460e+001, 2.38685188e+001, 3.52081528e+001,
          4.15428352e+001, 1.50384462e+000, 0., 2.34314585e+000,
          4.55634928e+000, 7.33582640e+000, 5.76467896e+000,
          7.55223703e+000, 8.96248150e+000, 6.21320343e+000,
          9.85500336e+000, 2.41707444e+000, 1.10163736e+001,
          8.32677174e+000, 3.31370854e+000, 1.09548903e+001,
          1.13882551e+001, 4.56548834e+000, 8.12080288e+000,
          5.79898977e+000, 7.70941353e+000, 5.80530500e+000,
          5.41773844e+000, 2.16804790e+000, 4.14213568e-001,
          1.19074357e+000, 8.09256434e-001, 0., 0., 0., 0., 0., 0., 0.,
          0., 0., 0., 0., 0., 0., 0., 0., 5.43407154e+000,
          1.56592870e+000, 0., 0., 0., 0., 0., 0., 0., 0., 0., 0., 0.,
          0., 0., 0., 0., 0., 0., 0., 7.29517984e+000, 1.70482028e+000,
          0., 0., 0., 0., 0., 0., 0., 0., 0., 0., 0., 0., 0., 0., 0., 0.,
          0., 0., 2.17663116e+001, 3.81947541e+000, 4.14213568e-001, 0.,
          0., 3.26795506e+000, 7.32045054e-001, 0., 0., 0., 0., 0., 0.,
          0., 0., 0., 0., 0., 0., 0., 5.79564762e+000, 6.89064360e+000,
          3.72792196e+000, 2.32458258e+000, 2.61203885e-001,
          4.17715416e+001, 9.74317837e+000, 2.89949489e+000,
          4.64916515e+000, 9.36621308e-001, 7.57405138e+000,
          2.42594886e+000, 0., 0., 0., 0., 0., 0., 0., 0., 0.,
          6.44365072e+000, 9.11269855e+000, 6.44365072e+000, 0., 0.,
          1.17157292e+000, 1.78111839e+001, 5.93303833e+001,
          3.68686056e+000, 0., 4.92893219e+000, 4.97056293e+000,
          2.41202049e+001, 6.69803009e+001, 0., 0., 0., 1.01255393e+000,
          9.98744583e+000, 0., 1.10294371e+001, 6.62741709e+000,
          3.34314585e+000, 0., 0., 5.51471853e+000, 1.73969688e+001,
          2.40883121e+001, 0., 1.04481554e+000, 2.74993401e+001,
          2.65096684e+001, 7.21664963e+001, 5.77967644e+000,
          5.22407770e-001, 3.13648930e+001, 3.43797264e+001,
          9.60794296e+001, 2.96535416e+001, 2.00786037e+001,
          9.09296989e+000, 8.28427136e-001, 0., 0., 3.59233170e+001,
          1.12482548e+001, 8.28427136e-001, 0., 0., 4.02446632e+001,
          1.55126944e+001, 1.24264073e+000, 0., 0., 3.51274033e+001,
          1.53873138e+001, 2.48528147e+000, 0., 0., 1.27534990e+001,
          2.24650097e+000, 0., 0., 0., 0., 0., 0., 0., 0., 0., 0., 0.,
          0., 0., 0., 0., 0., 0., 0., 7.81277418e+000, 1.18722582e+000,
          0., 0., 0., 0., 0., 0., 0., 0., 0., 0., 0., 0., 0., 0., 0., 0.,
          0., 0., 7.70357037e+000, 1.29642940e+000, 0., 0., 0., 0., 0.,
          0., 0., 0., 0., 0., 0., 0., 0., 0., 0., 0., 0., 0.,
          1.76159153e+001, 5.38408422e+000, 0., 0., 0., 8.41352940e-001,
          1.58647031e-001, 0., 0., 0., 0., 0., 0., 0., 0., 0., 0., 0.,
          0., 0., 4.06854296e+000, 5.68881655e+000, 4.14213562e+000,
          4.10050488e+000, 0., 1.27559745e+000, 3.06754827e+000,
          6.21320343e+000, 1.75763264e+001, 2.68673229e+001, 0., 0., 0.,
          1.93357897e+000, 9.06642151e+000, 0., 0., 0., 0., 0. ]
      - [ 0., 6.20829916e+000, 2., 1., 4., 0., 0., 0., 0., 0., 0.,
          1.12720776e+001, 6.22132034e+001, 1.05147190e+001, 3., 1., 0.,
          9.83509541e+000, 1.18994951e+001, 1.41985760e+001,
          6.78916092e+001, 3.30813866e+001, 7.58578634e+000,
          4.91036892e+000, 0., 0., 0., 4.80792597e-002, 2.51671085e+001,
          5.78481293e+000, 0., 0., 0., 1.00840311e+001, 5., 0., 0., 0.,
          0., 0., 0., 8.08690357e+000, 5., 1.31715727e+001,
          2.08284264e+001, 10., 4., 1.17157292e+000, 0., 1., 2.,
          1.66550617e+001, 6.15875778e+001, 3.67573586e+001, 6., 2., 0.,
          2.82115984e+000, 3.51611042e+000, 1.58027735e+001,
          4.73637085e+001, 6.22830772e+001, 4.88026009e+001,
          2.79736233e+001, 0., 2.72446179e+000, 0., 0., 0., 0., 0., 0.,
          0., 2.93224697e+001, 1.06757078e+001, 0., 0., 0., 0.,
          6.66691899e-001, 0., 3.89276624e+000, 2., 0., 1., 0.,
          5.96625566e+000, 1.51582804e+001, 0., 1.35749292e+001,
          1.60714607e+001, 3.76610899e+000, 1.02338171e+001,
          4.47759247e+000, 4.21450806e+000, 1.09854374e+001, 0., 0., 0.,
          0., 0., 0., 0., 0., 0., 0., 0., 0., 0., 0., 0., 0., 0., 0., 0.,
          0., 0., 0., 0., 0., 0., 0., 0., 0., 0., 0., 0., 0., 0., 0., 0.,
          0., 0., 0., 0., 0., 0., 0., 0., 0., 0., 0., 0., 0., 0., 0., 0.,
          0., 0., 0., 0., 0., 0., 0., 0., 0., 0., 0., 0., 0., 0., 0., 0.,
          0., 0., 0., 0., 0., 0., 0., 0., 0., 0., 0., 0., 0., 0., 0., 0.,
          0., 0., 0., 0., 0., 0., 0., 0., 0., 0., 0., 0., 0., 0.,
          5.20127058e+000, 0., 0., 0., 0., 0., 0., 0., 4.31284857e+000,
          4.68715143e+000, 0., 0., 0., 0., 0., 0., 0., 0., 0., 0., 0.,
          0., 0., 0., 0., 0., 0., 0., 0., 0., 0., 0., 8.34881306e+000,
          0., 0., 1., 2., 1., 0., 0., 1.17214613e+001, 2.47781677e+001,
          8.50037098e+000, 2.02426414e+001, 1.56677284e+001,
          5.08963108e+000, 2., 0., 5.26632667e-001, 1.90752373e+001,
          2.74506149e+001, 2.14980049e+001, 7.99756432e+000,
          6.86616087e+000, 3., 0., 0., 0., 0., 1., 0., 0., 0.,
          6.49751759e+000, 4.43141460e+000, 2.07106781e+000, 0., 0., 0.,
          9.61522388e+000, 1.24264069e+001, 9.95836926e+000, 0.,
          4.36051607e+000, 3.30415039e+001, 2.27817459e+001,
          3.65885353e+001, 2.82276974e+001, 0., 1., 0., 3.42957425e+000,
          8.57042599e+000, 9.43009281e+000, 9.25619888e+000,
          3.31370854e+000, 0., 0., 2.23901916e+000, 1.74056416e+001,
          1.69827557e+001, 9.37258339e+000, 0., 0., 1.34730883e+001,
          3.02375908e+001, 3.02893219e+001, 0., 1.58131361e+001,
          1.78020878e+001, 2.07106781e+001, 9.75957718e+001,
          4.70783310e+001, 3.95800710e+000, 2.62777948e+000,
          4.14213568e-001, 0., 0., 3.07877045e+001, 1.43128004e+001,
          3.72792196e+000, 1.35026574e+000, 8.21307123e-001,
          4.44852209e+000, 6.89462376e+000, 3.72792196e+000,
          9.93460941e+000, 2.19943237e+001, 2.66434956e+001,
          1.18712225e+001, 2.89949489e+000, 1.01955061e+001,
          1.63902798e+001, 0., 0., 0., 0., 0., 0., 0., 0., 0., 0., 0.,
          0., 0., 0., 0., 0., 0., 0., 0., 0., 0., 0., 0., 0., 0., 0., 0.,
          0., 0., 0., 0., 0., 0., 0., 0., 0., 0., 0., 0., 0., 0., 0., 0.,
          0., 0., 0., 0., 0., 0., 0., 0., 0., 0., 0., 0., 0., 0., 0., 0.,
          0., 5.38409758e+000, 1.61590242e+000, 0., 0., 0.,
          6.52465725e+000, 2.47534251e+000, 0., 0., 0., 0., 0., 0., 0.,
          0., 0., 0., 0., 0., 0., 1.19685793e+001, 4.61720705e+000,
          1.65685427e+000, 1.75735927e+000, 0., 3.02033939e+001,
          1.02402573e+001, 1.24264069e+001, 1.76075344e+001,
          5.22407770e-001, 4.21378517e+001, 1.36195087e+001,
          4.14213562e+000, 1.56831064e+001, 3.41739845e+000, 0., 0., 0.,
          0., 0., 9.73635578e+000, 3.43521762e+000, 2.48528147e+000,
          3.34314585e+000, 0., 0., 5.85786462e-001, 1.78111839e+001,
          6.63418274e+001, 2.61203885e-001, 1.61203873e+000,
          1.90031853e+001, 1.78111839e+001, 4.85370331e+001,
          5.50365601e+001, 0., 0., 0., 5.69217682e+000, 2.53078232e+001,
          1.53078632e+001, 4.86370945e+000, 8.28427136e-001, 0., 0.,
          4.82634640e+000, 9.27415848e+000, 1.86396103e+001,
          2.82598839e+001, 0., 0., 4.68629169e+000, 3.14802303e+001,
          8.23124237e+001, 4.52105761e+000, 1.13267775e+001,
          3.88742332e+001, 1.78111839e+001, 8.94932556e+001,
          4.44945526e+001, 1.09480371e+001, 2.05196285e+000, 0., 0., 0.,
          3.46226425e+001, 1.93062916e+001, 2.07106781e+000, 0., 0.,
          4.13551826e+001, 1.31595364e+001, 2.89949489e+000,
          5.85786462e-001, 0., 3.88255424e+001, 1.27602425e+001,
          2.07106781e+000, 1.75224075e+001, 4.82073784e+000, 0., 0., 0.,
          0., 0., 0., 0., 0., 0., 0., 0., 0., 0., 0., 0., 0., 0., 0., 0.,
          0., 0., 0., 0., 0., 0., 0., 0., 0., 0., 0., 0., 0., 0., 0., 0.,
          0., 0., 0., 0., 0., 0., 0., 0., 0., 0., 0., 0., 0., 0., 0., 0.,
          0., 0., 0., 0., 0., 0., 0., 0., 0., 7.75775337e+000,
          2.24224639e+000, 0., 0., 0., 4.12637043e+000, 1.87362969e+000,
          0., 0., 0., 0., 0., 0., 0., 0., 0., 0., 0., 0., 0.,
          1.68596897e+001, 3.14031076e+000, 1.24264073e+000,
          1.75735927e+000, 0., 1.50783453e+001, 1.20221596e+001,
          1.61543293e+001, 3.32227592e+001, 5.22407770e-001,
          5.22407770e-001, 6.16388369e+000, 6.62741709e+000,
          2.03611832e+001, 4.43251076e+001, 0., 0., 0., 4.85281378e-001,
          5.14718652e-001 ]
      - [ 0., 1.19516401e+001, 0., 0., 0., 0., 0., 0., 0.,
          5.74648523e+000, 9., 5., 1.88284264e+001, 1.11715727e+001,
          1.18284273e+001, 4.17157269e+000, 0., 0., 2., 4.17157269e+000,
          5.56841278e+001, 7.93158722e+001, 9.82842731e+000, 0., 1., 0.,
          2., 3.13073564e+000, 6.82168350e+001, 5.85285301e+001,
          5.12389946e+000, 1., 0., 8.47185612e+000, 0., 0., 0., 0., 0.,
          0., 0., 1.98991528e+001, 1.55315361e+001, 4., 13.,
          1.03431454e+001, 5.07106781e+000, 5.32458258e+000, 0.,
          7.92893219e+000, 1.32426405e+001, 8., 4.44667168e+001,
          4.34622154e+001, 1.24852810e+001, 4.58578634e+000, 0.,
          3.57391381e+000, 5.85590410e+000, 1.21087837e+001,
          5.18553810e+001, 6.17802582e+001, 4.82649803e+001,
          2.17929096e+001, 0., 0., 0., 0., 0., 0., 0., 0., 0.,
          1.22668362e+001, 6.61440039e+000, 0., 0., 0., 0., 0., 0.,
          1.06424770e+001, 1., 0., 0., 0., 2.63782477e+000,
          7.80268955e+000, 0., 1.36391029e+001, 1.24627342e+001,
          7.67372668e-001, 6.66923463e-001, 2.54085851e+000,
          8.69344521e+000, 1.25272045e+001, 0., 0., 0., 0., 0., 0., 0.,
          0., 0., 0., 0., 0., 0., 0., 0., 0., 0., 0., 0., 0., 0., 0., 0.,
          0., 0., 0., 0., 0., 0., 0., 0., 0., 0., 0., 0., 0., 0., 0., 0.,
          0., 0., 0., 0., 0., 0., 0., 0., 0., 0., 0., 0., 0., 0., 0., 0.,
          0., 0., 0., 0., 0., 0., 0., 0., 0., 0., 0., 0., 0., 0., 0., 0.,
          0., 0., 0., 0., 0., 0., 0., 0., 0., 0., 0., 0., 0., 0., 0., 0.,
          0., 0., 0., 0., 0., 0., 0., 0., 0., 0., 0., 0., 0., 0., 0., 0.,
          0., 0., 0., 0., 0., 0., 0., 0., 0., 0., 0., 0., 0., 0., 0., 0.,
          0., 0., 0., 0., 0., 0., 0., 0., 0., 0., 5.55825472e+000, 0.,
          0., 0., 0., 0., 0., 0., 2.62031078e+001, 1.49825735e+001,
          2.54022765e+000, 6., 2., 12., 8.61578658e-002, 0.,
          4.07165575e+000, 3.01719875e+001, 1.44157915e+001,
          1.04158382e+001, 9.07773685e+000, 1.53245821e+001,
          2.45194745e+000, 4.14213568e-001, 5.85786462e-001,
          5.89984798e+000, 2.06549358e+001, 9.44521713e+000,
          1.58578646e+000, 1., 4.14213568e-001, 1.53302450e+001,
          4.25554132e+000, 4.14213568e-001, 0., 0., 5.85786462e-001,
          1.29583693e+001, 1.73969688e+001, 1.80588741e+001, 0., 0.,
          4.10050488e+000, 3.76934357e+001, 8.22060623e+001, 0.,
          1.03712642e+000, 1.04065247e+001, 1.49116879e+001,
          3.67607727e+001, 5.58838882e+001, 1.11931162e+001,
          2.80688429e+000, 0., 0., 0., 1.62144127e+001, 2.19155293e+001,
          1.44974747e+001, 1.73725834e+001, 0., 5.22407770e-001,
          2.16075344e+001, 2.94091625e+001, 5.39384880e+001,
          5.22407770e-001, 1.51861916e+001, 1.52574596e+001,
          2.52670269e+001, 9.08292465e+001, 4.44600754e+001, 0., 0., 0.,
          0., 0., 1.71725445e+001, 9.82745647e+000, 0., 0., 0.,
          1.33625927e+001, 6.98055363e+000, 1.65685427e+000,
          2.83082461e+000, 1.11691751e+001, 2.50287933e+001,
          7.55699348e+000, 2.48528147e+000, 1.52301207e+001,
          1.56988115e+001, 0., 0., 0., 0., 0., 0., 0., 0., 0., 0., 0.,
          0., 0., 0., 0., 0., 0., 0., 0., 0., 0., 0., 0., 0., 0., 0., 0.,
          0., 0., 0., 0., 0., 0., 0., 0., 0., 0., 0., 0., 0., 0., 0., 0.,
          0., 0., 0., 0., 0., 0., 0., 0., 0., 0., 0., 0., 0., 0., 0., 0.,
          0., 0., 0., 0., 0., 0., 0., 0., 0., 0., 0., 0., 0., 0., 0., 0.,
          0., 0., 0., 0., 0., 6.04005051e+000, 1.95994925e+000, 0., 0.,
          0., 3.60468063e+001, 1.08821268e+001, 7.45584393e+000,
          9.61522388e+000, 0., 4.11348953e+001, 8.03667641e+000,
          9.11269855e+000, 2.00031853e+001, 1.71254385e+000,
          2.38428726e+001, 7.32869959e+000, 1.24264073e+000,
          2.32458258e+000, 2.61203885e-001, 1.97646942e+001,
          3.23530602e+000, 0., 0., 0., 1.33602571e+000, 9.27919769e+000,
          1.86396103e+001, 2.17451668e+001, 0., 0., 1.75735927e+000,
          1.86396103e+001, 1.13830292e+002, 8.77273750e+000,
          2.61203885e-001, 1.73879611e+000, 3.31370854e+000,
          3.79016876e+001, 8.87846069e+001, 1.44069033e+001,
          2.59309626e+000, 0., 0., 0., 1.75109520e+001, 1.84474182e+001,
          1.61543293e+001, 1.93648930e+001, 5.22407770e-001,
          5.22407770e-001, 1.58501749e+001, 2.36101723e+001,
          7.52259445e+001, 5.79130077e+000, 1.31311131e+001,
          3.24841118e+001, 1.98822517e+001, 8.73301773e+001,
          3.61723442e+001, 0., 0., 0., 0., 0., 2.66097641e+001,
          7.39023638e+000, 0., 0., 0., 3.76111259e+001, 1.14893780e+001,
          2.89949489e+000, 0., 0., 4.00712585e+001, 1.42008209e+001,
          5.79898977e+000, 3.77551556e+000, 1.15341651e+000, 0., 0., 0.,
          0., 0., 0., 0., 0., 0., 0., 0., 0., 0., 0., 0., 0., 0., 0., 0.,
          0., 0., 0., 0., 0., 0., 0., 0., 0., 0., 0., 0., 0., 0., 0., 0.,
          0., 0., 0., 0., 0., 0., 0., 0., 0., 0., 0., 0., 0., 0., 0., 0.,
          0., 0., 0., 0., 0., 0., 0., 0., 0., 0., 0., 0., 0., 0., 0., 0.,
          0., 0., 0., 0., 0., 0., 0., 0., 0., 0., 0., 0., 0.,
          7.38363695e+000, 1.61636293e+000, 0., 0., 0., 3.24085007e+001,
          8.17728519e+000, 4.97056293e+000, 7.34314585e+000,
          1.10050511e+000, 4.77481651e+000, 7.73990202e+000,
          6.21320343e+000, 2.35599079e+001, 2.07121696e+001, 0.,
          1.58578646e+000, 1.24264073e+000, 8.98313808e+000,
          2.61884346e+001 ]
      - [ 1.68130291e+000, 3.31869698e+000, 6., 0., 9.41421318e+000,
          4.58578634e+000, 3., 0., 0., 0., 3., 4.58578634e+000,
          3.50710678e+001, 2.69289322e+001, 1.44142132e+001, 0., 0., 2.,
          0., 4.55017996e+000, 8.56288223e+001, 2.94067841e+001,
          1.08284273e+001, 1.58578646e+000, 0., 0., 1., 2.38026138e-002,
          2.06619282e+001, 2.31426859e+000, 0., 0., 0., 3.97177339e-001,
          0., 0., 8., 1., 2., 3.20377231e-001, 0., 2.49542379e+000, 2.,
          1., 2.42426414e+001, 1.73431454e+001, 2.24142132e+001,
          5.72196484e+000, 0., 0., 2., 9., 4.50710678e+001,
          3.06862907e+001, 2.40710678e+001, 5.51471853e+000, 0., 1.,
          3.12682104e+000, 1.83478622e+001, 7.43835678e+001,
          5.26193390e+001, 2.43693981e+001, 1.06306019e+001, 0.,
          4.09070587e+000, 0., 0., 0., 0., 0., 0., 0., 3.74381137e+000,
          0., 0., 0., 0., 0., 3.57854390e+000, 0., 1.73823128e+001,
          9.11252975e+000, 0., 0., 0., 3.10869026e+000, 1.65479717e+001,
          0., 1.47104578e+001, 1.71284580e+000, 0., 0., 0.,
          2.12362930e-001, 1.54737129e+001, 0., 1.05426498e-001, 0., 0.,
          0., 0., 0., 0., 0., 0., 0., 0., 0., 0., 0., 0., 0., 0., 0., 0.,
          0., 0., 0., 0., 0., 0., 0., 0., 0., 0., 0., 0., 0.,
          3.93856287e-001, 0., 0., 0., 0., 0., 0., 0., 0., 0., 0., 0.,
          0., 0., 0., 0., 0., 0., 0., 0., 0., 0., 0., 0., 0., 0., 0., 0.,
          0., 0., 0., 0., 8.64762068e-001, 0., 0., 0., 0., 0., 0., 0.,
          0., 0., 0., 0., 0., 0., 0., 0., 0., 0., 0., 0., 0., 0., 0., 0.,
          0., 0., 0., 0., 0., 0., 0., 3.30246520e+000, 1.26288404e+001,
          8.06869411e+000, 0., 0., 0., 0., 0., 0., 0., 1., 0., 0., 0.,
          0., 0., 0., 0., 0., 0., 0., 0., 0., 0., 0., 0., 0., 0., 0., 0.,
          0., 0., 0., 1.58751595e+000, 8.58850861e+000, 2.11773372e+000,
          3., 2.58578634e+000, 2.41421366e+000, 8.61578658e-002, 0.,
          4.96444559e+000, 3.19457684e+001, 1.26755724e+001,
          1.41421354e+000, 8., 8.67541790e+000, 2.32458258e+000, 0., 0.,
          9.23496342e+000, 1.27400150e+001, 7.02502108e+000, 0., 0., 0.,
          0., 0., 0., 0., 0., 0., 0., 0., 1.74576783e+000,
          5.52630997e+000, 7.45584393e+000, 5.27207804e+000, 0., 0.,
          4.68629169e+000, 1.98822517e+001, 2.64314575e+001, 0.,
          6.88035440e+000, 8.97750950e+000, 2.19533195e+001,
          4.45818176e+001, 5.60700035e+000, 5.14718652e-001,
          1.07106781e+000, 1.65685427e+000, 3.34222603e+000,
          4.41513348e+000, 5.85786462e-001, 1., 2.07106781e+000,
          2.34314585e+000, 0., 0., 4.51471853e+000, 2.07106781e+001,
          3.05133991e+001, 2.61203885e-001, 0., 6.44365072e+000,
          3.14802303e+001, 4.40761185e+001, 0., 1.28402615e+001,
          1.07749615e+001, 3.60365791e+001, 7.82137527e+001,
          3.13444638e+000, 8.89080620e+000, 4.69498062e+000,
          4.14213568e-001, 0., 0., 6.96455765e+000, 3.20701528e+000,
          2.48528147e+000, 4.70924234e+000, 6.63390303e+000,
          2.49873238e+001, 8.59846306e+000, 1.65685427e+000,
          1.34300842e+001, 1.23272753e+001, 1.88260250e+001,
          6.34554720e+000, 3.72792196e+000, 1.15957537e+001,
          1.15047512e+001, 5.14718652e-001, 4.85281378e-001, 0., 0., 0.,
          0., 0., 0., 0., 0., 0., 0., 0., 0., 0., 0., 0., 0., 0., 0.,
          8.41352940e-001, 1.58647031e-001, 0., 0., 0., 0., 0., 0., 0.,
          0., 0., 0., 0., 0., 0., 0., 0., 0., 0., 0., 1.34664428e+000,
          6.53355718e-001, 0., 0., 0., 0., 0., 0., 0., 0., 0., 0., 0.,
          0., 0., 0., 0., 0., 0., 0., 2.05863094e+001, 3.41369152e+000,
          0., 0., 0., 8.76100659e-001, 1.23899341e-001, 0., 0., 0., 0.,
          0., 0., 0., 0., 0., 0., 0., 0., 0., 9.97307682e+000,
          3.61270952e+000, 1.65685427e+000, 4.75735950e+000, 0.,
          3.89026527e+001, 9.44049168e+000, 7.04163074e+000,
          1.30928164e+001, 5.22407770e-001, 2.09824696e+001,
          5.01753139e+000, 0., 0., 0., 0., 0., 0., 0., 0.,
          2.51516390e+000, 1.65640903e+000, 4.97056293e+000,
          9.59666061e+000, 2.61203885e-001, 0., 5.85786462e-001,
          1.98822517e+001, 4.75319633e+001, 0., 5.22407770e-001,
          5.23495150e+000, 1.11837664e+001, 5.06545715e+001,
          5.94043007e+001, 0., 0., 0., 2.51066923e+000, 2.04893303e+001,
          6.00265837e+000, 6.34048748e+000, 4.97056293e+000,
          5.68629169e+000, 0., 4.23842955e+000, 7.61943483e+000,
          1.94680367e+001, 2.76740990e+001, 0., 5.22407770e-001,
          1.43354568e+001, 2.60954552e+001, 6.19570503e+001,
          2.08963108e+000, 1.82842708e+000, 2.02010098e+001,
          2.98233757e+001, 9.34375534e+001, 3.37096367e+001,
          2.27959957e+001, 2.20400500e+000, 0., 0., 0., 3.14292183e+001,
          3.57078242e+000, 0., 0., 0., 4.30808563e+001, 2.00196476e+001,
          2.89949489e+000, 0., 0., 4.27133713e+001, 1.62866268e+001, 0.,
          0., 0., 2.70355868e+000, 2.96441406e-001, 0., 0., 0., 0., 0.,
          0., 0., 0., 0., 0., 0., 0., 0., 0., 0., 0., 0., 0.,
          2.29505730e+000, 7.04942584e-001, 0., 0., 0., 0., 0., 0., 0.,
          0., 0., 0., 0., 0., 0., 0., 0., 0., 0., 0., 3.13913393e+000,
          8.60866010e-001, 0., 0., 0., 0., 0., 0., 0., 0., 0., 0., 0.,
          0., 0., 0., 0., 0., 0., 0., 1.61762676e+001, 2.82373142e+000,
          0., 0., 0., 0., 0., 0., 0., 0., 0., 0., 0., 0., 0., 0., 0., 0.,
          0., 0., 3.81078005e+000, 2.94657922e+000, 5.38477612e+000,
          1.05966606e+001, 2.61203885e-001, 7.18097258e+000,
          6.16217327e+000, 7.87005758e+000, 1.32466822e+001,
          1.55401144e+001, 0., 5.85786462e-001, 8.28427136e-001,
          5.92170238e+000, 1.96640835e+001, 0., 0., 0., 0., 0. ]
      - [ 0., 1.67461529e+001, 1.96321750e+000, 2.22048116e+000, 3., 0.,
          0., 0., 4.14213568e-001, 4.29812765e+000, 1.88248367e+001,
          4.09064713e+001, 2.55563488e+001, 1., 0., 0., 4.14213568e-001,
          2.58578634e+000, 6., 2.76600609e+001, 7.46380005e+001,
          3.75164108e+001, 7.01395273e+000, 2.17157292e+000, 0., 0., 0.,
          2.94510341e+000, 4.54338303e+001, 3.51757736e+001,
          1.44529247e+000, 0., 0., 1.73697262e+001, 5.28697872e+000, 1.,
          4.14213568e-001, 0., 0., 0., 3.73772311e+000, 2.45615268e+000,
          9.07106781e+000, 2.14436512e+001, 2.83137093e+001,
          6.58578634e+000, 9.66277027e+000, 5.72914028e+000, 0.,
          4.49210930e+000, 3.17679811e+000, 7.60158205e+000,
          4.20519829e+001, 3.09947090e+001, 3.49302902e+001,
          2.49585152e+001, 0., 8.25772858e+000, 1.17646570e+001,
          2.35342751e+001, 4.18701973e+001, 2.81065445e+001,
          4.69157410e+001, 3.95051346e+001, 0., 8.30756664e+000,
          1.08615792e+000, 0., 0., 0., 0., 0., 0., 1.60607204e+001,
          9.19938374e+000, 1.36130214e+000, 1., 0., 5.55535889e+000,
          1.39337988e+001, 0., 2.20888939e+001, 2.00472317e+001,
          1.15899029e+001, 7.51922846e+000, 5.62913609e+000,
          1.14312897e+001, 1.42933769e+001, 0., 7.33151770e+000,
          1.12306681e+001, 1.45294275e+001, 1.55286045e+001,
          1.32736397e+001, 1.19445047e+001, 1.00328379e+001, 0., 0., 0.,
          0., 0., 0., 0., 0., 0., 0., 0., 0., 0., 0., 0., 0., 0., 0., 0.,
          0., 0., 0., 0., 0., 0., 0., 0., 0., 0., 0., 0., 0., 0., 0., 0.,
          0., 0., 0., 0., 0., 0., 0., 0., 0., 0., 0., 0., 0., 0., 0., 0.,
          0., 0., 0., 0., 0., 0., 0., 0., 0., 0., 0., 0., 0., 0., 0., 0.,
          0., 0., 0., 0., 0., 0., 0., 0., 0., 0., 0., 0., 0., 0., 0., 0.,
          0., 0., 0., 0., 0., 0., 0., 0., 0., 0., 0., 0., 0., 0., 0., 0.,
          0., 0., 0., 0., 0., 0., 0., 0., 0., 0., 0., 0., 0., 0., 0., 0.,
          0., 0., 0., 0., 0., 0., 0., 0., 0., 0., 0., 0., 0., 0.,
          5.39634180e+000, 2.33585954e+000, 0., 0., 0., 0., 0.,
          9.58799720e-001, 1.90986576e+001, 2.52513351e+001,
          2.69120693e+000, 3., 2.17157292e+000, 1.82842708e+000, 0., 0.,
          2.46317685e-002, 3.02455692e+001, 1.49243259e+001,
          2.21968651e+000, 4., 3.58578634e+000, 1., 0., 0.,
          1.30320513e+000, 7.08928108e+000, 4.60751390e+000, 0., 0., 0.,
          1.66661949e+001, 6.67695093e+000, 1.65685427e+000, 0., 0.,
          1.73182738e+000, 5.00427742e+001, 1.86396103e+001,
          5.85786462e-001, 0., 1.45902908e+000, 3.11145649e+001,
          3.10660172e+001, 4.04922180e+001, 4.86817169e+000,
          4.59128666e+000, 2.58028603e+000, 4.14213562e+000,
          1.71891727e+001, 3.94971199e+001, 1.67395267e+001,
          7.01783323e+000, 1.24264073e+000, 0., 0., 8.99901807e-001,
          2.57447586e+001, 1.57401152e+001, 1.51897736e+001,
          4.42544985e+000, 2.88546610e+000, 1.31439714e+001,
          1.69827557e+001, 5.05231400e+001, 3.94646683e+001,
          3.03477745e+001, 2.20248089e+001, 1.40832615e+001,
          8.14810791e+001, 3.80630760e+001, 8.49622440e+000,
          2.50377584e+000, 0., 0., 0., 2.21892147e+001, 5.98235703e+000,
          8.28427136e-001, 2.77414966e+000, 1.82258511e+001,
          4.78253822e+001, 1.23461905e+001, 2.48528147e+000,
          1.30848055e+001, 2.22583408e+001, 2.13130207e+001,
          2.57164154e+001, 1.03553391e+001, 3.16409664e+001,
          1.19742575e+001, 0., 0., 0., 0., 0., 0., 0., 0., 0., 0., 0.,
          0., 0., 0., 0., 0., 0., 0., 0., 0., 0., 0., 0., 0., 0., 0., 0.,
          0., 0., 0., 0., 0., 0., 0., 0., 0., 0., 0., 0., 0., 0., 0., 0.,
          0., 0., 0., 0., 0., 0., 0., 0., 0., 0., 0., 0., 0., 0., 0., 0.,
          0., 0., 0., 0., 0., 0., 0., 0., 0., 0., 0., 0., 0., 0., 0., 0.,
          0., 0., 0., 0., 0., 6.27751493e+000, 1.72248495e+000, 0., 0.,
          0., 3.40845451e+001, 1.22586021e+001, 2.48528147e+000,
          3.17157292e+000, 0., 3.58517532e+001, 9.31981850e+000,
          2.07106781e+000, 6.29833031e+000, 1.45902908e+000,
          8.32395172e+000, 2.67604876e+000, 0., 0., 0., 1.67696457e+001,
          4.23035431e+000, 8.28427136e-001, 4.64916515e+000,
          5.22407770e-001, 1.23552072e+000, 3.10762501e+000,
          2.11248913e+001, 5.22707596e+001, 2.61203885e-001, 0.,
          4.51471853e+000, 1.94680367e+001, 1.06484962e+002,
          1.95322857e+001, 0., 0., 0., 1.19342279e+001, 7.20657730e+001,
          1.50780315e+001, 6.67932749e+000, 1.65685427e+000,
          1.58578646e+000, 0., 6.93749666e+000, 4.81986284e+000,
          1.73969688e+001, 4.10620613e+001, 7.83611596e-001,
          1.59407129e+001, 3.17455788e+001, 1.28406200e+001,
          7.54286423e+001, 1.10444431e+001, 2.20604286e+001,
          4.66553001e+001, 1.86396103e+001, 6.15168190e+001,
          3.61278419e+001, 8.89632130e+000, 2.10367846e+000, 0., 0., 0.,
          4.01954651e+001, 9.39032173e+000, 1.24264073e+000,
          2.17157292e+000, 0., 5.06290550e+001, 1.71283035e+001,
          2.48528147e+000, 9.91732121e+000, 1.68400383e+001,
          3.61812592e+001, 1.33334599e+001, 7.87005758e+000,
          2.75606194e+001, 1.50546045e+001, 0., 0., 0., 0., 0., 0., 0.,
          0., 0., 0., 0., 0., 0., 0., 0., 0., 0., 0., 0., 0., 0., 0., 0.,
          0., 0., 0., 0., 0., 0., 0., 0., 0., 0., 0., 0., 0., 0., 0., 0.,
          0., 0., 0., 0., 0., 0., 0., 0., 0., 0., 0., 0., 0., 0., 0., 0.,
          0., 0., 0., 0., 0., 0., 0., 0., 0., 0., 0., 0., 0., 0., 0., 0.,
          0., 0., 0., 0., 0., 0., 0., 0., 0., 6.26217508e+000,
          1.73782480e+000, 0., 0., 0., 2.10559864e+001, 1.01155853e+001,
          5.38477612e+000, 6.44365072e+000, 0., 0., 2.34314585e+000,
          4.55634928e+000, 1.46979542e+001, 2.04025517e+001, 0., 0., 0.,
          2.60889411e+000, 9.39110565e+000 ]
      - [ 0., 1.54315233e+000, 4.56847668e-001, 5.85786462e-001,
          5.65685415e+000, 1.07573595e+001, 9., 1., 0., 3.17157292e+000,
          2., 2.58578634e+000, 2.40710678e+001, 2.62720776e+001,
          2.24852810e+001, 3.17157292e+000, 0., 6., 12., 5.72560740e+000,
          3.87007751e+001, 4.23124123e+001, 1.32612038e+001, 1., 0., 0.,
          0., 6.74714518e+000, 7.14089661e+001, 3.49777260e+001,
          3.28037453e+000, 5.85786462e-001, 0., 0., 1., 5.85786462e-001,
          8.24264050e+000, 1.03431454e+001, 8.82842731e+000, 0., 0.,
          3.58578634e+000, 1.70710678e+001, 9.10050488e+000,
          9.42190266e+000, 2.77234173e+001, 1.22688932e+001,
          1.41421354e+000, 0., 1., 3., 4., 2.65038452e+001,
          4.47234192e+001, 4.10351791e+001, 8.12129879e+000, 0., 0., 0.,
          4.14694738e+000, 3.92312431e+001, 7.07552338e+001,
          3.59115944e+001, 2.66245365e+001, 0., 6.07382870e+000,
          2.28457999e+000, 0., 5., 2.58578634e+000, 3.41421366e+000,
          2.43464088e+000, 0., 7.63830090e+000, 2., 7., 7.,
          7.75735950e+000, 1.10710678e+001, 1.28890743e+001, 0., 1., 1.,
          0., 0., 1., 4.44156408e+000, 3.32504044e+001, 0., 0., 0., 0.,
          0., 0., 0., 2.34187508e+000, 0., 1.44689264e+001,
          1.48531109e-001, 0., 0., 0., 0., 0., 0., 8.48885536e-001, 0.,
          0., 0., 0., 0., 0., 0., 0., 0., 0., 0., 0., 0., 0., 0., 0., 0.,
          0., 0., 0., 0., 0., 0., 4.41223574e+000, 1.63117969e+000, 0.,
          0., 0., 0., 0., 0., 0., 0., 0., 0., 0., 0., 0., 0., 0., 0., 0.,
          0., 0., 0., 0., 0., 0., 0., 0., 0., 0., 0., 0., 0.,
          3.04664087e+000, 9.53359008e-001, 0., 0., 0., 0., 0., 0., 0.,
          0., 0., 0., 0., 0., 0., 0., 0., 0., 0., 0., 0., 0., 0., 0., 0.,
          0., 0., 0., 0., 0., 0., 1.23899341e-001, 8.49224472e+000,
          6.38385582e+000, 0., 0., 0., 0., 0., 0., 2.74154925e+000,
          2.62922549e+000, 0., 0., 0., 0., 0., 0., 0., 0., 0., 0., 0.,
          0., 0., 0., 0., 0., 0., 0., 0., 0., 0., 0., 1.29923887e+001,
          7.11579466e+000, 8.91816497e-001, 4.41421366e+000,
          3.17157292e+000, 1.41421354e+000, 0., 0., 1.49864321e+001,
          1.93344479e+001, 3.32367492e+000, 1.10710678e+001,
          1.52493095e+001, 1.73592453e+001, 2.32037735e+000, 0., 0.,
          2.54208908e+001, 2.41646633e+001, 1.34366055e+001,
          9.39205456e+000, 1.81715736e+001, 2., 0., 0., 0.,
          2.69377422e+000, 6.30622578e+000, 0., 0., 0., 1.49096322e+000,
          1.09482324e+000, 9.11269855e+000, 1.33015156e+001, 0., 0.,
          5.68629169e+000, 1.90538235e+001, 3.77374763e+001,
          5.22407770e-001, 2.14528227e+000, 1.49135923e+001,
          3.18944435e+001, 4.62630692e+001, 7.83611596e-001,
          1.24139824e+001, 4.17180395e+000, 4.14213562e+000,
          3.17637596e+001, 3.75083160e+001, 0., 1.17157292e+000,
          4.14213562e+000, 1.61638832e+001, 5.22407770e-001, 0.,
          2.27157288e+001, 1.57401152e+001, 3.44545250e+001,
          2.08963108e+000, 0., 4.68629169e+000, 2.73380947e+001,
          6.69160538e+001, 6.05955648e+000, 4.61464500e+000,
          1.97114122e+000, 2.77523079e+001, 1.05584488e+002,
          3.10774155e+001, 3.59470201e+000, 5.74844360e+000,
          5.38477612e+000, 8.27207756e+000, 0., 1.24020834e+001,
          1.16273537e+001, 9.11269855e+000, 2.40438499e+001,
          8.81401443e+000, 0., 1.17157292e+000, 2.89949489e+000,
          1.35972519e+001, 3.33316803e+001, 0., 0., 0., 1.07598925e+000,
          1.92401075e+000, 1.66122837e+001, 3.38771629e+000, 0., 0., 0.,
          1.33602571e+000, 6.63974226e-001, 0., 0., 0., 0., 0., 0., 0.,
          0., 0., 0., 0., 0., 0., 5.76069784e+000, 1.23930216e+000, 0.,
          0., 0., 0., 0., 0., 0., 0., 0., 0., 0., 0., 0., 0., 0., 0., 0.,
          0., 3.30769038e+000, 6.92309618e-001, 0., 0., 0., 0., 0., 0.,
          0., 0., 0., 0., 0., 0., 0., 0., 0., 0., 0., 0.,
          1.23978281e+001, 2.60217190e+000, 0., 0., 0., 4.13928270e+000,
          1.86071742e+000, 0., 0., 0., 0., 0., 0., 0., 0., 0., 0., 0.,
          0., 0., 1.76834927e+001, 3.31650710e+000, 1.65685427e+000,
          3.34314585e+000, 0., 3.19655876e+001, 6.96334410e+000,
          9.52691174e+000, 2.67342911e+001, 2.80986404e+000,
          4.67914276e+001, 9.79435921e+000, 5.79898977e+000,
          2.40031853e+001, 2.61203885e+000, 4.02729845e+000,
          1.97270155e+000, 0., 0., 0., 1.35607159e+000, 1.22971487e+000,
          4.97056293e+000, 1.21824465e+001, 2.61203885e-001, 0.,
          7.68629169e+000, 2.02964649e+001, 3.90172424e+001, 0., 0.,
          9.37258339e+000, 2.23675327e+001, 6.19378128e+001,
          9.32207012e+000, 0., 1.17157292e+000, 1.24264073e+000,
          2.53521805e+001, 8.82336044e+001, 0., 0., 5.38477612e+000,
          1.63540192e+001, 2.61203885e-001, 0., 6.85786438e+000,
          1.82253971e+001, 3.81331291e+001, 7.83611596e-001,
          4.42086554e+000, 1.00227852e+001, 3.27228699e+001,
          5.43110695e+001, 5.22407770e-001, 3.48296852e+001,
          9.51346111e+000, 2.36101723e+001, 8.75984421e+001,
          1.54482422e+001, 7.17905474e+000, 7.50723648e+000,
          4.97056293e+000, 6.34314585e+000, 0., 3.77780609e+001,
          1.01508732e+001, 1.20121937e+001, 1.50588741e+001, 0.,
          3.86929016e+001, 9.47867107e+000, 1.24264073e+000,
          5.85786462e-001, 0., 2.74694633e+000, 1.25305367e+000, 0., 0.,
          0., 2.02078819e+001, 2.79211879e+000, 0., 0., 0.,
          3.12596846e+000, 8.74031425e-001, 0., 0., 0., 0., 0., 0., 0.,
          0., 0., 0., 0., 0., 0., 5.99421692e+000, 1.00578308e+000, 0.,
          0., 0., 0., 0., 0., 0., 0., 0., 0., 0., 0., 0., 0., 0., 0., 0.,
          0., 3.01634979e+000, 9.83650148e-001, 0., 0., 0., 0., 0., 0.,
          0., 0., 0., 0., 0., 0., 0., 0., 0., 0., 0., 0.,
          9.68548298e+000, 2.31451726e+000, 0., 0., 0., 3.29792953e+000,
          1.70207036e+000, 0., 0., 0., 0., 0., 0., 0., 0., 0., 0., 0.,
          0., 0., 1.46528482e+001, 3.34715223e+000, 2.89949489e+000,
          8.10050488e+000, 0., 1.78284874e+001, 1.46862316e+001,
          1.24264069e+001, 2.27908783e+001, 2.26799560e+000, 0.,
          2.75735927e+000, 6.62741709e+000, 1.99497128e+001,
          3.56655121e+001, 0., 0., 0., 1.62625682e+000, 7.37374306e+000 ]
      - [ 0., 1.82006514e+000, 0., 1., 1.28284273e+001, 5.17157269e+000,
          4., 2., 8.28427136e-001, 2.58578634e+000, 0., 3.,
          2.44142132e+001, 3.79289322e+001, 1.70710678e+001,
          2.17157292e+000, 0., 10., 13., 3., 3.61554375e+001,
          3.86019211e+001, 1.62426414e+001, 4., 0., 0., 0.,
          4.38149261e+000, 8.33013840e+001, 3.53571281e+001,
          5.95999718e+000, 0., 0., 0., 0., 0., 5.07106781e+000,
          1.31005049e+001, 7.82842731e+000, 3., 0., 3.17157292e+000,
          1.02426405e+001, 1.17573595e+001, 1.56568546e+001,
          2.31453209e+001, 1.70262527e+001, 1.58578646e+000, 0., 0., 4.,
          0., 2.64852810e+001, 4.53354568e+001, 3.18083820e+001,
          8.10732651e+000, 0., 0., 0., 7.16753542e-001, 3.13861389e+001,
          8.55942764e+001, 2.77327557e+001, 3.00437031e+001, 0.,
          5.71949482e+000, 8.17317605e-001, 2., 4.82842731e+000,
          5.34314585e+000, 1.82842708e+000, 1.19074357e+000, 0.,
          4.83845997e+000, 5., 1., 0., 6.47759247e+000, 1.19366217e+001,
          1.00833797e+001, 0., 0., 0., 0., 0., 1., 3.12540531e+000,
          2.72155952e+001, 0., 0., 0., 0., 0., 0., 0., 1.69350934e+000,
          0., 1.31130810e+001, 4.77827668e-001, 0., 0., 0., 0., 0., 0.,
          0., 0., 0., 0., 0., 0., 0., 0., 0., 0., 0., 0., 0., 0., 0., 0.,
          0., 0., 0., 0., 0., 0., 0., 0., 2.86494184e+000, 1., 0., 0.,
          0., 0., 0., 0., 0., 0., 0., 0., 0., 0., 0., 0., 0., 0., 0., 0.,
          0., 0., 0., 0., 0., 0., 0., 0., 0., 0., 0., 0.,
          2.73695493e+000, 1., 0., 0., 0., 0., 0., 0., 0., 0., 0., 0.,
          0., 0., 0., 0., 0., 0., 0., 0., 0., 0., 0., 0., 0., 0., 0., 0.,
          0., 0., 0., 0., 6.76094007e+000, 6.61744452e+000, 0., 0., 0.,
          0., 0., 0., 6.38697922e-001, 3.36130214e+000, 0., 0., 0., 0.,
          0., 0., 0., 0., 0., 0., 0., 0., 0., 0., 0., 0., 0., 0., 0., 0.,
          0., 2.48988819e+000, 1.12589979e+001, 7.58709574e+000,
          9.88600433e-001, 1.41421354e+000, 3.58578634e+000,
          1.41421354e+000, 2.61203885e-001, 2.77079272e+000,
          1.32568769e+001, 2.43734512e+001, 7.03165579e+000,
          1.70710678e+001, 9.92893219e+000, 9.65685463e+000,
          2.91036892e+000, 0., 1.35316804e-001, 3.02772350e+001,
          2.04785519e+001, 1.11088953e+001, 1.03431454e+001,
          1.18774481e+001, 8.36519241e+000, 0., 0., 0., 5.40771580e+000,
          1.05922842e+001, 0., 0., 0., 8.49778891e-001, 1.90758038e+000,
          4.97056293e+000, 8.27207756e+000, 0., 0., 3.51471853e+000,
          2.02964649e+001, 3.99276123e+001, 2.61203885e-001, 0.,
          1.58162336e+001, 3.39655113e+001, 4.62182541e+001, 0.,
          8.42652893e+000, 3.57347083e+000, 7.04163074e+000,
          4.56084137e+001, 3.43499565e+001, 0., 0., 7.87005758e+000,
          1.81299419e+001, 0., 0., 1.68873024e+001, 1.73969688e+001,
          3.21036911e+001, 2.61203885e+000, 0., 2.75735927e+000,
          2.73380947e+001, 5.68317032e+001, 7.07284260e+000,
          1.94847250e+000, 1.05152750e+000, 3.18944435e+001,
          1.10113274e+002, 3.09922791e+001, 6.61108303e+000,
          5.14627600e+000, 4.14213562e+000, 7.10050488e+000, 0.,
          7.84644699e+000, 9.42563057e+000, 7.04163074e+000,
          2.45269108e+001, 1.21593809e+001, 0., 0., 2.07106781e+000,
          1.09115343e+001, 3.00173969e+001, 0., 0., 0., 6.53355718e-001,
          1.34664428e+000, 1.52886858e+001, 2.71131444e+000, 0., 0., 0.,
          0., 0., 0., 0., 0., 0., 0., 0., 0., 0., 0., 0., 0., 0., 0.,
          4.03511047e+000, 9.64889646e-001, 0., 0., 0., 0., 0., 0., 0.,
          0., 0., 0., 0., 0., 0., 0., 0., 0., 0., 0., 3.84553742e+000,
          1.15446258e+000, 0., 0., 0., 0., 0., 0., 0., 0., 0., 0., 0.,
          0., 0., 0., 0., 0., 0., 0., 1.20070686e+001, 1.99293149e+000,
          0., 0., 0., 2.82017422e+000, 1.17982590e+000, 0., 0., 0., 0.,
          0., 0., 0., 0., 0., 0., 0., 0., 0., 1.82138691e+001,
          3.37191749e+000, 2.07106781e+000, 4.34314585e+000, 0.,
          3.35081863e+001, 1.03496799e+001, 8.69848442e+000,
          1.71561947e+001, 2.28745627e+000, 4.67476540e+001,
          9.83813381e+000, 2.48528147e+000, 2.67496700e+001,
          3.17926192e+000, 7.92037535e+000, 3.07962465e+000, 0., 0., 0.,
          1.50684273e+000, 3.42208934e+000, 5.38477612e+000,
          1.56862917e+001, 0., 0., 4.34314585e+000, 2.48528137e+001,
          4.48040390e+001, 0., 7.83611596e-001, 1.63463306e+001,
          2.65096684e+001, 5.46183472e+001, 5.74204063e+000, 0., 0.,
          2.48528147e+000, 2.92581882e+001, 9.42565308e+001, 0.,
          1.75735927e+000, 6.62741709e+000, 1.36152239e+001, 0., 0.,
          4.51471853e+000, 2.23675327e+001, 3.91177483e+001, 0.,
          6.22175694e+000, 5.29296160e+000, 2.65096684e+001,
          4.99756126e+001, 0., 3.68105240e+001, 1.28757687e+001,
          2.77523079e+001, 9.05684738e+001, 1.19929276e+001,
          1.09210691e+001, 4.42207670e+000, 5.79898977e+000,
          8.85786438e+000, 0., 3.84487267e+001, 9.06599236e+000,
          6.62741709e+000, 7.85786438e+000, 0., 3.48337517e+001,
          9.33782005e+000, 1.24264073e+000, 5.85786462e-001, 0.,
          1.92401075e+000, 1.07598925e+000, 0., 0., 0., 1.81661415e+001,
          2.83385873e+000, 0., 0., 0., 1.75220132e+000, 2.47798681e-001,
          0., 0., 0., 0., 0., 0., 0., 0., 0., 0., 0., 0., 0.,
          4.25651312e+000, 7.43486941e-001, 0., 0., 0., 0., 0., 0., 0.,
          0., 0., 0., 0., 0., 0., 0., 0., 0., 0., 0., 4.17282581e+000,
          8.27174425e-001, 0., 0., 0., 0., 0., 0., 0., 0., 0., 0., 0.,
          0., 0., 0., 0., 0., 0., 0., 8.33083916e+000, 2.66916108e+000,
          0., 0., 0., 1.40709352e+000, 5.92906415e-001, 0., 0., 0., 0.,
          0., 0., 0., 0., 0., 0., 0., 0., 0., 1.42737942e+001,
          3.31199193e+000, 3.72792196e+000, 5.68629169e+000, 0.,
          1.95657177e+001, 8.36321449e+000, 1.32548342e+001,
          2.73015156e+001, 5.14718652e-001, 0., 1.14436512e+001,
          8.69848442e+000, 2.04531612e+001, 3.14047031e+001, 0., 0., 0.,
          2.86329699e+000, 1.31367025e+001 ]
      - [ 0., 6.01354539e-001, 0., 3.58578634e+000, 1.04852810e+001,
          1.09289322e+001, 3.41421366e+000, 5.85786462e-001, 0.,
          3.75735927e+000, 8.28427136e-001, 0., 1.52426405e+001,
          3.61005058e+001, 2.80710678e+001, 2.58578634e+000, 0.,
          5.58578634e+000, 1.24142132e+001, 5.17157269e+000,
          3.73256035e+001, 4.39989815e+001, 1.30896311e+001, 6., 0., 0.,
          0., 5.00563955e+000, 8.58850555e+001, 4.07911987e+001,
          6.14653540e+000, 4.34314585e+000, 0., 0., 0., 0.,
          4.24264050e+000, 1.43431454e+001, 7.41421366e+000, 1., 0., 2.,
          8.24264050e+000, 1.09289322e+001, 1.93137093e+001,
          2.46152229e+001, 1.03137083e+001, 3.58578634e+000, 0., 1., 3.,
          7., 1.56568546e+001, 4.51638832e+001, 3.56068802e+001,
          1.94824314e+001, 0., 2.19750810e+000, 1., 6.12767935e-001,
          3.77747765e+001, 6.01146736e+001, 3.00006847e+001,
          2.86733379e+001, 0., 8.03113174e+000, 1.26120389e+000, 1., 1.,
          1.58578646e+000, 5.24264050e+000, 4.18933201e+000, 0.,
          6.47394943e+000, 0., 3., 5., 0., 8.24264050e+000,
          2.29679966e+001, 0., 0., 0., 0., 0., 0., 6.07216692e+000,
          1.94602318e+001, 0., 0., 0., 0., 0., 0., 0., 0., 0.,
          9.78567219e+000, 1.27834022e+000, 0., 0., 0., 0., 0., 0., 0.,
          0., 0., 0., 0., 0., 0., 0., 0., 0., 0., 0., 0., 0., 0., 0., 0.,
          0., 0., 0., 0., 0., 0., 0., 4.27254343e+000, 0., 0., 0., 0.,
          0., 0., 0., 0., 0., 0., 0., 0., 0., 0., 0., 0., 0., 0., 0., 0.,
          0., 0., 0., 0., 0., 0., 0., 0., 0., 0., 0., 2.70883226e+000,
          1., 0., 0., 0., 0., 0., 0., 0., 0., 0., 0., 0., 0., 0., 0., 0.,
          0., 0., 0., 0., 0., 0., 0., 0., 0., 0., 0., 0., 0., 0.,
          4.88578945e-001, 9.78168201e+000, 6.72973919e+000, 0., 0., 0.,
          0., 0., 0., 1.06417811e+000, 3.93582177e+000, 0., 0., 0., 0.,
          0., 0., 0., 0., 0., 0., 0., 0., 0., 0., 0., 0., 0., 0., 0., 0.,
          0., 1.02320880e-001, 1.14139204e+001, 6.48375845e+000, 1.,
          3.41421366e+000, 1.17157292e+000, 3.82842708e+000,
          5.85786462e-001, 2.94952822e+000, 1.79551010e+001,
          1.76841450e+001, 2.19074368e+000, 1.90896301e+001,
          1.58165331e+001, 1.15080500e+001, 8.06267619e-001,
          4.14213568e-001, 5.85786462e-001, 3.74642792e+001,
          1.95262146e+001, 1.37512903e+001, 7.74349642e+000,
          2.45147190e+001, 1., 0., 0., 1.48939860e+000, 1.20442200e+001,
          1.34663820e+001, 0., 0., 0., 8.31925631e-001, 2.51122022e+000,
          7.45584393e+000, 1.12010098e+001, 0., 0., 3.75735927e+000,
          2.31959591e+001, 4.60466805e+001, 0., 0., 1.57157288e+001,
          3.18944435e+001, 4.83450127e+001, 1.04481554e+000,
          8.35923576e+000, 5.98391056e+000, 1.07695522e+001,
          5.13115997e+001, 3.75757027e+001, 0., 0., 4.55634928e+000,
          1.91824474e+001, 2.61203885e-001, 0., 1.45441561e+001,
          1.53259020e+001, 3.26075363e+001, 5.22407770e-001, 0.,
          6.44365072e+000, 2.52670269e+001, 6.80510025e+001,
          1.72383213e+001, 4.49196577e+000, 3.85117984e+000,
          2.89949493e+001, 8.66588593e+001, 2.90030479e+001,
          7.95253706e+000, 5.97639513e+000, 4.97056293e+000,
          9.32098675e+000, 7.79518783e-001, 8.28617001e+000,
          7.22854853e+000, 8.28427124e+000, 1.83929729e+001,
          1.78080368e+001, 0., 0., 1.24264073e+000, 7.58664513e+000,
          2.21707134e+001, 0., 0., 0., 0., 0., 1.35264282e+001,
          2.47357130e+000, 0., 0., 0., 0., 0., 0., 0., 0., 0., 0., 0.,
          0., 0., 0., 0., 0., 0., 0., 4.11232519e+000, 8.87674630e-001,
          0., 0., 0., 0., 0., 0., 0., 0., 0., 0., 0., 0., 0., 0., 0., 0.,
          0., 0., 3.69871640e+000, 1.30128360e+000, 0., 0., 0., 0., 0.,
          0., 0., 0., 0., 0., 0., 0., 0., 0., 0., 0., 0., 0.,
          1.44926805e+001, 2.50731945e+000, 0., 0., 0., 3.27444339e+000,
          1.72555649e+000, 0., 0., 0., 0., 0., 0., 0., 0., 0., 0., 0.,
          0., 0., 1.52064857e+001, 3.37930059e+000, 1.24264073e+000,
          4.91036892e+000, 2.61203885e-001, 3.15431900e+001,
          6.79995680e+000, 9.11269855e+000, 2.31299419e+001,
          4.14213568e-001, 4.59042931e+001, 1.37819996e+001,
          6.21320343e+000, 2.81376324e+001, 4.96287346e+000,
          1.56831551e+001, 5.31684494e+000, 0., 0., 0., 1.59075797e+000,
          9.95028496e-001, 5.38477612e+000, 2.00294380e+001, 0., 0.,
          6.10050488e+000, 2.02964649e+001, 3.53418274e+001,
          2.61203885e-001, 0., 1.41299419e+001, 2.69238815e+001,
          6.70281143e+001, 2.91805816e+000, 0., 5.34314585e+000,
          4.14213562e+000, 3.43551941e+001, 9.71595230e+001, 0.,
          3.17157292e+000, 4.97056293e+000, 1.58578644e+001, 0., 0.,
          5.85786438e+000, 2.07106781e+001, 4.44314575e+001, 0.,
          1.59093695e+001, 1.01200676e+001, 2.94091625e+001,
          5.05614014e+001, 0., 3.88187408e+001, 1.88675499e+001,
          2.23675327e+001, 8.24650879e+001, 6.48108864e+000,
          1.33922081e+001, 6.53672409e+000, 3.72792196e+000,
          2.34314585e+000, 0., 4.18131561e+001, 1.42162809e+001,
