%YAML:1.0
_0218: !!opencv-ml-svm
   svm_type: C_SVC
   kernel: { type:LINEAR }
   C: 100.
   term_criteria: { epsilon:9.9999999747524271e-007,
       iterations:2147483647 }
   var_all: 576
   var_count: 576
   class_count: 2
   class_labels: !!opencv-matrix
      rows: 1
      cols: 2
      dt: i
      data: [ -1, 1 ]
   sv_total: 17
   support_vectors:
      - [ 0., 8.42521095e+000, 2., 0., 0., 0., 0., 0., 0.,
          1.15857868e+001, 1.54142132e+001, 3., 12., 6., 3., 0., 0., 2.,
          12., 10., 3.34142151e+001, 2.83431454e+001, 1.42426405e+001,
          2., 0., 0., 6., 9., 3.88284264e+001, 6.19289322e+001,
          4.02426414e+001, 1., 0., 1.20608053e+001, 1.29603457e+000, 0.,
          0., 0., 0., 0., 0., 2.21901360e+001, 1., 2., 3., 4., 4.,
          5.58578634e+000, 0., 5.58578634e+000, 1.41421354e+000, 2., 15.,
          5.87598228e+001, 4.92401772e+001, 2., 0., 6., 11., 4.,
          1.27473192e+001, 4.83277817e+001, 9.63557129e+001,
          1.15691824e+001, 0., 1.74966621e+001, 4.20694304e+000, 0., 0.,
          0., 0., 0., 0., 4.69773178e+001, 9.00848961e+000, 0., 0., 0.,
          0., 0., 0., 7.13530884e+001, 4.41421366e+000, 1.,
          1.41421354e+000, 6.06337881e+000, 3.52240777e+000, 1., 0.,
          1.89962311e+001, 0., 7., 1.84142132e+001, 2.76670074e+001,
          1.96099472e+001, 1.21053839e+001, 0., 0., 1., 0., 0., 0., 0.,
          0., 0., 0., 0., 0., 0., 0., 0., 0., 0., 0., 0., 0., 0., 0., 0.,
          0., 0., 0., 0., 0., 0., 0., 0., 0., 0., 0., 0., 0., 0., 0., 0.,
          0., 0., 0., 0., 0., 0., 0., 0., 0., 0., 0., 0., 0., 0., 0., 0.,
          0., 0., 0., 0., 0., 0., 0., 0., 0., 0., 0., 0., 0., 0., 0., 0.,
          0., 0., 0., 0., 0., 0., 0., 0., 0., 0., 0., 0., 0., 0., 0., 0.,
          0., 0., 0., 0., 0., 0., 0., 0., 0., 0., 3.82370448e+000,
          1.92007232e+000, 0., 0., 0., 0., 0., 0., 2., 3., 0., 0., 0.,
          0., 0., 0., 0., 0., 0., 0., 0., 0., 0., 0., 0., 0., 0., 0., 0.,
          0., 0., 0., 1.52626495e+001, 1.75258923e+000, 0., 0., 0., 0.,
          0., 0., 1.83088779e+001, 3.26911240e+001, 5., 5., 2., 0., 1.,
          0., 7.65149021e+000, 4.11206131e+001, 1.22278948e+001, 9., 6.,
          3., 1., 0., 0., 3.89125366e+001, 1.52590351e+001,
          9.65685463e+000, 4.17157269e+000, 2., 0., 6.30787754e+000,
          7.54998684e+000, 4.14213562e+000, 0., 0., 0., 1.79878063e+001,
          1.57401152e+001, 5.27207804e+000, 0., 0., 1.40588741e+001,
          2.65096684e+001, 2.84314575e+001, 0., 0., 9.20100975e+000,
          4.72203445e+001, 6.25786438e+001, 0., 7.43849945e+000,
          6.66200590e+000, 2.89949489e+000, 0., 0., 2.61203885e-001,
          2.26971664e+001, 1.28406200e+001, 8.20100975e+000, 0., 0.,
          5.68629169e+000, 2.36101723e+001, 8.18859787e+001,
          7.81755304e+000, 0., 1.23015156e+001, 4.55634918e+001,
          1.10846024e+002, 1.02889681e+001, 2.42403202e+001,
          3.75967956e+000, 0., 0., 0., 3.24514809e+001, 2.50216064e+001,
          9.52691174e+000, 0., 0., 3.12589531e+001, 5.31014366e+001,
          2.07106781e+001, 8.14532089e+000, 7.83611596e-001,
          1.36596479e+001, 1.99850140e+001, 2.27817459e+001,
          3.97220993e+001, 1.78514938e+001, 6.79622769e-001,
          3.20377231e-001, 0., 0., 0., 0., 0., 0., 0., 0., 0., 0., 0.,
          0., 0., 0., 0., 0., 0., 0., 0., 0., 0., 0., 0., 0., 0., 0., 0.,
          0., 0., 0., 0., 0., 0., 0., 0., 0., 0., 0., 0., 0., 0., 0., 0.,
          0., 0., 0., 0., 0., 0., 0., 0., 0., 0., 0., 0., 0., 0., 0.,
          5.78873682e+000, 1.21126306e+000, 0., 0., 0., 3.98343444e+000,
          1.01656568e+000, 0., 0., 0., 0., 0., 0., 0., 0., 0., 0., 0.,
          0., 0., 1.74119625e+001, 4.51697063e+000, 2.07106781e+000, 0.,
          0., 3.48048592e+001, 1.37392979e+001, 8.69848442e+000,
          1.75735927e+000, 0., 3.75352440e+001, 1.47662725e+001,
          1.28406200e+001, 5.85786438e+000, 0., 4.08107033e+001,
          9.63294697e+000, 7.45584393e+000, 4.10050488e+000, 0.,
          8.78880692e+000, 1.13116980e+001, 2.89949489e+000, 0., 0., 0.,
          9.95836926e+000, 1.53259020e+001, 1.27157288e+001, 0., 0.,
          7.61522388e+000, 3.43797264e+001, 4.40050507e+001, 0., 0.,
          1.17157292e+000, 4.30782089e+001, 6.87502136e+001, 0.,
          8.52909851e+000, 1.75714073e+001, 2.89949489e+000, 0., 0.,
          2.87324262e+000, 4.27714195e+001, 1.40832615e+001,
          5.27207804e+000, 0., 0., 6.44365072e+000, 3.85218620e+001,
          6.20344887e+001, 0., 2.61203885e-001, 1.73834572e+001,
          3.93502884e+001, 4.85121765e+001, 2.49287438e+000,
          2.60934258e+001, 4.90657473e+000, 0., 0., 0., 3.66873817e+001,
          2.43714924e+001, 9.94112587e+000, 0., 0., 4.22221642e+001,
          6.29372177e+001, 1.53259020e+001, 7.51471853e+000, 0.,
          4.66401863e+001, 3.58745346e+001, 2.19533195e+001,
          4.25319633e+001, 0., 6.79622769e-001, 3.20377231e-001, 0., 0.,
          0., 0., 0., 0., 0., 0., 0., 0., 0., 0., 0., 0., 0., 0., 0., 0.,
          0., 0., 0., 0., 0., 0., 0., 0., 0., 0., 0., 0., 0., 0., 0., 0.,
          0., 0., 0., 0., 0., 0., 0., 0., 0., 0., 0., 0., 0., 0., 0., 0.,
          0., 0., 0., 0., 0., 0., 0., 0., 7.46407700e+000,
          1.53592312e+000, 0., 0., 0., 2.32280135e+000, 6.77198529e-001,
          0., 0., 0., 0., 0., 0., 0., 0., 0., 0., 0., 0., 0.,
          1.96250420e+001, 5.13231659e+000, 1.24264073e+000, 0., 0.,
          1.76649780e+001, 1.79796829e+001, 1.53259020e+001,
          7.02943707e+000, 0., 7.62380075e+000, 7.23406363e+000,
          1.65685425e+001, 1.75735931e+001, 0., 0., 5.85786462e-001,
          7.87005758e+000, 2.03691616e+001, 2.01749935e+001 ]
      - [ 0., 1., 3., 1., 8., 1., 2., 1., 0., 0., 1., 3.20377231e-001,
          2.40938358e+001, 1.45857868e+001, 14., 3., 0., 0.,
          4.51112080e+000, 2.69603729e+001, 9.81118393e+001,
          2.02259216e+001, 9.19074345e+000, 0., 0., 2.65685415e+000,
          4.90301943e+000, 5.50027847e+001, 1.18715637e+002,
          3.28932800e+001, 2., 1., 0., 2., 0., 0., 0., 5., 5., 1., 0.,
          0., 0., 0., 8., 16., 32., 10., 0., 0., 0., 0., 1.,
          4.15441551e+001, 1.04870056e+002, 7.58578634e+000, 0., 0., 0.,
          6.40754461e-001, 8.40406132e+000, 5.29914780e+001,
          1.54731049e+002, 2.23265791e+000, 0., 0., 0., 0., 4., 6., 3.,
          0., 0., 0., 1., 0., 2., 20., 46., 4., 1.43277681e+000, 0., 0.,
          0., 3., 3.40294380e+001, 9.26984863e+001, 1.98393021e+001, 0.,
          1.47946465e+000, 0., 0., 0., 2.31906357e+001, 8.48095551e+001,
          4.80295601e+001, 0., 0., 0., 2., 3., 0., 0., 0., 0., 2., 8.,
          3., 7., 6.58578634e+000, 1.44142132e+001, 13., 0.,
          7.64111042e+000, 0., 0., 2., 3., 1.28284273e+001,
          3.08951283e+001, 0., 0., 0., 0., 0., 0., 0., 6.09922361e+000,
          0., 3., 8., 0., 1., 2., 2., 0., 0., 6.39605713e+000,
          3.18003101e+001, 1.05609913e+001, 9.41421318e+000, 2., 4., 2.,
          0., 4.41546822e+001, 1.07622223e+001, 0., 0., 0., 0., 2., 0.,
          0., 0., 0., 0., 0., 0., 0., 0., 3., 7.24264050e+000,
          1.75735927e+000, 2., 0., 2., 1., 0., 1.25487022e+001,
          5.76326790e+001, 6.81862020e+000, 2., 0., 1., 0., 0.,
          3.91678065e-001, 9.23958302e+000, 3.68739337e-001, 0., 0., 0.,
          0., 0., 0., 0., 0., 0., 0., 0., 0., 0., 0., 12., 6., 3., 0.,
          1., 0., 0., 1.73814449e+001, 3.90337296e+001, 6.18148470e+000,
          1.00896311e+001, 2., 0., 2., 0., 4.93421841e+000,
          3.53002930e+001, 1.76548660e+000, 0., 0., 0., 0., 0., 0., 1.,
          0., 0., 0., 0., 0., 0., 0., 1., 5., 9., 1., 3., 1., 0.,
          9.17157269e+000, 1.48284273e+001, 1.26855698e+001,
          2.29002171e+001, 3.58578634e+000, 1., 6., 0., 5.73832703e+000,
          1.42239351e+001, 2.43654652e+001, 8.51015091e+001,
          1.92377586e+001, 5.33300304e+000, 3.50874752e-001, 0.,
          3.77370477e-001, 1.85889072e+001, 5.26309814e+001,
          5.15826683e+001, 9.14465427e+000, 3.94082665e+000,
          1.73459077e+000, 0., 2.92893219e+000, 3.72792196e+000,
          2.34314585e+000, 0., 0., 1.17157292e+000, 1.40832615e+001,
          2.07451668e+001, 0., 2.48846626e+000, 4.21145630e+001,
          3.31370850e+001, 2.74314575e+001, 8.28427136e-001,
          1.45154829e+001, 6.48449097e+001, 3.81076469e+001,
          4.73232651e+001, 4.20869923e+000, 0., 1.17157292e+000,
          5.38477612e+000, 6.44365072e+000, 0., 0., 0., 2.27817459e+001,
          3.52182541e+001, 0., 0., 0., 2.65096684e+001, 1.26706718e+002,
          7.83611596e-001, 0., 1.17157292e+000, 7.87005758e+000,
          1.21297913e+002, 8.46604538e+001, 0., 0., 3.72792196e+000,
          5.27207804e+000, 0., 0., 5.85786462e-001, 2.65096684e+001,
          4.39045448e+001, 0., 0., 0., 3.27228699e+001, 1.12134583e+002,
          3.14254236e+000, 3.00879741e+000, 9.91202533e-001,
          4.97056293e+000, 1.01469650e+002, 7.45597916e+001, 0.,
          1.17157292e+000, 8.28427136e-001, 0., 0., 0., 7.61522388e+000,
          1.90538235e+001, 2.03309517e+001, 0., 0., 8.61522388e+000,
          2.36101723e+001, 4.75855598e+001, 2.31890411e+001, 0., 0., 0.,
          2.19178009e+000, 9.80821991e+000, 0., 6.44365072e+000,
          6.21320343e+000, 2.34314585e+000, 0., 2.55493402e+000,
          3.41902313e+001, 1.65685425e+001, 4.68629169e+000, 0.,
          5.28150368e+001, 1.93859730e+001, 6.62741709e+000,
          1.17157292e+000, 0., 0., 0., 0., 0., 0., 5.22407770e-001,
          9.40652466e+000, 3.31370854e+000, 1.75735927e+000, 0.,
          4.57817497e+001, 2.66619034e+001, 4.97056293e+000,
          5.85786462e-001, 0., 8.25710297e+000, 1.74289691e+000, 0., 0.,
          0., 0., 0., 0., 0., 0., 5.22407770e-001, 1.33354568e+001,
          4.55634928e+000, 5.85786462e-001, 0., 3.26567574e+001,
          2.56447601e+001, 1.11837664e+001, 3.51471853e+000, 0.,
          3.66752968e+001, 5.32470274e+000, 0., 0., 0., 5.85786462e-001,
          4.14213568e-001, 0., 0., 0., 0., 3.51471853e+000,
          4.55634928e+000, 2.92893219e+000, 0., 0., 2.94314575e+001,
          2.15391045e+001, 7.02943707e+000, 0., 1.85608673e+001,
          3.48411522e+001, 2.44386005e+001, 3.82732124e+001,
          1.88616848e+000, 7.07545242e+001, 2.63459778e+001,
          7.04163074e+000, 1.76229134e+001, 2.23495150e+000, 0.,
          3.51471853e+000, 6.62741709e+000, 5.85786438e+000, 0., 0.,
          3.51471853e+000, 1.15979795e+001, 2.81670685e+001,
          1.72023296e+000, 0., 0., 7.45584393e+000, 8.96172104e+001,
          4.99269485e+001, 0., 4.75735950e+000, 7.04163074e+000,
          1.26402763e+002, 7.67982407e+001, 0., 4.10050488e+000,
          4.97056293e+000, 2.92893219e+000, 0., 0., 8.20100975e+000,
          1.57401152e+001, 1.40588741e+001, 0., 0., 5.27207804e+000,
          2.52670269e+001, 3.04608955e+001, 0., 0., 4.68629169e+000,
          3.68650055e+001, 1.00631149e+002, 6.81755304e+000, 0.,
          2.34314585e+000, 5.79898977e+000, 5.85786438e+000, 0., 0.,
          4.68629169e+000, 1.24264069e+001, 1.28873014e+001, 0.,
          2.10505199e+000, 1.51964626e+001, 2.60954552e+001,
          2.46030312e+001, 0., 5.33458710e+001, 3.22987900e+001,
          2.36101723e+001, 3.68796120e+001, 1.86555350e+000, 0.,
          1.17157292e+000, 2.89949489e+000, 2.92893219e+000, 0., 0.,
          1.43015156e+001, 1.57401152e+001, 9.95836926e+000, 0.,
          6.74308624e+001, 4.51427307e+001, 1.44974747e+001,
          2.92893219e+000, 0., 1.55623226e+001, 2.43767762e+000, 0., 0.,
          0., 0., 4.68629169e+000, 4.55634928e+000, 1.75735927e+000, 0.,
          5.14718652e-001, 1.46862917e+001, 1.40832615e+001,
          1.67157288e+001, 0., 6.39467735e+001, 2.54258080e+001,
          6.62741709e+000, 0., 0., 0., 0., 0., 0., 0., 0.,
          7.02943707e+000, 7.04163074e+000, 2.92893219e+000, 0.,
          1.84810505e+001, 1.39626007e+001, 7.87005758e+000,
          5.42537689e+000, 4.26091433e+000, 8.57354939e-001,
          7.28431523e-001, 4.14213568e-001, 1.42645061e-001,
          8.57354939e-001, 0., 0., 0., 0., 0., 0., 0., 2.89949489e+000,
          6.10050488e+000, 0., 1.50280552e+001, 3.01018867e+001,
          1.28406200e+001, 1.55070295e+001, 5.22407770e-001,
          9.86414433e+000, 6.89321518e+000, 2.89949489e+000,
          5.48176193e+000, 1.86138391e+000, 0., 0., 0., 0., 0., 0.,
          1.75735927e+000, 7.04163074e+000, 9.20100975e+000, 0.,
          2.61203885e-001, 1.86260986e+001, 1.53259020e+001,
          2.75346012e+001, 6.25219536e+000, 1.02658567e+001,
          6.31993008e+000, 2.89949489e+000, 8.14179916e+001,
          5.10967255e+001, 8.49778891e-001, 2.49336696e+000,
          4.97056293e+000, 3.60608444e+001, 8.56254425e+001 ]
      - [ 0., 5.43168783e-001, 9.11749780e-001, 6.90646219e+000,
          1.19915123e+001, 3.45407203e-002, 0., 1.38300085e+000, 0.,
          1.68151684e+001, 8.70890236e+000, 7.11137438e+000,
          5.10214901e+000, 1., 1.41421354e+000, 6.30915022e+000, 0.,
          1.00591736e+001, 4.28350496e+000, 1.71264515e+001,
          6.95115204e+001, 1.62500992e+001, 3.65685415e+000,
          8.77592278e+000, 0., 0., 0., 0., 2.28200226e+001,
          8.17997646e+000, 0., 0., 0., 0., 1.00435026e-001,
          1.35160708e+000, 5.47957838e-001, 0., 0., 5.42277765e+000, 0.,
          2.96685576e+000, 3.10507107e+000, 6.98454189e+000,
          1.59033976e+001, 4.42086792e+000, 4.92226362e+000,
          2.56523037e+000, 0., 2.62943611e+001, 8.06896019e+000,
          1.16797333e+001, 1.76018867e+001, 1.72307453e+001,
          2.41421366e+000, 6.75516987e+000, 0., 1.68598976e+001,
          1.59623861e+001, 1.73397522e+001, 6.11162224e+001,
          3.53362122e+001, 1.10710678e+001, 1.03782930e+001, 0., 0., 0.,
          0., 0., 0., 0., 0., 0., 0., 0., 0., 0., 0., 0., 0., 0., 0., 0.,
          0., 0., 0., 0., 0., 0., 9.63389492e+000, 0., 0., 0., 0., 0.,
          0., 0., 0., 0., 0., 0., 0., 0., 0., 0., 0., 0., 0., 0., 0., 0.,
          0., 0., 0., 0., 0., 0., 0., 0., 0., 0., 0., 0., 0., 0., 0., 0.,
          0., 0., 0., 0., 0., 0., 0., 0., 0., 0., 0., 0., 0., 0., 0., 0.,
          0., 0., 0., 0., 0., 0., 0., 0., 0., 0., 0., 0., 0., 0., 0., 0.,
          0., 0., 0., 0., 0., 0., 0., 0., 0., 0., 0., 0., 0., 0., 0., 0.,
          0., 0., 0., 0., 0., 0., 0., 0., 0., 0., 0., 0., 0., 0., 0., 0.,
          0., 0., 2.55678201e+000, 5.43476057e+000, 2.68843114e-001, 0.,
          0., 0., 1.31584778e-001, 0., 0., 0., 0., 0., 0., 0., 0., 0.,
          0., 0., 0., 0., 0., 0., 0., 0., 0., 0., 0., 0., 0., 0., 0., 0.,
          1.02915156e+000, 1.23370469e+000, 6.72386694e+000,
          7.57286549e+000, 4.23064470e-001, 0., 5.91452897e-001, 0.,
          7.79380512e+000, 7.69247532e+000, 0., 0., 0., 0., 0.,
          1.01193440e+000, 1.40278208e+000, 9.25254536e+000,
          1.71395626e+001, 1.23899341e-001, 0., 1., 6.92759231e-002, 0.,
          0., 0., 0., 0., 0., 0., 0., 1.37066832e+001, 3.29331660e+000,
          2.07106781e+000, 3.66772842e+000, 2.61203885e-001,
          3.40734634e+001, 1.61986141e+001, 6.21320343e+000,
          1.35705938e+001, 5.94412470e+000, 9.62037563e+000,
          2.59532185e+001, 2.31959591e+001, 3.02744789e+001,
          1.49559689e+001, 0., 0., 0., 4.60276985e+000, 1.53972301e+001,
          1.51479852e+000, 4.85201448e-001, 1.24264073e+000,
          7.38471270e+000, 1.03726463e+001, 1.24427814e+001,
          1.34150829e+001, 9.11269855e+000, 2.25471344e+001,
          4.48230267e+000, 2.56600761e+001, 3.33277283e+001,
          2.15391045e+001, 2.12063866e+001, 7.26670074e+000,
          2.40593739e+001, 3.09284344e+001, 3.47939377e+001,
          5.54649811e+001, 5.75327301e+000, 0., 0., 0., 0., 0., 0., 0.,
          0., 0., 0., 0., 0., 0., 0., 0., 1.13927088e+001,
          2.60729098e+000, 0., 0., 0., 0., 0., 0., 0., 0., 0., 0., 0.,
          0., 0., 0., 0., 0., 0., 0., 0., 0., 0., 0., 0., 0., 0., 0., 0.,
          0., 0., 0., 0., 0., 0., 0., 0., 0., 0., 0., 0., 0., 0., 0., 0.,
          0., 0., 0., 0., 0., 0., 0., 0., 0., 0., 0., 0., 0., 0., 0., 0.,
          0., 0., 0., 0., 7.51559019e+000, 1.48440993e+000, 0.,
          4.14213568e-001, 5.85786462e-001, 0., 0., 0., 0., 0., 0., 0.,
          0., 0., 0., 0., 0., 0., 0., 0., 1.10504856e+001,
          1.94951451e+000, 4.14213568e-001, 9.12326515e-001,
          1.67346001e+000, 1.55798864e+001, 2.42011333e+000, 0., 0., 0.,
          2.42069550e+001, 3.79304600e+000, 8.28427136e-001,
          1.17157292e+000, 0., 0., 0., 0., 0., 0., 7.08053398e+000,
          2.91946626e+000, 0., 1.44271624e+000, 1.75572834e+001,
          4.94249611e+001, 1.97466106e+001, 1.65685427e+000,
          2.38350892e+000, 1.07880640e+001, 2.91457438e+000,
          3.08011551e+001, 1.65685425e+001, 3.87753220e+001,
          5.79404068e+001, 0., 0., 0., 3.60704446e+000, 2.73929558e+001,
          2.38499413e+001, 3.15005898e+000, 0., 2.85290122e-001,
          1.71470988e+000, 3.99914665e+001, 6.76589346e+000,
          3.72792196e+000, 5.96757460e+000, 2.05471439e+001,
          5.00739784e+001, 3.25412445e+001, 1.44974747e+001,
          3.51905327e+001, 5.69676924e+000, 2.38471298e+001,
          3.60401726e+001, 2.11248913e+001, 6.59710083e+001,
          3.90167961e+001, 0., 0., 0., 0., 0., 0., 0., 0., 0., 0.,
          2.31322050e+000, 6.86779499e-001, 0., 0., 0., 1.63626003e+001,
          2.63739920e+000, 0., 0., 0., 0., 0., 0., 0., 0., 0., 0., 0.,
          0., 0., 0., 0., 0., 0., 0., 0., 0., 0., 0., 0., 0., 0., 0., 0.,
          0., 0., 0., 0., 0., 0., 0., 0., 0., 0., 0., 0., 0., 0., 0., 0.,
          0., 0., 0., 0., 0., 0., 0., 0., 0., 0., 0., 0., 0., 0., 0., 0.,
          0., 0., 0., 0., 7.69452238e+000, 1.30547738e+000, 0.,
          2.04537153e-001, 7.95462847e-001, 0., 0., 0., 0., 0., 0., 0.,
          0., 0., 0., 0., 0., 0., 0., 0., 5.56234121e+000,
          1.43765867e+000, 0., 1.92517722e+000, 1.30748224e+001,
          1.35394773e+001, 2.46052289e+000, 0., 0., 0., 3.31261277e+000,
          6.87387168e-001, 0., 3.75128937e+000, 1.72487106e+001, 0., 0.,
          0., 0., 0. ]
      - [ 2.01019478e+000, 9.90654850e+000, 1.14124994e+001,
          6.25654411e+000, 4.14213568e-001, 0., 0., 2., 0.,
          3.24244213e+000, 1.83264885e+001, 1.36883125e+001,
          1.08957663e+001, 1.21901360e+001, 1.88994942e+001,
          1.11005049e+001, 0., 3.06766725e+000, 9.63693810e+000,
          3.93938713e+001, 3.05769405e+001, 3.73879623e+000,
          7.09850788e+000, 1.38710346e+001, 0., 2.09953403e+000,
          4.80428743e+000, 3.83217926e+001, 2.51118565e+001,
          2.96590543e+000, 6.49568415e+000, 1.58608303e+001, 0.,
          7.28442371e-002, 2.64810252e+000, 2.86483955e+000,
          6.41421366e+000, 6.58578634e+000, 7.82842731e+000,
          2.58578634e+000, 0., 8.15300941e+000, 9.93662167e+000,
          1.07125435e+001, 7.17926216e+000, 9.39811420e+000,
          3.21876717e+001, 6.34314585e+000, 0., 4.17157269e+000,
          1.33778086e+001, 1.92533684e+001, 1.64696903e+001,
          2.40492249e+001, 5.09929924e+001, 1.84766426e+001, 0.,
          1.68508673e+000, 8.33861351e+000, 3.52843323e+001,
          5.18141327e+001, 2.10421963e+001, 2.61164265e+001,
          5.54360199e+001, 0., 2.16807437e+000, 4.03164864e+000,
          1.80027711e+000, 4., 3., 2., 5.17157269e+000, 0.,
          3.77605391e+000, 5.58578634e+000, 5., 9., 1.71530094e+001,
          2.15266132e+001, 8.39366627e+000, 0., 3.91917515e+000,
          2.08284264e+001, 3.17157292e+000, 2.82842708e+000,
          9.56241035e+000, 7.69879341e+000, 2.78969688e+001, 0., 0., 1.,
          2., 2.41421366e+000, 5.83121586e+000, 1.00945463e+001,
          2.20926056e+001, 5.64756346e+000, 1.04363165e+001,
          9.28513432e+000, 3.54848051e+000, 5.85786462e-001, 0., 0.,
          4.96718705e-001, 0., 1.36914902e+001, 4.01619315e-001, 0., 1.,
          0., 0., 1.46687245e+000, 0., 0., 0., 0., 0., 0., 0., 0., 0.,
          0., 0., 0., 0., 0., 0., 0., 0., 1.31983728e+001,
          3.12887597e+000, 1.05945790e+000, 5.26328504e-001, 0., 0.,
          2.91153789e-001, 0., 0., 1., 0., 0., 0., 0., 0., 0., 0., 0.,
          0., 0., 0., 0., 0., 0., 0., 0., 0., 0., 0., 0., 0., 0.,
          7.95661736e+000, 6.00788784e+000, 1.97399691e-001,
          2.65995526e+000, 7.28431523e-001, 1.19074357e+000,
          4.64666271e+000, 0., 1., 4., 0., 0., 0., 0., 0., 0., 0., 0.,
          0., 0., 0., 0., 0., 0., 0., 0., 0., 0., 0., 0., 0.,
          2.61203885e-001, 9.49402377e-002, 7.81181192e+000,
          3.42216969e+000, 9.31836987e+000, 9.61668682e+000,
          7.36022353e-001, 7.38796115e-001, 0., 0., 5., 0., 1., 0., 0.,
          0., 0., 0., 0., 0., 0., 0., 0., 0., 0., 0., 0., 0., 0., 0., 0.,
          0., 5.09392858e-001, 4.86329508e+000, 6.97593021e+000,
          1.71184981e+000, 3.92824006e+000, 3.01129174e+000, 0., 0., 0.,
          0., 1.18831530e+001, 4.11684704e+000, 0., 0., 0., 0., 0., 0.,
          1., 0., 0., 0., 0., 0., 0., 0., 0., 0., 0., 0., 0., 0.,
          2.10599499e+001, 7.69741011e+000, 2.07106781e+000,
          1.17157292e+000, 0., 2.44219322e+001, 1.15070000e+001,
          1.36690474e+001, 3.38796120e+001, 5.22407770e-001,
          3.88757324e+001, 2.29110661e+001, 1.11837664e+001,
          1.95639973e+001, 4.46543980e+000, 3.35770988e+001,
          2.24523373e+001, 7.87005758e+000, 1.65646935e+001,
          1.05358114e+001, 3.33405471e+000, 1.83751822e+000,
          6.21320343e+000, 1.16152239e+001, 0., 1.82842708e+000,
          2.72010098e+001, 1.20121937e+001, 3.68162346e+001,
          6.14213562e+000, 7.49652386e+000, 3.07044868e+001,
          1.65685425e+001, 6.29560356e+001, 2.82744122e+001,
          2.06912193e+001, 2.80539474e+001, 2.77523079e+001,
          8.35022202e+001, 2.50003014e+001, 1.56092310e+000,
          4.36800909e+000, 6.62741709e+000, 6.44365072e+000, 0.,
          1.65304637e+000, 8.96217728e+000, 1.40832615e+001,
          4.04020195e+001, 4.89949512e+000, 0., 2.37867966e+001,
          9.52691174e+000, 2.75972996e+001, 3.60889931e+001, 0.,
          1.75735927e+000, 3.31370854e+000, 2.63977261e+001,
          3.05312061e+001, 1.36610222e+001, 1.35105505e+001,
          8.28427136e-001, 8.46990287e-001, 1.15300965e+000,
          1.92117233e+001, 4.78827667e+000, 1.24264073e+000,
          6.49615526e+000, 2.61203885e-001, 0., 0., 0., 0., 0., 0., 0.,
          0., 0., 0., 1.39658232e+001, 1.06199636e+001, 4.14213568e-001,
          1.17157292e+000, 8.28427136e-001, 5.85786462e-001,
          4.14213568e-001, 0., 0., 0., 0., 0., 0., 0., 0., 0., 0., 0.,
          0., 0., 1.63649216e+001, 2.63507795e+000, 0., 6.95518446e+000,
          2.04481554e+000, 3.80233526e+000, 1.19766486e+000, 0., 0., 0.,
          0., 0., 0., 0., 0., 0., 0., 0., 0., 0., 1.18625183e+001,
          2.13748193e+000, 0., 2.91962361e+000, 1.30803766e+001,
          4.17845821e+000, 8.21541667e-001, 0., 0., 0., 0., 0., 0., 0.,
          0., 0., 0., 0., 0., 0., 1.23022060e+001, 2.69779444e+000, 0.,
          1.00177169e+000, 2.99822831e+000, 1.36272306e+001,
          2.37276888e+000, 0., 0., 0., 5.85786462e-001, 4.14213568e-001,
          0., 0., 0., 0., 0., 0., 0., 0., 8.13886261e+000,
          6.79006910e+000, 2.89949489e+000, 4.43291998e+000,
          8.73865318e+000, 4.72699833e+000, 2.20597973e+001,
          1.28406200e+001, 2.42846241e+001, 1.40879583e+001,
          4.27309847e+000, 2.63421249e+001, 9.11269855e+000,
          3.02427902e+001, 4.40292854e+001, 9.84493923e+000,
          1.30839930e+001, 4.97056293e+000, 2.41283283e+001,
          4.19721756e+001, 0., 2.34314585e+000, 5.79898977e+000,
          1.20851126e+001, 1.77275229e+000, 1.04481554e+000,
          1.69846210e+001, 1.28406200e+001, 2.42567005e+001,
          1.87324262e+000, 6.78098869e+000, 2.45915947e+001,
          2.40243874e+001, 5.69226265e+001, 1.26804047e+001,
          2.88314552e+001, 4.83695564e+001, 1.90538235e+001,
          7.28444748e+001, 2.89006920e+001, 0., 9.44365120e+000,
          7.87005758e+000, 4.84493876e+000, 8.41352940e-001,
          1.00886822e+001, 1.52839003e+001, 1.73969688e+001,
          2.42304478e+001, 0., 5.02719498e+001, 1.55859156e+001,
          9.94112587e+000, 1.36786022e+001, 5.22407770e-001,
          3.91114082e+001, 1.29890966e+001, 4.97056293e+000,
          8.83930111e+000, 1.08963096e+000, 1.29777908e+001,
          6.02220917e+000, 1.24264073e+000, 4.98810577e+000,
          1.76925373e+000, 3.75482941e+001, 5.03749323e+000,
          8.28427136e-001, 5.85786462e-001, 0., 8.81300330e-001,
          1.18699700e-001, 0., 0., 0., 0., 0., 0., 0., 0.,
          2.07093563e+001, 7.87643099e+000, 8.28427136e-001,
          7.36007571e-001, 8.49778891e-001, 0., 0., 0., 0., 0., 0., 0.,
          0., 0., 0., 0., 0., 0., 0., 0., 1.66812267e+001,
          7.90456009e+000, 8.28427136e-001, 1.56886566e+000,
          2.01692080e+000, 1.17157292e+000, 8.28427136e-001, 0., 0., 0.,
          0., 0., 0., 0., 0., 0., 0., 0., 0., 0., 2.61203885e-001,
          2.49615550e+000, 1.24264073e+000, 3.67266726e+000,
          2.23273335e+001, 0., 0., 0., 3.61302108e-001, 6.38697922e-001,
          0., 0., 0., 0., 0., 0., 0., 0., 0., 0., 5.49815893e+000,
          1.50184119e+000, 0., 1.94679737e+000, 8.05320263e+000, 0., 0.,
          0., 1.93009782e+000, 6.06990242e+000, 0., 0., 0., 0., 0., 0.,
          0., 0., 0., 0. ]
      - [ 0., 1.74508629e+001, 5.01490402e+000, 2.20481202e-001, 0., 0.,
          0., 0., 0., 4.80505133e+000, 1.73732777e+001, 1.13058357e+001,
          1.29300489e+001, 1.99289322e+001, 1.04363728e+001,
          7.71243143e+000, 0., 4.14213568e-001, 1., 9.10341167e+000,
          4.11590729e+001, 1.81730824e+001, 5.64434648e-001,
          2.16736746e+000, 0., 0., 0., 0., 0., 0., 0., 0., 0.,
          1.40893612e+001, 3.51672506e+000, 0., 0., 0., 0.,
          5.85786462e-001, 0., 7.89156246e+000, 4.41421366e+000, 1.,
          1.50710678e+001, 1.92720776e+001, 2.26568546e+001, 3., 0.,
          6.32458258e+000, 3.26120377e+000, 1.32037723e+000,
          1.24670267e+001, 6.45486908e+001, 2.75928402e+001,
          1.02426405e+001, 0., 0., 1.04066153e+001, 2.97148838e+001,
          2.55681725e+001, 8.27455425e+000, 3.44998646e+000,
          2.17157292e+000, 0., 5.28208065e+000, 0., 0., 0., 0., 0., 0.,
          0., 2.73616581e+001, 8.04496288e+000, 2.76507974e-001, 0., 1.,
          0., 0., 0., 2.05471706e+001, 1.87250328e+001, 8.30853105e-001,
          2.24264073e+000, 2.35147190e+001, 1.40710678e+001,
          1.64878063e+001, 0., 3.05892105e+001, 1.08287525e+001,
          9.19972324e+000, 2.54852810e+001, 1.95147190e+001, 5.,
          1.58578646e+000, 0., 0., 0., 0., 0., 0., 0., 0., 0., 0., 0.,
          0., 0., 0., 0., 0., 0., 0., 0., 0., 0., 0., 0., 0., 0., 0., 0.,
          0., 0., 0., 0., 0., 0., 0., 0., 0., 0., 0., 0., 0., 0., 0., 0.,
          0., 0., 0., 0., 0., 0., 0., 0., 0., 0., 0., 0., 0., 0., 0., 0.,
          0., 0., 0., 0., 0., 0., 0., 0., 0., 0., 0., 0., 0., 0., 0., 0.,
          0., 0., 0., 0., 0., 0., 0., 0., 0., 0., 0., 0., 0., 0., 0., 0.,
          0., 0., 0., 0., 0., 0., 0., 0., 0., 0., 0., 0., 0., 0., 0., 0.,
          0., 0., 0., 0., 0., 0., 0., 0., 0., 0., 0., 0., 0., 0., 0., 0.,
          0., 0., 0., 0., 0., 0., 5.82308865e+000, 2.37647724e+000, 0.,
          0., 0., 0., 0., 0., 3.10186410e+000, 2.36552544e+001,
          8.19827938e+000, 4.46024165e-002, 0., 0., 0., 0., 0.,
          1.05426498e-001, 2.78914690e+000, 1.05426498e-001, 0., 0., 0.,
          0., 0., 0., 0., 0., 0., 0., 0., 1.81800117e+001,
          8.40577412e+000, 4.14213568e-001, 0., 0., 1.28819418e+001,
          2.18043499e+001, 1.65685425e+001, 2.68981762e+001,
          8.46990287e-001, 1.44812098e+001, 7.44772243e+000,
          4.97056293e+000, 1.02030735e+001, 2.28974304e+001, 0., 0., 0.,
          0., 0., 1.72428780e+001, 3.92869568e+000, 1.24264073e+000,
          5.85786462e-001, 0., 1.44998991e+000, 8.40787411e+000,
          1.98822517e+001, 3.12598839e+001, 0., 2.61203885e-001,
          8.42508793e+000, 1.94680367e+001, 4.35386810e+001,
          4.93069916e+001, 3.06011524e+001, 1.30851402e+001,
          6.62741709e+000, 8.88515186e+000, 5.80113935e+000,
          5.39140558e+000, 1.60859442e+000, 0., 0., 0., 3.51420975e+001,
          1.22010479e+001, 2.07106781e+000, 5.85786462e-001, 0.,
          2.81064396e+001, 1.55087843e+001, 2.02964649e+001,
          3.81116600e+001, 1.19766502e+001, 3.37847557e+001,
          1.90020390e+001, 1.82253971e+001, 1.69878063e+001, 0., 0., 0.,
          0., 0., 0., 0., 0., 0., 0., 0., 0., 0., 0., 0., 0., 0., 0., 0.,
          0., 0., 0., 0., 0., 0., 0., 0., 0., 0., 0., 0., 0., 0., 0., 0.,
          0., 0., 0., 0., 0., 0., 0., 0., 0., 0., 0., 0., 0., 0., 0., 0.,
          0., 0., 0., 0., 0., 0., 0., 0., 0., 0., 0., 0., 0., 0., 0., 0.,
          0., 0., 0., 0., 0., 0., 0., 0., 0., 0., 0., 0., 0., 0.,
          7.26085997e+000, 1.73914015e+000, 0., 0., 0., 3.18108234e+001,
          3.18917608e+000, 0., 0., 0., 2.13832641e+000, 8.61673534e-001,
          0., 0., 0., 0., 0., 0., 0., 0., 1.82526836e+001,
          6.50467491e+000, 1.65685427e+000, 5.85786462e-001, 0.,
          1.52519631e+000, 1.34331732e+001, 1.86396103e+001,
          3.23535423e+001, 8.04847813e+000, 1.86555350e+000,
          4.72023296e+000, 1.24264073e+000, 9.37429619e+000,
          5.87972755e+001, 0., 0., 0., 0., 0., 1.76496277e+001,
          6.10773182e+000, 1.24264073e+000, 0., 0., 2.34391189e+000,
          1.52713118e+001, 1.69827557e+001, 2.54020195e+001, 0., 0.,
          2.01299419e+001, 1.40832615e+001, 2.58507557e+001,
          4.99360428e+001, 5.22407770e-001, 4.82073784e+000,
          8.69848442e+000, 2.22848091e+001, 3.96735611e+001,
          6.37756968e+000, 1.62243009e+000, 0., 0., 0., 3.68882675e+001,
          1.02833071e+001, 1.65685427e+000, 1.39205408e+000,
          7.79518783e-001, 4.29786224e+001, 2.32223873e+001,
          1.44974747e+001, 2.06593361e+001, 1.64217913e+000,
          3.50485573e+001, 1.63950958e+001, 2.40243874e+001,
          3.52707596e+001, 2.61203885e-001, 0., 0., 0., 0., 0., 0., 0.,
          0., 0., 0., 0., 0., 0., 0., 0., 0., 0., 0., 0., 0., 0., 0., 0.,
          0., 0., 0., 0., 0., 0., 0., 0., 0., 0., 0., 0., 0., 0., 0., 0.,
          0., 0., 0., 0., 0., 0., 0., 0., 0., 0., 0., 0., 0., 0., 0., 0.,
          0., 0., 0., 0., 0., 0., 0., 0., 0., 0., 0., 0., 0., 0., 0., 0.,
          0., 0., 0., 0., 0., 0., 0., 0., 0., 6.64462805e+000,
          1.35537207e+000, 0., 0., 0., 5.38832331e+000, 6.78324986e+000,
          8.28427136e-001, 1.96251905e+000, 1.00374813e+001, 0., 0., 0.,
          8.61673534e-001, 2.13832641e+000, 0., 0., 0., 0., 0. ]
      - [ 0., 1.41421354e+000, 3., 7.17157269e+000, 8.82842731e+000,
          4.14213568e-001, 3.58578634e+000, 1., 0., 0., 9.85304070e+000,
          2.59255791e+001, 3.97510605e+001, 6.05610847e+000,
          1.15300965e+000, 2.26120377e+000, 1.91878974e+000,
          1.50702953e+000, 6.18867970e+000, 2.91363525e+001,
          1.43738050e+001, 2.11595631e+000, 4.09639359e+000,
          6.62993610e-001, 0., 0., 3.06294274e+000, 2.04652729e+001,
          2.10326824e+001, 4.39103633e-001, 0., 0., 0., 3.58578634e+000,
          5.41421366e+000, 2.26120377e+000, 7.73879623e+000, 1., 0., 0.,
          0., 3.17157292e+000, 8.43338394e+000, 1.24685745e+001,
          2.46838284e+001, 1.89103699e+001, 1.09180584e+001,
          6.17157269e+000, 0., 0., 1.13304796e+001, 1.70869884e+001,
          4.02362518e+001, 4.12752151e+001, 2.60710678e+001, 2., 0., 0.,
          1.86422443e+000, 8.70021057e+000, 4.32201958e+001,
          7.54177551e+001, 6.31099892e+001, 1.35979910e+001, 0., 1.,
          3.41421366e+000, 7.58578634e+000, 16., 2., 0., 0., 0., 4., 9.,
          6.17157269e+000, 1.86568546e+001, 1.65147190e+001,
          1.40710678e+001, 6.75735950e+000, 0., 3.69970536e+000, 5.,
          3.41421366e+000, 1.10710678e+001, 2.26677284e+001,
          2.89170265e+001, 3.40965614e+001, 0., 1.89949489e+000, 0.,
          3.20377231e-001, 6.76925373e+000, 3.91805816e+000,
          1.95932045e+001, 5.12692032e+001, 8.43290710e+000,
          1.26191025e+001, 8.84123802e+000, 0., 0., 0., 0.,
          1.06752865e-001, 0., 1.51755819e+001, 2.39426479e+001,
          3.40689731e+000, 2., 1.75735927e+000, 8.28427136e-001,
          9.02830884e-002, 0., 6.09751654e+000, 1., 0., 0.,
          1.17157292e+000, 3.24264073e+000, 5.54207373e+000, 0., 0., 0.,
          0., 0., 0., 0., 0., 0., 7.28447771e+000, 1.84699035e+000, 3.,
          4.14213568e-001, 1., 0., 5.56465611e-002, 0., 8.61582935e-001,
          0., 0., 0., 0., 0., 0., 0., 0., 0., 0., 0., 0., 0., 0., 0., 0.,
          0., 0., 0., 0., 0., 0., 0., 7.43422985e+000, 3.58578634e+000,
          0., 0., 0., 4.24264050e+000, 6.92893219e+000, 0.,
          1.30059137e+001, 1.72176247e+001, 2.88565612e+000, 2.,
          1.32037723e+000, 2.67962265e+000, 7.56575882e-001, 0., 0., 0.,
          0., 0., 0., 0., 0., 0., 0., 0., 0., 0., 0., 0., 0., 0.,
          2.91036892e+000, 4.50384474e+000, 4., 1.25857868e+001, 3., 3.,
          0., 0., 3.17157292e+000, 1.33536425e+001, 3.14589291e+001,
          4.60164261e+000, 4.14213568e-001, 0., 1.05917335e+000, 0., 0.,
          0., 0., 0., 0., 0., 0., 0., 0., 0., 0., 0., 0., 0., 0., 0.,
          3.70413327e+000, 1.48800201e+001, 7.93977451e+000,
          3.47607255e+000, 0., 0., 0., 0., 5.85786462e-001,
          6.25066578e-001, 1.94423695e+001, 1.43467770e+001, 0., 0., 0.,
          0., 0., 0., 0., 0., 0., 0., 0., 0., 0., 0., 0., 0., 0., 0., 0.,
          0., 7.61522388e+000, 7.04163074e+000, 3.08194184e+000,
          2.61203885e-001, 2.80431938e+001, 2.24004574e+001,
          7.45584393e+000, 1.19607038e+001, 2.13980103e+000,
          3.38078003e+001, 9.77798462e+000, 8.28427136e-001,
          2.90680695e+000, 5.67897940e+000, 2.73292027e+001,
          7.84237051e+000, 8.28427136e-001, 8.99494946e-001,
          1.10050511e+000, 0., 7.85786438e+000, 4.55634928e+000,
          5.85786462e-001, 0., 1.26120389e+000, 1.82829514e+001,
          1.86396103e+001, 3.15550308e+001, 2.61203885e-001,
          5.25407696e+000, 2.17753601e+001, 2.85807362e+001,
          5.41286240e+001, 2.61203885e-001, 2.75424242e+000,
          7.51783562e+000, 3.68650055e+001, 1.19037941e+002,
          1.18249702e+001, 2.61203885e-001, 8.01087379e+000,
          4.55634928e+000, 1.17157292e+000, 0., 0., 1.17157288e+001,
          2.07106781e+001, 2.65735931e+001, 0., 0., 9.44365120e+000,
          1.86396103e+001, 5.56974220e+001, 3.32193184e+001, 0.,
          2.75735927e+000, 2.48528147e+000, 2.09062786e+001,
          6.08510818e+001, 1.28751059e+001, 1.57106810e+001,
          4.14213568e-001, 4.14213568e-001, 5.85786462e-001,
          3.51081085e+001, 1.19923954e+001, 3.31370854e+000,
          2.34314585e+000, 1.24264073e+000, 1.17370644e+001,
          4.26293516e+000, 1.65685427e+000, 1.02454538e+001,
          9.09769249e+000, 0., 0., 0., 0., 0., 1.17094707e+001,
          8.80524826e+000, 3.31370854e+000, 1.17157292e+000, 0.,
          1.35607159e+000, 1.22971487e+000, 4.14213568e-001, 0., 0., 0.,
          0., 0., 0., 0., 0., 0., 0., 0., 0., 1.76504838e+000,
          1.09212427e+001, 6.62741709e+000, 8.68629169e+000, 0.,
          2.74237404e+001, 1.00909777e+001, 4.14213562e+000,
          8.68629169e+000, 2.65685415e+000, 0., 0., 0., 0., 0., 0., 0.,
          0., 0., 0., 2.61203885e-001, 8.83930111e+000, 5.38477612e+000,
          3.51471853e+000, 0., 3.79378700e+001, 1.14052773e+001,
          2.07106781e+000, 2.58578634e+000, 0., 0., 0., 0., 0., 0., 0.,
          0., 0., 0., 0., 4.77943611e+000, 2.21494961e+001,
          2.07106781e+000, 0., 0., 2.38636608e+001, 6.13633823e+000, 0.,
          0., 0., 0., 0., 0., 0., 0., 0., 0., 0., 0., 0.,
          2.61203885e-001, 3.66772842e+000, 7.45584393e+000,
          1.16152239e+001, 0., 0., 2.17157292e+000, 3.31370854e+000,
          2.75897064e+001, 4.79250107e+001, 4.54104376e+000,
          1.45895636e+000, 8.28427136e-001, 1.40419445e+001,
          3.61296272e+001, 0., 0., 4.14213568e-001, 6.03392458e+000,
          3.75518608e+001, 0., 3.51471853e+000, 5.79898977e+000,
          7.17157269e+000, 5.14718652e-001, 0., 9.85786438e+000,
          1.44974747e+001, 4.41295357e+001, 5.51512527e+000, 0.,
          2.34314585e+000, 2.44386005e+001, 7.82916946e+001,
          6.92655563e+000, 3.53883219e+000, 1.94195366e+001,
          3.89360733e+001, 1.05491920e+002, 9.61363888e+000, 0.,
          5.85786462e-001, 9.52691174e+000, 1.68873024e+001, 0., 0.,
          1.19583693e+001, 2.19533195e+001, 2.80883121e+001, 0.,
          3.57337570e+001, 3.33251190e+001, 2.11248913e+001,
          3.20326233e+001, 7.83611596e-001, 5.87694473e+001,
          1.48163376e+001, 2.07106781e+000, 1.07311068e+001,
          1.61203873e+000, 1.27521877e+001, 1.05909576e+001,
          1.65685427e+000, 0., 0., 3.03078613e+001, 1.08637114e+001,
          3.31370854e+000, 8.25351429e+000, 2.61203885e-001,
          3.67470169e+001, 4.83876991e+000, 8.28427136e-001,
          1.58578646e+000, 0., 0., 0., 0., 0., 0., 1.96327457e+001,
          5.36725330e+000, 1.65685427e+000, 3.34314585e+000, 0.,
          7.39524698e+000, 1.60475290e+000, 0., 0., 0., 0., 0., 0., 0.,
          0., 0., 0., 0., 0., 0., 5.38429070e+000, 1.44735737e+001,
          4.14213562e+000, 0., 0., 3.30912857e+001, 8.49450016e+000,
          2.48528147e+000, 6.63829088e+000, 1.29064107e+000, 0., 0., 0.,
          0., 0., 0., 0., 0., 0., 0., 0., 2.75735927e+000,
          7.45584393e+000, 1.35255928e+001, 2.61203885e-001,
          6.75417423e-001, 4.66772842e+000, 2.48528147e+000,
          9.23822689e+000, 3.39333458e+001, 0., 0., 0., 0., 0., 0., 0.,
          0., 0., 0., 0., 4.92893219e+000, 4.14213562e+000,
          6.60657978e+000, 4.32235241e+000, 0., 5.85786462e-001,
          4.14213568e-001, 4.27687407e+000, 2.97231255e+001, 0., 0., 0.,
          0., 0., 0., 0., 0., 0., 0. ]
      - [ 0., 0., 0., 0., 0., 0., 0., 0., 0., 1.51248894e+001,
          7.38083315e+000, 6.55574369e+000, 1.42278957e+000, 0., 0.,
          1.94243252e+000, 1.89542520e+000, 1.54217219e+000,
          1.11546917e+001, 1.64054585e+001, 3.34440155e+001,
          1.79570370e+001, 9.48737526e+000, 3.11382556e+000, 0., 0., 0.,
          1.97399640e+000, 6.02600336e+000, 0., 0., 0., 0., 0., 0., 0.,
          0., 0., 0., 0., 0., 5.11971140e+000, 2.59374332e+001,
          1.57198324e+001, 4.94903755e+000, 4.73459101e+000,
          2.26120377e+000, 1.76630235e+000, 0., 1.16366882e+001,
          1.17133551e+001, 1.51846218e+001, 4.08180084e+001,
          1.99538193e+001, 2.41392765e+001, 1.29204931e+001, 0.,
          6.49774599e+000, 1.18774452e+001, 4.19973755e+001,
          5.78896751e+001, 1.35752373e+001, 8.50384426e+000,
          2.62692261e+001, 0., 0., 0., 0., 0., 0., 0., 0., 0.,
          9.95298767e+000, 2.38077712e+000, 1., 0., 0., 0., 0., 0.,
          1.22949448e+001, 9.60831165e+000, 1.99185524e+001,
          2.53267937e+001, 1.28065705e+000, 1.06472600e+000,
          1.75286369e+001, 0., 3.38543940e+000, 9.37975979e+000,
          2.12338009e+001, 1.01008711e+001, 2.77653003e+000,
          1.08572893e+001, 2.83578167e+001, 0., 0., 0., 0., 0., 0., 0.,
          0., 0., 0., 0., 0., 0., 0., 0., 0., 0., 0., 0., 0., 0., 0., 0.,
          0., 0., 0., 0., 0., 0., 0., 0., 0., 0., 0., 0., 0., 0., 0., 0.,
          0., 0., 0., 0., 0., 0., 0., 0., 0., 0., 0., 0., 0., 0., 0., 0.,
          0., 0., 0., 0., 0., 0., 0., 0., 0., 0., 0., 0., 0., 0., 0., 0.,
          0., 0., 0., 0., 0., 0., 0., 0., 0., 0., 0., 0., 0., 0., 0., 0.,
          0., 0., 0., 0., 0., 0., 0., 0., 0., 0., 0., 0., 0., 0., 0., 0.,
          0., 0., 0., 0., 0., 0., 0., 0., 0., 0., 0., 0., 0., 0., 0., 0.,
          0., 0., 0., 0., 0., 0., 0., 0., 0., 0., 0., 0., 0., 0., 0., 0.,
          0., 0., 0., 0., 0., 0., 0., 0., 0., 0., 1.38452816e+001,
          8.68808556e+000, 2.13171959e+000, 5.86226749e+000,
          8.85529423e+000, 7.17186069e+000, 5.81258583e+000, 0.,
          3.61302108e-001, 9.18125725e+000, 6.67415857e+000,
          1.65720749e+001, 5.21120834e+000, 1., 0., 0., 0., 0., 0., 0.,
          2.97159519e+001, 1.02840481e+001, 8.28427136e-001,
          1.95066428e+000, 3.22090864e+000, 2.78909893e+001,
          9.28058338e+000, 1.65685427e+000, 1.11149864e+001,
          3.20565872e+001, 3.07620406e+000, 9.23795998e-001, 0., 0., 0.,
          0., 0., 0., 0., 0., 4.11088142e+001, 9.47697067e+000,
          2.48528147e+000, 8.40652466e+000, 5.22407770e-001,
          2.56226063e+001, 2.59215508e+001, 1.53259020e+001,
          4.18082428e+001, 2.43217010e+001, 4.14546127e+001,
          3.46042633e+001, 2.44386005e+001, 5.26736336e+001,
          1.68288918e+001, 0., 0., 0., 0., 0., 1.32487440e+001,
          7.33704281e+000, 4.14213568e-001, 0., 0., 5.22042389e+001,
          2.03815479e+001, 2.07106781e+000, 2.44254284e+001,
          1.79177170e+001, 2.29738617e+001, 1.87124310e+001,
          9.94112587e+000, 3.05418491e+001, 3.08307343e+001, 0., 0., 0.,
          0., 0., 0., 0., 0., 0., 0., 0., 0., 0., 0., 0., 0., 0., 0., 0.,
          0., 0., 0., 0., 0., 0., 0., 0., 0., 0., 0., 0., 0., 0., 0., 0.,
          0., 0., 0., 0., 0., 0., 0., 0., 0., 0., 0., 0., 0., 0., 0., 0.,
          0., 0., 0., 0., 0., 0., 0., 0., 0., 0., 0., 0., 0., 0., 0., 0.,
          0., 0., 0., 0., 0., 0., 0., 0., 0., 0., 0., 0., 0., 0., 0., 0.,
          0., 0., 0., 0., 0., 0., 0., 1.96842651e+001, 1.28304529e+001,
          3.31370854e+000, 5.82843828e+000, 2.13431339e+001,
          1.53209915e+001, 4.67900848e+000, 0., 3.62778044e+000,
          8.37222004e+000, 0., 0., 0., 0., 0., 3.42087288e+001,
          6.79126930e+000, 0., 2.61400223e+000, 7.38599777e+000,
          6.75934315e+000, 3.82644343e+000, 1.65685427e+000,
          1.58642893e+001, 5.88930702e+001, 0., 0., 0., 1.31713700e+000,
          6.68286324e+000, 0., 0., 0., 0., 0., 1.18529100e+001,
          4.73287630e+000, 2.07106781e+000, 1.54008589e+001,
          1.99422874e+001, 2.80759048e+001, 2.09535332e+001,
          1.03553391e+001, 4.50599747e+001, 3.55552483e+001,
          3.71479263e+001, 3.58815079e+001, 1.82253971e+001,
          4.72528954e+001, 5.54922714e+001, 0., 0., 0., 0., 0.,
          2.13891964e+001, 3.61080384e+000, 0., 4.85281378e-001,
          5.14718652e-001, 6.56968613e+001, 1.90604992e+001,
          1.65685427e+000, 1.04833603e+001, 3.81024284e+001,
          5.91870995e+001, 1.79844742e+001, 3.31370854e+000,
          1.94962082e+001, 1.80185108e+001, 0., 0., 0., 0., 0., 0., 0.,
          0., 0., 0., 0., 0., 0., 0., 0., 0., 0., 0., 0., 0., 0., 0., 0.,
          0., 0., 0., 0., 0., 0., 0., 0., 0., 0., 0., 0., 0., 0., 0., 0.,
          0., 0., 0., 0., 0., 0., 0., 0., 0., 0., 0., 0., 0., 0., 0., 0.,
          0., 0., 0., 0., 0., 0., 0., 0., 0., 0., 0., 0., 0., 0., 0., 0.,
          0., 0., 0., 0., 0., 0., 0., 0., 0., 0., 0., 0., 0., 0., 0., 0.,
          0., 0., 0., 4.09734840e+001, 1.27838745e+001, 1.24264073e+000,
          4.20804214e+000, 1.67919579e+001, 7.79518783e-001,
          2.20481202e-001, 4.14213568e-001, 5.79168081e+000,
          2.47941055e+001 ]
      - [ 0., 0., 0., 0., 0., 0., 0., 0., 0., 1.19688711e+001,
          7.17171764e+000, 0., 0., 0., 0., 0., 0., 4.80248165e+000,
          6.85686779e+000, 9.98334312e+000, 4.03527565e+001,
          2.03475647e+001, 1.07038002e+001, 4.59983444e+000, 0., 0., 0.,
          2.35945940e+000, 2.64054060e+000, 0., 0., 0., 0., 0., 0., 0.,
          0., 0., 0., 0., 0., 5.06077242e+000, 1.66648178e+001,
          1.06399937e+001, 3.89058828e-001, 0., 0., 2.04537153e-001, 0.,
          1.08762712e+001, 1.44068108e+001, 2.10468998e+001,
          3.26837120e+001, 2.91709614e+001, 2.05691757e+001,
          1.29608192e+001, 0., 1.22488451e+001, 1.90941372e+001,
          4.55189743e+001, 4.56888390e+001, 7.87321568e+000,
          5.44928789e+000, 3.07945461e+001, 0., 0., 0., 0., 0., 0., 0.,
          0., 0., 6.76621342e+000, 2.55804825e+000, 0., 0., 0., 0., 0.,
          0., 1.61844749e+001, 7.55752087e+000, 1.94048862e+001,
          1.65942440e+001, 1.51203215e-001, 2., 8.01725292e+000, 0.,
          3.91855693e+000, 7.04882288e+000, 1.70880661e+001,
          1.11845760e+001, 1.68389893e+000, 7.18346739e+000,
          3.35933113e+001, 0., 0., 0., 0., 0., 0., 0., 0., 0., 0., 0.,
          0., 0., 0., 0., 0., 0., 0., 0., 0., 0., 0., 0., 0., 0., 0., 0.,
          0., 0., 0., 0., 0., 0., 0., 0., 0., 0., 0., 0., 0., 0., 0., 0.,
          0., 0., 0., 0., 0., 0., 0., 0., 0., 0., 0., 0., 0., 0., 0., 0.,
          0., 0., 0., 0., 0., 0., 0., 0., 0., 0., 0., 0., 0., 0., 0., 0.,
          0., 0., 0., 0., 0., 0., 0., 0., 0., 0., 0., 0., 0., 0., 0., 0.,
          0., 0., 0., 0., 0., 0., 0., 0., 0., 0., 0., 0., 0., 0., 0., 0.,
          0., 0., 0., 0., 0., 0., 0., 0., 0., 0., 0., 0., 0., 0., 0., 0.,
          0., 0., 0., 0., 0., 0., 0., 0., 0., 0., 0., 0., 0., 0., 0., 0.,
          0., 0., 0., 0., 0., 0., 1.20989285e+001, 1.28092203e+001,
          2.44226909e+000, 1.67825718e+001, 1.43340149e+001,
          8.51421714e-001, 7.08510590e+000, 0., 0., 2.61201096e+000,
          1.82953703e+000, 8.43005276e+000, 1.28398955e-001, 0., 0., 0.,
          0., 0., 0., 0., 2.07797394e+001, 6.80604601e+000,
          4.14213568e-001, 0., 0., 1.99902382e+001, 1.01813335e+001,
          2.07106781e+000, 1.92657661e+001, 3.94915924e+001,
          2.08577704e+000, 9.14222956e-001, 0., 0., 0., 0., 0., 0., 0.,
          0., 2.80572109e+001, 6.94278812e+000, 0., 1., 0.,
          3.53460922e+001, 2.08549194e+001, 1.73969688e+001,
          4.43566170e+001, 2.20454044e+001, 4.92333908e+001,
          4.95117722e+001, 2.48528137e+001, 4.25682755e+001,
          1.28337431e+001, 0., 0., 0., 0., 0., 9.73237228e+000,
          3.26762795e+000, 0., 0., 0., 4.63237610e+001, 1.94335995e+001,
          4.14213562e+000, 1.47438564e+001, 8.35664845e+000,
          2.92858353e+001, 1.17141638e+001, 6.62741709e+000,
          3.45056419e+001, 3.18669415e+001, 0., 0., 0., 0., 0., 0., 0.,
          0., 0., 0., 0., 0., 0., 0., 0., 0., 0., 0., 0., 0., 0., 0., 0.,
          0., 0., 0., 0., 0., 0., 0., 0., 0., 0., 0., 0., 0., 0., 0., 0.,
          0., 0., 0., 0., 0., 0., 0., 0., 0., 0., 0., 0., 0., 0., 0., 0.,
          0., 0., 0., 0., 0., 0., 0., 0., 0., 0., 0., 0., 0., 0., 0., 0.,
          0., 0., 0., 0., 0., 0., 0., 0., 0., 0., 0., 0., 0., 0., 0., 0.,
          0., 0., 0., 3.00479584e+001, 8.53782845e+000, 8.28427136e-001,
          1.21390057e+001, 2.74467812e+001, 4.28891754e+000,
          1.71108234e+000, 0., 4.85281378e-001, 5.14718652e-001, 0., 0.,
          0., 0., 0., 2.43460083e+001, 4.65399170e+000, 0., 0., 0.,
          1.59502859e+001, 4.63550043e+000, 4.14213568e-001,
          1.50722685e+001, 6.09277306e+001, 0., 0., 0., 1.49761677e+000,
          3.50238323e+000, 0., 0., 0., 0., 0., 9.92471218e+000,
          4.24686098e+000, 1.24264073e+000, 3.43129182e+000,
          1.21544943e+001, 2.81635818e+001, 1.71084957e+001,
          1.36690474e+001, 4.89843712e+001, 3.40745049e+001,
          3.83264198e+001, 4.78035202e+001, 1.65685425e+001,
          4.84991722e+001, 5.08023453e+001, 0., 0., 0., 0., 0.,
          1.06117992e+001, 2.38820028e+000, 0., 0., 0., 5.81033249e+001,
          1.40682478e+001, 1.24264073e+000, 6.70492220e+000,
          3.08808632e+001, 6.16197510e+001, 2.50665417e+001,
          3.72792196e+000, 9.00740433e+000, 2.45783825e+001, 0., 0., 0.,
          0., 0., 0., 0., 0., 0., 0., 0., 0., 0., 0., 0., 0., 0., 0., 0.,
          0., 0., 0., 0., 0., 0., 0., 0., 0., 0., 0., 0., 0., 0., 0., 0.,
          0., 0., 0., 0., 0., 0., 0., 0., 0., 0., 0., 0., 0., 0., 0., 0.,
          0., 0., 0., 0., 0., 0., 0., 0., 0., 0., 0., 0., 0., 0., 0., 0.,
          0., 0., 0., 0., 0., 0., 0., 0., 0., 0., 0., 0., 0., 0., 0., 0.,
          0., 0., 0., 0., 0., 0., 0., 4.05452271e+001, 1.14547739e+001,
          4.14213568e-001, 6.69068623e+000, 2.88950996e+001, 0., 0., 0.,
          2.32019377e+000, 8.67980671e+000 ]
      - [ 0., 0., 3.41421366e+000, 4.75735950e+000, 1.88284264e+001,
          1.58578646e+000, 1.41421354e+000, 1., 3.67032790e+000, 0., 0.,
          5.72938156e+000, 3.45870171e+001, 1.70140209e+001,
          1.67497578e+001, 1.72494946e+001, 0., 1., 2., 7.32097721e+000,
          2.90404053e+001, 3.00451431e+001, 2.24316921e+001,
          3.29307022e+001, 0., 1.56370366e+000, 9.28689003e-001,
          3.36282768e+001, 6.06087379e+001, 2.90878124e+001,
          1.98361168e+001, 9.45111561e+000, 0., 0., 3., 6.17157269e+000,
          1.20896311e+001, 5.73879623e+000, 2., 0., 0., 0., 1.,
          1.31715727e+001, 2.86397343e+001, 3.68192940e+001,
          9.78361130e+000, 5.85786462e-001, 0., 0., 1., 1.59563541e+001,
          6.82953033e+001, 4.45690804e+001, 1.15934753e+001,
          2.37737060e+000, 0., 1.93326683e+001, 9.52291107e+000,
          1.34231644e+001, 5.34417229e+001, 4.10690346e+001,
          1.58361158e+001, 2.47991238e+001, 0., 0., 1., 0.,
          5.82842731e+000, 1.16862917e+001, 8.48528099e+000, 0., 0., 0.,
          0., 0., 1.41421354e+000, 1.65147190e+001, 2.77316723e+001,
          1.90435085e+001, 0., 0., 1., 0., 0., 4.49195004e+000,
          1.36781015e+001, 2.39865303e+001, 0., 0., 0., 0., 0., 0.,
          2.82823235e-001, 1.79336033e+001, 0., 0., 0., 2., 5.,
          9.75735950e+000, 8.24264050e+000, 1., 0., 5.85786462e-001, 0.,
          0., 0., 1.58578646e+000, 6.82255316e+000, 1.86319790e+001, 0.,
          0., 0., 0., 0., 0., 0., 0., 0., 0., 0., 0., 0., 0., 0., 0., 0.,
          0., 1., 4.58578634e+000, 1.02426405e+001, 1.01715727e+001, 1.,
          0., 0., 5.32081032e+000, 0., 0., 2.58578634e+000,
          7.49195004e+000, 8.33647728e+000, 1.96171150e+001, 0.,
          1.62601501e-001, 0., 0., 0., 0., 0., 3.36031508e+000, 0., 0.,
          0., 0., 0., 0., 0., 0., 0., 0., 0., 1., 9., 5.17157269e+000,
          1.02426405e+001, 1.58578646e+000, 0., 4.11420107e+000,
          1.53198757e+001, 9.83449650e+000, 1.96775627e+001,
          2.00684566e+001, 1.25672789e+001, 4.58283091e+000, 0.,
          2.27928600e+001, 4.65613136e+001, 8.13291931e+000, 1., 1.,
          1.41421354e+000, 5.85786462e-001, 0., 0., 0., 0., 0., 0., 0.,
          0., 0., 0., 1., 2.58578634e+000, 1.92426414e+001,
          8.17157269e+000, 1., 0., 0., 5.31022453e+000, 1.31225500e+001,
          1.95695419e+001, 1.47680082e+001, 1.84340878e+001,
          1.01954441e+001, 8.75735950e+000, 0., 2.58023679e-001,
          1.74827576e+001, 1.09445772e+001, 4.31464100e+000, 0., 0., 0.,
          0., 0., 0., 0., 0., 0., 0., 0., 0., 1., 1.41421354e+000, 1.,
          7.08963108e+000, 9.66772842e+000, 7.24264050e+000,
          5.85786462e-001, 0., 6.86412513e-001, 1.29111862e+001,
          6.15976095e+000, 8.07106781e+000, 1.49289322e+001,
          2.21015263e+001, 1.47269020e+001, 0., 1.51610565e+000,
          3.03734169e+001, 2.27616558e+001, 2.15277996e+001,
          2.31641693e+001, 1.06568546e+001, 0., 0., 0., 1.,
          2.94640231e+000, 1.00535975e+001, 0., 0., 0., 2.61203885e-001,
          7.42508745e+000, 4.55634928e+000, 3.75735927e+000, 0.,
          8.41392136e+000, 1.29292250e+001, 7.04163074e+000,
          3.35756264e+001, 2.40395985e+001, 5.95309687e+000,
          9.14740849e+000, 2.15391045e+001, 6.88994293e+001,
          2.74609604e+001, 3.42240601e+001, 2.22195930e+001,
          1.53259020e+001, 5.54762115e+001, 1.17542353e+001, 0.,
          5.85786438e+000, 7.87005758e+000, 7.27207804e+000, 0., 0.,
          1.25441561e+001, 1.69827557e+001, 4.84468346e+001,
          3.02625227e+000, 1.00638332e+001, 2.00661087e+001,
          2.40243874e+001, 5.37189140e+001, 3.12675738e+000,
          2.89693947e+001, 3.19889755e+001, 2.89949493e+001,
          7.53831253e+001, 1.26635571e+001, 0., 5.85786462e-001,
          6.21320343e+000, 1.52010098e+001, 0., 0., 0., 1.78111839e+001,
          4.58536606e+001, 1.53351545e+001, 0., 5.85786462e-001,
          4.55634928e+000, 3.05442524e+001, 2.83136120e+001, 0., 0., 0.,
          9.24000359e+000, 2.07599964e+001, 0., 1.17157292e+000,
          4.55634928e+000, 1.50108738e+001, 2.61203885e-001, 0.,
          5.85786462e-001, 2.89949489e+000, 1.76916428e+001,
          2.18230762e+001, 0., 0., 0., 0., 0., 0., 0., 0., 0., 0., 0.,
          3.51471853e+000, 6.62741709e+000, 7.85786438e+000, 0.,
          4.82687235e+000, 5.10205984e+000, 5.79898977e+000,
          2.68027229e+001, 2.34693546e+001, 5.14718652e-001,
          1.65685427e+000, 8.28427136e-001, 2.07113481e+000,
          5.92886496e+000, 0., 0., 0., 0., 0., 0., 5.85786462e-001,
          4.97056293e+000, 1.24436512e+001, 0., 1.26504126e+001,
          1.70358791e+001, 1.11837664e+001, 2.51548405e+001,
          9.97510052e+000, 6.24284935e+001, 1.85715084e+001, 0.,
          2.73879623e+000, 2.61203885e-001, 0., 0., 0., 0., 0., 0.,
          3.34314585e+000, 5.38477612e+000, 9.27207756e+000, 0.,
          2.39840641e+001, 1.85306549e+001, 7.45584393e+000,
          3.20661583e+001, 4.96328068e+000, 2.60077038e+001,
          3.99229646e+000, 0., 0., 0., 0., 0., 0., 0., 0., 0.,
          2.75735927e+000, 4.14213562e+000, 1.46414757e+001,
          1.45902908e+000, 1.37095909e+001, 5.21934128e+000,
          1.32548342e+001, 4.02041969e+001, 1.61203873e+000,
          4.86206017e+001, 1.49651842e+001, 1.15979795e+001,
          2.62938251e+001, 5.22407770e-001, 4.25812387e+000,
          3.74187613e+000, 0., 0., 0., 0., 1.17157292e+000,
          4.14213562e+000, 2.12272625e+001, 1.45902908e+000,
          1.38312082e+001, 1.24408693e+001, 4.97056293e+000,
          2.68737526e+001, 3.18836060e+001, 4.19842300e+001,
          2.20452080e+001, 1.82253971e+001, 4.30718422e+001,
          1.56733236e+001, 1.26598577e+001, 1.38548603e+001,
          1.65685425e+001, 5.46260986e+001, 6.12906418e+001, 0., 0.,
          3.31370854e+000, 1.89660587e+001, 1.72023296e+000, 0.,
          5.85786462e-001, 6.21320343e+000, 6.18316116e+001,
          1.23693981e+001, 1.26120389e+000, 5.66772842e+000,
          1.78111839e+001, 8.46816635e+001, 3.35782204e+001,
          4.55940819e+001, 3.68495712e+001, 1.94680367e+001,
          6.32908669e+001, 3.47974434e+001, 0., 5.85786462e-001,
          7.04163074e+000, 1.33725834e+001, 0., 2.59541607e+001,
          1.11463432e+001, 1.03553391e+001, 1.25441561e+001, 0.,
          3.90559807e+001, 1.58729525e+001, 4.55634928e+000,
          3.51471853e+000, 0., 2.80955429e+001, 8.90445709e+000, 0., 0.,
          0., 0., 1.17157292e+000, 8.28427124e+000, 1.15441561e+001, 0.,
          3.69172211e+001, 1.04259224e+001, 2.48528147e+000,
          1.17157292e+000, 0., 0., 0., 0., 0., 0., 0., 0., 0., 0., 0.,
          0., 0., 7.87005758e+000, 1.71299419e+001, 0., 4.41902351e+001,
          1.74960537e+001, 7.45584393e+000, 8.33545685e+000,
          5.22407770e-001, 1.86320400e+001, 2.36796069e+000, 0., 0., 0.,
          0., 0., 0., 0., 0., 0., 1.17157292e+000, 7.45584393e+000,
          9.37258339e+000, 0., 6.18711138e+000, 8.74182129e+000,
          1.28406200e+001, 4.15639992e+001, 9.66644859e+000,
          3.34893494e+001, 1.66822243e+001, 4.97056293e+000,
          1.21049728e+001, 6.75289154e+000, 0., 0., 0., 0., 0., 0., 0.,
          4.14213568e-001, 2.56677284e+001, 3.91805816e+000,
          2.23495150e+000, 1.58655539e+001, 5.79898977e+000,
          2.98555965e+001, 2.82449093e+001, 2.61203885e-001,
          1.91036904e+000, 1.65685427e+000, 6.74612999e+000,
          1.54254427e+001, 0., 0., 0., 0., 0., 0., 2.17157292e+000,
          3.31370854e+000, 1.47944860e+001, 1.72023296e+000,
          1.19434142e+000, 1.80066681e+001, 1.44974747e+001,
          2.18965530e+001, 6.40496111e+000, 2.68241143e+000,
          2.48916149e+000, 1.24264069e+001, 3.48228455e+001,
          3.85791740e+001, 0., 0., 0., 2.81181335e+000, 1.01881866e+001 ]
      - [ 0., 0., 0., 3., 8.82842731e+000, 1.39289322e+001,
          5.24264050e+000, 1., 0., 3.20377231e-001, 4.14213568e-001,
          8.28749275e+000, 4.14183846e+001, 3.57744865e+001,
          2.36663032e+000, 7.38796115e-001, 0., 0., 0., 1.01437273e+001,
          4.69207649e+001, 1.50671988e+001, 2.55046577e+001,
          2.59310360e+001, 0., 2.71243167e+000, 8.28427136e-001,
          1.72428493e+001, 6.08210526e+001, 3.70999832e+001,
          2.10271282e+001, 3.57649956e+001, 0., 0., 0., 0., 3.,
          1.25147190e+001, 6.48528147e+000, 0., 0., 0., 2.,
          1.11715727e+001, 2.86687489e+001, 2.90700474e+001,
          1.86754169e+001, 4.14213568e-001, 0., 1.11391890e+000,
          4.14213568e-001, 4.99348402e+000, 3.94656563e+001,
          5.98129349e+001, 3.37279205e+001, 6.06337881e+000, 0.,
          5.49736547e+000, 5.23722553e+000, 6.48707724e+000,
          6.54210663e+001, 5.42743073e+001, 2.78962345e+001,
          2.03677750e+001, 0., 0., 0., 0., 2.41421366e+000,
          5.92893219e+000, 8.07106781e+000, 5.74122000e+000, 0.,
          2.51537114e-001, 1., 1.58578646e+000, 5.82842731e+000,
          4.17157269e+000, 5.24264050e+000, 1.92209988e+001, 0., 0., 0.,
          5.85786462e-001, 8.28427136e-001, 3.17157292e+000,
          2.41421366e+000, 1.54921455e+001, 0., 0., 0., 0., 0., 0.,
          1.44427657e+000, 5.12992620e+000, 0., 0., 0., 0., 0.,
          5.58578634e+000, 3., 9.78530502e+000, 0., 0., 0., 0., 0., 0.,
          0., 3.77116752e+000, 0., 0., 0., 0., 0., 0., 0., 0., 0., 0.,
          0., 0., 0., 0., 0., 0., 0., 8.12103003e-002, 0., 1., 4., 2.,
          3.84699035e+000, 5.34491587e+000, 0., 2.43603766e-001, 0., 0.,
          0., 0., 0., 5.39968014e+000, 0., 0., 0., 0., 0., 0., 0., 0.,
          0., 0., 0., 0., 0., 0., 0., 0., 0., 0., 0., 1.,
          9.41421318e+000, 4.58578634e+000, 9.41421318e+000,
          5.85786462e-001, 0., 3.16680145e+000, 5.82842731e+000,
          1.16816616e+001, 1.79850769e+001, 1.50934086e+001,
          5.41142511e+000, 8.88958645e+000, 0., 1.87191353e+001,
          2.74623661e+001, 9.79593468e+000, 1.50221109e-001, 0., 0., 0.,
          0., 0., 0., 0., 0., 0., 0., 0., 0., 2., 1., 5.85786462e-001,
          1.12426405e+001, 7.92893219e+000, 4.24264050e+000, 1., 0.,
          9.87509346e+000, 1.40307608e+001, 7.78539228e+000,
          1.31170511e+001, 2.00707035e+001, 1.91776791e+001,
          3.35546231e+000, 0., 4.68588448e+000, 3.92349243e+001,
          2.56260262e+001, 1.44351606e+001, 1.87631881e+000,
          2.73514915e+000, 4.06535119e-001, 0., 0., 0., 0., 0., 0., 0.,
          0., 0., 0., 0., 4.14213568e-001, 13., 1.27573595e+001,
          1.82842708e+000, 0., 0., 2.90616369e+000, 4.50804996e+000,
          7.14540386e+000, 2.53626461e+001, 2.04023190e+001,
          2.36162434e+001, 4.05917358e+000, 0., 3.29865074e+000,
          3.49185066e+001, 1.98415318e+001, 1.37697372e+001,
          1.09289322e+001, 2.03137093e+001, 1.31596785e+001,
          7.75922477e-001, 0., 1.29188108e+001, 2.64279194e+001,
          2.63237648e+001, 6.17649412e+000, 3.15300965e+000,
          1.22407746e+000, 0., 1.75735927e+000, 7.45584393e+000,
          1.47867966e+001, 0., 1.43629634e+000, 8.42156792e+000,
          1.98822517e+001, 4.05763702e+001, 1.68351340e+000,
          1.48890915e+001, 1.17972002e+001, 1.03553391e+001,
          5.29125481e+001, 4.20458221e+001, 1.94025707e+001,
          1.91121483e+001, 2.56812401e+001, 8.44684677e+001,
          2.03355713e+001, 0., 0., 4.97056293e+000, 1.40294371e+001, 0.,
          0., 8.61522388e+000, 1.73969688e+001, 3.96369705e+001,
          2.35083485e+000, 0., 6.85786438e+000, 3.23086586e+001,
          8.40498657e+001, 7.83611596e-001, 6.57327032e+000,
          1.56277399e+001, 3.47939377e+001, 8.37928314e+001,
          2.32122192e+001, 0., 0., 6.62741709e+000, 1.63725834e+001, 0.,
          0., 3.34314585e+000, 5.79898977e+000, 2.45672951e+001,
          2.32905693e+001, 0., 5.85786462e-001, 2.07106781e+000,
          1.43222027e+001, 2.30209427e+001, 0., 0., 4.14213568e-001,
          5.05130148e+000, 7.53448486e+000, 0., 0., 2.48528147e+000,
          1.78946400e+001, 8.62007904e+000, 0., 0., 4.14213568e-001,
          3.37524581e+000, 6.21054077e+000, 0., 0., 0., 0., 0., 0., 0.,
          0., 0., 0., 0., 1.17157292e+000, 2.89949489e+000,
          1.05183983e+001, 5.41053343e+000, 9.28932190e-001,
          1.07106781e+000, 0., 7.15880632e+000, 1.08411932e+001, 0., 0.,
          0., 0., 0., 0., 0., 0., 0., 0., 0., 5.85786462e-001,
          4.55634928e+000, 1.08578644e+001, 0., 1.71221972e+000,
          1.98319359e+001, 1.61543293e+001, 2.66059742e+001,
          9.69554043e+000, 4.56941338e+001, 1.40632248e+001,
          1.24264073e+000, 0., 0., 0., 0., 0., 0., 0., 0.,
          2.34314585e+000, 5.79898977e+000, 9.85786438e+000, 0.,
          1.59138346e+001, 1.71866703e+001, 8.69848442e+000,
          2.66047916e+001, 1.55962181e+001, 5.95942307e+001,
          1.77489147e+001, 2.07106781e+000, 2.55566716e+000,
          4.03011942e+000, 0., 0., 0., 0., 0., 0., 5.85786462e-001,
          7.45584393e+000, 1.19583693e+001, 0., 2.13455892e+000,
          1.08948784e+001, 1.65685425e+001, 3.88043404e+001,
          3.59768081e+000, 4.42567482e+001, 1.40863972e+001,
          1.15979795e+001, 3.67080383e+001, 1.35083485e+000,
          3.59060936e+001, 1.66086235e+001, 4.14213562e+000,
          1.11530094e+001, 1.19013608e+000, 0., 5.85786462e-001,
          7.45584393e+000, 1.94359608e+001, 5.22407770e-001,
          6.75417423e-001, 6.32458258e+000, 8.69848442e+000,
          6.29332542e+001, 1.43682623e+001, 3.92551384e+001,
          2.64311523e+001, 7.04163074e+000, 2.63318996e+001,
          4.69401779e+001, 3.90248528e+001, 2.77619438e+001,
          1.98822517e+001, 6.40947876e+001, 4.12361641e+001, 0., 0.,
          7.45584393e+000, 1.05441561e+001, 0., 0., 5.85786462e-001,
          1.90538235e+001, 5.35505257e+001, 2.80986404e+000,
          1.88771296e+000, 6.21279192e+000, 2.40243874e+001,
          7.73130646e+001, 1.15620441e+001, 2.98773880e+001,
          1.96373310e+001, 2.56812401e+001, 7.05679703e+001,
          3.72360687e+001, 1.95733309e+000, 6.38581276e+000,
          5.38477612e+000, 6.27207804e+000, 0., 3.94341087e+001,
          1.29090357e+001, 4.97056293e+000, 8.68629169e+000, 0.,
          3.33370399e+001, 7.24874687e+000, 1.65685427e+000,
          4.75735950e+000, 0., 1.38010082e+001, 3.19899154e+000, 0., 0.,
          0., 1.43003206e+001, 6.87125206e+000, 2.89949489e+000,
          4.92893219e+000, 0., 1.33575554e+001, 2.64244509e+000, 0., 0.,
          0., 0., 0., 0., 0., 0., 0., 0., 0., 0., 0., 1.00507326e+001,
          5.53505325e+000, 3.31370854e+000, 4.10050488e+000, 0.,
          2.85275879e+001, 4.47241163e+000, 0., 0., 0., 0., 0., 0., 0.,
          0., 0., 0., 0., 0., 0., 0., 5.85786462e-001, 5.38477612e+000,
          1.00294371e+001, 0., 2.05671902e+001, 9.94752884e+000,
          1.11837664e+001, 3.15111504e+001, 6.79036427e+000,
          3.57314720e+001, 8.26852798e+000, 1.24264073e+000,
          4.06660652e+000, 9.69075298e+000, 0., 0., 0., 0., 0., 0.,
          2.92893219e+000, 8.28427124e+000, 1.47867966e+001, 0.,
          1.19620829e+001, 8.30999470e+000, 1.20121937e+001,
          2.95057526e+001, 1.62099762e+001, 8.56411266e+000,
          5.77903271e+000, 3.31370854e+000, 1.81282921e+001,
          3.72148552e+001, 0., 0., 0., 0., 0., 0., 0., 3.72792196e+000,
          2.14436512e+001, 1.82842708e+000, 2.61203885e-001,
          8.01087379e+000, 1.15979795e+001, 4.26333733e+001,
          5.49656820e+000, 5.18674469e+000, 2.36000519e+001,
          1.28406200e+001, 3.07091656e+001, 2.46634178e+001,
          7.75922477e-001, 1.22407746e+000, 2.89949489e+000,
          2.07479839e+001, 4.43525200e+001 ]
      - [ 0., 2.67127013e+000, 1., 0., 2.41421366e+000, 5.85786462e-001,
          0., 5.08390617e+000, 0., 1., 4., 3.58578634e+000,
          5.82842731e+000, 7.23074627e+000, 2.10118942e+001,
          1.82720776e+001, 0., 0., 1., 4.58578634e+000, 4.68284264e+001,
          3.17573586e+001, 2.98284264e+001, 10., 0., 2.44693995e+000,
          6.20675898e+000, 3.70734901e+001, 9.68927307e+001,
          5.68852196e+001, 1.22092342e+001, 1.88759148e+000, 0., 0., 0.,
          0., 0., 0., 0., 6.72516870e+000, 0., 1.11644971e+000,
          2.61203885e-001, 0., 0., 1.22407746e+000, 2.19013596e+000,
          2.51320972e+001, 0., 2.31582499e+000, 8.28427136e-001,
          1.75735927e+000, 4.14213568e-001, 0., 8.76504803e+000,
          4.46975784e+001, 0., 4.78257447e-001, 0., 0., 5.,
          1.14065247e+001, 1.46831064e+001, 4.50177879e+001, 0., 0., 0.,
          0., 0., 0., 0., 0., 0., 0., 0., 0., 0., 0., 0., 0., 0., 0., 0.,
          0., 0., 0., 0., 0., 0., 0., 0., 0., 0., 0., 0., 0., 0., 0., 0.,
          0., 0., 0., 0., 0., 0., 0., 0., 0., 0., 0., 0., 0., 0., 0., 0.,
          0., 0., 0., 0., 0., 0., 0., 0., 0., 0., 0., 0., 0., 0., 0., 0.,
          0., 0., 0., 0., 0., 0., 0., 0., 0., 0., 0., 0., 0., 0., 0., 0.,
          0., 0., 0., 0., 0., 0., 0., 0., 0., 0., 0., 0., 0., 0., 0., 0.,
          0., 0., 0., 0., 0., 0., 2.55609250e+000, 0., 0., 0., 0., 0.,
          4.49342346e+000, 1.23899341e-001, 1.62519503e+000,
          1.25090563e+000, 0., 0., 0., 0., 0., 0., 0., 0., 0., 0., 0.,
          0., 0., 0., 1.78692877e-001, 2.58578634e+000, 4.14213568e-001,
          7.79518783e-001, 2.20481202e-001, 2.61203885e-001,
          1.06529016e+001, 0., 1.24819508e+001, 4.50220680e+000,
          5.31431770e+000, 1.03425369e+001, 1.25147190e+001,
          1.49222631e+001, 1.25231266e+001, 0., 2.68669605e+001,
          5.05589981e+001, 8.57404327e+000, 4., 3.58578634e+000,
          6.41421366e+000, 4., 0., 2.36799195e-001, 2.52243843e+001,
          2.53881550e+000, 0., 0., 0., 0., 0., 2.71507233e-001, 1., 1.,
          2., 3.67541742e+000, 3.67405248e+000, 6.55720854e+000, 0., 2.,
          1., 0., 1.18284273e+001, 1.31005049e+001, 2.45563488e+001,
          1.28578644e+001, 0., 2.58578634e+000, 7.56722307e+000,
          1.01043377e+001, 6.18137207e+001, 3.84436493e+001,
          1.94852810e+001, 1., 0., 1.23792589e+000, 1.64510231e+001,
          5.17422600e+001, 6.46477890e+001, 1.51811609e+001,
          2.73984289e+000, 0., 2.30892038e+000, 5.62001181e+000,
          4.14213562e+000, 6.29419661e+000, 6.63473558e+000, 0.,
          5.68629169e+000, 1.65685425e+001, 3.43943329e+001,
          1.35083485e+000, 0., 3.51471853e+000, 2.89949493e+001,
          4.64903336e+001, 0., 2.85704937e+001, 2.89025936e+001,
          3.43797264e+001, 5.27392082e+001, 1.64079781e+001, 0., 0., 0.,
          4.84932852e+000, 1.01506710e+001, 1.31411529e+000,
          2.27167106e+000, 3.72792196e+000, 1.79261189e+001,
          2.37601738e+001, 0., 5.75735950e+000, 9.94112587e+000,
          4.20055847e+001, 2.52959290e+001, 1.38763714e+000,
          1.61236286e+000, 1.57401152e+001, 5.27065048e+001,
          2.55533791e+001, 0., 0., 0., 0., 0., 0., 0., 0., 0., 0., 0.,
          0., 0., 0., 0., 0., 0., 0., 0., 0., 0., 0., 0., 0., 0., 0., 0.,
          0., 0., 0., 0., 0., 0., 0., 0., 0., 0., 0., 0., 0., 0., 0., 0.,
          0., 0., 0., 0., 0., 0., 0., 0., 0., 0., 0., 0., 0., 0., 0., 0.,
          0., 0., 0., 0., 0., 0., 3.52053714e+000, 2.06524944e+000,
          4.14213568e-001, 1.46291351e+000, 5.53708649e+000,
          2.00239253e+000, 9.97607350e-001, 0., 0., 0., 0., 0., 0., 0.,
          0., 2.61203885e-001, 3.32458258e+000, 8.28427136e-001,
          4.04094076e+000, 1.45448456e+001, 7.13483810e+000,
          1.53088121e+001, 1.15979795e+001, 3.56275826e+001,
          1.03307877e+001, 5.99438019e+001, 2.53993435e+001,
          5.38477612e+000, 1.20108738e+001, 2.61203885e-001,
          2.49555607e+001, 3.04443884e+000, 0., 0., 0., 1.17157292e+000,
          2.82842708e+000, 2.07106781e+000, 1.11499319e+001,
          7.77900028e+000, 0., 1.75735927e+000, 1.49116879e+001,
          4.00697479e+001, 2.61203885e-001, 1.35607159e+000,
          1.51880846e+001, 2.77523079e+001, 4.11811295e+001,
          5.22407770e-001, 6.91912842e+001, 3.07376461e+001,
          5.79898977e+000, 1.58580246e+001, 1.04140530e+001,
          1.90708961e+001, 7.51489019e+000, 8.28427136e-001,
          2.58578634e+000, 0., 2.61203885e-001, 2.51408157e+001,
          1.69827557e+001, 1.36152239e+001, 0., 0., 9.37258339e+000,
          3.39655113e+001, 5.61394958e+001, 5.22407770e-001,
          4.73828173e+000, 4.84750462e+000, 2.65096684e+001,
          1.11026260e+002, 6.58782883e+001, 1.77370300e+001,
          3.26296973e+000, 0., 0., 0., 3.53255539e+001, 1.50175924e+001,
          1.65685427e+000, 2., 0., 3.71877823e+001, 3.66995201e+001,
          9.94112587e+000, 2.17157292e+000, 0., 3.85624504e+001,
          4.03248520e+001, 1.57401152e+001, 1.23725834e+001, 0., 0., 0.,
          0., 0., 0., 0., 0., 0., 0., 0., 0., 0., 0., 0., 0., 0., 0., 0.,
          0., 0., 0., 0., 0., 0., 0., 0., 0., 0., 0., 0., 0., 0., 0., 0.,
          0., 0., 0., 0., 0., 0., 0., 0., 0., 0., 0., 0., 0., 0., 0., 0.,
          0., 0., 0., 0., 0., 0., 0., 0., 0., 0., 1.34664428e+000,
          6.53355718e-001, 0., 0., 0., 1.71723251e+001, 2.82767415e+000,
          0., 0., 0., 1.44314134e+000, 5.56858599e-001, 0., 0., 0., 0.,
          0., 0., 0., 0., 2.01748695e+001, 2.82512975e+000,
          4.14213568e-001, 1., 5.85786462e-001, 2.30054111e+001,
          2.30240269e+001, 1.24264069e+001, 2.04699039e+001,
          3.07425284e+000, 3.38866081e+001, 1.87996845e+001,
          7.04163074e+000, 1.72115173e+001, 5.06056070e+000,
          6.38697922e-001, 2.94708848e+000, 2.48528147e+000,
          6.57844543e+000, 4.35048676e+000, 1.25583506e+001,
          5.61322260e+000, 3.31370854e+000, 6.51471853e+000, 0., 0.,
          1.91299419e+001, 1.69827557e+001, 1.83648930e+001,
          5.22407770e-001, 0., 3.51471853e+000, 3.43797264e+001,
          7.58650284e+001, 6.24052858e+000, 1.31832063e+000,
          2.85325217e+000, 2.48528147e+000, 3.17206726e+001,
          1.09622475e+002 ]
      - [ 0., 5.13941288e+000, 5.48528147e+000, 4., 2., 5.85786462e-001,
          6.41421366e+000, 0., 0., 4.65685415e+000, 5.82742929e+000,
          3.38788033e+001, 3.73135033e+001, 7.32341099e+000, 0., 1., 0.,
          5.77057409e+000, 2.38107109e+001, 5.54250069e+001,
          3.77393951e+001, 8.71682644e+000, 1.83509588e+000,
          5.85786462e-001, 2.54790092e+000, 4.26135540e+000,
          1.73667049e+001, 3.80719032e+001, 3.71018600e+001,
          2.10598888e+001, 1.79754963e+001, 7.61488819e+000, 0.,
          3.52719331e+000, 1., 0., 0., 1., 1., 7.61190033e+000, 0.,
          1.60054722e+001, 2.44493866e+001, 1.02146463e+001,
          5.41421366e+000, 2., 6., 3.66732907e+000, 0., 3.,
          1.72426414e+001, 2.01983223e+001, 3.77831154e+001,
          1.87759228e+001, 18., 4., 0., 1.37822926e+000, 5.67925787e+000,
          1.11585722e+001, 5.76386986e+001, 5.97457390e+001,
          4.94407921e+001, 2.11139927e+001, 0., 1.09800339e+000, 0., 0.,
          0., 0., 0., 1.19384968e+000, 0., 2.26202202e+001,
          4.83180046e+000, 0., 0., 0., 0., 1., 0., 7.10333872e+000,
          3.69609690e+000, 5.85786462e-001, 1., 5.85786462e-001,
          8.28427136e-001, 1.07434521e+001, 0., 0., 0., 0., 0.,
          4.14213568e-001, 5.05502319e+000, 1.86451740e+001, 0., 0., 0.,
          0., 0., 0., 0., 0., 0., 0., 0., 0., 0., 0., 0., 0., 0., 0., 0.,
          0., 0., 0., 0., 0., 0., 0., 0., 0., 0., 0., 0., 0., 0., 0., 0.,
          0., 0., 0., 0., 0., 0., 0., 0., 0., 0., 0., 0., 0., 0., 0., 0.,
          0., 0., 0., 0., 0., 0., 0., 0., 0., 0., 0., 0., 0., 0., 0., 0.,
          0., 0., 0., 0., 0., 0., 0., 0., 0., 0., 0., 0., 0., 0., 0., 0.,
          0., 0., 0., 0., 0., 0., 0., 0., 0., 0., 0., 0., 0., 0.,
          3.41421366e+000, 3.58578634e+000, 0., 0., 0., 0., 0., 0., 0.,
          0., 0., 0., 0., 0., 0., 0., 0., 0., 0., 0., 0., 0., 0., 0., 0.,
          0., 0., 0., 0., 0., 0., 1.88469338e+000, 1.34409132e+001,
          1.04131889e+001, 1.26120389e+000, 1.58578646e+000,
          4.14213568e-001, 1., 0., 5.85786462e-001, 1.39504290e+000,
          1.61422043e+001, 1.61295853e+001, 4.33316708e+000, 0.,
          4.14213568e-001, 2., 0., 0., 0., 0., 0., 0., 0., 0., 0., 0.,
          0., 0., 0., 0., 0., 0., 4.73631573e+000, 1.01215487e+001,
          6.62741709e+000, 4.51471853e+000, 0., 1.90214252e+001,
          3.03511581e+001, 9.52691174e+000, 1.15780973e+001,
          5.22407770e-001, 6.04359779e+001, 4.34218864e+001,
          8.28427124e+000, 1.54061174e+001, 3.45174670e+000,
          4.55940666e+001, 2.61632938e+001, 4.97056293e+000,
          2.93155403e+001, 2.59565372e+001, 4.35857296e+000,
          3.39878631e+000, 3.31370854e+000, 5.47541761e+000,
          6.45351458e+000, 1.76485901e+001, 3.29666328e+001,
          9.11269855e+000, 6.68546915e+000, 5.58660889e+000, 0.,
          3.16740990e+001, 3.18944435e+001, 2.74314575e+001, 0.,
          6.29989767e+000, 1.17295399e+001, 2.65096684e+001,
          9.33094788e+001, 4.01514168e+001, 2.20429921e+000,
          1.38148713e+000, 8.28427136e-001, 1.38148713e+000,
          2.20429921e+000, 2.31137962e+001, 7.05777740e+000,
          8.28427136e-001, 4.85281378e-001, 5.14718652e-001,
          5.27399015e+000, 1.32407284e+001, 4.14213562e+000,
          1.19467001e+001, 9.39644527e+000, 0., 0., 8.28427136e-001,
          9.14126396e+000, 2.40303078e+001, 0., 0., 0., 0., 0., 0., 0.,
          0., 0., 0., 0., 0., 0., 0., 0., 0., 0., 0., 0., 0., 0., 0., 0.,
          0., 0., 0., 0., 0., 0., 0., 0., 0., 0., 0., 0., 0., 0., 0., 0.,
          0., 0., 0., 0., 0., 0., 0., 0., 0., 0., 0., 0., 0., 0., 0., 0.,
          0., 0., 0., 0., 0., 4.82938433e+000, 2.17061567e+000, 0., 0.,
          0., 0., 0., 0., 0., 0., 0., 0., 0., 0., 0., 0., 0., 0., 0., 0.,
          2.17137203e+001, 5.28628063e+000, 8.28427136e-001,
          1.17157292e+000, 0., 2.86065807e+001, 7.39342022e+000,
          8.28427136e-001, 2.17157292e+000, 0., 0., 0., 0., 0., 0., 0.,
          0., 0., 0., 0., 6.40551138e+000, 4.35184813e+000,
          4.14213562e+000, 4.10050488e+000, 0., 0., 5.68629169e+000,
          1.24264069e+001, 4.29895897e+001, 2.98977108e+001,
          4.69460535e+000, 7.89118099e+000, 2.48528147e+000,
          4.52675514e+001, 6.96613770e+001, 9.57490730e+000,
          9.52559757e+000, 6.62741709e+000, 4.53333740e+001,
          6.49387054e+001, 1.60470467e+001, 7.05345774e+000,
          3.31370854e+000, 5.85786462e-001, 0., 2.03679886e+001,
          1.36614494e+001, 1.28406200e+001, 1.61299419e+001, 0., 0.,
          8.78679657e+000, 2.81665230e+001, 5.07266045e+001,
          5.32007837e+000, 1.59984188e+001, 1.79599514e+001,
          2.02964649e+001, 8.60345383e+001, 3.97106285e+001,
          1.30649586e+001, 1.93504143e+000, 0., 0., 0., 2.37089691e+001,
          6.46260405e+000, 8.28427136e-001, 0., 0., 3.69695244e+001,
          1.81309795e+001, 3.72792196e+000, 2.17157292e+000, 0.,
          2.87022514e+001, 7.46932125e+000, 1.24264073e+000,
          5.85786462e-001, 0., 5.14718652e-001, 4.85281378e-001, 0., 0.,
          0., 0., 0., 0., 0., 0., 0., 0., 0., 0., 0., 0., 0., 0., 0., 0.,
          0., 0., 0., 0., 0., 0., 0., 0., 0., 0., 0., 0., 0., 0., 0., 0.,
          0., 0., 0., 0., 0., 0., 0., 0., 0., 0., 0., 0., 0., 0., 0., 0.,
          0., 0., 0., 0., 0., 0., 0., 0., 4.82938433e+000,
          2.17061567e+000, 0., 0., 0., 0., 0., 0., 0., 0., 0., 0., 0.,
          0., 0., 0., 0., 0., 0., 0., 1.75629005e+001, 3.43709898e+000,
          8.28427136e-001, 2.91036892e+000, 2.61203885e-001,
          5.22407770e-001, 3.23495150e+000, 1.24264073e+000,
          6.05116415e+000, 2.19488354e+001, 0., 0., 0., 0., 0., 0., 0.,
          0., 0., 0. ]
      - [ 0., 0., 1., 1.38999043e+001, 1.14246788e+001, 6.75417423e-001,
          1.82842708e+000, 2.17157292e+000, 0., 8.79871082e+000,
          1.38322134e+001, 1.37616558e+001, 7.34314585e+000, 0.,
          6.41421366e+000, 9.42646980e+000, 0., 2., 1., 1.56874456e+001,
          7.40040207e+001, 7.30852938e+000, 3., 4., 0., 0., 0.,
          8.31813145e+000, 2.15737553e+001, 1.08112857e-001, 0., 0., 0.,
          4.14213568e-001, 1.41421354e+000, 4.89119816e+000,
          3.69458818e+000, 3.17157292e+000, 6.24264050e+000, 5., 0., 2.,
          1.94944134e+001, 4.02646866e+001, 1.32408991e+001,
          2.17157292e+000, 8.82842731e+000, 3., 0., 0., 1.67541742e+000,
          1.99688206e+001, 3.85392303e+001, 3.75322609e+001,
          4.91126976e+001, 7.17157269e+000, 0., 1., 4., 1.88757057e+001,
          5.32204628e+001, 3.93999863e+001, 2.69180584e+001,
          2.15857868e+001, 0., 1.18199797e+001, 5.56736517e+000,
          8.09256434e-001, 0., 0., 0., 7.09916401e+000, 0.,
          2.11821613e+001, 4.14213568e-001, 2.41421366e+000,
          4.58578634e+000, 3., 8.41421318e+000, 5.34984350e+000, 0.,
          1.68519199e+000, 1., 0., 1., 2.58578634e+000, 1.47734594e+001,
          2.46818829e+001, 0., 0., 0., 0., 0., 0., 5.65685415e+000,
          2.39325237e+001, 0., 0., 0., 0., 0., 0., 0., 5.81436825e+000,
          0., 0., 0., 0., 0., 0., 0., 0., 0., 0., 0., 0., 0., 0., 0., 0.,
          0., 0., 0., 0., 0., 0., 0., 0., 0., 0., 0., 0., 0., 0.,
          4.14213568e-001, 1.54753160e+001, 0., 0., 0., 0., 0., 0.,
          1.47701964e-001, 1.04567184e+001, 0., 0., 0., 0., 0., 0., 0.,
          0., 0., 0., 0., 0., 0., 0., 0., 0., 0., 5.85786462e-001, 0.,
          4.41204691e+000, 3.51688504e+000, 1.07106781e+000, 11.,
          6.61443281e+000, 0., 8.72308552e-001, 4.91373396e+000,
          2.23529415e+001, 1.29484339e+001, 2.56440902e+000,
          1.19053745e+001, 1.68524704e+001, 0., 4.41090679e+000,
          1.78896618e+001, 3.90677595e+000, 0., 0., 0., 3.00179291e+000,
          0., 0., 0., 0., 0., 0., 0., 0., 0., 0., 1.72333717e-001,
          1.55691814e+001, 5.89718294e+000, 9.47088540e-001,
          1.41421354e+000, 0., 0., 0., 0., 2.18482161e+000,
          2.81517839e+000, 0., 0., 8.91207516e-001, 0., 8.55595779e+000,
          1.19762306e+001, 5.29583263e+000, 7.16529712e-002, 0., 2.,
          5.92447400e-001, 0., 0., 0., 0., 0., 0., 0., 0., 0., 0.,
          1.72741205e-001, 1.02187386e+001, 6.60852003e+000, 0., 0., 0.,
          0., 3.83861041e+000, 0., 0., 5.58578634e+000, 7.34314585e+000,
          1.40710678e+001, 3.45211124e+000, 0., 1., 1., 1.28872719e+001,
          6.08440132e+001, 7.85450172e+000, 4.82842731e+000,
          3.20686436e+000, 0., 0., 0., 0., 0., 0., 0., 0.,
          1.65375938e+001, 5.63397980e+000, 2.07106781e+000,
          4.75735950e+000, 0., 1.80623703e+001, 1.77244263e+001,
          1.44974747e+001, 1.77157288e+001, 0., 1.79989281e+001,
          1.48589354e+001, 1.36690474e+001, 1.84730873e+001, 0.,
          1.54981146e+001, 4.50188589e+000, 8.28427136e-001,
          1.17157292e+000, 0., 6.75417423e-001, 6.66772842e+000,
          4.97056293e+000, 1.14250879e+001, 2.61203885e-001,
          9.96924305e+000, 4.88469887e+001, 1.36690474e+001,
          1.15147190e+001, 0., 7.83611596e-001, 2.40031853e+001,
          2.40243874e+001, 7.94052048e+001, 7.83611596e-001,
          8.46990287e-001, 1.94545250e+001, 3.72792206e+001,
          7.08520432e+001, 1.56722319e+000, 1.64640732e+001,
          4.12171412e+000, 8.28427136e-001, 2.93834043e+000,
          6.64744616e+000, 2.44151726e+001, 1.22711201e+001,
          9.94112587e+000, 1.23725834e+001, 0., 3.24763727e+000,
          1.92393565e+000, 4.55634928e+000, 3.21265793e+001,
          2.71454964e+001, 0., 0., 5.38477612e+000, 2.56963959e+001,
          2.09188271e+001, 0., 0., 0., 2.36259747e+000, 7.63740253e+000,
          0., 0., 0., 0., 0., 0., 0., 0., 0., 0., 0., 0., 0., 0., 0., 0.,
          0., 4.14213568e-001, 5.11301613e+000, 1.84727707e+001, 0., 0.,
          0., 2.86444211e+000, 1.11355581e+001, 0., 0., 0., 0., 0., 0.,
          0., 0., 0., 0., 3.61444783e+000, 2.38555217e+000,
          5.38477612e+000, 1.27809057e+001, 2.83431816e+000,
          3.07766247e+001, 6.80916214e+000, 4.55634928e+000,
          1.88530102e+001, 1.90048542e+001, 2.43730621e+001,
          3.62693810e+000, 0., 1.01847708e+000, 4.98152304e+000, 0., 0.,
          0., 0., 0., 1.63439503e+001, 3.65604925e+000, 4.14213568e-001,
          2.58578634e+000, 0., 2.07982540e+000, 9.20174479e-001,
          4.14213568e-001, 1.22345769e+000, 2.36232877e+000,
          2.70136566e+001, 4.98634291e+000, 1.24264073e+000,
          3.08194184e+000, 6.75417423e-001, 0., 0., 0., 0., 0.,
          1.12547684e+001, 2.74523187e+000, 0., 0., 0., 7.21698952e+000,
          3.95458341e+000, 7.87005758e+000, 2.46348915e+001,
          6.32347727e+000, 2.27323399e+001, 1.16108065e+001,
          7.87005758e+000, 2.09043541e+001, 4.88244247e+000, 0., 0., 0.,
          0., 0., 0., 1.75735927e+000, 1.65685427e+000, 4.51898098e+000,
          2.10668049e+001, 2.39481125e+001, 1.86671104e+001,
          9.94112587e+000, 1.46510592e+001, 5.79259205e+000, 0.,
          4.34314585e+000, 8.28427124e+000, 2.69299145e+001,
          6.34426689e+001, 0., 5.85786462e-001, 4.14213568e-001,
          3.38999534e+000, 2.66100044e+001, 1.95109165e+000,
          5.14941359e+000, 5.38477612e+000, 9.83930111e+000,
          6.75417423e-001, 0., 4.34314585e+000, 1.53259020e+001,
          4.70806236e+001, 6.25032997e+000, 0., 4.68629169e+000,
          2.69238815e+001, 7.53418274e+001, 8.04800034e+000, 0.,
          1.96446609e+001, 3.06518040e+001, 7.46598511e+001,
          2.00436859e+001, 2.36409664e+001, 5.35903406e+000, 0.,
          7.38796115e-001, 2.61203885e-001, 3.46427841e+001,
          1.53866529e+001, 7.87005758e+000, 6.57809734e+000,
          5.22407770e-001, 4.25093918e+001, 1.81058331e+001,
          7.45584393e+000, 2.92893219e+000, 0., 3.63027534e+001,
          1.61408978e+001, 4.55634928e+000, 0., 0., 9.93214321e+000,
          2.06785679e+000, 0., 0., 0., 0., 0., 0., 0., 0., 0., 0., 0.,
          0., 0., 0., 0., 0., 0., 0., 2.17129631e+001, 3.87282395e+000,
          4.14213568e-001, 0., 0., 1.46798191e+001, 3.32018113e+000, 0.,
          0., 0., 0., 0., 0., 0., 0., 0., 0., 0., 0., 0.,
          3.98347187e+000, 4.35967398e+000, 2.48528147e+000,
          3.86356187e+000, 4.30801105e+000, 2.12449055e+001,
          8.68402576e+000, 3.31370854e+000, 6.97710133e+000,
          3.37802582e+001, 1.82940693e+001, 5.29171801e+000,
          4.14213568e-001, 1.93437672e+000, 7.06562328e+000, 0., 0., 0.,
          0., 0., 0., 0., 4.14213568e-001, 3.86054325e+000,
          1.87252426e+001, 6.91992044e+000, 1.08007944e+000, 0.,
          1.15738058e+000, 3.84261942e+000, 2.05498409e+001,
          3.45015931e+000, 0., 1.95503771e+000, 7.04496241e+000, 0., 0.,
          0., 0., 0., 0., 0., 4.14213568e-001, 3.25234890e+000,
          1.33334379e+001, 4.35038834e+001, 5.08190346e+000,
          5.79898977e+000, 9.02943707e+000, 5.85786462e-001,
          1.62928784e+000, 4.12807131e+000, 2.89949489e+000,
          1.37553272e+001, 6.65878220e+001, 0., 0., 0., 0., 0. ]
      - [ 0., 0., 0., 1.06024961e+001, 1.54721689e+001, 2.92533445e+000,
          1., 0., 0., 8.97243977e+000, 1.32213802e+001, 7.85455513e+000,
          1.16974659e+001, 6.75735950e+000, 4.41421366e+000,
          9.10584736e+000, 0., 1., 3., 1.32322206e+001, 6.56525574e+001,
          1.71152210e+001, 4., 1., 0., 0., 0., 8.16356754e+000,
          2.64004612e+001, 1.43597054e+000, 1.41421354e+000,
          5.85786462e-001, 0., 6.79622769e-001, 0., 5.20429945e+000,
          4.20991421e+000, 4.17157269e+000, 9.41421318e+000, 2., 0., 0.,
          1.88988380e+001, 3.23803215e+001, 2.17208405e+001,
          3.17157292e+000, 4.24264050e+000, 1.58578646e+000,
          4.14213568e-001, 5.85786462e-001, 3.61624408e+000,
          2.23440857e+001, 3.28680992e+001, 3.30294380e+001,
          5.69705620e+001, 4.17157269e+000, 0., 3., 7., 8.65224552e+000,
          7.30859909e+001, 3.44333382e+001, 2.64852810e+001,
          2.30294380e+001, 0., 1.14188595e+001, 4.31032896e+000,
          5.85786462e-001, 4.14213568e-001, 0., 7.01993823e-001,
          6.20937586e+000, 0., 1.65005188e+001, 8.01770973e+000,
          1.75735927e+000, 4.82842731e+000, 0., 4.14213568e-001,
          8.93594551e+000, 0., 1.43929756e+000, 0., 0., 3.41421366e+000,
          6.32037735e+000, 2.06548767e+001, 2.09198761e+001, 0., 0., 0.,
          0., 4., 3.41421366e+000, 5.41421366e+000, 2.16173077e+001, 0.,
          0., 0., 0., 0., 0., 0., 4.14578629e+000, 0., 0., 0., 0., 0.,
          0., 0., 0., 0., 0., 0., 0., 0., 0., 0., 0., 0., 0., 0., 0., 0.,
          0., 0., 0., 0., 0., 0., 0., 0., 0., 0., 1.73216572e+001, 0.,
          0., 0., 0., 0., 0., 0., 9.51982117e+000, 0., 0., 0., 0., 0.,
          0., 0., 0., 0., 0., 0., 0., 0., 0., 0., 0., 0., 0., 0.,
          2.52681351e+000, 6.30161381e+000, 6.75735950e+000,
          4.85004663e+000, 6.61606836e+000, 1.00041199e+001, 0.,
          5.52571869e+000, 2.72480278e+001, 1.71814365e+001,
          5.21638823e+000, 3.41071510e+000, 1.54135923e+001, 0.,
          7.03698826e+000, 1.42082396e+001, 8.62125778e+000, 0., 0., 0.,
          3.72933316e+000, 0., 0., 0., 0., 0., 0., 0., 0., 0., 0.,
          2.21407279e-001, 1.94362621e+001, 1.34232986e+000, 2.,
          3.41421366e+000, 5.85786462e-001, 0., 0., 0., 2., 4., 0., 0.,
          0., 0., 7.70423794e+000, 1.31748228e+001, 2.34075999e+000, 0.,
          0., 1., 0., 0., 0., 0., 0., 0., 0., 0., 0., 0., 0., 0.,
          9.48038197e+000, 8.51961803e+000, 0., 1., 0., 0.,
          1.74371970e+000, 0., 0., 2., 5.58578634e+000, 7.24264050e+000,
          5.95249796e+000, 0., 5.79258278e-002, 1.18119791e-001,
          1.45641575e+001, 6.33245850e+001, 6.16471195e+000,
          9.82842731e+000, 4.18696356e+000, 0., 0., 0., 0., 0., 0., 0.,
          0., 1.52819109e+001, 3.71808910e+000, 2.07106781e+000,
          3.92893219e+000, 0., 2.39065723e+001, 1.37797184e+001,
          1.15979795e+001, 1.68764267e+001, 1.83930123e+000,
          1.98075047e+001, 1.62219334e+001, 1.57401152e+001,
          1.74071732e+001, 6.82327366e+000, 1.42772627e+001,
          5.30852365e+000, 2.07106781e+000, 4.34314585e+000, 0.,
          1.04481554e+000, 4.71254396e+000, 5.79898977e+000,
          1.19212427e+001, 5.22407770e-001, 9.75285530e+000,
          3.96197281e+001, 8.28427124e+000, 7.34314585e+000, 0.,
          3.17926192e+000, 2.65364666e+001, 2.15391045e+001,
          7.98271103e+001, 3.91805816e+000, 6.79622769e-001,
          1.72787476e+001, 4.01787148e+001, 6.75549545e+001,
          5.30796289e+000, 1.47488518e+001, 5.25114775e+000, 0.,
          2.27913380e+000, 6.72086620e+000, 2.33905468e+001,
          1.47099590e+001, 7.04163074e+000, 8.59666061e+000,
          2.61203885e-001, 2.93121696e+000, 2.82614231e+000,
          9.11269855e+000, 3.78228531e+001, 1.93070889e+001, 0., 0.,
          2.89949489e+000, 2.22286263e+001, 2.48718777e+001, 0., 0., 0.,
          1.79313326e+000, 6.20686674e+000, 0., 0., 0., 0., 0., 0., 0.,
          0., 0., 0., 0., 0., 0., 0., 0., 0., 0., 0., 4.40107441e+000,
          1.95989246e+001, 0., 0., 0., 2.68562341e+000, 1.13143768e+001,
          0., 0., 0., 0., 0., 0., 0., 0., 0., 0., 2.86141920e+000,
          1.13858080e+000, 4.14213562e+000, 1.23591623e+001,
          3.49870205e+000, 3.12996540e+001, 7.45770502e+000,
          4.55634928e+000, 1.31375160e+001, 1.85487747e+001,
          2.65905552e+001, 5.40944576e+000, 4.14213568e-001,
          2.28967142e+000, 5.29611492e+000, 0., 0., 0., 0., 0.,
          1.65039501e+001, 4.49604988e+000, 1.65685427e+000,
          4.08194208e+000, 2.61203885e-001, 2.92960429e+000,
          1.07039559e+000, 0., 0., 0., 2.27684517e+001, 5.40312147e+000,
          1.24264073e+000, 5.85786462e-001, 0., 0., 0., 0., 0., 0.,
          1.21049614e+001, 2.89503884e+000, 4.14213568e-001,
          5.85786462e-001, 0., 4.23148346e+000, 2.35430288e+000,
          1.15979795e+001, 2.82938251e+001, 5.22407770e-001,
          2.20453987e+001, 8.71195984e+000, 1.15979795e+001,
          2.68610497e+001, 7.83611596e-001, 0., 0., 0., 0., 0., 0.,
          5.85786462e-001, 2.07106781e+000, 7.61630440e+000,
          1.97268410e+001, 2.57145729e+001, 1.47290783e+001,
          1.15979795e+001, 1.84384136e+001, 6.51995659e+000, 0.,
          3.51471853e+000, 9.94112587e+000, 2.53233128e+001,
          6.32208443e+001, 0., 5.85786462e-001, 8.28427136e-001,
          5.05091333e+000, 3.05348740e+001, 2.02240133e+000,
          3.14917159e+000, 4.14213562e+000, 9.59666061e+000,
          1.08963096e+000, 0., 2.34314585e+000, 1.32548342e+001,
          5.27637291e+001, 4.63829088e+000, 0., 5.10050488e+000,
          2.31959591e+001, 6.91779404e+001, 9.52559280e+000, 0.,
          2.68162346e+001, 3.23086586e+001, 6.98723984e+001,
          2.60027122e+001, 2.29680538e+001, 5.61773252e+000,
          4.14213568e-001, 5.85786462e-001, 4.14213568e-001,
          3.66879120e+001, 1.91699524e+001, 5.79898977e+000,
          5.34314585e+000, 0., 4.23934059e+001, 1.60502434e+001,
          9.11269855e+000, 7.44365072e+000, 0., 3.70330734e+001,
          1.18958578e+001, 4.55634928e+000, 5.51471853e+000, 0.,
          9.38745213e+000, 1.61254823e+000, 0., 0., 0., 0., 0., 0., 0.,
          0., 0., 0., 0., 0., 0., 0., 0., 0., 0., 0., 2.25600357e+001,
          3.43996382e+000, 0., 0., 0., 1.47944441e+001, 3.20555615e+000,
          0., 0., 0., 0., 0., 0., 0., 0., 0., 0., 0., 0., 0.,
          4.33717251e+000, 3.83440042e+000, 4.14213562e+000,
          8.73509693e+000, 3.95119405e+000, 2.13454895e+001,
          3.82608390e+000, 4.97056293e+000, 1.40016241e+001,
          3.38562393e+001, 2.23138218e+001, 4.27196455e+000,
          4.14213568e-001, 2.06999230e+000, 9.93000793e+000, 0., 0., 0.,
          0., 0., 0., 5.85786462e-001, 1.24264073e+000, 4.98645878e+000,
          1.71851139e+001, 3.61940646e+000, 3.80593568e-001, 0.,
          1.25216794e+000, 4.74783230e+000, 2.06565151e+001,
          3.34348416e+000, 0., 1.47130716e+000, 4.52869272e+000, 0., 0.,
          0., 0., 0., 0., 0., 0., 2.89622450e+000, 1.51037760e+001,
          4.36597977e+001, 8.85492229e+000, 4.97056293e+000,
          5.25351477e+000, 2.61203885e-001, 3.62381697e+000,
          3.30511522e+000, 5.38477612e+000, 1.36218100e+001,
          6.80644836e+001, 0., 0., 0., 0., 0. ]
      - [ 0., 5.85786462e-001, 1.93653905e+000, 1.26698170e+001,
          1.15634880e+001, 4.24436998e+000, 0., 0., 0., 6.53144932e+000,
          8.53295803e+000, 1.06323681e+001, 1.15196276e+001,
          5.17157269e+000, 6.24264050e+000, 7.51022243e+000, 0., 0.,
          1.73879611e+000, 1.86435165e+001, 7.68213196e+001,
          1.23821583e+001, 3.41421366e+000, 7.38796115e-001, 0., 0., 0.,
          5.76742315e+000, 2.87424297e+001, 4.90146607e-001, 0., 0., 0.,
          2., 1.82842708e+000, 2.91036892e+000, 6.26120377e+000,
          5.75735950e+000, 7.48528147e+000, 2.75735927e+000, 0.,
          1.58578646e+000, 1.77648296e+001, 3.54873543e+001,
          1.35762415e+001, 7.17157269e+000, 3.41421366e+000, 2., 0., 0.,
          6.03773403e+000, 2.08563404e+001, 3.52480621e+001,
          4.07157288e+001, 4.09705620e+001, 7.17157269e+000, 0., 1.,
          5.41421366e+000, 1.98162956e+001, 5.49330826e+001,
          3.81795540e+001, 3.80710678e+001, 1.59289322e+001,
          9.85741520e+000, 1.23666105e+001, 1.13321888e+000,
          4.85281378e-001, 0., 0., 1.58578646e+000, 4.57168722e+000, 0.,
          1.89049492e+001, 6.15158653e+000, 2.32458258e+000,
          4.41421366e+000, 1.58578646e+000, 5.41421366e+000,
          3.74745607e+000, 0., 2.10007057e-001, 0., 0., 1.,
          2.58578634e+000, 2.24142132e+001, 1.26977739e+001, 0., 0., 0.,
          0., 1., 4., 9.41421318e+000, 1.81409130e+001, 0., 0., 0., 0.,
          0., 0., 0., 5.87925053e+000, 0., 0., 0., 0., 0., 0., 0., 0.,
          0., 0., 0., 0., 0., 0., 0., 0., 0., 0., 0., 0., 0., 0., 0., 0.,
          0., 4.85281378e-001, 1., 0., 0., 0., 1.59893155e+000,
          1.60503063e+001, 0., 0., 0., 0., 0., 0., 0., 1.24984760e+001,
          0., 0., 0., 0., 0., 0., 0., 0., 0., 0., 0., 0., 0., 0., 0., 0.,
          1.98227799e+000, 5.85786462e-001, 0., 3.45756745e+000,
          2.71400523e+000, 3.58578634e+000, 9.12397957e+000,
          8.55059719e+000, 0., 0., 6.54570007e+000, 2.36632652e+001,
          1.24500704e+001, 3.09832406e+000, 1.23700056e+001,
          1.68110466e+001, 0., 7.64683628e+000, 1.33902540e+001,
          5.23543930e+000, 0., 0., 0., 1.74180210e+000, 0., 0., 0., 0.,
          0., 0., 0., 0., 0., 0., 0., 1.65214939e+001, 4.47850561e+000,
          0., 1., 2., 0., 0., 0., 2.17103577e+000, 2.82896423e+000, 0.,
          0., 0., 0., 4.64076519e+000, 1.44671717e+001, 6.44446969e-001,
          0., 0., 0., 3.85395348e-001, 0., 0., 0., 0., 0., 0., 0., 0.,
          0., 0., 1.23899341e-001, 1.02047224e+001, 5.67137861e+000, 0.,
          1., 0., 0., 3.25134110e+000, 0., 0., 5., 3.17157292e+000,
          9.24264050e+000, 3.55327725e+000, 0., 1.05792582e+000,
          1.39962244e+000, 1.58240929e+001, 6.06590843e+001,
          5.44178200e+000, 4.91805792e+000, 6.97647333e+000, 0., 0., 0.,
          0., 0., 0., 0., 0., 1.74221668e+001, 3.57783246e+000,
          2.07106781e+000, 4.92893219e+000, 0., 2.24635639e+001,
          1.04653683e+001, 6.62741709e+000, 1.83681946e+001,
          6.07545567e+000, 1.44161434e+001, 1.89564400e+001,
          1.61543293e+001, 2.15406361e+001, 1.93245173e+000,
          1.09551449e+001, 6.21642828e+000, 2.48528147e+000,
          4.40652466e+000, 9.36621308e-001, 8.28427136e-001,
          4.92893219e+000, 4.14213562e+000, 1.31005049e+001, 0.,
          8.81304932e+000, 4.41453209e+001, 1.11837664e+001,
          8.85786438e+000, 0., 1.72023296e+000, 2.72381363e+001,
          2.60954552e+001, 7.08117294e+001, 3.13444638e+000,
          7.04763889e+000, 2.09107304e+001, 3.97645035e+001,
          6.98859787e+001, 2.39114618e+000, 1.22103119e+001,
          4.96126080e+000, 2.07106781e+000, 5.08841562e+000,
          5.66894341e+000, 2.41478138e+001, 1.17811184e+001,
          6.21320343e+000, 7.59666061e+000, 2.61203885e-001, 0.,
          1.17157292e+000, 6.62741709e+000, 3.31332588e+001,
          1.80677490e+001, 0., 0., 7.04163074e+000, 2.29905510e+001,
          2.19678173e+001, 0., 0., 0., 2.44816804e+000, 7.55183220e+000,
          0., 0., 0., 0., 0., 0., 0., 0., 0., 0., 0., 0., 0., 0., 0., 0.,
          1.58578646e+000, 4.14213568e-001, 4.19502258e+000,
          1.98049774e+001, 0., 0., 0., 3.13126755e+000, 1.48687325e+001,
          0., 0., 0., 0., 0., 0., 0., 0., 0., 0., 3.61844754e+000,
          1.96733880e+000, 2.89949489e+000, 1.83640022e+001,
          3.15071654e+000, 3.20914268e+001, 5.90857172e+000,
          3.31370854e+000, 2.02448864e+001, 1.64414043e+001,
          2.58313675e+001, 4.16863298e+000, 4.14213568e-001,
          1.27362859e+000, 2.31215787e+000, 0., 0., 0., 0., 0.,
          1.65771027e+001, 3.42289734e+000, 1.24264073e+000,
          1.75735927e+000, 0., 2.08270812e+000, 9.17291939e-001, 0., 0.,
          0., 1.90722885e+001, 2.92771196e+000, 4.14213568e-001,
          3.64916515e+000, 9.36621308e-001, 0., 0., 0., 0., 0.,
          1.14387321e+001, 2.56126809e+000, 4.14213568e-001,
          5.85786462e-001, 0., 6.83805895e+000, 6.09087324e+000,
          7.45584393e+000, 1.80928154e+001, 5.22407770e-001,
          2.70112514e+001, 1.66750393e+001, 8.28427124e+000,
          2.44622135e+001, 1.56722319e+000, 0., 0., 0., 0., 0., 0., 1.,
          2.07106781e+000, 6.09060001e+000, 2.08383312e+001,
          3.05225620e+001, 1.04063711e+001, 9.52691174e+000,
          1.37360229e+001, 1.08081322e+001, 2.61203885e-001,
          2.49615550e+000, 1.07695522e+001, 3.86412277e+001,
          6.08318596e+001, 0., 0., 0., 5.04362392e+000, 2.99563751e+001,
          0., 4.10050488e+000, 8.69848442e+000, 1.06786022e+001,
          5.22407770e-001, 0., 2.75735927e+000, 1.73969688e+001,
          4.79724274e+001, 5.87324286e+000, 0., 6.44365072e+000,
          2.52670269e+001, 7.87777863e+001, 6.51153374e+000, 0.,
          2.52304478e+001, 3.64507942e+001, 6.78658447e+001,
          2.24529152e+001, 2.32733746e+001, 4.31241226e+000,
          4.14213568e-001, 1., 0., 3.51006355e+001, 1.35145884e+001,
          7.04163074e+000, 7.34314585e+000, 0., 4.01418724e+001,
          1.13728466e+001, 4.14213562e+000, 2.34314585e+000, 0.,
          3.59354324e+001, 9.99349976e+000, 4.14213562e+000,
          2.92893219e+000, 0., 9.98854542e+000, 2.01145506e+000, 0., 0.,
          0., 0., 0., 0., 0., 0., 0., 0., 0., 0., 0., 0., 0., 0., 0., 0.,
          2.24835606e+001, 3.51643896e+000, 0., 0., 0., 1.78471355e+001,
          3.15286541e+000, 0., 0., 0., 1.44314134e+000, 5.56858599e-001,
          0., 0., 0., 0., 0., 0., 0., 0., 3.09637570e+000,
          8.41834259e+000, 4.14213562e+000, 3.94395518e+000,
          5.39919043e+000, 1.79892731e+001, 5.76808691e+000,
          2.89949489e+000, 7.09683704e+000, 3.42463074e+001,
          1.90379696e+001, 3.54781675e+000, 4.14213568e-001,
          1.86399424e+000, 7.13600588e+000, 0., 0., 0., 0., 0., 0.,
          1.75735927e+000, 1.24264073e+000, 3.07032061e+000,
          1.79296799e+001, 3.60396743e+000, 3.96032602e-001, 0.,
          1.15342474e+000, 3.84657526e+000, 1.58654404e+001,
          3.30613256e+000, 8.28427136e-001, 8.25638533e-001,
          2.17436147e+000, 0., 0., 0., 0., 0., 0., 0., 0.,
          2.57603574e+000, 1.34239645e+001, 4.35777397e+001,
          6.76540422e+000, 5.38477612e+000, 5.27207804e+000, 0.,
          4.15825844e+000, 9.11382008e+000, 5.38477612e+000,
          1.56255589e+001, 6.67175903e+001, 0., 0., 0., 0., 0. ]
      - [ 0., 1., 1., 0., 0., 0., 7.41421366e+000, 1.27771997e+001, 0.,
          6.85290003e+000, 9.00394630e+000, 2.92918568e+001,
          2.18963165e+001, 5.72361851e+000, 3.82842708e+000,
          2.09779739e-002, 0., 6.31927824e+000, 9.15013313e+000,
          2.09079094e+001, 7.13256149e+001, 1.96163406e+001, 3.,
          7.27004290e-001, 0., 0., 0., 2.81620941e+001, 6.47570724e+001,
          4.08083677e+000, 1., 5.85786462e-001, 0., 1.03544731e+001,
          4.21255875e+000, 1.94708848e+000, 4.14213568e-001, 1., 0.,
          4.55845833e+000, 0., 3.77460766e+000, 1.24761324e+001,
          2.62178478e+001, 1.47202330e+001, 1., 8., 6.58578634e+000, 0.,
          0., 4.44467115e+000, 7.55532885e+000, 2.35038452e+001,
