%YAML:1.0
_0218: !!opencv-ml-svm
   svm_type: C_SVC
   kernel: { type:LINEAR }
   C: 100.
   term_criteria: { epsilon:9.9999999747524271e-007,
       iterations:2147483647 }
   var_all: 576
   var_count: 576
   class_count: 2
   class_labels: !!opencv-matrix
      rows: 1
      cols: 2
      dt: i
      data: [ -1, 0 ]
   sv_total: 24
   support_vectors:
      - [ 0., 1., 1., 0., 2.26120377e+000, 9.87991142e+000,
          1.08588848e+001, 0., 0., 5.53388929e+000, 4., 6.01417398e+000,
          1.99041996e+001, 1.82889194e+001, 1.80121689e+001,
          8.70273972e+000, 0., 1.32458258e+000, 4.14213568e-001,
          1.67910881e+001, 4.52763977e+001, 9.51551723e+000,
          1.44209309e+001, 1.92601166e+001, 0., 0., 0., 0., 3.,
          9.64119196e-001, 2.03588080e+000, 0., 0., 1.64276505e+000, 0.,
          1., 3., 5.58578634e+000, 4.19373226e+000, 3.57610607e+000, 0.,
          4.63876438e+000, 4.82842731e+000, 1.34445410e+001,
          1.71928596e+001, 1.45150013e+001, 1.54011850e+001,
          1.12111549e+001, 0., 5.09016418e+000, 1.26568546e+001,
          2.17715988e+001, 4.75025940e+001, 1.70120487e+001,
          1.80569038e+001, 1.13598537e+001, 0., 4.76918173e+000,
          1.68326321e+001, 2.67048168e+001, 4.82078362e+001,
          1.12547169e+001, 1.42612038e+001, 1.34660749e+001, 0.,
          7.32718349e-001, 0., 0., 0., 0., 1.39136553e-001,
          7.17505980e+000, 0., 1.63932419e+000, 0., 0., 0., 0., 0.,
          2.59452295e+000, 0., 4.17428446e+000, 0., 0., 0., 0., 0.,
          1.64173985e+000, 0., 9.09320927e+000, 6.60408810e-002, 0., 0.,
          0., 0., 8.97104740e-001, 0., 0., 0., 0., 0., 0., 0.,
          3.89990044e+000, 0., 0., 0., 0., 0., 0., 0., 0., 0., 0., 0.,
          0., 0., 0., 0., 0., 0., 0., 0., 0., 0., 0., 0., 0., 0.,
          3.64037514e-001, 0., 0., 0., 0., 0., 8.97355652e+000, 0., 0.,
          0., 0., 0., 0., 0., 0., 0., 0., 0., 0., 0., 0., 0., 0., 0., 0.,
          0., 0., 0., 0., 0., 0., 2.39077163e+000, 1.11191282e+001,
          8.23895645e+000, 0., 0., 0., 1., 2.25114346e+000, 0., 0., 0.,
          0., 0., 0., 0., 0., 0., 0., 0., 0., 0., 0., 0., 0., 0., 0., 0.,
          0., 0., 0., 0., 0., 0., 8.11303318e-001, 2.11330509e+001,
          5.56465611e-002, 0., 0., 5.82842731e+000, 4.17157269e+000, 0.,
          3.20377231e-001, 4.67962265e+000, 0., 0., 0., 0., 0., 0., 0.,
          0., 0., 0., 0., 0., 0., 0., 0., 0., 0., 0., 0., 0., 0., 0., 0.,
          3.85993695e+000, 1.40063062e-001, 0., 5.17157269e+000,
          1.48284273e+001, 5., 0., 4.24787903e+000, 3.34702644e+001,
          2.81857163e-001, 3.67541742e+000, 1.65595341e+001,
          2.17650490e+001, 2., 2.09383631e+000, 9.75875378e-001,
          2.72430439e+001, 9.04145241e+000, 1.30447588e+001,
          1.17896223e+001, 1.13709030e+001, 5.44050646e+000, 0., 0., 0.,
          0., 0., 0., 0., 0., 0., 1.17157292e+000, 4.14213562e+000,
          1.53988352e+001, 2.28745627e+000, 8.67089653e+000,
          1.66011810e+001, 7.87005758e+000, 2.98308582e+001,
          2.00270061e+001, 2.43221951e+001, 1.76067371e+001,
          3.31370854e+000, 1.25986919e+001, 4.11586685e+001, 0., 0., 0.,
          6.39743626e-001, 2.36025643e+000, 1.22693837e+000,
          2.53042102e+000, 4.55634928e+000, 1.31789484e+001,
          2.50734305e+000, 2.00245857e+000, 1.93701248e+001,
          1.61543293e+001, 3.32037468e+001, 8.26933956e+000,
          1.10248327e+001, 3.78624687e+001, 2.02964649e+001,
          4.41267357e+001, 1.16894979e+001, 1.74241505e+001,
          3.92205124e+001, 2.27817459e+001, 3.43200798e+001,
          6.25351477e+000, 1.86420357e+000, 2.30736947e+000,
          8.28427136e-001, 2.48041916e+000, 9.51958084e+000,
          3.27195072e+000, 3.89962220e+000, 2.07106781e+000,
          2.88835669e+000, 4.86900234e+000, 9.15097618e+000,
          4.60638285e+000, 1.65685427e+000, 1.21352291e+000,
          2.37226343e+000, 1.39346495e+001, 1.16511364e+001,
          1.65685427e+000, 3.23495150e+000, 5.22407770e-001, 0., 0., 0.,
          1.44008195e+000, 5.55991793e+000, 0., 0., 0., 0., 0., 0., 0.,
          0., 0., 0., 0., 0., 0., 0., 0., 8.41352940e-001,
          1.58647031e-001, 8.28427136e-001, 2.87406397e+000,
          1.02975092e+001, 0., 0., 0., 0., 0., 0., 0., 0., 0., 0., 0.,
          0., 0., 0., 0., 1.68457317e+001, 3.15426826e+000,
          1.65685427e+000, 2.70444775e+000, 6.38697922e-001, 0., 0., 0.,
          0., 0., 0., 0., 0., 0., 0., 0., 0., 0., 0., 0.,
          2.03975410e+001, 1.60245991e+000, 2.89949489e+000,
          7.10050488e+000, 0., 4.20571899e+000, 7.94281065e-001, 0., 0.,
          0., 0., 0., 0., 0., 0., 0., 0., 0., 0., 0., 3.61037087e+000,
          3.89629126e-001, 6.62741709e+000, 1.83725834e+001, 0.,
          3.48384972e+001, 3.16150451e+000, 1.11837664e+001,
          2.82490101e+001, 1.56722319e+000, 3.44790001e+001,
          5.10678577e+000, 2.48528147e+000, 1.30799122e+001,
          1.98490200e+001, 0., 0., 0., 0., 0., 0., 1.75735927e+000,
          4.97056293e+000, 1.17496700e+001, 5.22407770e-001,
          1.26008492e+001, 1.78428020e+001, 1.11837664e+001,
          2.49675903e+001, 2.04049931e+001, 2.40916824e+001,
          8.49410343e+000, 4.14213568e-001, 1.10864210e+001,
          6.49135818e+001, 0., 0., 0., 7.45170116e-001, 3.25482988e+000,
          9.78281593e+000, 4.56033039e+000, 4.14213562e+000,
          7.25351477e+000, 2.61203885e-001, 1.22288723e+001,
          1.42147779e+001, 1.40832615e+001, 3.41463394e+001,
          4.32674885e+000, 1.06138678e+001, 1.96582108e+001,
          1.36690474e+001, 4.24571609e+001, 3.96017151e+001,
          6.84963942e+000, 2.13513699e+001, 1.78111839e+001,
          3.90435219e+001, 4.09442863e+001, 1.94669075e+001,
          2.53309345e+000, 0., 0., 0., 2.32706337e+001, 2.72936678e+000,
          0., 0., 0., 2.72760754e+001, 2.72392416e+000, 0., 0., 0.,
          3.50395660e+001, 5.96043491e+000, 0., 0., 0., 6.91006470e+000,
          1.08993542e+000, 0., 0., 0., 0., 0., 0., 0., 0., 0., 0., 0.,
          0., 0., 0., 0., 0., 0., 0., 1.74390583e+001, 2.56094241e+000,
          0., 0., 0., 0., 0., 0., 0., 0., 0., 0., 0., 0., 0., 0., 0., 0.,
          0., 0., 1.57290611e+001, 4.44251156e+000, 8.28427136e-001, 0.,
          0., 0., 0., 0., 0., 0., 0., 0., 0., 0., 0., 0., 0., 0., 0., 0.,
          1.93245173e+000, 6.75383997e+000, 3.72792196e+000,
          5.85786462e-001, 0., 5.85786462e-001, 4.14213568e-001, 0., 0.,
          0., 0., 0., 0., 0., 0., 0., 0., 0., 0., 0., 0.,
          2.92893219e+000, 5.38477612e+000, 5.68629169e+000, 0.,
          8.49084473e+000, 7.60966063e+000, 1.32548342e+001,
          2.03834572e+001, 2.61203885e-001, 1.61203873e+000,
          1.34884663e+001, 3.31370854e+000, 7.24894142e+000,
          3.53368454e+001, 0., 0., 0., 0., 0. ]
      - [ 0., 0., 0., 0., 0., 0., 1.41421354e+000, 1.25761118e+001, 1.,
          0., 1., 1.27891073e+001, 3.14603710e+001, 2.27770538e+001,
          1.70292873e+001, 4.94418001e+000, 0., 3.58578634e+000, 2.,
          1.55197859e+001, 6.25793419e+001, 6.31508493e+000,
          1.05133305e+001, 2.97287197e+001, 0., 0., 0., 4.50284052e+000,
          2.16091633e+001, 3.51002526e+000, 1.02513952e+001,
          3.12657595e+000, 0., 5.33404052e-001, 0., 0., 0., 0., 0.,
          3.56966019e+000, 0., 7.96328831e+000, 1.41421354e+000, 0., 4.,
          1.41421354e+000, 1.68469906e+001, 9.61006832e+000, 0.,
          1.08954287e+001, 1.47241869e+001, 9.72751427e+000,
          1.60749989e+001, 2.19698009e+001, 1.92495956e+001,
          1.20166178e+001, 0., 2.14485283e+001, 1.11834669e+001,
          1.82292137e+001, 5.52396889e+001, 8.65926647e+000,
          9.01081562e+000, 1.18492823e+001, 0., 0., 0., 0., 0., 0., 0.,
          0., 0., 0., 0., 0., 0., 0., 0., 0., 0., 0., 0., 0., 0., 0., 0.,
          0., 0., 0., 0., 0., 0., 0., 0., 0., 0., 0., 0., 0., 0., 0., 0.,
          0., 0., 0., 0., 0., 0., 0., 0., 0., 0., 0., 0., 0., 0., 0., 0.,
          0., 0., 0., 0., 0., 0., 0., 0., 0., 0., 0., 0., 0., 0., 0., 0.,
          0., 0., 0., 0., 0., 0., 0., 0., 0., 0., 0., 0., 0., 0., 0., 0.,
          0., 0., 0., 0., 0., 0., 0., 0., 0., 0., 1.26639724e+000, 1.,
          0., 0., 0., 0., 1.90219688e+000, 0., 0., 0., 0., 0., 0., 0.,
          0., 0., 0., 0., 0., 0., 0., 0., 0., 0., 0., 0., 0., 0., 0., 0.,
          0., 2.41123915e+000, 1.09417830e+001, 9.99273872e+000, 0., 0.,
          0., 0., 6.65423965e+000, 0., 1.35553330e-001, 9.86444664e+000,
          0., 0., 0., 0., 0., 0., 0., 0., 0., 0., 0., 0., 0., 0., 0., 0.,
          0., 0., 0., 0., 0., 2.23468471e+000, 6.30944967e-002,
          9.36905503e-001, 0., 0., 3., 8.36663055e+000, 9.39868450e+000,
          0., 1.26020372e-001, 3.55212593e+001, 3.52719307e-001, 3.,
          9.34314537e+000, 2.54852810e+001, 4.17157269e+000, 0.,
          5.76490164e+000, 3.38942032e+001, 1.53163934e+000,
          6.20345211e+000, 1.58822517e+001, 2.03247318e+001,
          4.39882040e+000, 2.61203885e-001, 0., 7.24836397e+000,
          1.12643566e+001, 1.16558113e+001, 8.23158169e+000,
          4.94643211e+000, 1.39224994e+000, 0., 0., 4.14213562e+000,
          1.29957008e+001, 1.08621635e+001, 2.23102808e+000,
          1.09699821e+001, 1.73969688e+001, 3.22360497e+001,
          8.16597271e+000, 2.49859066e+001, 2.18008900e+001,
          1.03553391e+001, 2.84049091e+001, 4.04529572e+001,
          8.54805374e+000, 2.45194626e+000, 0., 3.61435366e+000,
          1.63856468e+001, 1.27559745e+000, 7.24402547e-001,
          4.14213568e-001, 3.59104133e+000, 5.99474525e+000,
          1.22922564e+001, 8.46510315e+000, 5.38477612e+000,
          2.47605286e+001, 1.10973368e+001, 2.45167084e+001,
          2.71695824e+001, 1.44974747e+001, 3.90838852e+001,
          1.27323465e+001, 1.13956270e+001, 5.60358315e+001,
          2.69238815e+001, 3.31927681e+001, 1.14518919e+001, 0., 0., 0.,
          0., 0., 0., 0., 0., 0., 0., 0., 0., 0., 0., 0., 0., 0., 0., 0.,
          0., 0., 0., 0., 0., 0., 0., 0., 0., 0., 0., 0., 0., 0., 0., 0.,
          0., 0., 0., 0., 0., 0., 0., 0., 0., 0., 0., 0., 0., 0., 0., 0.,
          0., 0., 0., 0., 0., 0., 0., 0., 0., 2.12616301e+000,
          8.73836935e-001, 0., 8.34064484e-001, 2.16593552e+000, 0., 0.,
          0., 0., 0., 0., 0., 0., 0., 0., 0., 0., 0., 0., 0.,
          1.86566334e+001, 2.92915320e+000, 4.14213568e-001,
          1.12294865e+000, 6.87705135e+000, 8.82236385e+000,
          1.17763567e+000, 0., 0., 0., 0., 0., 0., 0., 0., 0., 0., 0.,
          0., 0., 8.76100659e-001, 1.23899341e-001, 5.38477612e+000,
          1.14053249e+001, 6.20989847e+000, 3.31863899e+001,
          2.81360912e+000, 1.03553391e+001, 2.86446609e+001, 0.,
          3.59463463e+001, 5.63943863e+000, 5.38477612e+000,
          2.75019226e+001, 8.52751446e+000, 1.83959827e+001,
          3.60401773e+000, 0., 3.34676337e+000, 1.36532364e+001,
          1.71338387e+001, 1.06235218e+001, 1.24264073e+000, 0., 0.,
          5.22407770e-001, 5.82073784e+000, 1.65685425e+001,
          4.91080780e+001, 9.98023224e+000, 3.80545311e+001,
          2.19749069e+001, 5.79898977e+000, 1.02614117e+001,
          7.39101639e+001, 5.00043154e+000, 9.99568284e-001, 0.,
          4.97626400e+000, 2.70237350e+001, 1.75711117e+001,
          2.42888808e+000, 0., 0., 0., 3.98303299e+001, 1.35128145e+001,
          4.55634928e+000, 4.10050488e+000, 0., 4.23339043e+001,
          2.10386772e+001, 1.69827557e+001, 3.95058441e+001,
          8.13881779e+000, 3.02594566e+001, 4.57994194e+001,
          1.65685425e+001, 3.36637230e+001, 4.57088623e+001, 0., 0., 0.,
          0., 0., 0., 0., 0., 0., 0., 5.14718652e-001, 4.85281378e-001,
          0., 0., 0., 7.69549036e+000, 1.30450976e+000, 0., 0., 0., 0.,
          0., 0., 0., 0., 0., 0., 0., 0., 0., 0., 0., 0., 0., 0., 0., 0.,
          0., 0., 0., 0., 0., 0., 0., 0., 0., 0., 0., 0., 0., 0., 0., 0.,
          0., 0., 0., 0., 0., 0., 0., 7.00068188e+000, 1.99931800e+000,
          0., 0., 0., 0., 0., 0., 0., 0., 0., 0., 0., 0., 0., 0., 0., 0.,
          0., 0., 2.35188103e+001, 4.48118973e+000, 0., 0., 0.,
          5.85786462e-001, 1., 4.14213568e-001, 0., 0., 0., 0., 0., 0.,
          0., 0., 0., 0., 0., 0., 6.71034861e+000, 4.63279724e+000,
          2.89949489e+000, 1.75735927e+000, 0., 0., 6.44365072e+000,
          1.15979795e+001, 1.29583693e+001, 0., 9.41935253e+000,
          1.46100845e+001, 1.36690474e+001, 1.66574516e+001,
          8.64406395e+000, 6.75417423e-001, 1.32458258e+000, 0.,
          5.60464716e+000, 3.33953514e+001 ]
      - [ 0., 8.51748288e-001, 2.10490589e+001, 9.91927758e-002, 0., 1.,
          7.41421366e+000, 2.58578634e+000, 0., 1.14908540e+000,
          2.12344322e+001, 1.04048004e+001, 1., 1.15857868e+001,
          2.39113750e+001, 7.58614969e+000, 0., 4.87366295e+000,
          1.66033516e+001, 2.00188560e+001, 1.02208920e+001,
          4.49207115e+000, 2.76157627e+001, 3.40556221e+001, 0.,
          3.09041667e+000, 1.58608675e+001, 4.45753746e+001,
          6.12369385e+001, 2.47633152e+001, 3.26206245e+001,
          1.33601141e+001, 0., 3.38310671e+000, 3.83737469e+000, 1., 6.,
          2., 7.24264050e+000, 2.75735927e+000, 0., 1., 0., 3., 18., 15.,
          26., 5., 0., 3., 4., 0., 9.41421318e+000, 2.99289322e+001,
          4.70710678e+001, 6.58578634e+000, 0., 4., 7., 1.,
          2.32426414e+001, 4.35147171e+001, 7.81606979e+001,
          1.90819416e+001, 9.37700629e-001, 5.83517694e+000,
          6.16919661e+000, 1.05792582e+000, 2., 3., 8., 0., 0.,
          7.37797594e+000, 5., 0., 5., 9., 2.05857868e+001,
          1.15182028e+001, 0., 3.62095594e+000, 0., 1., 1.38284273e+001,
          9.17157269e+000, 1.32426405e+001, 2.17262135e+001, 0.,
          8.12103003e-002, 0., 2., 4., 5.24275064e+000, 1.23936224e+001,
          4.14241905e+001, 0., 1.38861170e+001, 9.21393776e+000, 0., 0.,
          0., 0., 0., 0., 1.31469088e+001, 0., 0., 0., 0., 0., 0., 0.,
          0., 0., 0., 0., 0., 0., 0., 0., 0., 0., 0., 0., 0., 0., 0., 0.,
          9.60066497e-001, 3.99335027e-002, 0., 0., 0., 0., 0., 0., 0.,
          0., 0., 0., 0., 0., 0., 0., 0., 0., 0., 0., 0., 0., 0., 0., 0.,
          0., 0., 0., 0., 0., 0., 0., 0., 1., 0., 0., 0., 0., 0., 0., 0.,
          0., 0., 0., 0., 0., 0., 0., 0., 0., 0., 0., 0., 0., 0., 0., 0.,
          0., 0., 0., 0., 0., 0., 0., 0., 1., 0., 0., 0., 0., 0., 0., 0.,
          0., 0., 0., 0., 0., 0., 0., 0., 0., 0., 0., 0., 0., 0., 0., 0.,
          0., 0., 0., 0., 0., 0., 0., 2.16288018e+000, 6.72464085e+000,
          0., 0., 0., 0., 2.71222800e-001, 0., 4.87675619e+000,
          2.17124767e+001, 2.50832295e+000, 1.53015065e+000,
          1.82981420e+000, 4.14171171e+000, 5.01773405e+000, 0.,
          5.15448332e+000, 2.76984749e+001, 1.81296558e+001,
          9.24307644e-001, 1.11633050e+000, 7.18989182e+000,
          8.11668110e+000, 0., 3.47034621e+000, 2.44062290e+001,
          1.36087217e+001, 1.35929928e+001, 6.81628323e+000,
          5.77111721e+000, 1.39100494e+001, 2.06446743e+001,
          1.35532546e+000, 2.48528147e+000, 8.51471901e+000, 0.,
          2.79808598e+001, 5.19071245e+000, 1.15979795e+001,
          2.66092587e+001, 6.62118912e+000, 2.98777466e+001,
          1.40511866e+001, 1.86396103e+001, 3.37153664e+001,
          1.97160912e+001, 5.26388283e+001, 3.02190380e+001,
          2.27817459e+001, 5.00685959e+001, 1.72917938e+001,
          2.73773599e+000, 3.77698278e+000, 6.21320343e+000,
          8.27207756e+000, 0., 0., 2.34314585e+000, 1.82253971e+001,
          2.94314575e+001, 0., 0., 4.10050488e+000, 3.47939377e+001,
          5.21055565e+001, 0., 0., 7.85786438e+000, 5.01198425e+001,
          9.51753006e+001, 8.46990287e-001, 9.38810921e+000,
          3.78346395e+000, 4.55634928e+000, 7.27207804e+000, 0.,
          1.06162519e+001, 7.89846659e+000, 1.69827557e+001,
          2.74577103e+001, 1.04481554e+000, 1.03712642e+000,
          6.06337881e+000, 1.78111839e+001, 3.65073051e+001,
          1.55810051e+001, 0., 1.75735927e+000, 6.21320343e+000,
          2.10069332e+001, 4.50225029e+001, 2.19305382e+001,
          3.06946254e+000, 0., 0., 0., 1.67270947e+001, 3.27290583e+000,
          0., 0., 0., 0., 0., 0., 0., 0., 0., 0., 0., 0., 0.,
          8.49778891e-001, 1.50221109e-001, 0., 0., 0., 0., 0., 0., 0.,
          0., 0., 0., 0., 0., 0., 0., 0., 0., 0., 0., 5.85786462e-001,
          4.14213568e-001, 0., 0., 0., 0., 0., 0., 0., 0., 0., 0., 0.,
          0., 0., 0., 0., 0., 0., 0., 8.41352940e-001, 1.58647031e-001,
          0., 0., 0., 0., 0., 0., 0., 0., 0., 0., 0., 0., 0., 0., 0., 0.,
          0., 0., 8.47021389e+000, 1.52978587e+000, 0., 2.61203885e-001,
          7.38796115e-001, 2.66966267e+001, 5.30337381e+000, 0.,
          2.09280229e+000, 1.09071980e+001, 4.12531738e+001,
          1.33326130e+001, 4.14213568e-001, 5.25823545e+000,
          1.37417641e+001, 3.48889923e+001, 1.01110067e+001,
          4.14213568e-001, 7.83171368e+000, 2.87540722e+001,
          1.48005092e+000, 7.79202700e+000, 5.38477612e+000,
          2.34314585e+000, 0., 8.32847118e+000, 4.01467466e+000,
          8.28427124e+000, 1.50651093e+001, 1.73074741e+001,
          2.07980690e+001, 2.42608051e+001, 1.40832615e+001,
          2.07839642e+001, 2.20739002e+001, 8.09795380e+000,
          1.53456974e+001, 1.44974747e+001, 5.57846298e+001,
          7.72742462e+001, 2.28534412e+000, 5.98673391e+000,
          7.45584393e+000, 5.27207804e+000, 0., 0., 5.27207804e+000,
          1.69827557e+001, 2.27451668e+001, 0., 0., 1.31299419e+001,
          2.44386005e+001, 2.44314575e+001, 0., 4.14213568e-001,
          2.36740990e+001, 4.14213562e+001, 4.34903336e+001, 0.,
          6.21855545e+000, 3.78144455e+000, 2.89949489e+000,
          4.10050488e+000, 0., 1.62523422e+001, 1.55344543e+001,
          1.20121937e+001, 8.20100975e+000, 0., 4.36266479e+001,
          2.31895847e+001, 1.78111839e+001, 1.73725834e+001, 0.,
          4.98591843e+001, 1.40697489e+001, 7.04163074e+000,
          8.51471901e+000, 5.14718652e-001, 1.73364525e+001,
          4.24933290e+000, 4.14213568e-001, 0., 0., 2.05228443e+001,
          3.47715473e+000, 0., 0., 0., 8.41352940e-001, 1.58647031e-001,
          0., 0., 0., 0., 0., 0., 0., 0., 1.42713940e+000,
          5.72860599e-001, 0., 0., 0., 0., 0., 0., 0., 0., 0., 0., 0.,
          0., 0., 0., 0., 0., 0., 0., 0., 0., 0., 0., 0., 0., 0., 0., 0.,
          0., 0., 0., 0., 0., 0., 0., 0., 0., 0., 0., 0., 0., 0., 0., 0.,
          0., 0., 0., 0., 0., 0., 0., 0., 0., 0., 0., 0., 0., 0., 0.,
          6.30052614e+000, 1.69947362e+000, 0., 0., 0., 1.53856535e+001,
          5.78591967e+000, 1.65685427e+000, 3.83772349e+000,
          6.33384943e+000, 1.84423409e+001, 8.14344597e+000,
          8.28427136e-001, 1.12148485e+001, 2.43709373e+001,
          2.59351807e+001, 6.06481934e+000, 8.28427136e-001,
          9.15430832e+000, 3.30172653e+001 ]
      - [ 0., 4.99273396e+000, 1.64613819e+001, 1.54588425e+000, 2., 0.,
          0., 0., 0., 5.89420462e+000, 2.87269764e+001, 5.13328075e+000,
          1.12426405e+001, 1.23431454e+001, 1.14832001e+001,
          8.76874638e+000, 0., 6.09446573e+000, 1.62025280e+001,
          3.60989723e+001, 3.26595383e+001, 2.15582771e+001,
          1.77538738e+001, 1.21920824e+001, 0., 9.83366489e+000,
          1.17101479e+001, 4.26830788e+001, 6.44188461e+001,
          3.85893097e+001, 2.25171833e+001, 1.44245110e+001, 0.,
          4.15455866e+000, 3.01701403e+000, 0., 2., 1.36130214e+000,
          1.20073748e+001, 4.40374565e+000, 0., 3.00844049e+000,
          2.81009827e+001, 4.02700663e+000, 1.34135809e+001,
          1.19289322e+001, 1.39578276e+001, 9.79363728e+000, 0.,
          3.38003993e-001, 4.58078575e+000, 1.22700930e+000,
          2.05145741e+001, 2.19254131e+001, 5.68361168e+001,
          2.53354568e+001, 0., 5.85786462e-001, 1., 5.73879623e+000,
          1.68691502e+001, 3.90072784e+001, 9.57695541e+001,
          3.80294380e+001, 8.36985946e-001, 6.38142014e+000,
          5.03754473e+000, 5.14718652e-001, 4.85281378e-001, 0.,
          1.18512754e+001, 6.89277315e+000, 0., 1.89899921e+001,
          2.95354729e+001, 3.73987508e+000, 5.82842731e+000,
          5.34314585e+000, 1.45038443e+001, 6.75735950e+000, 0.,
          1.60983181e+001, 1.26120389e+000, 0., 1., 1.48350954e+001,
          4.33256035e+001, 3.09062157e+001, 0., 4.65869617e+000,
          4.14213568e-001, 1.58578646e+000, 8.24264050e+000,
          2.01005058e+001, 2.29147663e+001, 4.45412483e+001, 0.,
          6.62682295e+000, 4.02300978e+000, 0., 0., 0., 0.,
          3.20377231e-001, 0., 1.96006656e+000, 3., 0., 0., 0., 0., 0.,
          0., 1.43547130e+000, 0., 0., 0., 0., 0., 0., 0., 0., 0., 0.,
          0., 0., 0., 0., 0., 1., 0., 0., 0., 0., 0., 0., 0., 0., 0., 0.,
          0., 0., 0., 0., 0., 0., 0., 0., 0., 0., 0., 0., 0., 0., 0., 0.,
          0., 0., 0., 0., 0., 0., 1., 0., 0., 0., 0., 0., 0., 0., 0., 0.,
          0., 0., 0., 0., 0., 0., 0., 0., 0., 0., 0., 0., 0., 0., 0., 0.,
          0., 0., 0., 0., 0., 0., 1., 0., 0., 0., 0., 0., 0.,
          3.15322304e+000, 4.58517885e+000, 0., 0., 0., 0., 0., 0., 0.,
          0., 0., 0., 0., 0., 0., 0., 0., 0., 0., 0., 0., 0., 0., 0.,
          7.94476652e+000, 1.18411665e+001, 1.21406651e+000, 0., 0., 0.,
          0., 0., 1.38542728e+001, 1.39230318e+001, 4.65360355e+000,
          4.11998987e+000, 8.11171913e+000, 1.08578424e+001,
          1.98182468e+001, 0., 2.16499310e+001, 4.98143272e+001,
          1.61236782e+001, 1.59378042e+001, 3.77540302e+000,
          9.11151886e+000, 8.68470573e+000, 1.13522232e+000,
          8.99901807e-001, 2.72908421e+001, 3.02947273e+001,
          2.57751331e+001, 7.36694908e+000, 3.25566626e+000,
          2.98155808e+000, 1.50767984e+001, 5.85213423e+000,
          2.07106781e+000, 0., 0., 2.42259827e+001, 1.54603081e+001,
          1.03553391e+001, 1.61752930e+001, 1.17830763e+001,
          2.87018127e+001, 3.37712746e+001, 1.90538235e+001,
          3.41354332e+001, 1.83376560e+001, 5.54919701e+001,
          3.31232529e+001, 1.82253971e+001, 5.15315704e+001,
          4.66278114e+001, 3.01097322e+000, 3.74638605e+000,
          1.65685427e+000, 2.25550532e+000, 1.53302813e+001,
          3.14844608e+001, 6.10132504e+000, 8.28427124e+000,
          2.07862206e+001, 8.34372139e+000, 2.91807032e+000,
          2.83928895e+000, 3.18944435e+001, 7.62585678e+001,
          2.08963108e+000, 0., 5.92893219e+000, 4.88772011e+001,
          1.27996040e+002, 1.19782519e+000, 1.08536005e+001,
          2.14639974e+000, 0., 2.45704746e+000, 1.65429516e+001,
          4.40348663e+001, 7.72249365e+000, 9.52691174e+000,
          2.04545250e+001, 2.61203885e-001, 1.60235310e+001,
          7.49118853e+000, 2.40243874e+001, 7.09392014e+001,
          1.05216932e+001, 2.65407777e+000, 6.44642735e+000,
          1.73969688e+001, 5.43054771e+001, 3.81970482e+001,
          1.01970091e+001, 1.80299139e+000, 0., 2.04537153e-001,
          7.95462847e-001, 3.64141583e+000, 1.35858417e+000, 0., 0., 0.,
          1.42713940e+000, 5.72860599e-001, 0., 0., 0., 0., 0., 0., 0.,
          0., 8.41352940e-001, 1.58647031e-001, 0., 0., 0., 0., 0., 0.,
          0., 0., 0., 0., 0., 0., 0., 0., 0., 0., 0., 0.,
          5.14718652e-001, 4.85281378e-001, 0., 0., 0., 0., 0., 0., 0.,
          0., 0., 0., 0., 0., 0., 0., 0., 0., 0., 0., 8.41352940e-001,
          1.58647031e-001, 0., 0., 0., 6.35894394e+000, 2.64105582e+000,
          0., 0., 0., 0., 0., 0., 0., 0., 0., 0., 0., 0., 0.,
          1.79481754e+001, 3.05182457e+000, 0., 0., 0., 3.06593819e+001,
          7.51219034e+000, 8.28427136e-001, 1.13426037e+001,
          3.96573982e+001, 5.32492332e+001, 3.69517746e+001,
          7.45584393e+000, 1.02503014e+001, 1.30928450e+001,
          5.10681381e+001, 2.00323658e+001, 3.31370854e+000,
          5.58645535e+000, 1.29993305e+001, 8.69233894e+000,
          3.89344740e+000, 1.65685427e+000, 1.91600633e+000,
          8.41352940e-001, 1.21642685e+001, 1.34509544e+001,
          1.53259020e+001, 2.35451679e+001, 8.51370716e+000,
          2.05667362e+001, 1.39479818e+001, 1.78111839e+001,
          6.13228073e+001, 3.03512917e+001, 3.26033516e+001,
          1.73255787e+001, 8.28427124e+000, 6.24048004e+001,
          9.13819962e+001, 1.02298565e+001, 9.11328888e+000,
          2.07106781e+000, 3.32458258e+000, 2.61203885e-001,
          1.18489323e+001, 1.41805058e+001, 1.44974747e+001,
          2.24978523e+001, 6.97523546e+000, 0., 3.08456707e+001,
          3.02375908e+001, 3.07127190e+001, 2.20402026e+000,
          2.61203885e-001, 3.05133991e+001, 4.14213562e+001,
          4.31734390e+001, 1.63060188e+000, 1.91053715e+001,
          4.89462852e+000, 0., 3.61302108e-001, 6.38697922e-001,
          2.74129562e+001, 1.80306950e+001, 1.03553391e+001,
          1.46329403e+001, 4.56806946e+000, 3.86995773e+001,
          3.80455894e+001, 2.11248913e+001, 1.21299419e+001, 0.,
          5.25377464e+001, 2.61779823e+001, 2.07106781e+001,
          2.05735931e+001, 0., 1.25689802e+001, 2.43101954e+000, 0., 0.,
          0., 2.28534412e+000, 7.14655757e-001, 0., 0., 0.,
          2.78321099e+000, 1.21678901e+000, 0., 0., 0., 0., 0., 0., 0.,
          0., 1.35607159e+000, 6.43928409e-001, 0., 0., 0., 0., 0., 0.,
          0., 0., 0., 0., 0., 0., 0., 0., 0., 0., 0., 0., 0., 0., 0., 0.,
          0., 0., 0., 0., 0., 0., 0., 0., 0., 0., 0., 0., 0., 0., 0., 0.,
          0., 0., 0., 0., 0., 6.15396214e+000, 2.84603763e+000, 0., 0.,
          0., 0., 0., 0., 0., 0., 0., 0., 0., 0., 0., 1.13158216e+001,
          3.68417859e+000, 0., 2.42257997e-001, 1.75774205e+000,
          5.05895920e+001, 1.14104090e+001, 1.65685427e+000,
          1.05398970e+001, 1.68032494e+001, 2.71527214e+001,
          2.67051430e+001, 9.52691174e+000, 3.17967720e+001,
          1.58184509e+001, 4.66381598e+000, 2.92197037e+000,
          1.65685427e+000, 2.00630951e+001, 6.06942635e+001 ]
      - [ 0., 1., 3., 3.58578634e+000, 3.41421366e+000, 2., 5.,
          4.77019024e+000, 0., 0., 2., 7.75735950e+000, 3.40710678e+001,
          1.17573595e+001, 1.34142132e+001, 1., 0., 1., 4.,
          2.09103699e+001, 7.47914124e+001, 2.32982178e+001, 5., 1., 0.,
          1.97609591e+000, 1.09215107e+001, 3.75509834e+001,
          1.04702751e+002, 4.44840469e+001, 1.27366714e+001,
          2.62612247e+000, 0., 4.17157269e+000, 0., 0., 1., 0., 2.,
          4.34314585e+000, 0., 7.51532602e+000, 8., 6., 14., 3.,
          8.41421318e+000, 8.59147930e+000, 0., 3., 14., 5.,
          3.68284264e+001, 1.71715736e+001, 1.71715736e+001,
          6.41421366e+000, 0., 9.04086781e+000, 7.79396391e+000,
          1.32680454e+001, 3.56568527e+001, 3.60122795e+001,
          6.42486496e+001, 2.17086468e+001, 0., 7.66452646e+000,
          1.65826291e-001, 0., 0., 0., 0., 8.58924961e+000, 0.,
          1.41013041e+001, 1.08202000e+001, 0., 0., 0., 1.18097961e+000,
          5.31526232e+000, 0., 5.32260942e+000, 0., 0., 0., 0., 2.,
          7.80150509e+000, 0., 5.79258278e-002, 0., 0., 0.,
          7.75825977e-001, 1.21449070e+001, 1.31913509e+001, 0.,
          3.68171644e+000, 0., 0., 0., 0., 0., 2.71618199e+000, 0., 0.,
          0., 0., 0., 0., 0., 0., 0., 0., 0., 0., 0., 0., 0., 0., 0., 0.,
          0., 0., 0., 0., 0., 0., 0., 0., 0., 0., 0., 0.,
          3.30586076e-001, 8.60913754e+000, 0., 0., 0., 0., 0., 0., 0.,
          0., 0., 0., 0., 0., 0., 0., 0., 0., 0., 0., 0., 0., 0., 0., 0.,
          0., 0., 4.03085566e+000, 0., 0., 0., 0., 3.54827017e-001,
          2.36590481e+000, 0., 1.39591026e+001, 6.82206154e+000, 0., 0.,
          0., 0., 5.86959779e-001, 0., 0., 0., 0., 0., 0., 0., 0., 0.,
          0., 0., 0., 0., 0., 0., 0., 0., 5.85786462e-001, 3., 0., 1.,
          0., 1.51471865e+000, 4.85281378e-001, 0., 1.53795023e+001,
          3.80550385e+001, 3.97967362e+000, 3., 0., 1., 0., 0.,
          2.23231411e+001, 2.46876049e+001, 1.01597548e+001,
          1.27323704e+001, 3.16335607e+000, 5.24967527e+000,
          1.36062443e+000, 0., 1.42397344e+000, 7.52240753e+000,
          3.03165221e+000, 4.70714378e+000, 0., 1., 4.25018370e-001, 0.,
          3., 9., 0., 4., 1., 4., 0., 0., 0., 3., 11., 21., 12., 9., 0.,
          0., 5.56648970e+000, 2.21943035e+001, 2.53585472e+001,
          6.86115494e+001, 1.41452084e+001, 4., 0., 0., 1.06217623e+001,
          2.91682510e+001, 4.31718636e+001, 3.89847031e+001,
          7.52282476e+000, 8.27056313e+000, 6.79316282e+000, 0.,
          4.68629169e+000, 7.04163074e+000, 8.43072510e+000,
          8.41352940e-001, 0., 6.44365072e+000, 1.49116879e+001,
          1.66446609e+001, 0., 0., 1.85735931e+001, 2.56812401e+001,
          2.11593800e+001, 5.85786462e-001, 1.69348164e+001,
          4.64966431e+001, 3.18944435e+001, 4.57664375e+001,
          1.89076595e+001, 0., 2.92893219e+000, 4.97056293e+000,
          4.83930111e+000, 2.61203885e-001, 0., 1.43015156e+001,
          1.69827557e+001, 1.54545250e+001, 2.61203885e-001, 0.,
          1.28873014e+001, 2.48528137e+001, 2.54762726e+001,
          7.83611596e-001, 1.31255293e+001, 1.38328400e+001,
          2.27817459e+001, 5.34586372e+001, 5.88012466e+001,
          7.89411974e+000, 3.69166660e+000, 4.14213568e-001,
          4.25549173e+000, 1.27445087e+001, 2.48629513e+001,
          9.48019409e+000, 1.65685427e+000, 5.23411846e+000,
          8.76588154e+000, 3.58833385e+000, 1.36837444e+001,
          8.28427124e+000, 9.49801540e+000, 5.94563532e+000, 0., 1.,
          4.14213568e-001, 7.86595678e+000, 2.77198296e+001,
          4.64796638e+000, 1.35203362e+000, 0., 8.49816978e-001,
          3.15018296e+000, 0., 0., 0., 0., 0., 0., 0., 0., 0., 0., 0.,
          0., 0., 0., 0., 0., 0., 0., 2.19953942e+000, 1.18004608e+001,
          0., 0., 0., 0., 0., 0., 0., 0., 0., 0., 0., 0., 0., 0., 0.,
          3.62127686e+000, 8.89344215e+000, 3.31370854e+000,
          2.70561528e+000, 3.46595764e+000, 2.03797760e+001,
          8.79179764e+000, 8.28427136e-001, 1.15300965e+000,
          8.46990287e-001, 0., 0., 0., 0., 0., 0., 0., 0., 0., 0., 0.,
          2.34314585e+000, 2.07106781e+000, 1.07106781e+000,
          5.14718652e-001, 3.86591835e+001, 1.47844658e+001,
          4.97056293e+000, 5.85786462e-001, 0., 4.73510895e+001,
          1.48204832e+001, 2.48528147e+000, 5.74557590e+000,
          6.59756947e+000, 9.87182808e+000, 5.71395874e+000,
          4.14213568e-001, 1.55634916e+000, 1.44365084e+000, 0.,
          7.02943707e+000, 7.04163074e+000, 2.92893219e+000, 0., 0.,
          8.20100975e+000, 1.44974747e+001, 1.23015156e+001, 0.,
          2.23474178e+001, 2.56403885e+001, 2.19533195e+001,
          1.50588741e+001, 0., 7.62768250e+001, 2.72378902e+001,
          4.97056293e+000, 1.61990433e+001, 1.33156748e+001,
          1.37207353e+000, 7.72843170e+000, 6.21320343e+000,
          5.68629169e+000, 0., 0., 1.75735927e+000, 2.07106781e+001,
          3.45319633e+001, 0., 0., 3.51471853e+000, 3.35513000e+001,
          8.34527969e+001, 5.48118877e+000, 6.69960594e+000,
          5.30039406e+000, 1.86396103e+001, 1.23544716e+002,
          5.78156776e+001, 2.84381151e+000, 1.00140524e+001,
          4.55634928e+000, 5.85786462e-001, 0., 4.62533617e+000,
          2.22619648e+001, 1.65685425e+001, 1.50217485e+001,
          5.22407770e-001, 0., 1.43015156e+001, 3.18944435e+001,
          3.58040390e+001, 0., 2.95359020e+001, 2.40793209e+001,
          3.93502884e+001, 6.80234833e+001, 1.30110073e+001,
          2.57668610e+001, 4.23313856e+000, 0., 0., 0., 4.18144646e+001,
          1.01855364e+001, 0., 0., 0., 3.83792152e+001, 2.18928623e+001,
          3.72792196e+000, 0., 0., 2.90728588e+001, 6.92714214e+000,
          8.28427136e-001, 1.69648731e+000, 1.47508562e+000,
          1.10905914e+001, 1.90940833e+000, 0., 0., 0., 0., 0., 0., 0.,
          0., 0., 0., 0., 0., 0., 0., 0., 0., 0., 0., 1.66263275e+001,
          2.37367320e+000, 0., 0., 0., 0., 0., 0., 0., 0., 0., 0., 0.,
          0., 0., 0., 0., 0., 0., 0., 2.28372021e+001, 7.16279745e+000,
          0., 0., 0., 2.84594631e+001, 7.54053593e+000, 0., 0., 0., 0.,
          0., 0., 0., 0., 0., 0., 0., 0., 0., 0., 7.75735950e+000,
          1.65685427e+000, 5.85786462e-001, 0., 2.01369209e+001,
          1.13777981e+001, 6.21320343e+000, 5.92406130e+000,
          2.34801674e+000, 3.16693420e+001, 1.05022316e+001,
          8.28427136e-001, 6.60032320e+000, 2.13996773e+001,
          8.02360725e+000, 1.97639251e+000, 0., 2.06931400e+000,
          5.93068600e+000, 0., 1.75735927e+000, 3.31370854e+000,
          2.92893219e+000, 0., 0., 0., 1.82253971e+001, 2.57746029e+001,
          0., 6.48069811e+000, 3.69087481e+000, 2.27817459e+001,
          8.28816376e+001, 1.31650467e+001, 2.18294029e+001,
          9.51374340e+000, 2.48528147e+000, 3.03689156e+001,
          7.58026581e+001 ]
      - [ 0., 0., 2., 1., 7., 4., 3., 1., 0., 2., 4., 2.,
          2.58284264e+001, 2.27573586e+001, 1.04142132e+001, 2., 0.,
          4.14213568e-001, 1.73600757e+000, 1.52939835e+001,
          4.71587601e+001, 2.62840309e+001, 2.21109505e+001,
          2.53122807e+001, 0., 2.82842708e+000, 2.12389946e+000,
          3.08057194e+001, 4.63268089e+001, 1.32936108e+000,
          6.22120142e+000, 1.94006824e+001, 0., 2., 2., 2., 6., 4., 7.,
          0., 0., 2., 6., 3., 2.44142132e+001, 1.35857868e+001, 18., 5.,
          0., 1., 0., 1.00386429e+001, 4.52859383e+001, 2.76754169e+001,
          35., 6.39504290e+000, 0., 2.58578634e+000, 2.08963108e+000,
          1.12276754e+001, 4.85111198e+001, 4.35857849e+001,
          3.42426414e+001, 9.51532650e+000, 0., 3., 1., 1., 3., 6., 8.,
          2., 0., 5., 6., 3., 1.06568546e+001, 2.12720776e+001,
          2.20710678e+001, 6., 0., 1.13175297e+001, 6.68115711e+000, 1.,
          1.40710678e+001, 9.51471901e+000, 1.18284273e+001,
          1.18318081e+001, 0., 1.06447296e+001, 2.16305962e+001,
          1.91715736e+001, 3.54142151e+001, 1.67573586e+001,
          2.02426414e+001, 7.23648167e+000, 0., 1.58578646e+000, 4., 1.,
          4.41421366e+000, 4.58578634e+000, 2., 2.58578634e+000, 0.,
          8.56191063e+000, 1.03555346e+001, 9.03175926e+000,
          6.90892744e+000, 1.37060094e+000, 6.37587261e+000,
          1.43796768e+001, 0., 0., 0., 0., 0., 0., 0., 9.04000568e+000,
          0., 0., 0., 0., 0., 0., 0., 0., 0., 2.69897056e+000, 4., 1.,
          3., 1., 3., 1.26549947e+000, 0., 1.19394369e+001,
          1.33929672e+001, 1.25023737e+001, 1.28356638e+001,
          5.36966896e+000, 1.07210274e+001, 1.15825014e+001, 0.,
          1.18616228e+001, 7.27838993e+000, 1.38124931e+000,
          7.54547179e-001, 1.44998991e+000, 0., 3.20558834e+000, 0., 0.,
          0., 0., 0., 0., 0., 0., 0., 6.58578634e+000, 1., 0., 1.,
          1.58578646e+000, 5.82842731e+000, 3.17157292e+000, 0.,
          4.84366512e+000, 8.31136227e+000, 4.24340820e+000,
          9.65685463e+000, 1.38932447e+001, 1.66061668e+001,
          1.11393032e+001, 0., 2.42728920e+001, 3.31921692e+001, 0., 0.,
          0., 0., 1.97399691e-001, 0., 0., 0., 0., 0., 0., 0., 0., 0.,
          0., 1., 1.58578646e+000, 6.82842731e+000, 6.58578634e+000, 4.,
          0., 0., 6.17157269e+000, 9.41421318e+000, 7.58578634e+000,
          1.86568546e+001, 1.96862907e+001, 8.65685463e+000, 2., 0.,
          1.91199703e+001, 5.01824455e+001, 1.28185368e+001,
          9.70747375e+000, 9.75735950e+000, 8.82842731e+000,
          6.91036892e+000, 0., 1.31584778e-001, 9.42817497e+000,
          1.26059780e+001, 1.83426213e+000, 0., 0., 0., 0., 0., 0., 0.,
          10., 8., 2., 0., 0., 1., 4., 8., 2.24142132e+001,
          7.17157269e+000, 1.44142132e+001, 3., 0., 0., 3.,
          2.39370689e+001, 6.18989716e+001, 8.33553028e+000,
          1.36568546e+001, 1.09653368e+001, 0., 0., 0., 1.03505528e+000,
          3.96494460e+000, 0., 0., 0., 0., 1.75735927e+000,
          4.55634928e+000, 4.68629169e+000, 0., 0., 4.68629169e+000,
          1.69827557e+001, 2.23309517e+001, 0., 1.55040693e+001,
          1.25964355e+001, 2.23675327e+001, 6.02251282e+001,
          8.30683327e+000, 3.62579765e+001, 2.76709576e+001,
          7.87005758e+000, 3.06075344e+001, 3.59347558e+000, 0.,
          3.51471853e+000, 7.04163074e+000, 6.44365072e+000, 0., 0.,
          6.44365072e+000, 1.94680367e+001, 2.20883121e+001, 0.,
          2.61203885e-001, 1.07682333e+001, 3.31370850e+001,
          4.35722733e+001, 2.61203885e-001, 1.82842708e+000,
          1.38578644e+001, 3.81076469e+001, 5.47918472e+001,
          4.14213568e-001, 0., 2.92893219e+000, 8.69848442e+000,
          9.37258339e+000, 0., 0., 8.20100975e+000, 2.36101723e+001,
          3.39276123e+001, 2.61203885e-001, 9.14476204e+000,
          1.17131023e+001, 1.32548342e+001, 2.49174175e+001,
          9.96988392e+000, 1.91552944e+001, 2.71756573e+001,
          2.89949493e+001, 2.99498444e+001, 6.72425413e+000, 0.,
          4.10050488e+000, 7.04163074e+000, 5.85786438e+000, 0.,
          1.85142879e+001, 2.21720028e+001, 5.38477612e+000,
          1.69638958e+001, 2.09650364e+001, 0., 0., 0., 6.73509645e+000,
          1.62649040e+001, 0., 0., 0., 0., 0., 1.25351477e+000,
          5.43277693e+000, 6.21320343e+000, 4.10050488e+000, 0.,
          3.63798218e+001, 1.42059650e+001, 2.07106781e+000,
          1.17183828e+001, 2.56247635e+001, 2.43763657e+001,
          1.03809948e+001, 2.07106781e+000, 5.69086027e+000,
          7.48071241e+000, 0., 0., 0., 0., 0., 0., 4.68629169e+000,
          6.21320343e+000, 8.10050488e+000, 0., 8.13890743e+000,
          9.89052963e+000, 1.61543293e+001, 2.83978634e+001,
          1.04183712e+001, 5.19395714e+001, 8.06042862e+000, 0.,
          5.85786462e-001, 4.14213568e-001, 0., 0., 0., 0., 0., 0.,
          1.75735927e+000, 5.38477612e+000, 6.85786438e+000, 0., 0.,
          1.48873014e+001, 1.90538235e+001, 2.20588741e+001, 0.,
          5.88196411e+001, 2.06240101e+001, 1.24264069e+001,
          1.96075344e+001, 5.22407770e-001, 1.92008839e+001,
          3.79911542e+000, 0., 0., 0., 0., 0., 4.14213562e+000,
          5.85786438e+000, 0., 0., 7.61522388e+000, 1.49116879e+001,
          1.54730883e+001, 0., 4.20170479e+001, 1.77403126e+001,
          1.32548342e+001, 3.17266026e+001, 2.61203885e-001,
          1.43556535e+000, 5.64434648e-001, 0., 0., 0., 0.,
          1.75735927e+000, 5.38477612e+000, 7.85786438e+000, 0., 0.,
          6.68629169e+000, 2.11248913e+001, 3.31888161e+001, 0.,
          3.27976704e+000, 3.47791061e+001, 2.81665230e+001,
          4.91423225e+001, 2.86322823e+001, 1.29801178e+001,
          2.73630276e+001, 2.48528147e+000, 1.91984806e+001,
          5.89730911e+001, 0., 1.17157292e+000, 5.79898977e+000,
          7.02943707e+000, 0., 0., 5.27207804e+000, 1.98822517e+001,
          2.48456707e+001, 0., 4.14213568e-001, 6.27207804e+000,
          2.77523079e+001, 5.22675743e+001, 6.29382610e+000,
          2.87364936e+000, 1.44989338e+001, 4.18355713e+001,
          6.54749527e+001, 3.31689334e+000, 0., 4.68629169e+000,
          7.45584393e+000, 5.85786438e+000, 0., 0., 1.27157288e+001,
          2.02964649e+001, 2.47266026e+001, 2.61203885e-001,
          3.51343613e+001, 1.61377163e+001, 1.07695522e+001,
          1.79583702e+001, 0., 3.77805367e+001, 1.19057570e+001,
          3.10660172e+001, 4.52476921e+001, 0., 0., 5.51471853e+000,
          5.79898977e+000, 6.68629169e+000, 0., 4.34011116e+001,
          1.45278196e+001, 5.38477612e+000, 9.48991680e+000,
          1.21963749e+001, 2.85279045e+001, 5.47209501e+000, 0., 0., 0.,
          0., 0., 0., 0., 0., 3.51336694e+000, 8.17292404e+000,
          5.38477612e+000, 2.92893219e+000, 0., 3.71726875e+001,
          1.49988842e+001, 1.65685427e+000, 1.22033339e+001,
          2.79682388e+001, 4.94370346e+001, 8.56296539e+000, 0.,
          9.14912581e-001, 3.08508730e+000, 0., 0., 0., 0., 0., 0.,
          9.02943707e+000, 6.21320343e+000, 1.75735927e+000, 0.,
          1.61226101e+001, 1.79068260e+001, 1.40832615e+001,
          2.20553761e+001, 1.83192563e+000, 4.03085175e+001,
          9.69148159e+000, 0., 0., 0., 0., 0., 0., 0., 0., 0.,
          1.75735927e+000, 5.79898977e+000, 1.04436512e+001, 0., 0.,
          1.22010098e+001, 2.27817459e+001, 3.10172443e+001, 0.,
          3.01677914e+001, 2.34474316e+001, 1.57401152e+001,
          2.43146496e+001, 6.33001184e+000, 5.85786462e-001,
          4.14213568e-001, 0., 3.22622061e+000, 1.37737789e+001, 0., 0.,
          7.45584393e+000, 1.05441561e+001, 0., 0., 5.85786438e+000,
          1.86396103e+001, 2.35025253e+001, 0., 2.80986404e+000,
          1.78764267e+001, 9.94112587e+000, 2.09207230e+001,
          6.74518585e+001, 0., 0., 0., 9.15944278e-001, 4.08405590e+000 ]
      - [ 0., 0., 1.41421354e+000, 3.75735927e+000, 1.10710678e+001,
          9.75735950e+000, 4., 0., 0., 3., 4.82842731e+000,
          1.21005049e+001, 2.72317657e+001, 2.21824474e+001,
          1.17464857e+001, 5.08194208e+000, 0., 1., 8.34199333e+000,
          3.94116592e+001, 3.69032021e+001, 1.55147190e+001,
          1.34680471e+001, 1.27973623e+001, 0., 4.14213568e-001, 2.,
          2.74118290e+001, 3.65062294e+001, 1.86516285e+001,
          1.48977528e+001, 1.07560301e+001, 0., 0., 1.82842708e+000,
          8.92893219e+000, 9.82842731e+000, 5.41421366e+000, 3., 0., 0.,
          1., 2., 7.75735950e+000, 3.81421356e+001, 2.31005058e+001, 5.,
          1., 0., 0., 0., 9.75735950e+000, 7.93137054e+001,
          4.21005058e+001, 5.82842731e+000, 2.17157292e+000, 0., 0., 5.,
          7.17157269e+000, 9.43553391e+001, 7.34020233e+001,
          1.40710678e+001, 3.17157292e+000, 0., 0., 3., 5.,
          1.04142132e+001, 5.58578634e+000, 4., 0., 0., 0., 1.,
          8.34314537e+000, 3.34852829e+001, 1.37573595e+001,
          1.24142132e+001, 7., 0., 5.85786462e-001, 4.41421366e+000,
          1.05857868e+001, 3.98475990e+001, 3.83239746e+001,
          3.20710678e+001, 1.31757784e+001, 0., 1., 4.41421366e+000,
          9.58578682e+000, 30., 10., 1.74435368e+001, 5.92032928e+001,
          0., 0., 0., 4., 8.82842731e+000, 9.17157269e+000, 1., 0., 0.,
          0., 5., 7., 1.86568546e+001, 1.73431454e+001, 14., 9., 0.,
          1.84848270e+001, 1.16370239e+001, 1.61715736e+001,
          2.52426414e+001, 2.09289322e+001, 2.12426414e+001, 4., 0.,
          1.86422558e+001, 2.47433758e+000, 0., 2., 0., 5.67358112e+000,
          4.28137207e+001, 0., 0., 1., 5.58578634e+000, 17.,
          2.41421366e+000, 0., 0., 0., 2.60583229e+001, 1.99416771e+001,
          10., 8., 3., 4., 2., 2.47798681e-001, 2.47952862e+001,
          8.95691490e+000, 0., 0., 0., 1., 0., 0., 0., 0., 0., 0., 0.,
          0., 0., 0., 3., 1., 6., 9., 4., 3., 0., 0., 2.94365501e+001,
          1.99776630e+001, 2.58578634e+000, 6., 0., 0., 0., 0., 0., 0.,
          0., 0., 0., 0., 0., 0., 0., 0., 0., 0., 0., 0., 0., 0., 0., 1.,
          5.17157269e+000, 1.56568546e+001, 5.17157269e+000, 0., 0., 0.,
          1.45346327e+001, 1.67479286e+001, 2.00570755e+001,
          6.07457685e+000, 1.07573595e+001, 6.65685415e+000,
          2.34314585e+000, 0., 1.96378958e+000, 9.05129337e+000,
          8.96028519e+000, 2.46317685e-002, 0., 0., 0., 0., 0., 0., 0.,
          0., 0., 0., 0., 0., 0., 0., 2., 1.26568546e+001,
          7.34314585e+000, 3., 1., 0., 5.85786462e-001, 8.34120393e-001,
          2.78253632e+001, 1.89049511e+001, 1.09275150e+001,
          1.35080500e+001, 8.17157269e+000, 0., 0., 1.29126561e+000,
          8.09231091e+000, 8.61642361e+000, 0., 0., 0., 0., 0., 0., 0.,
          0., 0., 0., 0., 0., 3.92893219e+000, 7.45584393e+000,
          9.61522388e+000, 0., 0., 1.41299419e+001, 1.90538235e+001,
          3.10326214e+001, 7.83611596e-001, 3.28112488e+001,
          2.31471195e+001, 1.82253971e+001, 3.00326214e+001,
          3.78361154e+000, 2.93841591e+001, 1.01305590e+001,
          1.40832615e+001, 3.49244270e+001, 3.47759223e+000, 0.,
          7.85786438e+000, 7.87005758e+000, 5.27207804e+000, 0., 0.,
          7.44365072e+000, 1.78111839e+001, 1.87451668e+001, 0., 0.,
          7.02943707e+000, 2.52670269e+001, 3.37035370e+001, 0., 0.,
          7.61522388e+000, 4.55634918e+001, 6.58212814e+001, 0., 0.,
          4.68629169e+000, 7.45584393e+000, 5.85786438e+000, 0., 0.,
          6.44365072e+000, 1.73969688e+001, 2.11593800e+001, 0.,
          2.61203885e-001, 1.13540201e+001, 3.23086586e+001,
          5.87329712e+001, 2.34314585e+000, 0., 9.20100975e+000,
          1.49116879e+001, 2.92784729e+001, 5.86088295e+001, 0.,
          2.34314585e+000, 5.79898977e+000, 6.85786438e+000, 0., 0.,
          7.02943707e+000, 2.19533195e+001, 2.50172443e+001, 0.,
          1.51537333e+001, 2.06625004e+001, 2.73380947e+001,
          3.08456707e+001, 0., 1.67905903e+001, 8.55255604e+000,
          2.89949489e+000, 1.45098295e+001, 4.92475281e+001, 0.,
          4.68629169e+000, 4.55634928e+000, 1.75735927e+000, 0.,
          3.43565788e+001, 1.54302158e+001, 9.94112587e+000,
          5.27207804e+000, 0., 2.76159954e+001, 6.38400459e+000, 0., 1.,
          0., 0., 0., 0., 0., 0., 0., 5.85786438e+000, 7.04163074e+000,
          4.10050488e+000, 0., 3.99274254e+001, 1.08299332e+001,
          1.24264073e+000, 0., 0., 0., 0., 0., 0., 0., 0., 0., 0., 0.,
          0., 0., 4.10050488e+000, 5.38477612e+000, 3.51471853e+000, 0.,
          3.75073318e+001, 1.21789579e+001, 9.94112587e+000,
          1.43725834e+001, 0., 1.52205935e+001, 4.77940702e+000, 0., 0.,
          0., 0., 0., 0., 0., 0., 0., 1.17157292e+000, 6.21320343e+000,
          7.61522388e+000, 0., 3.17814789e+001, 8.80430698e+000,
          9.94112587e+000, 2.56446609e+001, 8.28427136e-001,
          9.42319584e+000, 2.57680440e+000, 0., 0., 0., 0., 0., 0., 0.,
          0., 0., 0., 7.87005758e+000, 1.71299419e+001, 0., 0.,
          8.68629169e+000, 1.78111839e+001, 4.97189140e+001,
          7.83611596e-001, 1.19013608e+000, 1.87682343e+001,
          1.73969688e+001, 4.32755089e+001, 3.93691521e+001,
          1.71254385e+000, 1.27311068e+001, 1.44974747e+001,
          3.97589188e+001, 3.62999573e+001, 0., 0., 7.45584393e+000,
          1.70217476e+001, 5.22407770e-001, 0., 2.34314585e+000,
          1.94680367e+001, 5.11888161e+001, 0., 0., 3.58578634e+000,
          3.97645035e+001, 9.14518890e+001, 1.19782519e+000, 0.,
          5.51471853e+000, 4.72203445e+001, 1.29914093e+002,
          2.35083485e+000, 0., 0., 6.62741709e+000, 1.43725834e+001, 0.,
          0., 8.02943707e+000, 2.23675327e+001, 3.83418274e+001,
          2.61203885e-001, 1.55953407e+000, 1.20556898e+001,
          3.27228699e+001, 6.19416733e+001, 1.72023296e+000,
          6.15053825e+001, 1.58377647e+001, 2.11248913e+001,
          3.05319633e+001, 0., 0., 0., 7.45584393e+000, 1.45441561e+001,
          0., 0., 5.27207804e+000, 1.90538235e+001, 2.76740990e+001, 0.,
          1.38618231e+001, 1.84396915e+001, 3.18944435e+001,
          4.08040390e+001, 0., 8.17850952e+001, 1.79722652e+001,
          2.07106781e+000, 1.17157292e+000, 0., 0., 0., 7.04163074e+000,
          1.74359608e+001, 5.22407770e-001, 2.85892086e+001,
          9.75393677e+000, 1.03553391e+001, 1.23015156e+001, 0.,
          2.43189926e+001, 5.68100691e+000, 0., 0., 0., 0., 0., 0., 0.,
          0., 0., 1.75735927e+000, 8.69848442e+000, 1.15441561e+001, 0.,
          3.29469681e+001, 8.63881874e+000, 2.89949489e+000,
          6.51471853e+000, 0., 0., 0., 0., 0., 0., 0., 0., 0., 0., 0.,
          0., 5.85786462e-001, 8.69848442e+000, 1.77157288e+001, 0.,
          1.39555502e+001, 1.48312464e+001, 1.32548342e+001,
          1.47475462e+001, 1.92108231e+001, 2.10752320e+000,
          8.92476916e-001, 0., 3.15236568e+000, 8.84763432e+000, 0., 0.,
          0., 0., 0., 0., 5.85786462e-001, 7.04163074e+000,
          1.53725834e+001, 0., 2.61203885e-001, 1.31824465e+001,
          9.94112587e+000, 1.83802624e+001, 3.62349625e+001, 0., 0., 0.,
          4.04409647e+000, 1.29559040e+001, 0., 0., 0., 0., 0. ]
      - [ 0., 0., 9., 4., 4., 3., 6., 1., 0., 3., 9.41421318e+000,
          1.27573595e+001, 3.28284264e+001, 3., 9., 4., 0.,
          4.58578634e+000, 1.08284273e+001, 1.87573586e+001,
          3.48284264e+001, 18., 13., 2., 0., 5.17157269e+000, 5.,
          2.53431454e+001, 6.45563507e+001, 2.96862907e+001,
          2.34142132e+001, 3.58578634e+000, 0., 2., 10., 0.,
          4.41421366e+000, 4.58578634e+000, 1., 0., 0., 1.,
          3.41421366e+000, 1.07573595e+001, 1.86568546e+001,
          2.25147190e+001, 1.26568546e+001, 0., 0., 0., 15., 14.,
          3.72426414e+001, 2.26862907e+001, 1.40710678e+001, 2., 0., 2.,
          1.34142132e+001, 3.03431454e+001, 5.38994942e+001,
          2.19908466e+001, 4.04787331e+001, 1.87356663e+000, 0.,
          1.63669062e+000, 2.41421366e+000, 2.17157292e+000, 13.,
          4.41421366e+000, 2., 0., 0., 8.93263626e+000, 3., 1., 10.,
          3.58578634e+000, 5.41421366e+000, 1.44304797e-001, 0.,
          1.39105797e+001, 5., 1., 11., 5.58578634e+000, 4.41421366e+000,
          1.35001898e-001, 0., 4.77809954e+000, 2., 10., 15.,
          6.34400940e+000, 1.84747620e+001, 2.49169254e+001, 0.,
          7.67206430e+000, 0., 0., 1., 0., 0., 5.85786462e-001, 0.,
          8.31040144e-001, 0., 0., 0., 0., 0., 0., 0., 0., 0., 0., 0.,
          0., 0., 0., 0., 0., 0., 0., 0., 0., 0., 0., 0.,
          4.32672024e+000, 1., 0., 0., 0., 0., 0., 0., 0., 0., 0., 0.,
          0., 0., 0., 0., 0., 0., 0., 0., 0., 0., 0., 0., 0., 0., 0., 0.,
          0., 0., 0., 0., 7.20387888e+000, 1., 0., 2., 0., 0.,
          1.35796487e-001, 0., 6.77741671e+000, 0., 0., 0., 0., 0., 0.,
          0., 0., 0., 0., 0., 0., 0., 0., 0., 0., 0., 0., 0., 0., 0., 0.,
          2.61203885e-001, 7.38796115e-001, 3., 6.75735950e+000,
          1.02426405e+001, 0., 1., 0., 0., 8.71258640e+000,
          3.41421366e+000, 3.58578634e+000, 1.22426405e+001,
          1.69289322e+001, 1.28284273e+001, 7.35881805e+000, 0.,
          7.12162399e+000, 5.27927628e+001, 1.01618710e+001, 0.,
          5.34314585e+000, 4.07106781e+000, 2.58578634e+000, 0., 0., 0.,
          0., 0., 0., 0., 0., 0., 0., 0., 1.58578646e+000,
          1.34142132e+001, 5., 0., 0., 0., 1., 7., 7.58578634e+000,
          2.18284264e+001, 1.21715727e+001, 1.14142132e+001, 5., 0.,
          5.09475327e+000, 2.27599602e+001, 1.61452866e+001,
          1.76754169e+001, 2.56677284e+001, 2.86831074e+001,
          1.42044935e+001, 0., 2.15864706e+000, 4.89212685e+001,
          2.60916576e+001, 1.76568546e+001, 1.25105133e+001,
          2.83406830e+001, 8.32037735e+000, 0., 7.61522388e+000,
          9.52691174e+000, 5.85786438e+000, 0., 0., 1.56446609e+001,
          1.69827557e+001, 9.37258339e+000, 0., 0., 2.13309517e+001,
          2.69238815e+001, 1.97451668e+001, 0., 0., 2.32598839e+001,
          3.97645035e+001, 3.59756126e+001, 0., 0., 8.68629169e+000,
          5.79898977e+000, 3.51471853e+000, 0., 0., 9.78679657e+000,
          1.86396103e+001, 2.35735931e+001, 0., 0., 1.69878063e+001,
          2.65096684e+001, 2.55025253e+001, 0., 0., 2.99461765e+001,
          4.01787148e+001, 4.17943001e+001, 3.08080697e+000,
          2.05641007e+000, 4.87252235e+000, 2.89949489e+000,
          5.23495150e+000, 9.36621308e-001, 1.80758648e+001,
          1.08530664e+001, 5.79898977e+000, 7.27207804e+000, 0.,
          1.67521248e+001, 1.54488850e+001, 1.03553391e+001,
          8.44365120e+000, 0., 8.86068916e+000, 1.17545338e+001,
          1.11837664e+001, 1.59960155e+001, 3.32049942e+001,
          1.15844307e+001, 7.17292833e+000, 1.65685427e+000,
          5.85786462e-001, 0., 1.90976155e+000, 1.09023845e+000, 0., 0.,
          0., 0., 0., 0., 0., 0., 0., 0., 0., 0., 0., 7.72356892e+000,
          5.03379059e+000, 1.24264073e+000, 0., 0., 0., 0., 0., 0., 0.,
          0., 0., 0., 0., 0., 0., 0., 0., 0., 0., 1.23785515e+001,
          5.79302120e+000, 8.28427136e-001, 1., 0., 1.25635061e+001,
          4.43649340e+000, 0., 0., 0., 0., 0., 0., 0., 0., 0., 0., 0.,
          0., 0., 0., 7.44365072e+000, 4.97056293e+000, 5.85786462e-001,
          0., 9.97237110e+000, 9.29970741e+000, 1.65685425e+001,
          2.63757687e+001, 7.83611596e-001, 6.22064400e+001,
          9.79355907e+000, 2.89949489e+000, 9.10050488e+000, 0., 0., 0.,
          0., 0., 0., 0., 1.17157292e+000, 2.89949489e+000,
          2.92893219e+000, 0., 0., 1.02010098e+001, 1.69827557e+001,
          1.78162346e+001, 0., 2.00014992e+001, 1.83710823e+001,
          2.07106781e+001, 5.67899818e+001, 3.12675738e+000,
          4.31441765e+001, 2.45004826e+001, 1.94680367e+001,
          3.83015137e+001, 3.58578634e+000, 0., 5.85786462e-001,
          3.31370854e+000, 8.10050488e+000, 0., 0., 4.68629169e+000,
          2.15391045e+001, 3.07746029e+001, 0., 0., 9.37258339e+000,
          3.23086586e+001, 4.63187599e+001, 0., 5.22407770e-001,
          1.23354568e+001, 4.34924240e+001, 8.06497116e+001, 0., 0.,
          1.75735927e+000, 4.14213562e+000, 6.10050488e+000, 0., 0.,
          1.17157292e+000, 2.11248913e+001, 3.37035370e+001, 0., 0.,
          3.51471853e+000, 2.94091625e+001, 4.90761185e+001, 0.,
          6.75417423e-001, 1.09398060e+001, 4.14213562e+001,
          7.29186020e+001, 1.04481554e+000, 3.73700047e+000,
          2.43457246e+000, 7.87005758e+000, 1.46971655e+001,
          2.61203885e-001, 3.18040047e+001, 6.53914022e+000,
          6.62741709e+000, 1.00294371e+001, 0., 3.60089493e+001,
          1.48489161e+001, 1.15979795e+001, 1.05441561e+001, 0.,
          4.63028603e+001, 1.53834305e+001, 1.82253971e+001,
          2.10883121e+001, 0., 1.91138630e+001, 3.88613749e+000,
          4.14213568e-001, 5.85786462e-001, 0., 5.45341587e+000,
          1.54658437e+000, 0., 0., 0., 0., 0., 0., 0., 0., 0., 0., 0.,
          0., 0., 1.43133583e+001, 2.68664169e+000, 0., 0., 0., 0., 0.,
          0., 0., 0., 0., 0., 0., 0., 0., 0., 0., 0., 0., 0.,
          2.08442364e+001, 3.15576434e+000, 4.14213568e-001,
          1.58578646e+000, 0., 1.97485657e+001, 3.25143504e+000, 0., 0.,
          0., 5.14718652e-001, 4.85281378e-001, 0., 0., 0., 0., 0., 0.,
          0., 0., 2.61203885e-001, 7.38796115e-001, 4.55634928e+000,
          1.24436512e+001, 0., 1.59708071e+001, 1.32302027e+001,
          1.82253971e+001, 2.25735931e+001, 0., 9.89172173e+000,
          8.20878315e+000, 8.28427124e+000, 1.50703392e+001,
          1.95448837e+001, 0., 0., 0., 0., 0., 0., 0., 7.04163074e+000,
          1.29583693e+001, 0., 0., 7.02943707e+000, 2.07106781e+001,
          2.62598839e+001, 0., 1.61203873e+000, 2.86894760e+001,
          2.60954552e+001, 4.54888954e+001, 1.31141348e+001, 0.,
          1.27867966e+001, 2.11248913e+001, 4.51127625e+001,
          2.39755497e+001 ]
      - [ 0., 1., 4., 0., 9.82842731e+000, 4.17157269e+000, 2., 0., 0.,
          0., 4.41421366e+000, 1.47573595e+001, 3.92426414e+001,
          1.45857868e+001, 8., 0., 0., 0., 3., 1.13623161e+001,
          9.92153854e+001, 2.30080853e+001, 5.41421366e+000, 1., 0., 1.,
          2., 1.99830055e+001, 9.94571838e+001, 1.55598078e+001, 4., 0.,
          0., 0., 1.41421354e+000, 7.17157269e+000, 5.41421366e+000, 0.,
          0., 0., 0., 0., 0., 5., 4.04142151e+001, 2.05857868e+001, 2.,
          0., 0., 0., 5., 12., 6.84142151e+001, 2.25857868e+001, 6., 0.,
          0., 3.75735927e+000, 1.24852810e+001, 1.52720776e+001,
          7.32132034e+001, 5.75022163e+001, 2.77698612e+001,
          5.58578634e+000, 0., 0., 0., 3., 15., 5., 0., 0., 0., 1., 4.,
          5., 27., 20., 3., 1., 0., 5.85786462e-001, 5., 14.,
          3.28284264e+001, 1.87573586e+001, 9.41421318e+000,
          8.77531910e+000, 0., 6.27571535e+000, 3., 2., 3.28511963e+001,
          3.72307472e+001, 1.39180584e+001, 5.13806725e+000, 0., 0., 4.,
          2., 10., 2., 3., 0., 0., 4.94537449e+000, 3., 4., 16., 5., 3.,
          6.13044739e+000, 0., 8.92792988e+000, 0., 0., 0., 0., 0.,
          1.22338123e+001, 0., 0., 0., 0., 0., 0., 0., 0., 0., 0., 3.,
          6., 6.82842731e+000, 2.17157292e+000, 0., 0., 0.,
          4.31530428e+000, 10., 5.17157269e+000, 1.72426414e+001,
          7.58578634e+000, 1.04142132e+001, 5.47242785e+000, 0.,
          1.13780270e+001, 2.31431222e+000, 1., 1., 0., 1.,
          2.85565400e+000, 0., 0., 0., 0., 0., 0., 0., 0., 0., 0., 7.,
          2., 6., 1., 0., 0., 0., 5.53125715e+000, 2.49794369e+001,
          1.54893055e+001, 20., 1.08469906e+001, 7.56722307e+000,
          5.85786462e-001, 0., 3.95398617e+000, 3.21310043e+001,
          4.91500854e+000, 1., 0., 1., 0., 0., 0., 0., 0., 0., 0., 0.,
          0., 0., 0., 6., 6.82842731e+000, 7.58578634e+000,
          3.58578634e+000, 1., 0., 0., 0., 3.63169479e+001,
          6.68305254e+000, 1.84142132e+001, 1.33431454e+001,
          8.24264050e+000, 5.58578634e+000, 0., 8.99421796e-002,
          2.57158184e+001, 1.94240347e-001, 0., 0., 0., 0., 0., 0., 0.,
          0., 0., 0., 0., 0., 0., 1., 2.41421366e+000, 4.91036892e+000,
          1.35038443e+001, 4.17157269e+000, 1., 0., 0., 1.,
          5.82842731e+000, 1.81005058e+001, 3.58994942e+001,
          7.75735950e+000, 5.41421366e+000, 3., 0., 2.87056184e+000,
          3.15008564e+001, 1.61433010e+001, 2.99373112e+001,
          1.80626888e+001, 2.13137093e+001, 8., 0., 7.61823595e-001,
          1.52344799e+001, 1.63184052e+001, 3.55828285e+001,
          5.10246086e+000, 1., 1.32037723e+000, 0., 3.75735927e+000,
          4.14213562e+000, 4.10050488e+000, 0., 0., 1.25441561e+001,
          1.69827557e+001, 1.34730883e+001, 0., 0., 1.03725834e+001,
          1.98822517e+001, 2.17451668e+001, 0., 2.03056526e+001,
          1.78953590e+001, 1.78111839e+001, 2.59561996e+001,
          4.03160667e+000, 0., 6.10050488e+000, 2.89949489e+000, 0., 0.,
          0., 2.92893219e+000, 1.15979795e+001, 1.34730883e+001, 0., 0.,
          9.95836926e+000, 1.90538235e+001, 1.69878063e+001, 0.,
          6.75417423e-001, 2.50403118e+001, 3.64507942e+001,
          6.39787979e+001, 2.85467935e+000, 0., 1.75735927e+000,
          3.31370854e+000, 2.92893219e+000, 0., 0., 5.85786438e+000,
          1.40832615e+001, 1.40588741e+001, 0., 0., 1.17157288e+001,
          2.31959591e+001, 3.03224239e+001, 6.76588678e+000,
          4.91353798e+000, 1.32164040e+001, 2.98233757e+001,
          4.72630692e+001, 7.83611596e-001, 0., 3.51471853e+000,
          4.55634928e+000, 2.92893219e+000, 0., 1.57531917e+000,
          9.86833191e+000, 1.11837664e+001, 1.29851952e+001,
          2.38738799e+000, 1.31017351e+001, 1.15845566e+001,
          4.55634928e+000, 9.13605309e+000, 2.06213074e+001, 0., 0., 0.,
          0., 0., 0., 5.68629169e+000, 4.55634928e+000, 1.75735927e+000,
          0., 0., 1.33015156e+001, 1.82253971e+001, 1.84359608e+001,
          1.03712642e+000, 1.20169268e+001, 1.20835781e+001,
          6.62741709e+000, 1.24884663e+001, 1.78361166e+000, 0., 0., 0.,
          0., 0., 0., 5.27207804e+000, 4.14213562e+000, 5.85786462e-001,
          0., 2.53551369e+001, 1.48458738e+001, 1.03553391e+001,
          1.30819416e+001, 1.36170888e+000, 3.59682999e+001,
          5.03170013e+000, 4.14213568e-001, 5.85786462e-001, 0., 0., 0.,
          0., 0., 0., 0., 8.20100975e+000, 7.87005758e+000,
          2.92893219e+000, 0., 3.37780418e+001, 7.56510544e+000,
          1.20121937e+001, 1.86446609e+001, 0., 2.33233871e+001,
          2.67661357e+000, 0., 0., 0., 0., 0., 0., 0., 0., 0.,
          6.10050488e+000, 5.38477612e+000, 3.51471853e+000, 0., 0.,
          1.76446609e+001, 1.69827557e+001, 1.23725834e+001, 0.,
          2.64872360e+001, 1.98142796e+001, 2.48528137e+001,
          3.78456726e+001, 0., 2.87761555e+001, 8.98120499e+000,
          4.55634928e+000, 9.79939079e+000, 8.88690090e+000, 0.,
          1.75735927e+000, 5.38477612e+000, 9.85786438e+000, 0., 0.,
          5.85786462e-001, 2.36101723e+001, 4.58040390e+001, 0., 0.,
          2.75735927e+000, 3.35513000e+001, 9.77528610e+001,
          3.93847823e+000, 0., 2.75735927e+000, 1.40832615e+001,
          4.61910667e+001, 7.59683075e+001, 0., 0., 4.14213562e+000,
          8.85786438e+000, 0., 0., 0., 2.31959591e+001, 4.28040390e+001,
          0., 0., 0., 3.60365791e+001, 6.69634171e+001, 0., 0.,
          9.44365120e+000, 4.68061333e+001, 1.09966606e+002,
          7.83611596e-001, 0., 0., 7.87005758e+000, 1.51299419e+001, 0.,
          0., 1.75735927e+000, 2.11248913e+001, 3.21177483e+001, 0.,
          1.59710283e+001, 1.25436897e+001, 2.73380947e+001,
          4.11471863e+001, 0., 4.51980934e+001, 2.34881992e+001,
          2.40243874e+001, 5.10249329e+001, 3.26438880e+000, 0., 0.,
          5.38477612e+000, 8.61522388e+000, 0., 1.25043850e+001,
          1.92824116e+001, 1.65685425e+001, 1.46446609e+001, 0.,
          6.45017624e+001, 1.70840225e+001, 4.14213568e-001, 0., 0., 0.,
          0., 0., 0., 0., 0., 0., 4.55634928e+000, 1.04436512e+001, 0.,
          7.12731123e+000, 1.39021263e+001, 1.61543293e+001,
          1.88162346e+001, 0., 5.75514297e+001, 8.79171371e+000,
          2.48528147e+000, 1.17157292e+000, 0., 0., 0., 0., 0., 0., 0.,
          0., 3.72792196e+000, 5.27207804e+000, 0., 7.03541660e+000,
          8.89351559e+000, 2.07106781e+001, 3.36603050e+001,
          4.70008469e+000, 6.95122051e+000, 2.63456607e+000,
          1.24264073e+000, 3.92759776e+000, 9.24397469e+000, 0., 0., 0.,
          0., 0., 0., 5.85786462e-001, 4.97056293e+000, 1.18764277e+001,
          1.56722319e+000, 0., 5.10050488e+000, 1.82253971e+001,
          3.55778427e+001, 5.09625721e+000, 0., 2.34314585e+000,
          3.31370854e+000, 3.34314585e+000, 0., 0., 0., 0., 0., 0., 0.,
          1.17157292e+000, 6.62741709e+000, 1.69398060e+001,
          2.61203885e-001, 0., 3.51471853e+000, 1.73969688e+001,
          4.67822914e+001, 1.30601943e+000, 4.98679113e+000,
          1.83857918e+001, 2.60954552e+001, 4.79401436e+001,
          1.15918188e+001, 1.51471865e+000, 5.07106781e+000,
          4.14213568e-001, 8.85996723e+000, 5.51400337e+001 ]
      - [ 0., 0., 0., 4., 19., 4.58578634e+000, 4.14213568e-001, 0., 0.,
          0., 3., 1.17573595e+001, 3.90710678e+001, 2.11715736e+001, 2.,
          0., 0., 2., 1.55038443e+001, 2.08393021e+001, 6.89705658e+001,
          2.92720776e+001, 9.41421318e+000, 0., 0., 1., 5.,
          3.90928154e+001, 1.00896309e+002, 4.26786041e+001,
          1.33322716e+001, 0., 0., 0., 3., 5., 16., 3., 0., 0., 0., 0.,
          2., 1.83431454e+001, 4.74852829e+001, 1.31715727e+001, 0., 0.,
          0., 0., 4., 2.11715736e+001, 7.13847733e+001, 4.04436493e+001,
          8., 1., 0., 1., 8.24264050e+000, 3.02010098e+001,
          1.02392464e+002, 3.82272606e+001, 9.93662167e+000, 0., 0.,
          2.99550939e+000, 2., 1., 2., 1., 1., 0., 0., 1.03980513e+001,
          0., 2., 13., 3., 0., 0., 0., 1.49726496e+001, 7., 7.,
          1.54142132e+001, 4.58578634e+000, 1., 0., 0., 1.35307236e+001,
          4., 3., 2.42426414e+001, 1.25907869e+001, 1.36251965e+001,
          8.95275021e+000, 0., 4.45137644e+000, 0., 0., 0., 0., 0., 0.,
          0., 0., 0., 0., 0., 0., 0., 0., 0., 0., 0., 0., 0., 0., 0., 0.,
          0., 0., 0., 0., 0., 0., 0., 0., 0., 2.69122171e+000, 0., 0.,
          0., 0., 0., 7.68001080e-002, 0., 0., 0., 0., 0., 0., 0., 0.,
          0., 0., 0., 0., 0., 0., 0., 0., 0., 0., 0., 0., 0., 0., 0., 0.,
          0., 4.99603605e+000, 0., 0., 0., 0., 0., 0., 0.,
          3.14517188e+000, 0., 0., 0., 0., 0., 0., 0., 0., 0., 0., 0.,
          0., 0., 0., 0., 0., 0., 0., 0., 0., 0., 0., 0.,
          1.66678858e+000, 2., 6.17157269e+000, 7.82842731e+000, 3., 2.,
          0., 0., 1.23624840e+001, 1.10710678e+001, 1.18578644e+001,
          2.81792622e+001, 4.89180565e+000, 2., 6.23865724e-001, 0.,
          1.09391823e+001, 4.00627708e+001, 2.20612583e+001,
          3.77653003e+000, 8.45421600e+000, 2.76925373e+000,
          4.96226597e+000, 0., 0., 0., 0., 0., 0., 0., 0., 0., 0., 2.,
          2., 1.82426414e+001, 7.75735950e+000, 0., 0., 0.,
          5.85786462e-001, 5.41421366e+000, 1.34142132e+001,
          4.40710678e+001, 1.35147190e+001, 3., 1., 0., 8.55746174e+000,
          2.89102306e+001, 2.70922546e+001, 3.56977386e+001,
          1.95468788e+001, 1.73593292e+001, 9.23563862e+000, 0.,
          2.22783780e+000, 3.84996681e+001, 3.16261845e+001,
          1.60605202e+001, 1.23431454e+001, 1.72426414e+001, 6., 0.,
          2.34314585e+000, 3.31370854e+000, 3.34314585e+000, 0., 0.,
          9.37258339e+000, 1.65685425e+001, 1.40588741e+001, 0.,
          5.22407770e-001, 2.82227573e+001, 2.94091625e+001,
          2.68456707e+001, 0., 2.61203885e-001, 3.65134010e+001,
          3.60365791e+001, 4.34052048e+001, 7.83611596e-001, 0.,
          4.68629169e+000, 4.55634928e+000, 1.75735927e+000, 0., 0.,
          1.28873014e+001, 1.49116879e+001, 8.20100975e+000, 0., 0.,
          1.56446609e+001, 3.18944435e+001, 3.24608955e+001, 0., 0.,
          2.78456707e+001, 3.47939377e+001, 3.38379822e+001,
          5.22407770e-001, 7.07430029e+000, 7.02620506e+000,
          3.72792196e+000, 1.17157292e+000, 0., 1.77232590e+001,
          1.03772459e+001, 4.14213562e+000, 1.75735927e+000, 0.,
          2.26664066e+001, 1.86351089e+001, 1.11837664e+001,
          3.51471853e+000, 0., 1.45945797e+001, 1.34348583e+001,
          1.15979795e+001, 1.45927954e+001, 1.97797871e+001,
          9.72798061e+000, 3.27201939e+000, 0., 0., 0., 0., 0., 0., 0.,
          0., 0., 0., 0., 0., 0., 0., 0., 0., 0., 0., 5.57637930e+000,
          1.42362070e+000, 4.14213568e-001, 5.85786462e-001, 0., 0., 0.,
          0., 0., 0., 0., 0., 0., 0., 0., 0., 0., 0., 0., 0.,
          9.78847885e+000, 3.21152091e+000, 0., 0., 0., 5.80756092e+000,
          2.19243908e+000, 0., 0., 0., 0., 0., 0., 0., 0., 0., 0., 0.,
          0., 0., 1.44314134e+000, 7.58629608e+000, 7.04163074e+000,
          2.92893219e+000, 0., 1.57343569e+001, 2.69813709e+001,
          1.24264069e+001, 8.85786438e+000, 0., 6.34422607e+001,
          1.35577383e+001, 2.48528147e+000, 1.46414757e+001,
          1.87324262e+000, 0., 0., 0., 0., 0., 0., 2.34314585e+000,
          4.97056293e+000, 5.68629169e+000, 0., 0., 1.31299419e+001,
          1.61543293e+001, 1.17157288e+001, 0., 3.19794407e+001,
          3.07362881e+001, 1.98822517e+001, 3.44494171e+001,
          8.95260239e+000, 4.63695488e+001, 2.40741043e+001,
          1.15979795e+001, 2.73015156e+001, 2.65685415e+000, 0., 0.,
          1.07695522e+001, 1.72304478e+001, 0., 0., 0., 2.23675327e+001,
          4.93712654e+001, 2.61203885e-001, 0., 2.92893219e+000,
          3.02375908e+001, 9.10050507e+001, 1.82842708e+000, 0.,
          5.27207804e+000, 4.39066391e+001, 1.43903229e+002,
          3.91805816e+000, 0., 0., 7.87005758e+000, 1.61299419e+001, 0.,
          0., 0., 2.40243874e+001, 5.49756126e+001, 0., 0.,
          5.85786462e-001, 3.76934357e+001, 9.57207794e+001, 0., 0.,
          2.34314585e+000, 4.84629860e+001, 1.24887848e+002,
          1.30601943e+000, 1.33407621e+001, 2.24502397e+000,
          2.07106781e+000, 2.34314585e+000, 0., 3.54615669e+001,
          9.05315113e+000, 9.94112587e+000, 1.05441561e+001, 0.,
          3.52542648e+001, 8.08888245e+000, 1.15979795e+001,
          1.70588741e+001, 0., 4.37552261e+001, 1.60021343e+001,
          1.53259020e+001, 2.89167385e+001, 0., 1.64641991e+001,
          2.53580022e+000, 0., 0., 0., 0., 0., 0., 0., 0., 0., 0., 0.,
          0., 0., 0., 0., 0., 0., 0., 9.37106323e+000, 1.62893689e+000,
          0., 0., 0., 0., 0., 0., 0., 0., 0., 0., 0., 0., 0., 0., 0., 0.,
          0., 0., 1.95390949e+001, 1.46090579e+000, 0., 0., 0.,
          1.16655884e+001, 2.33441186e+000, 0., 0., 0., 0., 0., 0., 0.,
          0., 0., 0., 0., 0., 0., 6.18540096e+000, 1.81459928e+000,
          5.38477612e+000, 1.16152239e+001, 0., 2.38839264e+001,
          7.04500484e+000, 1.03553391e+001, 3.69954948e+001,
          1.72023296e+000, 2.15520954e+001, 1.06194782e+001,
          3.31370854e+000, 2.24620228e+001, 3.20526962e+001, 0., 0., 0.,
          0., 0., 0., 0., 7.04163074e+000, 2.09583702e+001, 0., 0.,
          1.17157292e+000, 1.86396103e+001, 5.21440010e+001,
          1.04481554e+000, 3.59666157e+000, 1.93617077e+001,
          2.15391045e+001, 6.18789902e+001, 2.76235352e+001, 0.,
          8.02943707e+000, 1.69827557e+001, 3.90998802e+001,
          3.38879242e+001 ]
      - [ 0., 2.75735927e+000, 1.04142132e+001, 10., 2.82842708e+000, 3.,
          1., 0., 0., 3.56661582e+000, 8.01917076e+000, 2.41421366e+000,
          4.58578634e+000, 2.05147190e+001, 3.18994942e+001,
          1.27573595e+001, 0., 0., 1., 2.58578634e+000, 1.18546791e+001,
          7.74163818e+001, 5.09715843e+001, 7.17157269e+000, 0., 0.,
          4.76949120e+000, 1.90440540e+001, 3.78942375e+001,
          6.10790138e+001, 6.46984863e+001, 1.76862907e+001, 0., 0., 2.,
          1.58578646e+000, 3.24264073e+000, 1.21005049e+001,
          8.07106781e+000, 0., 0., 0., 0., 1., 9.41421318e+000,
          3.04436512e+001, 4.25563507e+001, 2.58578634e+000, 0., 3., 2.,
          4., 1.18361158e+001, 4.95764694e+001, 7.22028351e+001,
          6.12337208e+000, 0., 1.34012032e+000, 0., 0., 1.82842708e+000,
          5.55402489e+001, 8.30391846e+001, 4.93809090e+001, 0.,
          4.86266756e+000, 1.50804985e+000, 0., 0., 2., 7., 3., 0.,
          4.16226101e+000, 5.85786462e-001, 1., 6.41421366e+000,
          1.44436512e+001, 2.57191639e+001, 1.82510414e+001, 0., 0., 0.,
          0., 1., 8., 1.44873610e+001, 4.47838707e+001, 1.50221109e-001,
          0., 0., 0., 0., 0., 1.35607779e+000, 4.49370098e+000, 0.,
          1.21809626e+001, 2., 0., 0., 0., 0., 1.68074355e-001, 0.,
          8.42300320e+000, 1.48903430e+000, 0., 0., 0., 0., 0., 0., 0.,
          0., 0., 0., 0., 0., 0., 0., 0., 0., 0., 0., 0., 0., 0., 0.,
          5.30104399e+000, 1., 0., 0., 0., 0., 0., 0., 0., 0., 0., 0.,
          0., 0., 0., 0., 0., 0., 0., 0., 0., 0., 0., 0., 0., 0., 0., 0.,
          0., 0., 0., 0., 1.17844524e+001, 0., 0., 0., 0., 0., 0., 0.,
          2.75041342e+000, 0., 0., 0., 0., 0., 1.17062129e-001, 0., 0.,
          0., 0., 0., 0., 0., 0., 0., 0., 0., 0., 0., 0., 0., 0., 0.,
          9.13185024e+000, 7.92716217e+000, 4.54506397e+000,
          4.14213568e-001, 1., 2.41421366e+000, 5.85786462e-001, 0.,
          2.00891724e+001, 4.19738579e+001, 6.11318970e+000, 0., 0., 0.,
          1.76227486e+000, 0., 0., 5.52456474e+000, 1.47543538e+000, 0.,
          0., 0., 0., 0., 0., 0., 0., 0., 0., 0., 0., 0., 0.,
          1.88284264e+001, 6.17157269e+000, 1., 0., 1., 0., 0.,
          1.65547752e+001, 1.14371910e+001, 1.44054937e+001,
          2.39861469e+001, 5.13200760e+000, 0., 2.16726708e+000, 0.,
          4.22322693e+001, 3.92912140e+001, 2.30170746e+001,
          1.66352406e+001, 8.84630489e+000, 3.25847816e+000,
          4.90058517e+000, 0., 8.11818409e+000, 3.99418373e+001,
          4.14881668e+001, 5.57946129e+001, 1.12429857e+001, 2., 1.,
          1.04481554e+000, 1.93988361e+001, 6.21320343e+000,
          2.34314585e+000, 0., 1.71254385e+000, 1.12163887e+001,
          2.02964649e+001, 4.72521973e+001, 5.22407770e-001, 0.,
          2.34314585e+000, 2.81665230e+001, 1.09464081e+002,
          3.02625227e+000, 2.02479744e+001, 1.02667437e+001,
          4.22497826e+001, 1.10101051e+002, 3.13444638e+000,
          4.14213568e-001, 2.75735927e+000, 6.21320343e+000,
          1.56152239e+001, 0., 0., 5.85786462e-001, 1.44974747e+001,
          6.06107178e+001, 1.30601943e+000, 0., 5.85786438e+000,
          2.81665230e+001, 1.01361458e+002, 7.61415482e+000, 0.,
          2.75735927e+000, 2.31959591e+001, 1.24495697e+002,
          5.15509872e+001, 1.31411529e+000, 5.44324398e+000,
          4.97056293e+000, 8.01087379e+000, 2.61203885e-001,
          6.14041805e+000, 3.44536829e+000, 1.36690474e+001,
          5.02710686e+001, 3.47409797e+000, 0., 0., 4.14213562e+000,
          2.70489407e+001, 4.48089218e+001, 0., 0., 0., 1.98362482e+000,
          4.01637506e+000, 1.65525589e+001, 6.44744205e+000,
          4.14213568e-001, 5.85786462e-001, 0., 1.13926907e+001,
          2.60730982e+000, 0., 0., 0., 0., 0., 0., 0., 0., 0., 0., 0.,
          0., 0., 8.68241596e+000, 3.31758356e+000, 0., 0., 0., 0., 0.,
          0., 0., 0., 0., 0., 0., 0., 0., 0., 0., 0., 0., 0.,
          1.51128941e+001, 6.05867863e+000, 8.28427136e-001, 0., 0.,
          3.02636480e+000, 1.97363520e+000, 0., 7.38796115e-001,
          2.61203885e-001, 0., 0., 0., 0., 0., 0., 0., 0., 0., 0.,
          7.89566612e+000, 1.40332661e+001, 2.89949489e+000,
          3.17157292e+000, 0., 4.86598167e+001, 2.26833305e+001,
          1.65685427e+000, 6.65172935e-001, 2.33482695e+000,
          4.31892729e+000, 2.68107295e+000, 0., 0., 0., 0., 0., 0., 0.,
          0., 1.56722319e+000, 1.97048550e+001, 4.14213562e+000,
          5.85786462e-001, 0., 2.80603142e+001, 2.63833370e+001,
          6.21320343e+000, 1.02702274e+001, 6.07291794e+000,
          3.47901993e+001, 7.07833939e+001, 1.61543293e+001,
          1.08087368e+001, 7.46334124e+000, 5.77471581e+001,
          4.03827858e+001, 1.32548342e+001, 1.59987555e+001,
          1.16164675e+001, 0., 2.92893219e+000, 7.04163074e+000,
          1.27682333e+001, 2.61203885e-001, 6.75417423e-001,
          1.42829523e+001, 1.90538235e+001, 1.97266026e+001,
          2.61203885e-001, 0., 7.02943707e+000, 3.68650055e+001,
          7.47995377e+001, 1.30601943e+000, 0., 1.54730883e+001,
          3.89360733e+001, 6.70249100e+001, 3.45659294e+001, 0.,
          5.85786462e-001, 6.21320343e+000, 1.32010098e+001, 0., 0.,
          1.75735927e+000, 1.82253971e+001, 3.20172424e+001, 0.,
          1.45621109e+000, 1.12300806e+001, 2.52670269e+001,
          5.33898277e+001, 2.65685415e+000, 3.90751152e+001,
          4.20548248e+001, 3.27228699e+001, 4.78859825e+001,
          2.61203885e-001, 2.42087746e+000, 8.43698692e+000,
          5.38477612e+000, 1.75735927e+000, 0., 2.28601704e+001,
          1.73408394e+001, 1.61543293e+001, 1.66446609e+001, 0.,
          4.79940643e+001, 1.41775093e+001, 5.38477612e+000,
          6.44365072e+000, 0., 3.52197552e+000, 1.47802460e+000, 0., 0.,
          0., 2.03853912e+001, 3.61460948e+000, 0., 0., 0.,
          1.53122292e+001, 2.68777084e+000, 0., 0., 0., 0., 0., 0., 0.,
          0., 0., 0., 0., 0., 0., 1.17421904e+001, 2.25780916e+000, 0.,
          0., 0., 0., 0., 0., 0., 0., 0., 0., 0., 0., 0., 0., 0., 0., 0.,
          0., 1.99651413e+001, 5.03485823e+000, 0., 0., 0.,
          6.82021856e+000, 2.17978144e+000, 0., 0., 0., 0., 0., 0., 0.,
          0., 0., 0., 0., 0., 0., 6.40485239e+000, 7.69565296e+000,
          4.97056293e+000, 5.66772842e+000, 2.61203885e-001,
          2.46126480e+001, 2.04878578e+001, 4.55634928e+000,
          5.99163914e+000, 7.35150671e+000, 9.28932190e-001,
          1.07106781e+000, 0., 7.90323615e-001, 1.20967638e+000, 0., 0.,
          0., 0., 0., 0., 0., 4.14213562e+000, 5.85786438e+000, 0.,
          2.20537891e+001, 1.70467167e+001, 8.69848442e+000,
          1.78092289e+001, 2.53917828e+001, 4.12237511e+001,
          3.13204041e+001, 1.73969688e+001, 3.75064468e+001,
          6.55242825e+000, 1.31411529e+000, 1.43011084e+001,
          9.94112587e+000, 4.33048401e+001, 7.51388092e+001 ]
      - [ 0., 0., 0., 0., 0., 0., 0., 0., 0., 0., 0., 0., 0., 0., 0., 0.,
          0., 0., 0., 0., 0., 0., 0., 0., 0., 0., 0., 0., 0., 0., 0., 0.,
          0., 0., 0., 0., 0., 0., 0., 0., 0., 0., 0., 0., 0., 0., 0., 0.,
          0., 0., 0., 0., 0., 0., 0., 0., 0., 0., 0., 0., 0., 0., 0., 0.,
          0., 0., 0., 0., 0., 0., 0., 0., 0., 0., 0., 0., 0., 0., 0., 0.,
          0., 0., 0., 0., 0., 0., 0., 0., 0., 0., 0., 0., 0., 0., 0., 0.,
          0., 0., 0., 0., 0., 0., 0., 0., 0., 0., 0., 0., 0., 0., 0., 0.,
          0., 0., 0., 0., 0., 0., 0., 0., 0., 0., 0., 0., 0., 0., 0., 0.,
          0., 0., 0., 0., 0., 0., 0., 0., 0., 0., 0., 0., 0., 0., 0., 0.,
          0., 0., 0., 0., 0., 0., 0., 0., 0., 0., 0., 0., 0., 0., 0., 0.,
          0., 0., 0., 0., 0., 0., 0., 0., 0., 0., 0., 0., 0., 0., 0., 0.,
          0., 0., 0., 0., 0., 0., 0., 0., 0., 0., 0., 0., 0., 0., 0., 0.,
          0., 0., 0., 0., 0., 0., 0., 0., 0., 0., 0., 0., 0., 0., 0., 0.,
          0., 0., 0., 0., 0., 0., 0., 0., 0., 0., 0., 0., 0., 0., 0., 0.,
          0., 0., 0., 0., 0., 0., 0., 0., 0., 0., 0., 0., 0., 0., 0., 0.,
          0., 0., 0., 0., 0., 0., 0., 0., 0., 0., 0., 0., 0., 0., 0., 0.,
          0., 0., 0., 0., 0., 0., 0., 0., 0., 0., 0., 0., 0., 0., 0., 0.,
          0., 0., 0., 0., 0., 0., 0., 0., 0., 0., 0., 0., 0., 0., 0., 0.,
          0., 0., 0., 0., 0., 0., 0., 0., 0., 0., 0., 0., 0., 0., 0., 0.,
          0., 0., 0., 0., 0., 0., 0., 0., 0., 0., 0., 0., 0., 0., 0., 0.,
          0., 0., 0., 0., 0., 0., 0., 0., 0., 0., 0., 0., 0., 0., 0., 0.,
          0., 0., 0., 0., 0., 0., 0., 0., 0., 0., 0., 0., 0., 0., 0., 0.,
          0., 0., 0., 0., 0., 0., 0., 0., 0., 0., 0., 0., 0., 0., 0., 0.,
          0., 0., 0., 0., 0., 0., 0., 0., 0., 0., 0., 0., 0., 0., 0., 0.,
          0., 0., 0., 0., 0., 0., 0., 0., 0., 0., 0., 0., 0., 0., 0., 0.,
          0., 0., 0., 0., 0., 0., 0., 0., 0., 0., 0., 0., 0., 0., 0., 0.,
          0., 0., 0., 0., 0., 0., 0., 0., 0., 0., 0., 0., 0., 0., 0., 0.,
          0., 0., 0., 0., 0., 0., 0., 0., 0., 0., 0., 0., 0., 0., 0., 0.,
          0., 0., 0., 0., 0., 0., 0., 0., 0., 0., 0., 0., 0., 0., 0., 0.,
          0., 0., 0., 0., 0., 0., 0., 0., 0., 0., 0., 0., 0., 0., 0., 0.,
          0., 0., 0., 0., 0., 0., 0., 0., 0., 0., 0., 0., 0., 0., 0., 0.,
          0., 0., 0., 0., 0., 0., 0., 0., 0., 0., 0., 0., 0., 0., 0., 0.,
          0., 0., 0., 0., 0., 0., 0., 0., 0., 0., 0., 0., 0., 0., 0., 0.,
          0., 0., 0., 0., 0., 0., 0., 0., 0., 0., 0., 0., 0., 0., 0., 0.,
          0., 0., 0., 0., 0., 0., 0., 0., 0., 0., 0., 0., 0., 0., 0., 0.,
          0., 0., 0., 0., 0., 0., 0., 0., 0., 0., 0., 0., 0., 0., 0., 0. ]
      - [ 0., 4.26695156e+000, 1., 3., 1., 1., 9., 2., 0.,
          5.85786462e-001, 3.89457345e+000, 6.69121313e+000,
          4.20710678e+001, 2.19289322e+001, 3.41421366e+000, 0., 0., 0.,
          2.30274629e-002, 1.88777218e+001, 8.50500336e+001,
          1.74634323e+001, 2.58578634e+000, 0., 0., 0., 0.,
          1.30488783e-001, 1.88695107e+001, 0., 0., 0., 0.,
          4.29486227e+000, 0., 1., 2., 0., 3., 2., 0., 4.96200752e+000,
          7., 4.58578634e+000, 1.14142132e+001, 1.55857868e+001,
          1.28284273e+001, 3.99685860e+000, 0., 2.86268783e+000, 0., 4.,
          5.09891243e+001, 3.58393021e+001, 11., 7.67931843e+000, 0.,
          8.75735950e+000, 5., 1.35606136e+001, 9.99701233e+001,
          2.24692650e+001, 8.82842731e+000, 3.00223374e+000, 0.,
          6.17999649e+000, 0., 0., 0., 0., 0., 3.79692507e+000, 0.,
          4.39117193e+000, 0., 0., 0., 0., 0., 8.24439228e-001, 0.,
          5.96235514e+000, 0., 0., 0., 0., 0., 7.70491076e+000, 0.,
          5.79843903e+000, 0., 0., 0., 0., 0., 1.68074355e-001, 0.,
          9.93047416e-001, 0., 0., 0., 0., 0., 0., 0., 0., 0., 0., 0.,
          0., 0., 0., 0., 0., 0., 0., 0., 0., 0., 0., 0., 0., 0., 0., 0.,
          0., 0., 0., 5.85786462e-001, 4.14213568e-001, 0., 0., 0., 0.,
          0., 0., 0., 0., 0., 0., 0., 0., 0., 0., 0., 0., 0., 0., 0., 0.,
          0., 0., 0., 0., 0., 0., 0., 0., 0., 0., 0., 0., 0., 0., 0., 0.,
          0., 0., 0., 0., 0., 0., 0., 0., 0., 0., 0., 0., 0., 0., 0., 0.,
          0., 0., 0., 0., 0., 0., 0., 0., 0., 0., 3.41474891e-001,
          4.31705046e+000, 2.34147477e+000, 0., 0., 0., 0., 0., 0., 0.,
          0., 0., 0., 0., 0., 0., 0., 0., 0., 0., 0., 0., 0., 0., 0., 0.,
          0., 0., 0., 0., 0., 0., 1.10565372e-001, 9.85887146e+000,
          1.67693596e+001, 1.26120389e+000, 0., 1., 0., 0., 0., 0.,
          2.84414806e+001, 9.55852032e+000, 1., 0., 2., 0., 0., 0.,
          3.28738904e+000, 4.39223385e+000, 1.32037723e+000, 0., 0., 0.,
          0., 0., 0., 0., 0., 0., 0., 0., 3.74280095e+000,
          4.18613148e+000, 7.04163074e+000, 7.02943707e+000, 0.,
          1.92087018e+000, 6.76542139e+000, 1.44974747e+001,
          1.68162346e+001, 0., 1.60887184e+001, 1.74554367e+001,
          1.69827557e+001, 2.49506798e+001, 5.22407770e-001, 0.,
          1.75735927e+000, 1.24264073e+000, 0., 0., 2.30166698e+000,
          3.62726521e+000, 4.14213562e+000, 2.92893219e+000, 0., 0.,
          1.25441561e+001, 2.07106781e+001, 2.27451668e+001, 0., 0.,
          5.27207804e+000, 2.77523079e+001, 4.24532051e+001,
          5.22407770e-001, 3.93967509e+000, 2.37344227e+001,
          3.27228699e+001, 3.03418274e+001, 2.61203885e-001,
          1.01116571e+001, 1.88834321e+000, 0., 2.62987781e+000,
          6.37012196e+000, 8.77909184e+000, 4.39248085e+000,
          2.48528147e+000, 4.48176193e+000, 1.86138391e+000,
          6.77228546e+000, 3.22771454e+000, 8.28427136e-001,
          5.58887911e+000, 1.35826941e+001, 1.10267496e+001,
          1.14879694e+001, 2.48528147e+000, 1., 0., 1.32397509e+000,
          6.76024973e-001, 0., 0., 0., 0., 0., 0., 0., 0., 0., 0., 0.,
          0., 0., 0., 0., 0., 0., 0., 5.14718652e-001, 4.85281378e-001,
          0., 0., 0., 0., 0., 0., 0., 0., 0., 0., 0., 0., 0., 0., 0., 0.,
          0., 0., 0., 0., 0., 0., 0., 0., 0., 0., 0., 0., 0., 0., 0., 0.,
          0., 0., 0., 0., 0., 0., 4.97591734e+000, 2.02408290e+000, 0.,
          0., 0., 0., 0., 0., 0., 0., 0., 0., 0., 0., 0., 0., 0., 0., 0.,
          0., 2.40658779e+001, 3.51990771e+000, 8.28427136e-001,
          5.85786462e-001, 0., 3.32029839e+001, 4.79701424e+000,
          8.28427136e-001, 1.17157292e+000, 0., 6.39943266e+000,
          1.60056746e+000, 0., 0., 0., 0., 0., 0., 0., 0.,
          4.29755402e+000, 5.21716452e+000, 4.55634928e+000,
          2.92893219e+000, 0., 0., 3.58578634e+000, 2.40243874e+001,
          4.87144089e+001, 6.75417423e-001, 0., 5.85786462e-001,
          8.69848442e+000, 4.98288918e+001, 6.38868370e+001, 0., 0., 0.,
          1.73535323e+000, 1.72646465e+001, 5.34006357e+000,
          9.93201447e+000, 4.55634928e+000, 2.17157292e+000, 0.,
          5.94068384e+000, 1.36745396e+001, 1.73969688e+001,
          1.99878063e+001, 0., 4.10681486e+000, 2.26799812e+001,
          3.10660172e+001, 6.54346390e+001, 1.71254385e+000,
          2.83542109e+000, 3.14660950e+001, 2.98233757e+001,
          8.35250702e+001, 3.13500366e+001, 2.35578709e+001,
          2.44212914e+000, 0., 0., 0., 2.80024605e+001, 2.99753952e+000,
          0., 0., 0., 3.47961464e+001, 5.20385361e+000, 0., 0., 0.,
          3.28357544e+001, 4.16424370e+000, 0., 0., 0., 2.74694633e+000,
          1.25305367e+000, 0., 0., 0., 0., 0., 0., 0., 0., 0., 0., 0.,
          0., 0., 0., 0., 0., 0., 0., 8.21307123e-001, 1.78692877e-001,
          0., 0., 0., 0., 0., 0., 0., 0., 0., 0., 0., 0., 0., 0., 0., 0.,
          0., 0., 5.14718652e-001, 4.85281378e-001, 0., 0., 0., 0., 0.,
          0., 0., 0., 0., 0., 0., 0., 0., 0., 0., 0., 0., 0.,
          3.63989139e+000, 1.36010861e+000, 0., 0., 0., 0., 0., 0., 0.,
          0., 0., 0., 0., 0., 0., 0., 0., 0., 0., 0., 1.52873735e+001,
          4.88419914e+000, 2.07106781e+000, 1.75735927e+000, 0., 0., 0.,
          1.24264073e+000, 6.80374670e+000, 1.69536133e+001, 0., 0., 0.,
          1.57811821e+000, 5.42188168e+000, 0., 0., 0., 0., 0. ]
      - [ 0., 1., 1., 2., 4., 5., 7., 3., 0., 0., 1., 5.,
          5.05486603e+001, 2.40371265e+001, 4.41421366e+000, 2., 0., 0.,
          2., 1.27429390e+001, 7.23603287e+001, 8.89673138e+000, 3., 3.,
          0., 0., 0., 2.30274629e-002, 1.09769726e+001, 0., 0., 0., 0.,
          5.17157269e+000, 5., 0., 4., 1., 0., 8.17157269e+000, 0., 0.,
          8., 4., 1.54142132e+001, 1.79289322e+001, 1.56568546e+001,
          5.58578634e+000, 0., 5., 3., 4.63469458e+000, 5.36079445e+001,
          3.55738907e+001, 1.70118942e+001, 1.64250870e+001, 0.,
          4.96315670e+000, 8.26695919e+000, 2.70569420e+001,
          8.73212204e+001, 3.25441246e+001, 6.26181126e+000,
          9.34314537e+000, 0., 1.70975316e+000, 0., 0., 0., 0., 0.,
          5.82462311e+000, 0., 5.90815306e+000, 0., 0., 0., 0., 0.,
          3.76264954e+000, 0., 9.59684086e+000, 0., 0., 0., 0.,
          4.14213568e-001, 1.28548174e+001, 0., 5.59932375e+000, 1., 0.,
          0., 0., 1.21671247e+000, 7.35671377e+000, 0., 2.90411639e+000,
          0., 0., 0., 0., 0., 4.91225034e-001, 0., 0., 0., 0., 0., 0.,
          0., 0., 0., 0., 0., 0., 0., 0., 0., 0., 0., 0., 0., 0., 0., 0.,
          0., 0., 0., 3.83235145e+000, 0., 0., 0., 0., 0., 0., 0., 0.,
          0., 0., 0., 0., 0., 0., 0., 0., 0., 0., 0., 0., 0., 0., 0., 0.,
          0., 0., 0., 0., 0., 0., 0., 5.11147070e+000, 2.58895373e+000,
          0., 0., 0., 0., 0., 0., 0., 0., 0., 0., 0., 0., 0., 0., 0., 0.,
          0., 0., 0., 0., 0., 0., 0., 0., 0., 0., 0., 0., 0.,
          2.57992196e+000, 1.09777441e+001, 1.24423342e+001, 0., 0., 0.,
          0., 0., 0., 3.75406295e-001, 3.62459373e+000, 0., 0., 0., 0.,
          0., 0., 0., 0., 0., 0., 0., 0., 0., 0., 0., 0., 0., 0., 0., 0.,
          0., 0., 3.62919879e+000, 8.78501511e+000, 3., 4., 0.,
          1.58578646e+000, 8.28427136e-001, 0., 7.21741199e-001,
          3.20240021e+001, 2.04686489e+001, 8.19982147e+000,
          1.58578646e+000, 3.26540923e+000, 7.34590828e-001, 0., 0.,
          2.25492597e+000, 5.09670162e+000, 5.64837217e+000, 0., 0., 0.,
          0., 0., 0., 0., 0., 0., 0., 0., 5.85786462e-001,
          2.17157292e+000, 6.21320343e+000, 1.00294371e+001, 0., 0.,
          3.51471853e+000, 1.49116879e+001, 2.43123894e+001,
          2.61203885e-001, 1.76173630e+001, 1.34120731e+001,
          1.44974747e+001, 1.81785507e+001, 4.29453802e+000, 0.,
          5.85786462e-001, 4.14213568e-001, 0., 0., 0., 6.44365072e+000,
          8.69848442e+000, 5.85786438e+000, 0., 0., 7.02943707e+000,
          1.94680367e+001, 2.55025253e+001, 0., 0., 9.95836926e+000,
          3.31370850e+001, 5.29679260e+001, 9.36621308e-001,
          1.28766460e+001, 2.38685188e+001, 3.52081528e+001,
          4.15428352e+001, 1.50384462e+000, 0., 2.34314585e+000,
          4.55634928e+000, 7.33582640e+000, 5.76467896e+000,
          7.55223703e+000, 8.96248150e+000, 6.21320343e+000,
          9.85500336e+000, 2.41707444e+000, 1.10163736e+001,
          8.32677174e+000, 3.31370854e+000, 1.09548903e+001,
          1.13882551e+001, 4.56548834e+000, 8.12080288e+000,
          5.79898977e+000, 7.70941353e+000, 5.80530500e+000,
          5.41773844e+000, 2.16804790e+000, 4.14213568e-001,
          1.19074357e+000, 8.09256434e-001, 0., 0., 0., 0., 0., 0., 0.,
          0., 0., 0., 0., 0., 0., 0., 0., 5.43407154e+000,
          1.56592870e+000, 0., 0., 0., 0., 0., 0., 0., 0., 0., 0., 0.,
          0., 0., 0., 0., 0., 0., 0., 7.29517984e+000, 1.70482028e+000,
          0., 0., 0., 0., 0., 0., 0., 0., 0., 0., 0., 0., 0., 0., 0., 0.,
          0., 0., 2.17663116e+001, 3.81947541e+000, 4.14213568e-001, 0.,
          0., 3.26795506e+000, 7.32045054e-001, 0., 0., 0., 0., 0., 0.,
          0., 0., 0., 0., 0., 0., 0., 5.79564762e+000, 6.89064360e+000,
          3.72792196e+000, 2.32458258e+000, 2.61203885e-001,
          4.17715416e+001, 9.74317837e+000, 2.89949489e+000,
          4.64916515e+000, 9.36621308e-001, 7.57405138e+000,
          2.42594886e+000, 0., 0., 0., 0., 0., 0., 0., 0., 0.,
          6.44365072e+000, 9.11269855e+000, 6.44365072e+000, 0., 0.,
          1.17157292e+000, 1.78111839e+001, 5.93303833e+001,
          3.68686056e+000, 0., 4.92893219e+000, 4.97056293e+000,
          2.41202049e+001, 6.69803009e+001, 0., 0., 0., 1.01255393e+000,
          9.98744583e+000, 0., 1.10294371e+001, 6.62741709e+000,
          3.34314585e+000, 0., 0., 5.51471853e+000, 1.73969688e+001,
          2.40883121e+001, 0., 1.04481554e+000, 2.74993401e+001,
          2.65096684e+001, 7.21664963e+001, 5.77967644e+000,
          5.22407770e-001, 3.13648930e+001, 3.43797264e+001,
          9.60794296e+001, 2.96535416e+001, 2.00786037e+001,
          9.09296989e+000, 8.28427136e-001, 0., 0., 3.59233170e+001,
          1.12482548e+001, 8.28427136e-001, 0., 0., 4.02446632e+001,
          1.55126944e+001, 1.24264073e+000, 0., 0., 3.51274033e+001,
          1.53873138e+001, 2.48528147e+000, 0., 0., 1.27534990e+001,
          2.24650097e+000, 0., 0., 0., 0., 0., 0., 0., 0., 0., 0., 0.,
          0., 0., 0., 0., 0., 0., 0., 7.81277418e+000, 1.18722582e+000,
          0., 0., 0., 0., 0., 0., 0., 0., 0., 0., 0., 0., 0., 0., 0., 0.,
          0., 0., 7.70357037e+000, 1.29642940e+000, 0., 0., 0., 0., 0.,
          0., 0., 0., 0., 0., 0., 0., 0., 0., 0., 0., 0., 0.,
          1.76159153e+001, 5.38408422e+000, 0., 0., 0., 8.41352940e-001,
          1.58647031e-001, 0., 0., 0., 0., 0., 0., 0., 0., 0., 0., 0.,
          0., 0., 4.06854296e+000, 5.68881655e+000, 4.14213562e+000,
          4.10050488e+000, 0., 1.27559745e+000, 3.06754827e+000,
          6.21320343e+000, 1.75763264e+001, 2.68673229e+001, 0., 0., 0.,
          1.93357897e+000, 9.06642151e+000, 0., 0., 0., 0., 0. ]
      - [ 0., 0., 2., 2., 9., 7., 0., 0., 0., 0., 2., 1.17216110e+001,
          5.23510551e+001, 1.85131207e+001, 2.82842708e+000,
          2.58578634e+000, 0., 0., 0., 6.32558966e+000, 5.62925682e+001,
          1.38184261e+000, 0., 0., 0., 0., 1., 0., 2., 0., 0., 0., 0.,
          0., 2., 2., 7., 4., 2., 4., 0., 0., 5., 13., 2.24142132e+001,
          1.65857868e+001, 9., 1., 0., 1., 3.41421366e+000,
          5.39904118e+000, 6.15536842e+001, 3.28046341e+001,
          2.08284264e+001, 1.58578646e+000, 0., 2.58578634e+000,
          7.97099209e+000, 1.90416985e+001, 8.06628723e+001,
          4.30757790e+001, 3.89874535e+001, 8.84699059e+000, 0.,
          6.68487430e-001, 1., 0., 0., 0., 3.41421366e+000,
          1.39614544e+001, 0., 7.39166832e+000, 2.08396006e+000, 0., 0.,
          0., 0., 1.61439419e+001, 0., 1.32762604e+001, 1.10406618e+001,
          0., 0., 0., 6.23501587e+000, 2.16491108e+001, 0.,
          1.22781115e+001, 9.21384239e+000, 0., 0., 1.58578646e+000,
          1.09796848e+001, 1.66311417e+001, 0., 2.74616987e-001, 0., 0.,
          0., 0., 1., 3.87602854e+000, 0., 0., 0., 0., 0., 0., 0., 0.,
          0., 0., 0., 0., 0., 0., 0., 0., 0., 0., 0., 0., 0., 0., 0., 0.,
          0., 7.73888540e+000, 2.44558501e+000, 0., 0., 0., 0.,
          1.34058595e+000, 0., 0., 0., 0., 0., 0., 0., 0., 0., 0., 0.,
          0., 0., 0., 0., 0., 0., 0., 0., 0., 0., 0., 0., 0., 0.,
          1.48472614e+001, 4.58969927e+000, 0., 0., 0., 1., 0., 0., 0.,
          2., 0., 0., 0., 0., 0., 0., 0., 0., 0., 0., 0., 0., 0., 0., 0.,
          0., 0., 0., 0., 0., 0., 0., 4.32832098e+000, 1.26716795e+001,
          1., 3., 4., 2.41421366e+000, 5.85786462e-001, 0.,
          1.61500263e+000, 1.96918087e+001, 6.93189621e-001, 0., 0., 0.,
          0., 0., 0., 0., 0., 0., 0., 0., 0., 0., 0., 0., 0., 0., 0., 0.,
          0., 4.14213568e-001, 1., 3., 3.58578634e+000, 4.82842731e+000,
          4.58578634e+000, 2.41421366e+000, 1.17157292e+000, 0., 0.,
          1.29658260e+001, 3.35701714e+001, 1.88039780e+001,
          5.66002464e+000, 1., 0., 0., 0., 0., 0., 2., 0., 0., 0., 0.,
          0., 0., 0., 0., 0., 0., 0., 0., 2.34314585e+000,
          4.55634928e+000, 4.10050488e+000, 0., 6.66147137e+000,
          1.21963930e+001, 1.61543293e+001, 2.19878063e+001, 0.,
          9.87800980e+000, 1.14651356e+001, 4.97056293e+000,
          1.11638842e+001, 5.22407770e-001, 5.14718652e-001,
          4.85281378e-001, 0., 0., 0., 0., 2.34314585e+000,
          5.79898977e+000, 5.85786438e+000, 0., 0., 1.05441561e+001,
          1.86396103e+001, 1.58162336e+001, 0., 1.78268003e+000,
          7.48939800e+000, 2.65096684e+001, 4.01734390e+001,
          1.04481554e+000, 2.34741039e+001, 1.16264009e+001,
          1.82253971e+001, 6.16998901e+001, 2.99742088e+001, 0.,
          2.34314585e+000, 9.52691174e+000, 1.31299419e+001, 0.,
          5.12638950e+000, 6.55990171e+000, 1.20121937e+001,
          1.97144089e+001, 8.58710575e+000, 1.59708166e+001,
          1.03012609e+001, 9.94112587e+000, 1.97940502e+001,
          2.19927464e+001, 1.59759760e+001, 7.78138304e+000,
          4.55634928e+000, 2.01959801e+001, 2.14903107e+001,
          4.14213568e-001, 3.17157292e+000, 4.55634928e+000,
          7.18244696e+000, 6.75417423e-001, 0., 0., 0., 0., 0., 0., 0.,
          0., 0., 0., 0., 0., 0., 0., 0., 8.97382545e+000,
          4.61196041e+000, 8.28427136e-001, 2.54866004e+000,
          1.03712642e+000, 0., 0., 0., 0., 0., 0., 0., 0., 0., 0., 0.,
          0., 0., 0., 0., 1.70049763e+001, 6.75238323e+000,
          1.65685427e+000, 5.85786462e-001, 0., 1.34664428e+000,
          6.53355718e-001, 0., 0., 0., 0., 0., 0., 0., 0., 0., 0., 0.,
          0., 0., 1.24505672e+001, 4.30679178e+000, 2.89949489e+000,
          5.34314585e+000, 0., 1.94258385e+001, 2.57416105e+000, 0., 0.,
          0., 0., 0., 0., 0., 0., 0., 0., 0., 0., 0., 0.,
          4.68629169e+000, 6.62741709e+000, 5.68629169e+000, 0.,
          4.05292931e+001, 1.23996410e+001, 5.79898977e+000,
          5.27207804e+000, 0., 0., 0., 0., 0., 0., 0., 0., 0., 0., 0.,
          0., 0., 6.62741709e+000, 1.13725834e+001, 0., 0.,
          3.34314585e+000, 1.03553391e+001, 5.39234962e+001,
          2.03780193e+001, 0., 0., 0., 1.04756403e+001, 5.35243607e+001,
          0., 0., 0., 6.21077836e-001, 1.37892210e+000, 0.,
          5.85786438e+000, 9.11269855e+000, 8.02943707e+000, 0., 0.,
          5.10050488e+000, 2.02964649e+001, 3.46030312e+001, 0., 0.,
          4.92893219e+000, 2.02964649e+001, 7.32911224e+001,
          9.48348331e+000, 2.61203885e-001, 1.51824465e+001,
          2.52670269e+001, 1.07403236e+002, 4.68860855e+001,
          5.43615627e+000, 1.39364262e+001, 6.62741709e+000, 0., 0.,
          3.81749878e+001, 2.58544483e+001, 4.97056293e+000, 0., 0.,
          4.85249367e+001, 4.22618599e+001, 6.21320343e+000, 0., 0.,
          4.25984573e+001, 1.96736221e+001, 4.55634928e+000,
          1.17157292e+000, 0., 1.86183357e+001, 4.72481012e+000,
          1.65685427e+000, 0., 0., 1.72840703e+000, 2.71592975e-001, 0.,
          0., 0., 0., 0., 0., 0., 0., 0., 0., 0., 0., 0.,
          1.62826462e+001, 4.47471333e+000, 1.24264073e+000, 0., 0., 0.,
          0., 0., 0., 0., 0., 0., 0., 0., 0., 0., 0., 0., 0., 0.,
          1.92079792e+001, 6.54937983e+000, 1.24264073e+000, 0., 0., 0.,
          0., 0., 0., 0., 0., 0., 0., 0., 0., 0., 0., 0., 0., 0.,
          7.01608944e+000, 5.91284275e+000, 4.97056293e+000,
          5.10050488e+000, 0., 2.66266012e+000, 5.09469938e+000,
          1.24264073e+000, 8.92476916e-001, 2.10752320e+000, 0., 0., 0.,
          0., 0., 0., 0., 0., 0., 0., 0., 2.17157292e+000,
          5.38477612e+000, 8.44365120e+000, 0., 0., 0., 2.48528147e+000,
          2.51077042e+001, 4.04070129e+001, 0., 0., 0., 6.63974226e-001,
          1.33602571e+000, 0., 0., 0., 0., 0. ]
      - [ 0., 0., 0., 9.75735950e+000, 1.32426405e+001, 1., 2., 1., 0.,
          1., 5.41421366e+000, 2.80633965e+001, 3.99366035e+001,
          5.85786462e-001, 2., 1., 0., 2., 2., 2.33018913e+001,
          2.07248077e+001, 9.73300457e-001, 1., 1., 0., 3.40446877e+000,
          1.38734798e+001, 1.27654972e+001, 1.76018810e+001,
          2.16392851e+000, 1.19074357e+000, 0., 0., 0., 6., 3., 10., 4.,
          2., 0., 0., 1., 3.82842708e+000, 1.35147190e+001,
          2.70710678e+001, 7.58578634e+000, 10., 4., 0., 0., 6., 16.,
          3.60221596e+001, 2.61494141e+001, 1.25038443e+001,
          1.54961557e+001, 0., 1.17964172e+001, 2.40520210e+001,
          2.32181778e+001, 2.94094582e+001, 4.74582672e+001,
          4.48301697e+001, 2.29485435e+001, 0., 3., 3., 0., 0., 3., 9.,
          3.32037735e+000, 0., 2.44745421e+000, 0., 0., 0., 0., 0.,
          3.25501862e+001, 0., 1.58228827e+001, 0., 0., 0.,
          5.85786462e-001, 5.27309847e+000, 2.26525078e+001, 0.,
          4.62487793e+000, 2.82842708e+000, 1.17157292e+000, 0., 0.,
          3.48872972e+000, 2.93163567e+001, 0., 6.30944967e-002, 4., 0.,
          0., 0., 4.14213568e-001, 4.86347103e+000, 0., 4.72112373e-002,
          0., 0., 0., 0., 8.12103003e-002, 9.06465054e+000, 0., 0., 0.,
          0., 0., 0., 0., 0., 0., 0., 0., 0., 0., 0., 0., 0., 0.,
          3.69260049e+000, 3., 1., 0., 0., 0., 6.19885111e+000, 0.,
          7.76526117e+000, 0., 0., 0., 0., 0., 6.99070692e-002, 0., 0.,
          0., 0., 0., 0., 0., 0., 0., 0., 0., 0., 0., 0., 0., 0., 0.,
          2.68915391e+000, 8.77624989e+000, 2.65325785e+000,
          1.41421354e+000, 1., 2.41421366e+000, 1.17157292e+000,
          8.21229145e-002, 1.46964035e+001, 1.42214737e+001, 0., 0., 0.,
          0., 0., 0., 0., 0., 0., 0., 0., 0., 0., 0., 0., 0., 0., 0., 0.,
          0., 0., 0., 2.17157292e+000, 1.15457153e+001, 7.86849833e+000,
          7.41421366e+000, 0., 0., 0., 0., 0., 1.78434868e+001,
          1.21565132e+001, 0., 0., 0., 0., 0., 0., 0., 0., 0., 0., 0.,
          0., 0., 0., 0., 0., 0., 0., 0., 0., 0., 1.15022111e+000,
          1.26399243e+000, 5., 15., 3.17157292e+000, 1.41421354e+000, 1.,
          0., 0., 3.47290492e+000, 1.87574329e+001, 1.65909710e+001,
          1.78692877e-001, 0., 0., 0., 0., 0., 0., 0., 0., 0., 0., 0.,
          0., 0., 0., 0., 0., 0., 0., 0., 8.61522388e+000,
          7.04163074e+000, 2.34314585e+000, 0., 2.68665600e+001,
          2.02633839e+001, 9.52691174e+000, 2.34314585e+000, 0.,
          2.86777077e+001, 1.29080791e+001, 1.65685427e+000,
          3.49615550e+000, 2.61203885e-001, 2.91867352e+001,
          8.81326485e+000, 4.14213568e-001, 6.23495150e+000,
          1.35083485e+000, 0., 5.27207804e+000, 6.21320343e+000,
          3.51471853e+000, 0., 0., 1.29583693e+001, 1.61543293e+001,
          1.28873014e+001, 0., 0., 1.28873014e+001, 3.02375908e+001,
          3.76139030e+001, 2.61203885e-001, 2.70142803e+001,
          3.66720123e+001, 8.28427124e+000, 6.11745529e+001,
          6.38548851e+001, 0., 3.51471853e+000, 8.28427124e+000,
          1.02010098e+001, 0., 1.15341651e+000, 3.18972921e+000,
          8.69848442e+000, 2.63364582e+001, 1.86219101e+001,
          1.70647221e+001, 8.93527699e+000, 2.89949489e+000,
          2.59398499e+001, 9.16065407e+000, 7.32219076e+000,
          6.84938192e+000, 2.07106781e+000, 1.57244911e+001,
          2.30328674e+001, 0., 2.92893219e+000, 4.14213562e+000,
          5.09700632e+000, 1.83192563e+000, 0., 1.17157292e+000,
          1.65685427e+000, 4.68835735e+000, 1.34832153e+001, 0., 0., 0.,
          0., 0., 0., 0., 0., 0., 0., 3.03498745e+000, 6.47973108e+000,
