%YAML:1.0
_0218: !!opencv-ml-svm
   svm_type: C_SVC
   kernel: { type:LINEAR }
   C: 100.
   term_criteria: { epsilon:9.9999999747524271e-007,
       iterations:2147483647 }
   var_all: 576
   var_count: 576
   class_count: 2
   class_labels: !!opencv-matrix
      rows: 1
      cols: 2
      dt: i
      data: [ -1, 3 ]
   sv_total: 20
   support_vectors:
      - [ 0., 8.42521095e+000, 2., 0., 0., 0., 0., 0., 0.,
          1.15857868e+001, 1.54142132e+001, 3., 12., 6., 3., 0., 0., 2.,
          12., 10., 3.34142151e+001, 2.83431454e+001, 1.42426405e+001,
          2., 0., 0., 6., 9., 3.88284264e+001, 6.19289322e+001,
          4.02426414e+001, 1., 0., 1.20608053e+001, 1.29603457e+000, 0.,
          0., 0., 0., 0., 0., 2.21901360e+001, 1., 2., 3., 4., 4.,
          5.58578634e+000, 0., 5.58578634e+000, 1.41421354e+000, 2., 15.,
          5.87598228e+001, 4.92401772e+001, 2., 0., 6., 11., 4.,
          1.27473192e+001, 4.83277817e+001, 9.63557129e+001,
          1.15691824e+001, 0., 1.74966621e+001, 4.20694304e+000, 0., 0.,
          0., 0., 0., 0., 4.69773178e+001, 9.00848961e+000, 0., 0., 0.,
          0., 0., 0., 7.13530884e+001, 4.41421366e+000, 1.,
          1.41421354e+000, 6.06337881e+000, 3.52240777e+000, 1., 0.,
          1.89962311e+001, 0., 7., 1.84142132e+001, 2.76670074e+001,
          1.96099472e+001, 1.21053839e+001, 0., 0., 1., 0., 0., 0., 0.,
          0., 0., 0., 0., 0., 0., 0., 0., 0., 0., 0., 0., 0., 0., 0., 0.,
          0., 0., 0., 0., 0., 0., 0., 0., 0., 0., 0., 0., 0., 0., 0., 0.,
          0., 0., 0., 0., 0., 0., 0., 0., 0., 0., 0., 0., 0., 0., 0., 0.,
          0., 0., 0., 0., 0., 0., 0., 0., 0., 0., 0., 0., 0., 0., 0., 0.,
          0., 0., 0., 0., 0., 0., 0., 0., 0., 0., 0., 0., 0., 0., 0., 0.,
          0., 0., 0., 0., 0., 0., 0., 0., 0., 0., 3.82370448e+000,
          1.92007232e+000, 0., 0., 0., 0., 0., 0., 2., 3., 0., 0., 0.,
          0., 0., 0., 0., 0., 0., 0., 0., 0., 0., 0., 0., 0., 0., 0., 0.,
          0., 0., 0., 1.52626495e+001, 1.75258923e+000, 0., 0., 0., 0.,
          0., 0., 1.83088779e+001, 3.26911240e+001, 5., 5., 2., 0., 1.,
          0., 7.65149021e+000, 4.11206131e+001, 1.22278948e+001, 9., 6.,
          3., 1., 0., 0., 3.89125366e+001, 1.52590351e+001,
          9.65685463e+000, 4.17157269e+000, 2., 0., 6.30787754e+000,
          7.54998684e+000, 4.14213562e+000, 0., 0., 0., 1.79878063e+001,
          1.57401152e+001, 5.27207804e+000, 0., 0., 1.40588741e+001,
          2.65096684e+001, 2.84314575e+001, 0., 0., 9.20100975e+000,
          4.72203445e+001, 6.25786438e+001, 0., 7.43849945e+000,
          6.66200590e+000, 2.89949489e+000, 0., 0., 2.61203885e-001,
          2.26971664e+001, 1.28406200e+001, 8.20100975e+000, 0., 0.,
          5.68629169e+000, 2.36101723e+001, 8.18859787e+001,
          7.81755304e+000, 0., 1.23015156e+001, 4.55634918e+001,
          1.10846024e+002, 1.02889681e+001, 2.42403202e+001,
          3.75967956e+000, 0., 0., 0., 3.24514809e+001, 2.50216064e+001,
          9.52691174e+000, 0., 0., 3.12589531e+001, 5.31014366e+001,
          2.07106781e+001, 8.14532089e+000, 7.83611596e-001,
          1.36596479e+001, 1.99850140e+001, 2.27817459e+001,
          3.97220993e+001, 1.78514938e+001, 6.79622769e-001,
          3.20377231e-001, 0., 0., 0., 0., 0., 0., 0., 0., 0., 0., 0.,
          0., 0., 0., 0., 0., 0., 0., 0., 0., 0., 0., 0., 0., 0., 0., 0.,
          0., 0., 0., 0., 0., 0., 0., 0., 0., 0., 0., 0., 0., 0., 0., 0.,
          0., 0., 0., 0., 0., 0., 0., 0., 0., 0., 0., 0., 0., 0., 0.,
          5.78873682e+000, 1.21126306e+000, 0., 0., 0., 3.98343444e+000,
          1.01656568e+000, 0., 0., 0., 0., 0., 0., 0., 0., 0., 0., 0.,
          0., 0., 1.74119625e+001, 4.51697063e+000, 2.07106781e+000, 0.,
          0., 3.48048592e+001, 1.37392979e+001, 8.69848442e+000,
          1.75735927e+000, 0., 3.75352440e+001, 1.47662725e+001,
          1.28406200e+001, 5.85786438e+000, 0., 4.08107033e+001,
          9.63294697e+000, 7.45584393e+000, 4.10050488e+000, 0.,
          8.78880692e+000, 1.13116980e+001, 2.89949489e+000, 0., 0., 0.,
          9.95836926e+000, 1.53259020e+001, 1.27157288e+001, 0., 0.,
          7.61522388e+000, 3.43797264e+001, 4.40050507e+001, 0., 0.,
          1.17157292e+000, 4.30782089e+001, 6.87502136e+001, 0.,
          8.52909851e+000, 1.75714073e+001, 2.89949489e+000, 0., 0.,
          2.87324262e+000, 4.27714195e+001, 1.40832615e+001,
          5.27207804e+000, 0., 0., 6.44365072e+000, 3.85218620e+001,
          6.20344887e+001, 0., 2.61203885e-001, 1.73834572e+001,
          3.93502884e+001, 4.85121765e+001, 2.49287438e+000,
          2.60934258e+001, 4.90657473e+000, 0., 0., 0., 3.66873817e+001,
          2.43714924e+001, 9.94112587e+000, 0., 0., 4.22221642e+001,
          6.29372177e+001, 1.53259020e+001, 7.51471853e+000, 0.,
          4.66401863e+001, 3.58745346e+001, 2.19533195e+001,
          4.25319633e+001, 0., 6.79622769e-001, 3.20377231e-001, 0., 0.,
          0., 0., 0., 0., 0., 0., 0., 0., 0., 0., 0., 0., 0., 0., 0., 0.,
          0., 0., 0., 0., 0., 0., 0., 0., 0., 0., 0., 0., 0., 0., 0., 0.,
          0., 0., 0., 0., 0., 0., 0., 0., 0., 0., 0., 0., 0., 0., 0., 0.,
          0., 0., 0., 0., 0., 0., 0., 0., 7.46407700e+000,
          1.53592312e+000, 0., 0., 0., 2.32280135e+000, 6.77198529e-001,
          0., 0., 0., 0., 0., 0., 0., 0., 0., 0., 0., 0., 0.,
          1.96250420e+001, 5.13231659e+000, 1.24264073e+000, 0., 0.,
          1.76649780e+001, 1.79796829e+001, 1.53259020e+001,
          7.02943707e+000, 0., 7.62380075e+000, 7.23406363e+000,
          1.65685425e+001, 1.75735931e+001, 0., 0., 5.85786462e-001,
          7.87005758e+000, 2.03691616e+001, 2.01749935e+001 ]
      - [ 0., 1.74508629e+001, 5.01490402e+000, 2.20481202e-001, 0., 0.,
          0., 0., 0., 4.80505133e+000, 1.73732777e+001, 1.13058357e+001,
          1.29300489e+001, 1.99289322e+001, 1.04363728e+001,
          7.71243143e+000, 0., 4.14213568e-001, 1., 9.10341167e+000,
          4.11590729e+001, 1.81730824e+001, 5.64434648e-001,
          2.16736746e+000, 0., 0., 0., 0., 0., 0., 0., 0., 0.,
          1.40893612e+001, 3.51672506e+000, 0., 0., 0., 0.,
          5.85786462e-001, 0., 7.89156246e+000, 4.41421366e+000, 1.,
          1.50710678e+001, 1.92720776e+001, 2.26568546e+001, 3., 0.,
          6.32458258e+000, 3.26120377e+000, 1.32037723e+000,
          1.24670267e+001, 6.45486908e+001, 2.75928402e+001,
          1.02426405e+001, 0., 0., 1.04066153e+001, 2.97148838e+001,
          2.55681725e+001, 8.27455425e+000, 3.44998646e+000,
          2.17157292e+000, 0., 5.28208065e+000, 0., 0., 0., 0., 0., 0.,
          0., 2.73616581e+001, 8.04496288e+000, 2.76507974e-001, 0., 1.,
          0., 0., 0., 2.05471706e+001, 1.87250328e+001, 8.30853105e-001,
          2.24264073e+000, 2.35147190e+001, 1.40710678e+001,
          1.64878063e+001, 0., 3.05892105e+001, 1.08287525e+001,
          9.19972324e+000, 2.54852810e+001, 1.95147190e+001, 5.,
          1.58578646e+000, 0., 0., 0., 0., 0., 0., 0., 0., 0., 0., 0.,
          0., 0., 0., 0., 0., 0., 0., 0., 0., 0., 0., 0., 0., 0., 0., 0.,
          0., 0., 0., 0., 0., 0., 0., 0., 0., 0., 0., 0., 0., 0., 0., 0.,
          0., 0., 0., 0., 0., 0., 0., 0., 0., 0., 0., 0., 0., 0., 0., 0.,
          0., 0., 0., 0., 0., 0., 0., 0., 0., 0., 0., 0., 0., 0., 0., 0.,
          0., 0., 0., 0., 0., 0., 0., 0., 0., 0., 0., 0., 0., 0., 0., 0.,
          0., 0., 0., 0., 0., 0., 0., 0., 0., 0., 0., 0., 0., 0., 0., 0.,
          0., 0., 0., 0., 0., 0., 0., 0., 0., 0., 0., 0., 0., 0., 0., 0.,
          0., 0., 0., 0., 0., 0., 5.82308865e+000, 2.37647724e+000, 0.,
          0., 0., 0., 0., 0., 3.10186410e+000, 2.36552544e+001,
          8.19827938e+000, 4.46024165e-002, 0., 0., 0., 0., 0.,
          1.05426498e-001, 2.78914690e+000, 1.05426498e-001, 0., 0., 0.,
          0., 0., 0., 0., 0., 0., 0., 0., 1.81800117e+001,
          8.40577412e+000, 4.14213568e-001, 0., 0., 1.28819418e+001,
          2.18043499e+001, 1.65685425e+001, 2.68981762e+001,
          8.46990287e-001, 1.44812098e+001, 7.44772243e+000,
          4.97056293e+000, 1.02030735e+001, 2.28974304e+001, 0., 0., 0.,
          0., 0., 1.72428780e+001, 3.92869568e+000, 1.24264073e+000,
          5.85786462e-001, 0., 1.44998991e+000, 8.40787411e+000,
          1.98822517e+001, 3.12598839e+001, 0., 2.61203885e-001,
          8.42508793e+000, 1.94680367e+001, 4.35386810e+001,
          4.93069916e+001, 3.06011524e+001, 1.30851402e+001,
          6.62741709e+000, 8.88515186e+000, 5.80113935e+000,
          5.39140558e+000, 1.60859442e+000, 0., 0., 0., 3.51420975e+001,
          1.22010479e+001, 2.07106781e+000, 5.85786462e-001, 0.,
          2.81064396e+001, 1.55087843e+001, 2.02964649e+001,
          3.81116600e+001, 1.19766502e+001, 3.37847557e+001,
          1.90020390e+001, 1.82253971e+001, 1.69878063e+001, 0., 0., 0.,
          0., 0., 0., 0., 0., 0., 0., 0., 0., 0., 0., 0., 0., 0., 0., 0.,
          0., 0., 0., 0., 0., 0., 0., 0., 0., 0., 0., 0., 0., 0., 0., 0.,
          0., 0., 0., 0., 0., 0., 0., 0., 0., 0., 0., 0., 0., 0., 0., 0.,
          0., 0., 0., 0., 0., 0., 0., 0., 0., 0., 0., 0., 0., 0., 0., 0.,
          0., 0., 0., 0., 0., 0., 0., 0., 0., 0., 0., 0., 0., 0.,
          7.26085997e+000, 1.73914015e+000, 0., 0., 0., 3.18108234e+001,
          3.18917608e+000, 0., 0., 0., 2.13832641e+000, 8.61673534e-001,
          0., 0., 0., 0., 0., 0., 0., 0., 1.82526836e+001,
          6.50467491e+000, 1.65685427e+000, 5.85786462e-001, 0.,
          1.52519631e+000, 1.34331732e+001, 1.86396103e+001,
          3.23535423e+001, 8.04847813e+000, 1.86555350e+000,
          4.72023296e+000, 1.24264073e+000, 9.37429619e+000,
          5.87972755e+001, 0., 0., 0., 0., 0., 1.76496277e+001,
          6.10773182e+000, 1.24264073e+000, 0., 0., 2.34391189e+000,
          1.52713118e+001, 1.69827557e+001, 2.54020195e+001, 0., 0.,
          2.01299419e+001, 1.40832615e+001, 2.58507557e+001,
          4.99360428e+001, 5.22407770e-001, 4.82073784e+000,
          8.69848442e+000, 2.22848091e+001, 3.96735611e+001,
          6.37756968e+000, 1.62243009e+000, 0., 0., 0., 3.68882675e+001,
          1.02833071e+001, 1.65685427e+000, 1.39205408e+000,
          7.79518783e-001, 4.29786224e+001, 2.32223873e+001,
          1.44974747e+001, 2.06593361e+001, 1.64217913e+000,
          3.50485573e+001, 1.63950958e+001, 2.40243874e+001,
          3.52707596e+001, 2.61203885e-001, 0., 0., 0., 0., 0., 0., 0.,
          0., 0., 0., 0., 0., 0., 0., 0., 0., 0., 0., 0., 0., 0., 0., 0.,
          0., 0., 0., 0., 0., 0., 0., 0., 0., 0., 0., 0., 0., 0., 0., 0.,
          0., 0., 0., 0., 0., 0., 0., 0., 0., 0., 0., 0., 0., 0., 0., 0.,
          0., 0., 0., 0., 0., 0., 0., 0., 0., 0., 0., 0., 0., 0., 0., 0.,
          0., 0., 0., 0., 0., 0., 0., 0., 0., 6.64462805e+000,
          1.35537207e+000, 0., 0., 0., 5.38832331e+000, 6.78324986e+000,
          8.28427136e-001, 1.96251905e+000, 1.00374813e+001, 0., 0., 0.,
          8.61673534e-001, 2.13832641e+000, 0., 0., 0., 0., 0. ]
      - [ 0., 6., 2., 0., 0., 0., 2., 1.01715727e+001, 0., 0., 3.,
          7.17157269e+000, 1.42426405e+001, 1.71005058e+001,
          1.67279224e+001, 1.35147190e+001, 0., 4.26120377e+000,
          9.18359184e+000, 1.43313723e+001, 1.90744190e+001,
          3.19067726e+001, 4.70710678e+001, 6.17157269e+000, 0., 0.,
          4.97450542e+000, 3.54720116e+001, 3.25910225e+001,
          5.43756523e+001, 4.04337959e+001, 8.15300941e+000, 0.,
          6.75735950e+000, 1., 0., 1., 0., 2.41421366e+000,
          4.17157269e+000, 0., 0., 0., 1., 4.14213568e-001,
          4.66352320e+000, 3.96501846e+001, 3.55966606e+001, 0.,
          1.58578646e+000, 0., 0., 1., 1.75147190e+001, 8.27811508e+001,
          3.24635506e+001, 0., 0., 0., 0., 1.43322716e+001,
          3.15966606e+001, 8.05388870e+001, 6.98531342e+001, 0.,
          1.15857868e+001, 6.41421366e+000, 2., 0., 0., 1.67541742e+000,
          3.32458258e+000, 0., 0., 0., 0., 1., 4.58578634e+000,
          2.92169952e+001, 4.01252174e+001, 0., 6.34289563e-001, 0., 0.,
          0., 4.14213568e-001, 9.10211182e+000, 4.13439140e+001, 0., 0.,
          0., 0., 0., 0., 1., 9.14940643e+000, 0., 0., 4.14213568e-001,
          4.58578634e+000, 5., 6.58578634e+000, 5.82842731e+000,
          2.58578634e+000, 0., 2.95553279e+000, 1.41421354e+000, 0., 0.,
          1., 2.95637822e+000, 2.57179489e+001, 0., 0., 0., 0., 0., 0.,
          0., 0., 0., 0., 0., 0., 0., 0., 0., 0., 0., 0., 0., 1., 2., 7.,
          4., 1.58578646e+000, 0., 2.03155651e+001, 0., 5.85786462e-001,
          1.41421354e+000, 7.17157269e+000, 3.82842708e+000,
          1.41782856e+000, 0., 0., 0., 0., 0., 0., 0., 0., 0., 0., 0.,
          0., 0., 0., 0., 0., 0., 2.22048116e+000, 4.65491343e+000,
          8.12460518e+000, 5., 2., 0., 0., 5.85786462e-001,
          1.34392586e+001, 1.63165607e+001, 1.61050625e+001,
          6.81453466e+000, 1.73879611e+000, 2., 0., 0., 0., 0., 0., 0.,
          0., 0., 0., 0., 0., 0., 0., 0., 0., 0., 0., 0.,
          1.49101365e+000, 1.82552471e+001, 6.25373936e+000, 0., 0., 0.,
          0., 0., 0., 7.56574392e+000, 2.43425608e+000, 0., 0., 0., 0.,
          0., 0., 0., 0., 0., 0., 0., 0., 0., 0., 0., 0., 0., 0., 0., 0.,
          0., 1.12691870e+001, 8.58731079e+000, 1.54582107e+000,
          5.85786462e-001, 0., 2., 0., 0., 5.40654242e-001,
          3.42036095e+001, 1.67623749e+001, 3.49336290e+000, 2.,
          4.14213568e-001, 1.17157292e+000, 0., 0., 1.56567383e+001,
          1.03432617e+001, 0., 0., 0., 0., 0., 0., 0., 0., 0., 0., 0.,
          0., 0., 5.51471853e+000, 7.45584393e+000, 9.02943707e+000, 0.,
          0., 6.44365072e+000, 1.78111839e+001, 3.54839630e+001,
          2.61203885e-001, 1.62371387e+001, 1.00349398e+001,
          2.69238815e+001, 6.20389938e+001, 2.76504850e+000,
          3.99196243e+001, 1.02519474e+001, 1.40832615e+001,
          9.15582123e+001, 8.18695068e+000, 0., 5.27207804e+000,
          5.79898977e+000, 4.92893219e+000, 0., 0., 5.85786462e-001,
          1.90538235e+001, 6.08117294e+001, 2.54866004e+000, 0.,
          1.17157292e+000, 1.98822517e+001, 1.08199692e+002,
          8.74648571e+000, 0., 0., 3.14802303e+001, 1.35482819e+002,
          3.20369530e+001, 0., 1.29583693e+001, 8.28427124e+000,
          3.49615550e+000, 2.61203885e-001, 0., 0., 1.36690474e+001,
          5.17223701e+001, 1.86085815e+001, 1.34666526e+000,
          6.53334737e-001, 2.89949489e+000, 2.10977383e+001,
          4.40027657e+001, 0., 0., 0., 3.37497783e+000, 1.26250219e+001,
          0., 3.34314585e+000, 6.21320343e+000, 1.04436512e+001, 0.,
          3.96181417e+000, 4.79554510e+000, 5.38477612e+000,
          1.78040752e+001, 2.80537891e+001, 0., 0., 0., 0., 0., 0., 0.,
          0., 0., 0., 0., 5.85786462e-001, 5.79898977e+000,
          7.61522388e+000, 0., 2.49120712e+001, 8.84528732e+000,
          5.79898977e+000, 1.31824465e+001, 2.61203885e-001, 0., 0., 0.,
          0., 0., 0., 0., 0., 0., 0., 5.42206573e+000, 6.26422548e+000,
          4.14213562e+000, 1.17157292e+000, 0., 4.02398911e+001,
          7.93168163e+000, 1.65685427e+000, 2.49615550e+000,
          6.75417423e-001, 0., 0., 0., 0., 0., 0., 0., 0., 0., 0.,
          1.74943371e+001, 5.60616827e+000, 2.89949489e+000, 0., 0.,
          8.51982403e+000, 1.48017609e+000, 0., 0., 0., 0., 0., 0., 0.,
          0., 0., 0., 0., 0., 0., 3.63118362e+000, 1.55698261e+001,
          6.62741709e+000, 1.17157292e+000, 0., 4.48923569e+001,
          6.27921486e+000, 2.07106781e+000, 2.75735927e+000, 0.,
          2.30725403e+001, 2.92745924e+000, 0., 0., 0., 0., 0., 0., 0.,
          0., 5.22407770e-001, 2.20928154e+001, 5.38477612e+000, 0., 0.,
          0., 1.27867966e+001, 2.15391045e+001, 2.66740990e+001, 0., 0.,
          1.21299419e+001, 2.56812401e+001, 3.84305229e+001,
          1.57582932e+001, 0., 7.85786438e+000, 2.23675327e+001,
          7.45713043e+001, 4.82032967e+001, 0., 1.59583693e+001,
          7.45584393e+000, 5.85786462e-001, 0., 5.22407770e-001,
          3.53232651e+001, 1.90538235e+001, 5.10050488e+000, 0.,
          2.52799702e+000, 4.32466049e+001, 2.60954552e+001,
          1.31299419e+001, 0., 2.65456944e+001, 5.66725616e+001,
          3.56223679e+001, 3.45921555e+001, 1.56722319e+000, 0.,
          1.15441561e+001, 8.28427124e+000, 1.17157292e+000, 0.,
          2.00842991e+001, 3.04892941e+001, 1.53259020e+001,
          4.10050488e+000, 0., 5.14686165e+001, 2.08745289e+001,
          2.07106781e+000, 5.85786462e-001, 0., 1.50685205e+001,
          2.93147945e+000, 0., 0., 0., 0., 2.17157292e+000,
          7.87005758e+000, 9.95836926e+000, 0., 4.74562378e+001,
          1.62300529e+001, 3.72792196e+000, 5.85786462e-001, 0., 0., 0.,
          0., 0., 0., 0., 0., 0., 0., 0., 0., 2.17157292e+000,
          4.97056293e+000, 5.85786438e+000, 0., 4.38439407e+001,
          9.49920654e+000, 4.97056293e+000, 6.68629169e+000, 0., 0., 0.,
          0., 0., 0., 0., 0., 0., 0., 0., 0., 3.34314585e+000,
          4.97056293e+000, 9.82003975e+000, 3.86625147e+000,
          1.47855997e+001, 2.80018711e+000, 2.89949489e+000,
          6.84948826e+000, 1.96652298e+001, 0., 0., 0., 0., 0., 0., 0.,
          0., 0., 0., 0., 3.92893219e+000, 2.48528147e+000,
          3.76480651e+000, 1.18209801e+001, 0., 0., 0., 1.22297561e+000,
          2.77702427e+000, 0., 0., 0., 0., 0., 0., 0., 0., 0., 0.,
          1.08963096e+000, 1.30108738e+001, 4.55634928e+000,
          3.08194184e+000, 2.61203885e-001, 5.22407770e-001,
          4.23495150e+000, 2.89949489e+000, 1.00090332e+001,
          2.83341122e+001, 0., 0., 0., 3.96260309e+000, 1.60373974e+001,
          0., 0., 0., 0., 0. ]
      - [ 0., 0., 0., 0., 1., 4.58578634e+000, 10., 4.50596094e+000, 0.,
          3.58578634e+000, 6.41421366e+000, 3., 2., 3., 2.16568546e+001,
          2.53431454e+001, 0., 4., 5., 1., 6., 4., 4.10710678e+001,
          3.66862907e+001, 0., 0., 0., 8.75735950e+000, 4.08994942e+001,
          4.66152229e+001, 8.31421356e+001, 1.31715727e+001, 0.,
          1.32037723e+000, 1., 0., 0., 0., 4.82842731e+000,
          8.80626774e+000, 0., 9.03615415e-001, 0., 0., 0., 0.,
          9.65685463e+000, 3.71300049e+001, 0., 6.24814558e+000, 1., 0.,
          1., 4., 4.01606979e+001, 6.08884277e+001, 0., 4.08648777e+000,
          0., 0., 3., 9.58578682e+000, 6.39705620e+001, 6.99445724e+001,
          0., 2.43612528e-001, 0., 0., 0., 0., 0., 3.97824717e+000, 0.,
          7.67023385e-001, 0., 0., 0., 0., 0., 4.97507906e+000, 0.,
          2.14805961e+000, 0., 0., 0., 0., 0., 3.23980641e+000, 0., 0.,
          0., 0., 0., 0., 0., 3.61302108e-001, 0., 5.81137836e-002, 0.,
          0., 0., 0., 0., 1.95295028e-002, 0., 0., 0., 0., 0., 0., 0.,
          0., 0., 0., 0., 0., 0., 0., 0., 0., 0., 0., 0., 0., 0., 0., 0.,
          0., 0., 3.98871750e-002, 0., 0., 0., 0., 0., 0., 0., 0., 0.,
          0., 0., 0., 0., 0., 0., 0., 0., 0., 0., 0., 0., 0., 0., 0., 0.,
          0., 0., 0., 0., 0., 0., 2.93895721e+000, 0., 0., 0., 0., 0.,
          7.87685663e-002, 0., 1.53636467e+000, 0., 0., 0., 0., 0., 0.,
          0., 0., 0., 0., 0., 0., 0., 0., 0., 0., 0., 0., 0., 0., 0., 0.,
          0., 4.96741915e+000, 1.41421354e+000, 1., 2., 0., 4.,
          2.17932272e+000, 0., 2.99348640e+001, 1.73562946e+001,
          1.98436880e+000, 3.75593543e+000, 1.72158289e+000,
          5.82842731e+000, 4.17157269e+000, 0., 2.19101286e+000,
          1.07488508e+001, 5.99205542e+000, 5.06808090e+000, 0., 0., 0.,
          0., 0., 0., 0., 0., 0., 0., 0., 0., 2.75735927e+000, 2.,
          2.58578634e+000, 4.41421366e+000, 0., 4.82842731e+000,
          2.17157292e+000, 0., 9.58578682e+000, 3.07977333e+001,
          9.53526974e+000, 7.71889400e+000, 3.53388929e+000,
          7.24264050e+000, 3.58578634e+000, 0., 2.17738609e+001,
          3.59476013e+001, 1.51092424e+001, 3.63976026e+000, 4.,
          7.24264050e+000, 4.75735950e+000, 0., 3.01027203e+000,
          2.27772999e+001, 2.80924129e+001, 2.12001395e+000, 4.,
          2.95080490e+001, 1.63169765e+001, 0., 0., 6.21320343e+000,
          1.35255928e+001, 2.61203885e-001, 0., 8.85786438e+000,
          1.82253971e+001, 3.56555367e+001, 2.61203885e-001, 0.,
          5.85786438e+000, 3.10660172e+001, 5.60761185e+001, 0., 0.,
          7.61522388e+000, 4.59777069e+001, 1.04145866e+002,
          2.61203885e-001, 0., 1.75735927e+000, 4.14213562e+000,
          1.25780973e+001, 5.22407770e-001, 0., 2.75735927e+000,
          1.69827557e+001, 3.86296349e+001, 3.63024855e+000,
          2.17509246e+000, 8.09698582e+000, 3.52081528e+001,
          7.78342056e+001, 6.68556690e+000, 0., 4.68629169e+000,
          4.80487747e+001, 1.10910240e+002, 1.03546915e+001,
          6.75417423e-001, 1.91036904e+000, 1.24264073e+000,
          7.90440035e+000, 8.26717281e+000, 2.32425857e+000,
          5.26152802e+000, 4.14213568e-001, 5.58881760e+000,
          1.04111824e+001, 4.50495958e+000, 2.08082700e+000,
          4.14213568e-001, 1.45189691e+000, 5.54810286e+000, 0., 0., 0.,
          4.14213568e-001, 5.85786462e-001, 0., 1.58578646e+000,
          8.28427136e-001, 5.85786462e-001, 0., 0., 0., 0., 0., 0., 0.,
          0., 0., 0., 0., 0., 0., 0., 0., 0., 0., 1.17157292e+000,
          8.28427136e-001, 0., 0., 0., 0., 0., 0., 0., 0., 0., 0., 0.,
          0., 0., 0., 0., 0., 0., 6.23797989e+000, 3.34780669e+000,
          1.24264073e+000, 2.17157292e+000, 0., 2.36025643e+000,
          6.39743626e-001, 0., 0., 0., 0., 0., 0., 0., 0., 0., 0., 0.,
          0., 0., 3.89674854e+000, 8.03218365e+000, 4.55634928e+000,
          5.51471853e+000, 0., 4.19829903e+001, 1.11175156e+001,
          6.62741709e+000, 9.27207756e+000, 0., 1.87608013e+001,
          3.23919797e+000, 0., 0., 0., 0., 0., 0., 0., 0., 0.,
          5.68629169e+000, 4.97056293e+000, 5.34314585e+000, 0.,
          1.03668585e+001, 2.86209488e+001, 1.65685425e+001,
          1.14436512e+001, 0., 4.65716743e+001, 2.54577637e+001,
          9.11269855e+000, 1.18578644e+001, 0., 4.54252510e+001,
          9.16053677e+000, 9.94112587e+000, 3.87714195e+001,
          2.70166969e+000, 9.08252656e-001, 1.11211843e+001,
          7.45584393e+000, 3.51471853e+000, 0., 0., 2.72598839e+001,
          1.86396103e+001, 5.10050488e+000, 0., 0., 4.62476921e+001,
          3.18944435e+001, 6.85786438e+000, 0., 0., 1.37157288e+001,
          3.47939377e+001, 7.34455185e+001, 1.04481554e+000,
          3.03991485e+000, 1.25753088e+001, 5.38477612e+000, 0., 0.,
          1.33472700e+001, 4.60841866e+001, 1.65685425e+001, 0., 0.,
          1.92956638e+001, 6.06088829e+001, 2.81665230e+001,
          2.92893219e+000, 0., 2.78494549e+001, 6.87413788e+001,
          3.43797264e+001, 8.02943707e+000, 0., 2.37604370e+001,
          2.23956227e+000, 0., 0., 0., 2.71989784e+001, 3.80102229e+000,
          0., 0., 0., 1.90216370e+001, 2.97836328e+000, 0., 0., 0.,
          7.41585732e+000, 1.58414280e+000, 0., 0., 0., 5.53693724e+000,
          4.63062704e-001, 0., 0., 0., 0., 0., 0., 0., 0., 0., 0., 0.,
          0., 0., 0., 0., 0., 0., 0., 5.52208996e+000, 4.77910131e-001,
          0., 0., 0., 0., 0., 0., 0., 0., 0., 0., 0., 0., 0., 0., 0., 0.,
          0., 0., 1.83042412e+001, 1.69575918e+000, 0., 0., 0.,
          4.72911596e+000, 1.27088380e+000, 0., 0., 0., 0., 0., 0., 0.,
          0., 0., 0., 0., 0., 0., 1.00299549e+001, 9.07055092e+000,
          4.14213562e+000, 1.75735927e+000, 0., 3.50182457e+001,
          1.50111904e+001, 6.21320343e+000, 2.58973432e+000,
          4.16762495e+000, 4.07049942e+000, 1.51528716e+000,
          4.14213568e-001, 1.66727591e+000, 1.03327236e+001, 0., 0., 0.,
          0., 0., 0., 1.06862917e+001, 4.97056293e+000, 5.34314585e+000,
          0., 0., 1.37157288e+001, 1.32548342e+001, 1.26383228e+001,
          7.39111423e+000, 1.58588142e+001, 2.95432072e+001,
          1.49116879e+001, 1.22581635e+001, 2.14281292e+001,
          4.84365129e+000, 1.92862911e+001, 1.03553391e+001,
          1.05639820e+001, 3.19507370e+001 ]
      - [ 0., 1.41421354e+000, 3., 7.17157269e+000, 8.82842731e+000,
          4.14213568e-001, 3.58578634e+000, 1., 0., 0., 9.85304070e+000,
          2.59255791e+001, 3.97510605e+001, 6.05610847e+000,
          1.15300965e+000, 2.26120377e+000, 1.91878974e+000,
          1.50702953e+000, 6.18867970e+000, 2.91363525e+001,
          1.43738050e+001, 2.11595631e+000, 4.09639359e+000,
          6.62993610e-001, 0., 0., 3.06294274e+000, 2.04652729e+001,
          2.10326824e+001, 4.39103633e-001, 0., 0., 0., 3.58578634e+000,
          5.41421366e+000, 2.26120377e+000, 7.73879623e+000, 1., 0., 0.,
          0., 3.17157292e+000, 8.43338394e+000, 1.24685745e+001,
          2.46838284e+001, 1.89103699e+001, 1.09180584e+001,
          6.17157269e+000, 0., 0., 1.13304796e+001, 1.70869884e+001,
          4.02362518e+001, 4.12752151e+001, 2.60710678e+001, 2., 0., 0.,
          1.86422443e+000, 8.70021057e+000, 4.32201958e+001,
          7.54177551e+001, 6.31099892e+001, 1.35979910e+001, 0., 1.,
          3.41421366e+000, 7.58578634e+000, 16., 2., 0., 0., 0., 4., 9.,
          6.17157269e+000, 1.86568546e+001, 1.65147190e+001,
          1.40710678e+001, 6.75735950e+000, 0., 3.69970536e+000, 5.,
          3.41421366e+000, 1.10710678e+001, 2.26677284e+001,
          2.89170265e+001, 3.40965614e+001, 0., 1.89949489e+000, 0.,
          3.20377231e-001, 6.76925373e+000, 3.91805816e+000,
          1.95932045e+001, 5.12692032e+001, 8.43290710e+000,
          1.26191025e+001, 8.84123802e+000, 0., 0., 0., 0.,
          1.06752865e-001, 0., 1.51755819e+001, 2.39426479e+001,
          3.40689731e+000, 2., 1.75735927e+000, 8.28427136e-001,
          9.02830884e-002, 0., 6.09751654e+000, 1., 0., 0.,
          1.17157292e+000, 3.24264073e+000, 5.54207373e+000, 0., 0., 0.,
          0., 0., 0., 0., 0., 0., 7.28447771e+000, 1.84699035e+000, 3.,
          4.14213568e-001, 1., 0., 5.56465611e-002, 0., 8.61582935e-001,
          0., 0., 0., 0., 0., 0., 0., 0., 0., 0., 0., 0., 0., 0., 0., 0.,
          0., 0., 0., 0., 0., 0., 0., 7.43422985e+000, 3.58578634e+000,
          0., 0., 0., 4.24264050e+000, 6.92893219e+000, 0.,
          1.30059137e+001, 1.72176247e+001, 2.88565612e+000, 2.,
          1.32037723e+000, 2.67962265e+000, 7.56575882e-001, 0., 0., 0.,
          0., 0., 0., 0., 0., 0., 0., 0., 0., 0., 0., 0., 0., 0.,
          2.91036892e+000, 4.50384474e+000, 4., 1.25857868e+001, 3., 3.,
          0., 0., 3.17157292e+000, 1.33536425e+001, 3.14589291e+001,
          4.60164261e+000, 4.14213568e-001, 0., 1.05917335e+000, 0., 0.,
          0., 0., 0., 0., 0., 0., 0., 0., 0., 0., 0., 0., 0., 0., 0.,
          3.70413327e+000, 1.48800201e+001, 7.93977451e+000,
          3.47607255e+000, 0., 0., 0., 0., 5.85786462e-001,
          6.25066578e-001, 1.94423695e+001, 1.43467770e+001, 0., 0., 0.,
          0., 0., 0., 0., 0., 0., 0., 0., 0., 0., 0., 0., 0., 0., 0., 0.,
          0., 7.61522388e+000, 7.04163074e+000, 3.08194184e+000,
          2.61203885e-001, 2.80431938e+001, 2.24004574e+001,
          7.45584393e+000, 1.19607038e+001, 2.13980103e+000,
          3.38078003e+001, 9.77798462e+000, 8.28427136e-001,
          2.90680695e+000, 5.67897940e+000, 2.73292027e+001,
          7.84237051e+000, 8.28427136e-001, 8.99494946e-001,
          1.10050511e+000, 0., 7.85786438e+000, 4.55634928e+000,
          5.85786462e-001, 0., 1.26120389e+000, 1.82829514e+001,
          1.86396103e+001, 3.15550308e+001, 2.61203885e-001,
          5.25407696e+000, 2.17753601e+001, 2.85807362e+001,
          5.41286240e+001, 2.61203885e-001, 2.75424242e+000,
          7.51783562e+000, 3.68650055e+001, 1.19037941e+002,
          1.18249702e+001, 2.61203885e-001, 8.01087379e+000,
          4.55634928e+000, 1.17157292e+000, 0., 0., 1.17157288e+001,
          2.07106781e+001, 2.65735931e+001, 0., 0., 9.44365120e+000,
          1.86396103e+001, 5.56974220e+001, 3.32193184e+001, 0.,
          2.75735927e+000, 2.48528147e+000, 2.09062786e+001,
          6.08510818e+001, 1.28751059e+001, 1.57106810e+001,
          4.14213568e-001, 4.14213568e-001, 5.85786462e-001,
          3.51081085e+001, 1.19923954e+001, 3.31370854e+000,
          2.34314585e+000, 1.24264073e+000, 1.17370644e+001,
          4.26293516e+000, 1.65685427e+000, 1.02454538e+001,
          9.09769249e+000, 0., 0., 0., 0., 0., 1.17094707e+001,
          8.80524826e+000, 3.31370854e+000, 1.17157292e+000, 0.,
          1.35607159e+000, 1.22971487e+000, 4.14213568e-001, 0., 0., 0.,
          0., 0., 0., 0., 0., 0., 0., 0., 0., 1.76504838e+000,
          1.09212427e+001, 6.62741709e+000, 8.68629169e+000, 0.,
          2.74237404e+001, 1.00909777e+001, 4.14213562e+000,
          8.68629169e+000, 2.65685415e+000, 0., 0., 0., 0., 0., 0., 0.,
          0., 0., 0., 2.61203885e-001, 8.83930111e+000, 5.38477612e+000,
          3.51471853e+000, 0., 3.79378700e+001, 1.14052773e+001,
          2.07106781e+000, 2.58578634e+000, 0., 0., 0., 0., 0., 0., 0.,
          0., 0., 0., 0., 4.77943611e+000, 2.21494961e+001,
          2.07106781e+000, 0., 0., 2.38636608e+001, 6.13633823e+000, 0.,
          0., 0., 0., 0., 0., 0., 0., 0., 0., 0., 0., 0.,
          2.61203885e-001, 3.66772842e+000, 7.45584393e+000,
          1.16152239e+001, 0., 0., 2.17157292e+000, 3.31370854e+000,
          2.75897064e+001, 4.79250107e+001, 4.54104376e+000,
          1.45895636e+000, 8.28427136e-001, 1.40419445e+001,
          3.61296272e+001, 0., 0., 4.14213568e-001, 6.03392458e+000,
          3.75518608e+001, 0., 3.51471853e+000, 5.79898977e+000,
          7.17157269e+000, 5.14718652e-001, 0., 9.85786438e+000,
          1.44974747e+001, 4.41295357e+001, 5.51512527e+000, 0.,
          2.34314585e+000, 2.44386005e+001, 7.82916946e+001,
          6.92655563e+000, 3.53883219e+000, 1.94195366e+001,
          3.89360733e+001, 1.05491920e+002, 9.61363888e+000, 0.,
          5.85786462e-001, 9.52691174e+000, 1.68873024e+001, 0., 0.,
          1.19583693e+001, 2.19533195e+001, 2.80883121e+001, 0.,
          3.57337570e+001, 3.33251190e+001, 2.11248913e+001,
          3.20326233e+001, 7.83611596e-001, 5.87694473e+001,
          1.48163376e+001, 2.07106781e+000, 1.07311068e+001,
          1.61203873e+000, 1.27521877e+001, 1.05909576e+001,
          1.65685427e+000, 0., 0., 3.03078613e+001, 1.08637114e+001,
          3.31370854e+000, 8.25351429e+000, 2.61203885e-001,
          3.67470169e+001, 4.83876991e+000, 8.28427136e-001,
          1.58578646e+000, 0., 0., 0., 0., 0., 0., 1.96327457e+001,
          5.36725330e+000, 1.65685427e+000, 3.34314585e+000, 0.,
          7.39524698e+000, 1.60475290e+000, 0., 0., 0., 0., 0., 0., 0.,
          0., 0., 0., 0., 0., 0., 5.38429070e+000, 1.44735737e+001,
          4.14213562e+000, 0., 0., 3.30912857e+001, 8.49450016e+000,
          2.48528147e+000, 6.63829088e+000, 1.29064107e+000, 0., 0., 0.,
          0., 0., 0., 0., 0., 0., 0., 0., 2.75735927e+000,
          7.45584393e+000, 1.35255928e+001, 2.61203885e-001,
          6.75417423e-001, 4.66772842e+000, 2.48528147e+000,
          9.23822689e+000, 3.39333458e+001, 0., 0., 0., 0., 0., 0., 0.,
          0., 0., 0., 0., 4.92893219e+000, 4.14213562e+000,
          6.60657978e+000, 4.32235241e+000, 0., 5.85786462e-001,
          4.14213568e-001, 4.27687407e+000, 2.97231255e+001, 0., 0., 0.,
          0., 0., 0., 0., 0., 0., 0. ]
      - [ 0., 8.99753690e-001, 4.44872409e-001, 2.01415658e+000,
          1.12675738e+000, 4.14213568e-001, 5.99348927e+000,
          7.43629360e+000, 0., 1.09661341e+001, 2.35320148e+001,
          1.05965376e+001, 7.22528219e+000, 4.68490696e+000,
          5.00219059e+000, 1.21394596e+001, 0., 3.57648492e+000,
          1.67567196e+001, 1.77718773e+001, 2.65037060e+001,
          5.54001570e+000, 2.05003605e+001, 8.89775276e+000, 0., 0., 1.,
          2.38304281e+000, 1.74922485e+001, 1.70008106e+001,
          2.12389946e+000, 0., 3.13873577e+000, 9.22196484e+000,
          1.11346416e+001, 3.50465775e+000, 0., 0., 0., 0., 0.,
          9.62738991e+000, 1.24126987e+001, 8.41829681e+000,
          9.14244461e+000, 7.85770035e+000, 1.41945400e+001,
          1.28348875e+001, 0., 1.04301147e+001, 9.50289917e+000,
          7.66867399e+000, 2.50275154e+001, 1.45514202e+001,
          3.40333176e+001, 2.38070774e+001, 0., 4.05917358e+000, 1.,
          6.81977272e+000, 2.97283611e+001, 6.92331924e+001,
          3.80643120e+001, 1.35503645e+001, 0., 3.27000284e+000, 0., 0.,
          0., 0., 0., 0., 0., 2.52696381e+001, 1.29053030e+001,
          1.15300965e+000, 5.17157269e+000, 1.15300965e+000,
          5.52240753e+000, 1.79891825e+000, 0., 1.74100323e+001,
          9.14734936e+000, 0., 2.82842708e+000, 2.36231637e+000,
          1.19206781e+001, 1.45332508e+001, 0., 2.27610760e+001,
          4.77614212e+000, 7.27207804e+000, 9.95238400e+000,
          1.63782272e+001, 5.91202974e+000, 1., 0., 0., 0., 0., 0., 0.,
          0., 0., 0., 0., 1., 0., 0., 0., 0., 0., 0., 0., 0., 0., 0., 0.,
          0., 0., 0., 0., 0., 0., 0., 0., 0., 0., 0., 0., 0., 0., 0., 0.,
          0., 0., 0., 0., 0., 0., 0., 0., 0., 0., 0., 0., 0., 0., 0., 0.,
          0., 0., 0., 0., 0., 0., 0., 0., 0., 0., 0., 0., 0., 0., 0., 0.,
          0., 0., 0., 0., 0., 0., 0., 0., 0., 0., 0., 0., 0., 0., 0., 0.,
          0., 0., 0., 0., 0., 0., 0., 0., 0., 0., 0., 0., 0., 0., 0., 0.,
          0., 0., 0., 0., 0., 0., 0., 0., 0., 0., 0., 0., 0., 0., 0., 0.,
          0., 0., 0., 0., 0., 0., 0., 0., 0., 0., 0., 4.93586636e+000,
          1.07965250e+001, 2.15801883e+000, 0., 0., 0., 0., 0., 0.,
          2.28456330e+000, 5.71198702e+000, 2.00344992e+000, 0., 0., 0.,
          0., 0., 0., 0., 0., 0., 0., 0., 0., 0., 0., 0., 0., 0., 0., 0.,
          2.88726568e+000, 3.69852066e+000, 4.14213568e-001,
          4.99515438e+000, 1.40048456e+001, 4.10304222e+001,
          1.23127241e+001, 3.72792196e+000, 1.09900541e+001,
          1.49388781e+001, 3.31114044e+001, 1.35748882e+001,
          1.11837664e+001, 3.01005058e+001, 5.02943707e+000,
          4.47366142e+000, 2.11212516e+000, 4.14213568e-001,
          7.30094194e+000, 1.86990585e+001, 2.12886257e+001,
          4.88294697e+000, 8.28427136e-001, 0., 0., 2.45705662e+001,
          1.17725792e+001, 5.79898977e+000, 2.56850185e+001,
          1.61728458e+001, 4.46438360e+000, 1.80797729e+001,
          2.27817459e+001, 5.49986115e+001, 9.67548752e+000,
          5.01891947e+000, 1.54247313e+001, 8.69848442e+000,
          5.16481018e+001, 7.82097626e+001, 4.44563961e+000,
          1.55436051e+000, 0., 0., 0., 3.40948830e+001, 1.16624775e+001,
          1.24264073e+000, 3.80741477e+000, 8.19258499e+000,
          2.38848991e+001, 7.28667402e+000, 2.89949489e+000,
          1.08669167e+001, 2.30620155e+001, 2.40968056e+001,
          2.31752739e+001, 7.87005758e+000, 1.37615433e+001,
          1.00963211e+001, 0., 0., 0., 0., 0., 4.14213568e-001,
          5.85786462e-001, 0., 0., 0., 0., 0., 0., 0., 0., 0., 0., 0.,
          0., 0., 0., 0., 0., 0., 0., 0., 0., 0., 0., 0., 0., 0., 0., 0.,
          0., 0., 0., 0., 0., 0., 0., 0., 0., 0., 0., 0., 0., 0., 0., 0.,
          0., 0., 0., 0., 0., 0., 0., 0., 0., 0., 0., 0., 0., 0., 0., 0.,
          0., 0., 0., 0., 0., 0., 0., 0., 0., 0., 0., 0., 0., 0.,
          1.70959549e+001, 2.90404606e+000, 0., 0., 0., 6.84105062e+000,
          2.15894961e+000, 0., 0., 0., 0., 0., 0., 0., 0., 0., 0., 0.,
          0., 0., 1.78115768e+001, 5.35999584e+000, 8.28427136e-001,
          1.04876101e+000, 2.95123887e+000, 2.58855553e+001,
          2.19723091e+001, 4.97056293e+000, 6.82114458e+000,
          2.23504276e+001, 2.27976704e+000, 1.93354568e+001,
          6.21320343e+000, 1.68890133e+001, 3.92825584e+001, 0., 0., 0.,
          5.35884619e+000, 3.16411533e+001, 9.94616604e+000,
          4.22540665e+000, 8.28427136e-001, 2.00904250e+000,
          6.99095774e+000, 1.98429546e+001, 2.37722683e+001,
          7.87005758e+000, 1.26479921e+001, 1.98667259e+001,
          6.93502808e+000, 4.11532822e+001, 2.81665230e+001,
          3.75368004e+001, 5.20836496e+000, 1.44145794e+001,
          1.68574982e+001, 9.11269855e+000, 4.69999847e+001,
          6.96152420e+001, 6.76153088e+000, 2.23846912e+000, 0., 0., 0.,
          3.97723351e+001, 1.23992386e+001, 8.28427136e-001,
          2.48112750e+000, 5.51887226e+000, 4.99226646e+001,
          1.50773363e+001, 1.24264073e+000, 4.75735950e+000, 0.,
          3.44199753e+001, 8.75159740e+000, 8.28427124e+000,
          2.50306664e+001, 8.51348972e+000, 0., 0., 0., 0., 0.,
          4.14213568e-001, 5.85786462e-001, 0., 0., 0., 0., 0., 0., 0.,
          0., 0., 0., 0., 0., 0., 0., 0., 0., 0., 0., 0., 0., 0., 0., 0.,
          0., 0., 0., 0., 0., 0., 0., 0., 0., 0., 0., 0., 0., 0., 0., 0.,
          0., 0., 0., 0., 0., 0., 0., 0., 0., 0., 0., 0., 0., 0., 0., 0.,
          0., 0., 0., 0., 0., 0., 0., 0., 0., 0., 0., 0., 0., 0., 0., 0.,
          0., 0., 9.89672279e+000, 2.68906379e+000, 4.14213568e-001,
          1.67396641e+000, 3.32603359e+000, 0., 0., 0., 1.58664000e+000,
          6.41336012e+000, 0., 0., 0., 0., 0., 0., 0., 0., 0., 0. ]
      - [ 0., 0., 0., 3., 8.82842731e+000, 1.39289322e+001,
          5.24264050e+000, 1., 0., 3.20377231e-001, 4.14213568e-001,
          8.28749275e+000, 4.14183846e+001, 3.57744865e+001,
          2.36663032e+000, 7.38796115e-001, 0., 0., 0., 1.01437273e+001,
          4.69207649e+001, 1.50671988e+001, 2.55046577e+001,
          2.59310360e+001, 0., 2.71243167e+000, 8.28427136e-001,
          1.72428493e+001, 6.08210526e+001, 3.70999832e+001,
          2.10271282e+001, 3.57649956e+001, 0., 0., 0., 0., 3.,
          1.25147190e+001, 6.48528147e+000, 0., 0., 0., 2.,
          1.11715727e+001, 2.86687489e+001, 2.90700474e+001,
          1.86754169e+001, 4.14213568e-001, 0., 1.11391890e+000,
          4.14213568e-001, 4.99348402e+000, 3.94656563e+001,
          5.98129349e+001, 3.37279205e+001, 6.06337881e+000, 0.,
          5.49736547e+000, 5.23722553e+000, 6.48707724e+000,
          6.54210663e+001, 5.42743073e+001, 2.78962345e+001,
          2.03677750e+001, 0., 0., 0., 0., 2.41421366e+000,
          5.92893219e+000, 8.07106781e+000, 5.74122000e+000, 0.,
          2.51537114e-001, 1., 1.58578646e+000, 5.82842731e+000,
          4.17157269e+000, 5.24264050e+000, 1.92209988e+001, 0., 0., 0.,
          5.85786462e-001, 8.28427136e-001, 3.17157292e+000,
          2.41421366e+000, 1.54921455e+001, 0., 0., 0., 0., 0., 0.,
          1.44427657e+000, 5.12992620e+000, 0., 0., 0., 0., 0.,
          5.58578634e+000, 3., 9.78530502e+000, 0., 0., 0., 0., 0., 0.,
          0., 3.77116752e+000, 0., 0., 0., 0., 0., 0., 0., 0., 0., 0.,
          0., 0., 0., 0., 0., 0., 0., 8.12103003e-002, 0., 1., 4., 2.,
          3.84699035e+000, 5.34491587e+000, 0., 2.43603766e-001, 0., 0.,
          0., 0., 0., 5.39968014e+000, 0., 0., 0., 0., 0., 0., 0., 0.,
          0., 0., 0., 0., 0., 0., 0., 0., 0., 0., 0., 1.,
          9.41421318e+000, 4.58578634e+000, 9.41421318e+000,
          5.85786462e-001, 0., 3.16680145e+000, 5.82842731e+000,
          1.16816616e+001, 1.79850769e+001, 1.50934086e+001,
          5.41142511e+000, 8.88958645e+000, 0., 1.87191353e+001,
          2.74623661e+001, 9.79593468e+000, 1.50221109e-001, 0., 0., 0.,
          0., 0., 0., 0., 0., 0., 0., 0., 0., 2., 1., 5.85786462e-001,
          1.12426405e+001, 7.92893219e+000, 4.24264050e+000, 1., 0.,
          9.87509346e+000, 1.40307608e+001, 7.78539228e+000,
          1.31170511e+001, 2.00707035e+001, 1.91776791e+001,
          3.35546231e+000, 0., 4.68588448e+000, 3.92349243e+001,
          2.56260262e+001, 1.44351606e+001, 1.87631881e+000,
          2.73514915e+000, 4.06535119e-001, 0., 0., 0., 0., 0., 0., 0.,
          0., 0., 0., 0., 4.14213568e-001, 13., 1.27573595e+001,
          1.82842708e+000, 0., 0., 2.90616369e+000, 4.50804996e+000,
          7.14540386e+000, 2.53626461e+001, 2.04023190e+001,
          2.36162434e+001, 4.05917358e+000, 0., 3.29865074e+000,
          3.49185066e+001, 1.98415318e+001, 1.37697372e+001,
          1.09289322e+001, 2.03137093e+001, 1.31596785e+001,
          7.75922477e-001, 0., 1.29188108e+001, 2.64279194e+001,
          2.63237648e+001, 6.17649412e+000, 3.15300965e+000,
          1.22407746e+000, 0., 1.75735927e+000, 7.45584393e+000,
          1.47867966e+001, 0., 1.43629634e+000, 8.42156792e+000,
          1.98822517e+001, 4.05763702e+001, 1.68351340e+000,
          1.48890915e+001, 1.17972002e+001, 1.03553391e+001,
          5.29125481e+001, 4.20458221e+001, 1.94025707e+001,
          1.91121483e+001, 2.56812401e+001, 8.44684677e+001,
          2.03355713e+001, 0., 0., 4.97056293e+000, 1.40294371e+001, 0.,
          0., 8.61522388e+000, 1.73969688e+001, 3.96369705e+001,
          2.35083485e+000, 0., 6.85786438e+000, 3.23086586e+001,
          8.40498657e+001, 7.83611596e-001, 6.57327032e+000,
          1.56277399e+001, 3.47939377e+001, 8.37928314e+001,
          2.32122192e+001, 0., 0., 6.62741709e+000, 1.63725834e+001, 0.,
          0., 3.34314585e+000, 5.79898977e+000, 2.45672951e+001,
          2.32905693e+001, 0., 5.85786462e-001, 2.07106781e+000,
          1.43222027e+001, 2.30209427e+001, 0., 0., 4.14213568e-001,
          5.05130148e+000, 7.53448486e+000, 0., 0., 2.48528147e+000,
          1.78946400e+001, 8.62007904e+000, 0., 0., 4.14213568e-001,
          3.37524581e+000, 6.21054077e+000, 0., 0., 0., 0., 0., 0., 0.,
          0., 0., 0., 0., 1.17157292e+000, 2.89949489e+000,
          1.05183983e+001, 5.41053343e+000, 9.28932190e-001,
          1.07106781e+000, 0., 7.15880632e+000, 1.08411932e+001, 0., 0.,
          0., 0., 0., 0., 0., 0., 0., 0., 0., 5.85786462e-001,
          4.55634928e+000, 1.08578644e+001, 0., 1.71221972e+000,
          1.98319359e+001, 1.61543293e+001, 2.66059742e+001,
          9.69554043e+000, 4.56941338e+001, 1.40632248e+001,
          1.24264073e+000, 0., 0., 0., 0., 0., 0., 0., 0.,
          2.34314585e+000, 5.79898977e+000, 9.85786438e+000, 0.,
          1.59138346e+001, 1.71866703e+001, 8.69848442e+000,
          2.66047916e+001, 1.55962181e+001, 5.95942307e+001,
          1.77489147e+001, 2.07106781e+000, 2.55566716e+000,
          4.03011942e+000, 0., 0., 0., 0., 0., 0., 5.85786462e-001,
          7.45584393e+000, 1.19583693e+001, 0., 2.13455892e+000,
          1.08948784e+001, 1.65685425e+001, 3.88043404e+001,
          3.59768081e+000, 4.42567482e+001, 1.40863972e+001,
          1.15979795e+001, 3.67080383e+001, 1.35083485e+000,
          3.59060936e+001, 1.66086235e+001, 4.14213562e+000,
          1.11530094e+001, 1.19013608e+000, 0., 5.85786462e-001,
          7.45584393e+000, 1.94359608e+001, 5.22407770e-001,
          6.75417423e-001, 6.32458258e+000, 8.69848442e+000,
          6.29332542e+001, 1.43682623e+001, 3.92551384e+001,
          2.64311523e+001, 7.04163074e+000, 2.63318996e+001,
          4.69401779e+001, 3.90248528e+001, 2.77619438e+001,
          1.98822517e+001, 6.40947876e+001, 4.12361641e+001, 0., 0.,
          7.45584393e+000, 1.05441561e+001, 0., 0., 5.85786462e-001,
          1.90538235e+001, 5.35505257e+001, 2.80986404e+000,
          1.88771296e+000, 6.21279192e+000, 2.40243874e+001,
          7.73130646e+001, 1.15620441e+001, 2.98773880e+001,
          1.96373310e+001, 2.56812401e+001, 7.05679703e+001,
          3.72360687e+001, 1.95733309e+000, 6.38581276e+000,
          5.38477612e+000, 6.27207804e+000, 0., 3.94341087e+001,
          1.29090357e+001, 4.97056293e+000, 8.68629169e+000, 0.,
          3.33370399e+001, 7.24874687e+000, 1.65685427e+000,
          4.75735950e+000, 0., 1.38010082e+001, 3.19899154e+000, 0., 0.,
          0., 1.43003206e+001, 6.87125206e+000, 2.89949489e+000,
          4.92893219e+000, 0., 1.33575554e+001, 2.64244509e+000, 0., 0.,
          0., 0., 0., 0., 0., 0., 0., 0., 0., 0., 0., 1.00507326e+001,
          5.53505325e+000, 3.31370854e+000, 4.10050488e+000, 0.,
          2.85275879e+001, 4.47241163e+000, 0., 0., 0., 0., 0., 0., 0.,
          0., 0., 0., 0., 0., 0., 0., 5.85786462e-001, 5.38477612e+000,
          1.00294371e+001, 0., 2.05671902e+001, 9.94752884e+000,
          1.11837664e+001, 3.15111504e+001, 6.79036427e+000,
          3.57314720e+001, 8.26852798e+000, 1.24264073e+000,
          4.06660652e+000, 9.69075298e+000, 0., 0., 0., 0., 0., 0.,
          2.92893219e+000, 8.28427124e+000, 1.47867966e+001, 0.,
          1.19620829e+001, 8.30999470e+000, 1.20121937e+001,
          2.95057526e+001, 1.62099762e+001, 8.56411266e+000,
          5.77903271e+000, 3.31370854e+000, 1.81282921e+001,
          3.72148552e+001, 0., 0., 0., 0., 0., 0., 0., 3.72792196e+000,
          2.14436512e+001, 1.82842708e+000, 2.61203885e-001,
          8.01087379e+000, 1.15979795e+001, 4.26333733e+001,
          5.49656820e+000, 5.18674469e+000, 2.36000519e+001,
          1.28406200e+001, 3.07091656e+001, 2.46634178e+001,
          7.75922477e-001, 1.22407746e+000, 2.89949489e+000,
          2.07479839e+001, 4.43525200e+001 ]
      - [ 0., 5.13941288e+000, 5.48528147e+000, 4., 2., 5.85786462e-001,
          6.41421366e+000, 0., 0., 4.65685415e+000, 5.82742929e+000,
          3.38788033e+001, 3.73135033e+001, 7.32341099e+000, 0., 1., 0.,
          5.77057409e+000, 2.38107109e+001, 5.54250069e+001,
          3.77393951e+001, 8.71682644e+000, 1.83509588e+000,
          5.85786462e-001, 2.54790092e+000, 4.26135540e+000,
          1.73667049e+001, 3.80719032e+001, 3.71018600e+001,
          2.10598888e+001, 1.79754963e+001, 7.61488819e+000, 0.,
          3.52719331e+000, 1., 0., 0., 1., 1., 7.61190033e+000, 0.,
          1.60054722e+001, 2.44493866e+001, 1.02146463e+001,
          5.41421366e+000, 2., 6., 3.66732907e+000, 0., 3.,
          1.72426414e+001, 2.01983223e+001, 3.77831154e+001,
          1.87759228e+001, 18., 4., 0., 1.37822926e+000, 5.67925787e+000,
          1.11585722e+001, 5.76386986e+001, 5.97457390e+001,
          4.94407921e+001, 2.11139927e+001, 0., 1.09800339e+000, 0., 0.,
          0., 0., 0., 1.19384968e+000, 0., 2.26202202e+001,
          4.83180046e+000, 0., 0., 0., 0., 1., 0., 7.10333872e+000,
          3.69609690e+000, 5.85786462e-001, 1., 5.85786462e-001,
          8.28427136e-001, 1.07434521e+001, 0., 0., 0., 0., 0.,
          4.14213568e-001, 5.05502319e+000, 1.86451740e+001, 0., 0., 0.,
          0., 0., 0., 0., 0., 0., 0., 0., 0., 0., 0., 0., 0., 0., 0., 0.,
          0., 0., 0., 0., 0., 0., 0., 0., 0., 0., 0., 0., 0., 0., 0., 0.,
          0., 0., 0., 0., 0., 0., 0., 0., 0., 0., 0., 0., 0., 0., 0., 0.,
          0., 0., 0., 0., 0., 0., 0., 0., 0., 0., 0., 0., 0., 0., 0., 0.,
          0., 0., 0., 0., 0., 0., 0., 0., 0., 0., 0., 0., 0., 0., 0., 0.,
          0., 0., 0., 0., 0., 0., 0., 0., 0., 0., 0., 0., 0., 0.,
          3.41421366e+000, 3.58578634e+000, 0., 0., 0., 0., 0., 0., 0.,
          0., 0., 0., 0., 0., 0., 0., 0., 0., 0., 0., 0., 0., 0., 0., 0.,
          0., 0., 0., 0., 0., 0., 1.88469338e+000, 1.34409132e+001,
          1.04131889e+001, 1.26120389e+000, 1.58578646e+000,
          4.14213568e-001, 1., 0., 5.85786462e-001, 1.39504290e+000,
          1.61422043e+001, 1.61295853e+001, 4.33316708e+000, 0.,
          4.14213568e-001, 2., 0., 0., 0., 0., 0., 0., 0., 0., 0., 0.,
          0., 0., 0., 0., 0., 0., 4.73631573e+000, 1.01215487e+001,
          6.62741709e+000, 4.51471853e+000, 0., 1.90214252e+001,
          3.03511581e+001, 9.52691174e+000, 1.15780973e+001,
          5.22407770e-001, 6.04359779e+001, 4.34218864e+001,
          8.28427124e+000, 1.54061174e+001, 3.45174670e+000,
          4.55940666e+001, 2.61632938e+001, 4.97056293e+000,
          2.93155403e+001, 2.59565372e+001, 4.35857296e+000,
          3.39878631e+000, 3.31370854e+000, 5.47541761e+000,
          6.45351458e+000, 1.76485901e+001, 3.29666328e+001,
          9.11269855e+000, 6.68546915e+000, 5.58660889e+000, 0.,
          3.16740990e+001, 3.18944435e+001, 2.74314575e+001, 0.,
          6.29989767e+000, 1.17295399e+001, 2.65096684e+001,
          9.33094788e+001, 4.01514168e+001, 2.20429921e+000,
          1.38148713e+000, 8.28427136e-001, 1.38148713e+000,
          2.20429921e+000, 2.31137962e+001, 7.05777740e+000,
          8.28427136e-001, 4.85281378e-001, 5.14718652e-001,
          5.27399015e+000, 1.32407284e+001, 4.14213562e+000,
          1.19467001e+001, 9.39644527e+000, 0., 0., 8.28427136e-001,
          9.14126396e+000, 2.40303078e+001, 0., 0., 0., 0., 0., 0., 0.,
          0., 0., 0., 0., 0., 0., 0., 0., 0., 0., 0., 0., 0., 0., 0., 0.,
          0., 0., 0., 0., 0., 0., 0., 0., 0., 0., 0., 0., 0., 0., 0., 0.,
          0., 0., 0., 0., 0., 0., 0., 0., 0., 0., 0., 0., 0., 0., 0., 0.,
          0., 0., 0., 0., 0., 4.82938433e+000, 2.17061567e+000, 0., 0.,
          0., 0., 0., 0., 0., 0., 0., 0., 0., 0., 0., 0., 0., 0., 0., 0.,
          2.17137203e+001, 5.28628063e+000, 8.28427136e-001,
          1.17157292e+000, 0., 2.86065807e+001, 7.39342022e+000,
          8.28427136e-001, 2.17157292e+000, 0., 0., 0., 0., 0., 0., 0.,
          0., 0., 0., 0., 6.40551138e+000, 4.35184813e+000,
          4.14213562e+000, 4.10050488e+000, 0., 0., 5.68629169e+000,
          1.24264069e+001, 4.29895897e+001, 2.98977108e+001,
          4.69460535e+000, 7.89118099e+000, 2.48528147e+000,
          4.52675514e+001, 6.96613770e+001, 9.57490730e+000,
          9.52559757e+000, 6.62741709e+000, 4.53333740e+001,
          6.49387054e+001, 1.60470467e+001, 7.05345774e+000,
          3.31370854e+000, 5.85786462e-001, 0., 2.03679886e+001,
          1.36614494e+001, 1.28406200e+001, 1.61299419e+001, 0., 0.,
          8.78679657e+000, 2.81665230e+001, 5.07266045e+001,
          5.32007837e+000, 1.59984188e+001, 1.79599514e+001,
          2.02964649e+001, 8.60345383e+001, 3.97106285e+001,
          1.30649586e+001, 1.93504143e+000, 0., 0., 0., 2.37089691e+001,
          6.46260405e+000, 8.28427136e-001, 0., 0., 3.69695244e+001,
          1.81309795e+001, 3.72792196e+000, 2.17157292e+000, 0.,
          2.87022514e+001, 7.46932125e+000, 1.24264073e+000,
          5.85786462e-001, 0., 5.14718652e-001, 4.85281378e-001, 0., 0.,
          0., 0., 0., 0., 0., 0., 0., 0., 0., 0., 0., 0., 0., 0., 0., 0.,
          0., 0., 0., 0., 0., 0., 0., 0., 0., 0., 0., 0., 0., 0., 0., 0.,
          0., 0., 0., 0., 0., 0., 0., 0., 0., 0., 0., 0., 0., 0., 0., 0.,
          0., 0., 0., 0., 0., 0., 0., 0., 4.82938433e+000,
          2.17061567e+000, 0., 0., 0., 0., 0., 0., 0., 0., 0., 0., 0.,
          0., 0., 0., 0., 0., 0., 0., 1.75629005e+001, 3.43709898e+000,
          8.28427136e-001, 2.91036892e+000, 2.61203885e-001,
          5.22407770e-001, 3.23495150e+000, 1.24264073e+000,
          6.05116415e+000, 2.19488354e+001, 0., 0., 0., 0., 0., 0., 0.,
          0., 0., 0. ]
      - [ 0., 3.21422815e+000, 7.28656483e+000, 1.27717698e+000,
          1.32246614e+000, 3.58578634e+000, 3.35083485e+000,
          6.50426388e+000, 0., 0., 6.58063698e+000, 1.55410376e+001,
          3.21553841e+001, 2.26718979e+001, 1.48613129e+001,
          2.18972921e+000, 0., 0., 0., 0., 7.10045767e+000,
          4.59633684e+000, 1.30320513e+000, 0., 0., 0., 0., 0., 0., 0.,
          0., 0., 0., 1.32037723e+000, 4.82991600e+000, 6.29089403e+000,
          4.14459896e+000, 1.41421354e+000, 3.41142488e+000,
          3.39783144e+000, 0., 5.83251429e+000, 3.26120377e+000,
          6.63580799e+000, 9.47049236e+000, 7.97564125e+000,
          1.47392025e+001, 1.40505276e+001, 0., 1.33228242e+000, 7.,
          8.76126766e+000, 3.90593529e+001, 1.20897474e+001,
          1.83322716e+001, 4.97558928e+000, 0., 3.49483395e+000,
          1.26120389e+000, 5.19633055e+000, 4.72284126e+001,
          1.15752554e+001, 6.41421366e+000, 6.10770130e+000, 0.,
          5.85786462e-001, 1.89457345e+000, 1.05426498e-001, 0., 0.,
          2.48110786e-001, 8.16065884e+000, 0., 0., 0., 0., 0., 0.,
          2.16791916e+000, 4.83208084e+000, 0., 0., 0., 0., 0., 0., 0.,
          0., 0., 0., 0., 0., 0., 0., 0., 0., 0., 1.39414787e+000,
          7.68001080e-002, 0., 0., 0., 0., 8.04393291e-002, 0., 0., 0.,
          0., 0., 0., 0., 0., 0., 0., 0., 0., 0., 0., 0., 0., 0., 0., 0.,
          0., 0., 0., 0., 0., 0., 3.16871119e+000, 2.27324057e+000, 0.,
          0., 0., 0., 0., 0., 0., 0., 0., 0., 0., 0., 0., 0., 0., 0., 0.,
          0., 0., 0., 0., 0., 0., 0., 0., 0., 0., 0., 0., 0.,
          6.51785135e-001, 2.34821486e+000, 0., 0., 0., 0., 0., 0., 0.,
          0., 0., 0., 0., 0., 0., 0., 0., 0., 0., 0., 0., 0., 0., 0., 0.,
          0., 0., 0., 0., 0., 0., 0., 1.57827771e+000, 4.42172241e+000,
          0., 0., 0., 0., 0., 0., 0., 0., 0., 0., 0., 0., 0., 0., 0., 0.,
          0., 0., 0., 0., 0., 0., 0., 0., 0., 0., 0., 0., 0., 0.,
          1.22508538e+000, 1.85086498e+001, 1.26626456e+000, 0., 0., 0.,
          0., 0., 0., 9.70412159e+000, 3.29587817e+000, 0., 0., 0., 0.,
          0., 0., 0., 0., 0., 0., 0., 0., 0., 0., 0., 0., 0., 0., 0., 0.,
          8.07346725e+000, 4.09810543e+000, 4.55634928e+000,
          1.37496700e+001, 5.22407770e-001, 2.11197777e+001,
          7.05179453e+000, 4.14213562e+000, 3.37584076e+001,
          1.29278822e+001, 0., 0., 0., 2.00354791e+000, 4.99645185e+000,
          0., 0., 0., 0., 0., 2.17509246e+000, 8.51119900e+000,
          4.97056293e+000, 5.95653439e+000, 1.38661122e+000,
          2.28745627e+000, 2.50851269e+001, 1.11837664e+001,
          3.00086975e+001, 1.14349527e+001, 8.60615921e+000,
          2.00090637e+001, 1.49116879e+001, 4.14026299e+001,
          1.00704584e+001, 3.78777361e+000, 2.09279556e+001,
          2.07106781e+001, 3.22183495e+001, 4.35524464e+000,
          7.95462847e-001, 1.37611008e+000, 2.89949489e+000,
          6.12158728e+000, 1.08073454e+001, 0., 0., 0., 1.72789681e+000,
          5.27210331e+000, 0., 0., 0., 0., 0., 0., 0., 0., 0., 0.,
          2.18132997e+000, 8.18669975e-001, 1.24264073e+000,
          1.75735927e+000, 0., 0., 0., 0., 0., 0., 0., 0., 0., 0., 0.,
          0., 0., 0., 0., 0., 4.82775259e+000, 1.17224741e+000, 0., 0.,
          0., 0., 0., 0., 0., 0., 0., 0., 0., 0., 0., 0., 0., 0., 0., 0.,
          2.56629896e+000, 4.33701128e-001, 0., 0., 0., 0., 0., 0., 0.,
          0., 0., 0., 0., 0., 0., 0., 0., 0., 0., 0., 4.83838892e+000,
          1.16161096e+000, 0., 0., 0., 0., 0., 0., 0., 0., 0., 0., 0.,
          0., 0., 0., 0., 0., 0., 0., 1.93132324e+001, 1.68676794e+000,
          0., 0., 0., 1.02238560e+001, 2.77614450e+000, 0., 0., 0., 0.,
          0., 0., 0., 0., 0., 0., 0., 0., 0., 6.62951231e+000,
          1.31278467e+001, 2.07106781e+000, 5.27980566e+000,
          1.89176738e+000, 0., 3.34314585e+000, 9.11269855e+000,
          3.19314308e+001, 4.46127243e+001, 0., 0., 0., 2.68765044e+000,
          9.31234932e+000, 0., 0., 0., 0., 0., 1.24613917e+000,
          7.26857948e+000, 3.72792196e+000, 9.67574120e+000,
          2.08161783e+000, 3.17531929e+001, 1.67615242e+001,
          5.79898977e+000, 1.57272100e+001, 6.95908165e+000,
          3.29138031e+001, 1.04293413e+001, 6.62741709e+000,
          1.74418564e+001, 3.85875816e+001, 3.26001968e+001,
          1.45003090e+001, 1.03553391e+001, 2.19237099e+001,
          3.46204453e+001, 2.07032166e+001, 4.88257074e+000,
          8.28427136e-001, 5.85786462e-001, 0., 4.90955544e+000,
          2.09044480e+000, 0., 0., 0., 0., 0., 0., 0., 0.,
          1.10819423e+000, 1.89180577e+000, 0., 0., 0., 8.95790672e+000,
          1.04209340e+000, 0., 0., 0., 0., 0., 0., 0., 0., 0., 0., 0.,
          0., 0., 0., 0., 0., 0., 0., 5.49057722e+000, 1.50942254e+000,
          0., 0., 0., 0., 0., 0., 0., 0., 0., 0., 0., 0., 0., 0., 0., 0.,
          0., 0., 1.22346997e+000, 7.76530027e-001, 0., 0., 0., 0., 0.,
          0., 0., 0., 0., 0., 0., 0., 0., 0., 0., 0., 0., 0.,
          2.50308132e+000, 4.96918768e-001, 0., 0., 0., 0., 0., 0., 0.,
          0., 0., 0., 0., 0., 0., 0., 0., 0., 0., 0., 2.24855280e+000,
          4.09459305e+000, 1.65685427e+000, 1.06191766e+000,
          2.93808246e+000, 0., 0., 0., 2.40525007e+000, 5.59474993e+000,
          0., 0., 0., 0., 0., 0., 0., 0., 0., 0. ]
      - [ 0., 1.73261309e+000, 3.33205032e+000, 9.88164520e+000,
          3.78630495e+000, 0., 5.14718652e-001, 1.76640403e+000, 0.,
          4.89609432e+000, 1.90042057e+001, 1.88439674e+001,
          2.63233986e+001, 3., 0., 9.06163692e-001, 0., 2.94018579e+000,
          2.69997540e+001, 1.69752846e+001, 1.20847750e+001,
          3.64723730e+000, 1.38198881e+001, 7.53287506e+000, 0.,
          2.41295052e+000, 3.65692787e+001, 2.01777029e+000,
          3.08886480e+000, 6.65740776e+000, 5.09485703e+001,
          4.30515766e+000, 0., 0., 5.12522984e+000, 7.85988379e+000,
          6.49768639e+000, 6.54431295e+000, 3.97288704e+000, 0., 0., 1.,
          2.75260315e+001, 2.44739685e+001, 4., 7.58578634e+000,
          1.34142132e+001, 0., 0., 0., 6., 8.25278282e+000,
          2.44898911e+001, 4.67720451e+001, 4.55791168e+001,
          6.90616369e+000, 0., 1., 1., 8.83476067e+000, 4.77723808e+001,
          5.39027481e+001, 5.17855644e+001, 2.15796432e+001, 0.,
          5.95620537e+000, 1., 1., 0., 1.16807437e+000, 3.54414535e+000,
          4.93137789e+000, 0., 2.27531681e+001, 2.90054798e+000, 3., 1.,
          0., 3., 1.34725928e-001, 0., 0., 0., 0., 0., 2.,
          8.90127182e+000, 2.57222424e+001, 0., 0., 0., 0., 0., 0., 0.,
          2.10126362e+001, 0., 0., 0., 0., 0., 0., 5.85786462e-001,
          3.79121947e+000, 0., 0., 0., 0., 0., 0., 0., 0., 0., 0., 0.,
          0., 0., 0., 0., 0., 0., 0., 0., 0., 0., 0., 0., 0., 0.,
          6.46584177e+000, 1.24943244e+000, 0., 0., 0., 0., 0., 0., 0.,
          0., 0., 0., 0., 0., 0., 0., 0., 0., 0., 0., 0., 0., 0., 0., 0.,
          0., 0., 0., 0., 0., 0., 0., 7.31291473e-001, 5.26870871e+000,
          0., 0., 0., 0., 0., 0., 0., 0., 0., 0., 0., 0., 0., 0., 0., 0.,
          0., 0., 0., 0., 0., 0., 0., 0., 0., 0., 0., 0., 0., 0., 0.,
          5.26870871e+000, 7.31291473e-001, 0., 0., 0., 2.53540897e+000,
          0., 4.69939518e+000, 9.74652958e+000, 7.34536934e+000,
          4.94640303e+000, 0., 1.41421354e+000, 5.34076929e+000, 0., 0.,
          5.95754194e+000, 4.14498091e+000, 1.89747703e+000, 0., 0., 0.,
          0., 0., 0., 0., 0., 0., 0., 0., 0., 7.85000682e-001,
          2.17748976e+000, 3.82251024e+000, 0., 0., 0., 5.74487257e+000,
          0., 0., 0., 1.31977797e+001, 3.89361115e+001, 7.03768015e+000,
          1.19180584e+001, 4.13085032e+000, 0., 0., 0., 0., 1., 0., 0.,
          0., 0., 0., 0., 0., 0., 0., 0., 0., 1.77880459e+001,
          3.79774046e+000, 4.14213568e-001, 5.37062979e+000,
          3.62936997e+000, 2.45775909e+001, 2.65523510e+001,
          9.94112587e+000, 2.92893219e+000, 0., 3.97556458e+001,
          1.28301411e+001, 7.04163074e+000, 1.58878813e+001,
          2.48470140e+000, 3.49602699e+001, 4.79708815e+000,
          6.21320343e+000, 1.83281250e+001, 3.87013130e+001,
          6.25118780e+000, 8.09195805e+000, 1.65685427e+000,
          5.52058315e+000, 6.47941685e+000, 1.23384542e+001,
          3.61051979e+001, 1.24264069e+001, 1.31299419e+001, 0.,
          2.61203885e-001, 9.52559280e+000, 3.60365791e+001,
          7.00766296e+001, 3.09999561e+000, 6.51080561e+000,
          1.19328451e+001, 2.48528137e+001, 8.93752747e+001,
          3.23282661e+001, 9.54967499e+000, 4.62189770e+000,
          8.28427136e-001, 5.52726269e+000, 9.47273731e+000,
          2.01390343e+001, 1.88904037e+001, 7.04163074e+000,
          2.92893219e+000, 0., 0., 0., 7.87005758e+000, 2.47892227e+001,
          2.43407192e+001, 0., 0., 1.65685427e+000, 1.28989706e+001,
          2.44441757e+001, 0., 0., 4.14213568e-001, 3.18802261e+000,
          5.39776373e+000, 0., 0., 0., 0., 0., 0., 0., 0., 0., 0., 0.,
          0., 0., 0., 0., 7.99355698e+000, 1.00644326e+000, 0., 0., 0.,
          0., 0., 0., 0., 0., 0., 0., 0., 0., 0., 0., 0., 0., 0., 0.,
          5.30381870e+000, 6.96181118e-001, 0., 0., 0., 0., 0., 0., 0.,
          0., 0., 0., 0., 0., 0., 0., 0., 0., 0., 0., 5.30381870e+000,
          6.96181118e-001, 0., 1.43190336e+000, 4.56809664e+000,
          2.38704491e+001, 4.12955093e+000, 4.97056293e+000,
          1.25896425e+001, 2.43979478e+000, 8.88565922e+000,
          2.11434054e+000, 0., 0., 0., 0., 0., 0., 0., 0.,
          6.17664766e+000, 1.40913880e+000, 8.28427136e-001,
          6.23393583e+000, 9.35185051e+000, 2.55799294e+001,
          9.00585651e+000, 4.55634928e+000, 2.21376324e+001,
          1.72023296e+000, 0., 0., 0., 0., 0., 0., 0., 0., 0., 0.,
          1.38229055e+001, 2.17709422e+000, 0., 1.86806166e+000,
          1.41319380e+001, 3.89979911e+000, 1.03722792e+001,
          1.07695522e+001, 1.82730522e+001, 2.56853180e+001,
          2.61203885e-001, 1.32829523e+001, 1.15979795e+001,
          1.38752527e+001, 2.79826126e+001, 0., 2.05735931e+001,
          1.69827557e+001, 9.64556503e+000, 8.79808617e+000, 0., 0.,
          2.89949489e+000, 1.38822918e+001, 1.12182131e+001, 0.,
          5.85786462e-001, 1.15979795e+001, 3.15812817e+001,
          5.23495150e+000, 0., 4.68629169e+000, 3.10660172e+001,
          5.37443352e+001, 2.50335646e+000, 3.68690586e+000,
          2.16856766e+001, 3.14802303e+001, 6.19172325e+001,
          4.12299538e+001, 2.08360043e+001, 5.16399670e+000,
          1.24264073e+000, 2.75735927e+000, 0., 3.60127602e+001,
          1.56024656e+001, 6.62741709e+000, 2.75735927e+000, 0.,
          3.96231728e+001, 1.62346897e+001, 4.97056293e+000,
          1.17157292e+000, 0., 3.46865234e+001, 8.89926147e+000,
          4.14213568e-001, 0., 0., 1.08875141e+001, 1.69827199e+000,
          4.14213568e-001, 0., 0., 0., 0., 0., 0., 0., 0., 0., 0., 0.,
          0., 0., 0., 0., 0., 0., 9.37721252e+000, 1.62278748e+000, 0.,
          0., 0., 0., 0., 0., 0., 0., 0., 0., 0., 0., 0., 0., 0., 0., 0.,
          0., 2.33042955e+000, 6.69570386e-001, 0., 0., 0., 0., 0., 0.,
          0., 0., 0., 0., 0., 0., 0., 0., 0., 0., 0., 0.,
          7.79041386e+000, 1.20958626e+000, 0., 6.69570386e-001,
          2.33042955e+000, 3.12244434e+001, 1.18760624e+001,
          2.89949489e+000, 2.49284387e+000, 1.25071564e+001, 0., 0., 0.,
          1.45376432e+000, 5.54623556e+000, 0., 0., 0., 0., 0.,
          1.90902138e+001, 3.90978575e+000, 0., 8.72078061e-001,
          5.12792206e+000, 1.52940166e+000, 4.22795773e+000,
          4.14213562e+000, 1.29689331e+001, 4.41315727e+001, 0., 0., 0.,
          4.14213568e-001, 5.85786462e-001, 0., 0., 0., 0., 0. ]
      - [ 0., 2.60043240e+000, 1.76527691e+000, 8.27671623e+000,
          3.09963202e+000, 0., 4.14213568e-001, 4.27868509e+000, 0.,
          1.92193520e+000, 9.66385174e+000, 2.10995846e+001,
          3.35758095e+001, 5.73882151e+000, 2.41421366e+000,
          5.50745916e+000, 0., 3.01832008e+000, 2.92887745e+001,
          1.64769802e+001, 7.21592617e+000, 3.65150809e+000,
          1.13484917e+001, 2., 0., 6.01862729e-001, 3.35223656e+001,
          5.87577295e+000, 0., 6.33049774e+000, 5.22084503e+001,
          4.46105242e+000, 1.90743566e-001, 8.09256434e-001,
          1.72716177e+000, 7.78260136e+000, 1.26922674e+001,
          5.93565178e+000, 8.62317681e-001, 0., 0., 5.59666443e+000,
          2.93430099e+001, 2.29362869e+001, 4.87650633e+000, 6.,
          1.34142132e+001, 1.58578646e+000, 0., 0., 10., 6.21056652e+000,
          2.57680817e+001, 4.87968025e+001, 4.90743294e+001,
          3.15022111e+000, 0., 0., 2., 7.01233959e+000, 5.84290161e+001,
          4.67441330e+001, 5.20707169e+001, 8.74379730e+000, 0.,
          9.18417168e+000, 2.44177198e+000, 5.85786462e-001,
          4.14213568e-001, 2.34702754e+000, 2.82033992e+000,
          6.28570461e+000, 0., 2.06703415e+001, 4.67541742e+000, 0.,
          2.41421366e+000, 5.85786462e-001, 3.41421366e+000,
          2.72843146e+000, 0., 5.83624482e-001, 0., 0., 0., 5.,
          1.25857868e+001, 2.55090542e+001, 0., 5.56465611e-002, 0., 0.,
          0., 0., 5.85786462e-001, 1.65201836e+001, 0., 4.23191488e-001,
          0., 0., 0., 4.14213568e-001, 5.85786462e-001, 2.37469459e+000,
          0., 0., 0., 0., 0., 0., 0., 0., 0., 0., 0., 0., 0., 0., 0., 0.,
          0., 0., 0., 0., 0., 0., 0., 0., 0., 5.99903250e+000,
          1.56528544e+000, 1.01638049e-001, 0., 0., 0., 0., 0., 0., 0.,
          0., 0., 0., 0., 0., 0., 0., 0., 0., 0., 0., 0., 0., 0., 0., 0.,
          0., 0., 0., 0., 0., 0., 3.61302108e-001, 5.58840084e+000,
          5.02970256e-002, 0., 0., 0., 0., 0., 0., 0., 0., 0., 0., 0.,
          0., 0., 0., 0., 0., 0., 0., 0., 0., 0., 0., 0., 0., 0., 0., 0.,
          0., 0., 2.12938394e-002, 3.46370363e+000, 1.53629637e+000, 0.,
          0., 0., 7.14382052e-001, 0., 7.00768375e+000, 1.05667143e+001,
          1.46827059e+001, 5.10328817e+000, 2.58578634e+000,
          4.41421366e+000, 4.49296188e+000, 0., 0., 4.83691216e+000,
          2.03918839e+000, 1.12389934e+000, 0., 0., 0., 0., 0., 0., 0.,
          0., 0., 0., 0., 0., 5.47957838e-001, 2.62329555e+000,
          2.37670445e+000, 0., 0., 2., 7.37646961e+000, 0., 0., 0.,
          1.12851477e+001, 3.80006104e+001, 1.04716005e+001,
          5.24264050e+000, 1., 0., 0., 0., 0., 0., 0., 0., 0., 0., 0.,
          0., 0., 0., 0., 0., 0., 1.51006641e+001, 3.07090855e+000,
          1.24264073e+000, 2.68252134e+000, 6.90326500e+000,
          2.47593822e+001, 1.84416275e+001, 1.20121937e+001,
          1.22720776e+001, 5.14718652e-001, 3.99449959e+001,
          1.18123636e+001, 3.72792196e+000, 1.15321331e+001,
          2.98258543e+000, 3.49936790e+001, 4.59210587e+000,
          5.79898977e+000, 1.88785744e+001, 3.87366486e+001,
          9.67290783e+000, 6.08445120e+000, 1.65685427e+000,
          4.42364454e+000, 4.16214180e+000, 1.92723236e+001,
          3.36860466e+001, 1.44974747e+001, 1.35441561e+001, 0.,
          2.61203885e-001, 1.15255928e+001, 3.18944435e+001,
          7.21312485e+001, 5.18751097e+000, 3.28639364e+000,
          7.98568439e+000, 1.86396103e+001, 7.49768295e+001,
          3.61114807e+001, 1.13725967e+001, 2.62740326e+000,
          8.28427136e-001, 6.36612368e+000, 9.80544949e+000,
          2.36024818e+001, 1.64269562e+001, 7.87005758e+000,
          6.10050488e+000, 0., 1.88002384e+000, 1.11997616e+000,
          7.87005758e+000, 2.88833179e+001, 2.62466240e+001, 0.,
          5.85786462e-001, 1.24264073e+000, 1.23721628e+001,
          2.37994099e+001, 1.60786915e+000, 1.39213085e+000, 0.,
          1.87920761e+000, 5.12079239e+000, 0., 0., 0., 0., 0., 0., 0.,
          0., 0., 0., 0., 0., 0., 0., 0., 7.98667574e+000,
          1.01332450e+000, 0., 0., 0., 0., 0., 0., 0., 0., 0., 0., 0.,
          0., 0., 0., 0., 0., 0., 0., 5.30046749e+000, 6.99532628e-001,
          0., 0., 0., 0., 0., 0., 0., 0., 0., 0., 0., 0., 0., 0., 0., 0.,
          0., 0., 4.36044693e+000, 1.22533929e+000, 8.28427136e-001,
          1.65333474e+000, 1.93245173e+000, 3.12502499e+001,
          7.92132235e+000, 4.14213562e+000, 1.00287056e+001,
          7.65758610e+000, 5.14487123e+000, 1.85512877e+000, 0., 0., 0.,
          0., 0., 0., 0., 0., 4.92922926e+000, 1.07077086e+000,
          1.24264073e+000, 1.21385937e+001, 8.61876583e+000,
          2.24495907e+001, 8.55041027e+000, 7.45584393e+000,
          1.65441551e+001, 0., 0., 0., 0., 0., 0., 0., 0., 0., 0., 0.,
          1.71274090e+001, 2.87259078e+000, 0., 1.06951165e+000,
          1.19304886e+001, 2.64855766e+000, 9.96666622e+000,
          1.32548342e+001, 2.28747883e+001, 3.02551537e+001,
          2.61203885e-001, 9.01087379e+000, 7.45584393e+000,
          1.24480810e+001, 2.38239975e+001, 0., 1.64730873e+001,
          1.44974747e+001, 1.19050274e+001, 1.41244097e+001,
          6.79622769e-001, 3.20377231e-001, 0., 1.03957043e+001,
          1.86042957e+001, 2.05169630e+000, 6.22038174e+000,
          1.36690474e+001, 3.41895676e+001, 4.86930752e+000, 0.,
          2.92893219e+000, 3.31370850e+001, 5.39645004e+001,
          3.96948171e+000, 2.61203885e-001, 1.49398060e+001,
          3.23086586e+001, 6.18184013e+001, 4.36719322e+001,
          2.05374603e+001, 4.46253967e+000, 4.14213568e-001,
          5.17157269e+000, 4.14213568e-001, 3.48970070e+001,
          1.71324291e+001, 5.79898977e+000, 2.17157292e+000, 0.,
          4.27603226e+001, 1.41686096e+001, 4.14213562e+000,
          2.92893219e+000, 0., 3.68527069e+001, 9.73307800e+000,
          4.14213568e-001, 0., 0., 1.18168869e+001, 1.18311322e+000,
          4.14213568e-001, 5.85786462e-001, 0., 0., 0., 0., 0., 0., 0.,
          0., 0., 0., 0., 0., 0., 0., 0., 0., 8.69616604e+000,
          1.30383360e+000, 0., 1., 0., 0., 0., 0., 0., 0., 0., 0., 0.,
          0., 0., 0., 0., 0., 0., 0., 8.64203513e-001, 1.35796487e-001,
          4.14213568e-001, 1.58578646e+000, 0., 0., 0., 0., 0., 0., 0.,
          0., 0., 0., 0., 0., 0., 0., 0., 0., 1.00817242e+001,
          9.18275893e-001, 0., 3.37633848e-001, 2.66236615e+000,
          3.14001217e+001, 5.18566561e+000, 2.48528147e+000,
          7.34801102e+000, 1.75809212e+001, 0., 0., 0., 1.47235548e+000,
          2.52764440e+000, 0., 0., 0., 0., 0., 1.75220909e+001,
          5.06369543e+000, 4.14213568e-001, 6.36234701e-001,
          3.36376524e+000, 0., 1.17157292e+000, 4.97056293e+000,
          1.40284691e+001, 4.28293953e+001, 0., 0., 0., 0., 0., 0., 0.,
          0., 0., 0. ]
      - [ 0., 4.21012354e+000, 5.72293425e+000, 1.07934628e+001,
          4.04004049e+000, 1., 0., 2.61203885e-001, 0., 3.39700031e+000,
          9.89550495e+000, 1.96313210e+001, 3.98896179e+001,
          2.24437952e+000, 5.29423761e+000, 1.93395913e+000, 0.,
          2.14346576e+000, 3.07352257e+001, 1.46487856e+001,
          6.47252226e+000, 4.75881290e+000, 1.11244030e+001,
          6.11678457e+000, 0., 2.48569772e-001, 3.75959129e+001,
          5.15551662e+000, 3.41421366e+000, 5.64909267e+000,
          4.93121338e+001, 4.21034622e+000, 0., 1.58578646e+000,
          5.09383631e+000, 5.17157269e+000, 4.45053053e+000,
          7.06929636e+000, 3.62897730e+000, 0., 0., 1.58578646e+000,
          2.45197029e+001, 1.95996857e+001, 8.57686520e+000,
          7.88953209e+000, 9.82842731e+000, 4., 4.14213568e-001, 2.,
          1.41421354e+000, 7.95587397e+000, 2.80332375e+001,
          5.17692795e+001, 4.44842491e+001, 5.92893219e+000, 0., 0., 1.,
          7.57874680e+000, 5.42108917e+001, 5.85998039e+001,
          4.83417740e+001, 8.85456657e+000, 8.90185452e+000,
          9.44664478e+000, 2.21324492e+000, 1.17157292e+000,
          8.28427136e-001, 2.19074368e+000, 2.73818851e+000,
          4.50932264e+000, 0., 1.64936867e+001, 4.48887920e+000,
          1.32037723e+000, 0., 0., 0., 5.64637721e-001, 0., 0., 0., 0.,
          0., 1., 1.34142132e+001, 2.72224579e+001, 0., 0., 0., 0., 0.,
          0., 1.90743566e-001, 2.03356857e+001, 0., 0., 1., 0., 0., 0.,
          0., 5.06618500e+000, 0., 0., 0., 0., 0., 0., 0., 0., 0., 0.,
          0., 0., 0., 0., 0., 0., 0., 0., 0., 0., 0., 0., 0., 0., 0.,
          4.53150511e+000, 1.17269427e-001, 0., 0., 0., 0.,
          5.85786462e-001, 0., 0., 0., 0., 0., 0., 0., 0., 0., 0., 0.,
          0., 0., 0., 0., 0., 0., 0., 0., 0., 0., 0., 0., 0., 0.,
          1.94203448e+000, 7.05796576e+000, 0., 0., 0., 0., 0., 0., 0.,
          0., 0., 0., 0., 0., 0., 0., 0., 0., 0., 0., 0., 0., 0., 0., 0.,
          0., 0., 0., 0., 0., 0., 0., 0., 3.56223464e+000,
          4.43776512e+000, 0., 0., 0., 3.97538853e+000, 0.,
          9.16534424e+000, 7.55373335e+000, 1.41474876e+001,
          7.36438084e+000, 1.50221109e-001, 5.08963108e+000,
          4.38014126e+000, 0., 0., 7.13862276e+000, 4.73747778e+000,
          1.12389934e+000, 0., 0., 0., 0., 0., 0., 0., 0., 0., 0., 0.,
          0., 2.80061632e-001, 2.25730586e+000, 3.67341828e+000, 2., 1.,
          1., 4.26785517e+000, 0., 0., 0., 1.27258949e+001,
          3.79589844e+001, 5.05391788e+000, 5.26120377e+000, 1., 0., 0.,
          0., 0., 0., 0., 0., 0., 0., 0., 0., 0., 0., 0., 0., 0.,
          1.71925526e+001, 6.97901964e+000, 1.65685427e+000,
          1.17157292e+000, 0., 2.51078472e+001, 2.15784454e+001,
          6.21320343e+000, 6.60781765e+000, 3.49268746e+000,
          3.94631729e+001, 1.07083988e+001, 5.38477612e+000,
          1.31254272e+001, 4.31822300e+000, 3.48894653e+001,
          6.45367956e+000, 5.79898977e+000, 1.60446873e+001,
          3.98131752e+001, 1.87744796e+000, 8.22305679e+000,
          3.72792196e+000, 6.26978254e+000, 4.90179062e+000,
          1.16386299e+001, 3.29765930e+001, 1.28406200e+001,
          1.38319359e+001, 7.12219775e-001, 7.79518783e-001,
          8.49255943e+000, 3.14802303e+001, 7.21932297e+001,
          5.05445862e+000, 5.18247223e+000, 7.50381947e+000,
          1.53259020e+001, 7.75008926e+001, 4.14869156e+001,
          1.28723822e+001, 4.29919052e+000, 1.24264073e+000,
          6.83317709e+000, 6.75260973e+000, 2.00409107e+001,
          1.36453819e+001, 4.97056293e+000, 2.34314585e+000, 0., 0., 0.,
          6.21320343e+000, 3.08383961e+001, 2.59484005e+001, 0., 0.,
          2.89949489e+000, 1.74106560e+001, 2.36898499e+001,
          5.85786462e-001, 4.14213568e-001, 0., 1.56121278e+000,
          7.43878746e+000, 0., 0., 0., 0., 0., 0., 0., 0., 0., 0., 0.,
          0., 0., 0., 0., 5.18197536e+000, 8.18024516e-001,
          4.14213568e-001, 5.85786462e-001, 0., 0., 0., 0., 0., 0., 0.,
          0., 0., 0., 0., 0., 0., 0., 0., 0., 8.02136707e+000,
          9.78632748e-001, 0., 0., 0., 0., 0., 0., 0., 0., 0., 0., 0.,
          0., 0., 0., 0., 0., 0., 0., 6.88865614e+000, 1.11134374e+000,
          0., 2.14913559e+000, 7.85086441e+000, 2.65420265e+001,
          1.47300520e+001, 5.79898977e+000, 1.42121830e+001,
          2.71674919e+000, 9.07200146e+000, 2.92799830e+000, 0., 0., 0.,
          0., 0., 0., 0., 0., 5.53963566e+000, 2.04615092e+000,
          8.28427136e-001, 4.55065203e+000, 8.03513432e+000,
          2.34094982e+001, 7.59050226e+000, 2.89949489e+000,
          1.27944860e+001, 1.30601943e+000, 0., 0., 0., 0., 0., 0., 0.,
          0., 0., 0., 7.28622484e+000, 5.29956198e+000, 1.65685427e+000,
          5.88810205e+000, 1.08692570e+001, 3.14364648e+000,
          4.78528547e+000, 9.11269855e+000, 2.88445816e+001,
          3.21137886e+001, 2.61203885e-001, 1.39398060e+001,
          8.69848442e+000, 1.15944300e+001, 2.45060749e+001, 0.,
          1.59583693e+001, 1.53259020e+001, 1.97201653e+001,
          7.99556446e+000, 0., 1.75735927e+000, 2.48528147e+000,
          1.36507215e+001, 6.10663795e+000, 6.79622769e-001,
          5.59245539e+000, 1.57401152e+001, 2.78943787e+001,
          7.09342766e+000, 0., 6.85786438e+000, 3.72792206e+001,
          5.70358391e+001, 5.82707739e+000, 0., 1.52720776e+001,
          3.14802303e+001, 6.31555786e+001, 4.90921135e+001,
          2.11538181e+001, 4.84618187e+000, 4.14213568e-001,
          4.32458258e+000, 2.61203885e-001, 3.49635696e+001,
          1.11369362e+001, 3.31370854e+000, 1.58578646e+000, 0.,
          4.26757622e+001, 1.67678890e+001, 4.97056293e+000,
          5.85786462e-001, 0., 3.67877197e+001, 1.19696398e+001,
          1.24264073e+000, 0., 0., 1.04963741e+001, 1.50362539e+000, 0.,
          0., 0., 5.85786462e-001, 4.14213568e-001, 0., 0., 0., 0., 0.,
          0., 0., 0., 0., 0., 0., 0., 0., 1.05506306e+001,
          2.44936991e+000, 0., 0., 0., 0., 0., 0., 0., 0., 0., 0., 0.,
          0., 0., 0., 0., 0., 0., 0., 3.19226146e+000, 2.80773854e+000,
          0., 0., 0., 0., 0., 0., 0., 0., 0., 0., 0., 0., 0., 0., 0., 0.,
          0., 0., 1.24007759e+001, 1.59922457e+000, 0., 8.15702975e-001,
          5.18429708e+000, 3.33000793e+001, 9.62885189e+000,
          2.89949489e+000, 3.89339256e+000, 2.02781811e+001, 0., 0., 0.,
          2.35890937e+000, 5.64109039e+000, 0., 0., 0., 0., 0.,
          1.66874905e+001, 2.89829516e+000, 1.65685427e+000,
          2.37203908e+000, 4.38532019e+000, 0., 1.17157292e+000,
          2.89949489e+000, 1.22390862e+001, 4.16898460e+001, 0., 0., 0.,
          0., 0., 0., 0., 0., 0., 0. ]
      - [ 1.64857709e+000, 5.35398684e-002, 5.64434648e-001,
          9.12514591e+000, 7.29458427e+000, 1.03993635e+001,
          2.61647177e+000, 2.97883004e-001, 0., 4.14213568e-001,
          1.89415340e+001, 4.05237770e+001, 2.90392628e+001,
          4.08121014e+000, 2., 0., 8.28427136e-001, 4.10051441e+000,
          3.13697643e+001, 1.22095366e+001, 1.43295927e+001,
          1.16301584e+001, 2.63586578e+001, 8.17334938e+000, 0.,
          2.91973621e-001, 3.69996567e+001, 5.70837164e+000,
          8.67213535e+000, 9.11961079e+000, 5.02721138e+001,
          4.93613911e+000, 1.29800618e+000, 1., 12., 5.58578634e+000,
          2.67541742e+000, 3.32458258e+000, 1.41421354e+000,
          1.70199382e+000, 0., 1., 6., 7., 12., 1.71715736e+001,
          1.58284273e+001, 3., 0., 1., 0., 6., 2.01795464e+001,
          4.42641029e+001, 3.65563507e+001, 6., 0., 0., 1.,
          4.14430475e+000, 4.21722298e+001, 7.02341843e+001,
          5.67234116e+001, 2.01209164e+001, 0., 8.22880745e+000,
          7.65986490e+000, 5.85786462e-001, 0., 0., 5.85786462e-001,
          4.14213568e-001, 0., 1.07719116e+001, 2.18457961e+000, 0., 0.,
          2., 8., 8.45065308e+000, 0., 1.02037358e+000, 1., 0., 0., 0.,
          6.49542379e+000, 2.44477997e+001, 0., 7.88808227e-001, 0., 0.,
          0., 0., 0., 8.98105812e+000, 0., 8.57215500e+000,
          2.82398582e+000, 0., 0., 0., 0., 0., 0., 0., 0., 0., 0., 0.,
          0., 0., 0., 0., 0., 0., 0., 0., 0., 0., 0., 0., 0., 0., 0., 0.,
          0., 0., 0., 4.86316115e-001, 0., 0., 0., 0., 0., 0., 0., 0.,
          0., 0., 0., 0., 0., 0., 0., 0., 0., 0., 0., 0., 0., 0., 0., 0.,
          0., 0., 0., 0., 0., 0., 0., 2.12970805e+000, 0., 0., 0., 0.,
          0., 1.75866112e-002, 0., 0., 0., 0., 0., 0., 0., 0., 0., 0.,
          0., 0., 0., 0., 0., 0., 0., 0., 0., 0., 0., 0., 0., 0., 0.,
          7.18246603e+000, 1.20271454e+001, 2.81643897e-001, 0., 0., 1.,
          8.65629673e-001, 0., 1.36815798e+000, 0., 1.77199614e+000,
          1.15610075e+001, 6.83856964e+000, 5.08963108e+000,
          8.61315346e+000, 0., 9.02530956e+000, 9.42207336e+000,
          1.82665100e+001, 1.25745020e+001, 4.14213568e-001, 1., 0., 0.,
          0., 0., 0., 0., 0., 0., 0., 1.19968164e+000, 1.45207214e+000,
          3.15444255e+000, 3.50023246e+000, 9.80409908e+000,
          7.72346592e+000, 2.89650607e+000, 2.69499928e-001, 0.,
          5.94226003e-001, 1., 1.67770786e+001, 5.44132347e+001,
          7.22389936e+000, 1., 1.08870065e+000, 0., 0., 0.,
          3.64037514e-001, 3.63596249e+000, 0., 0., 0., 0., 0., 0., 0.,
          0., 0., 0., 0., 2.64916515e+000, 9.10819435e+000,
          2.48528147e+000, 9.03846169e+000, 6.71889782e+000,
          2.53707218e+001, 3.81734352e+001, 1.03553391e+001,
          4.10050488e+000, 0., 4.03621216e+001, 1.23952360e+001,
          1.20121937e+001, 3.21640663e+001, 6.06638145e+000,
          3.38222733e+001, 7.93508720e+000, 4.97056293e+000,
          2.01610985e+001, 4.21109810e+001, 7.83611596e-001,
          1.36600389e+001, 5.79898977e+000, 7.34314585e+000,
          4.14213568e-001, 0., 9.85786438e+000, 1.73969688e+001,
          2.27451668e+001, 0., 0., 4.10050488e+000, 2.89949493e+001,
          6.29045448e+001, 0., 0., 4.10050488e+000, 1.61543293e+001,
          8.62265778e+001, 6.95185852e+001, 9.60159016e+000,
          1.44989157e+001, 2.89949489e+000, 7.38796115e-001,
          2.61203885e-001, 1.23471212e+001, 4.99602461e+000,
          1.15979795e+001, 1.72831993e+001, 5.77567482e+000, 0.,
          1.75735927e+000, 4.97056293e+000, 2.28089027e+001,
          2.34631748e+001, 1.53352690e+000, 2.63804603e+000,
          2.07106781e+000, 1.13823233e+001, 1.53750353e+001,
          1.18308487e+001, 2.16915154e+000, 0., 0., 0., 0., 0., 0., 0.,
          0., 0., 0., 0., 0., 0., 0., 0., 0., 0., 0., 1.34666526e+000,
          6.53334737e-001, 0., 0., 0., 0., 0., 0., 0., 0., 0., 0., 0.,
          0., 0., 0., 0., 0., 0., 0., 2.88804460e+000, 1.11195540e+000,
          4.14213568e-001, 5.85786462e-001, 0., 0., 0., 0., 0., 0., 0.,
          0., 0., 0., 0., 0., 0., 0., 0., 0., 1.95882626e+001,
          2.41173744e+000, 0., 3.74239659e+000, 2.25760341e+000,
          5.54570198e+000, 1.45429790e+000, 5.38477612e+000,
          2.51089725e+001, 1.25062504e+001, 4.05807457e+001,
          9.41925526e+000, 0., 2., 0., 0., 0., 0., 0., 0.,
          6.35049820e+000, 4.23528814e+000, 1.65685427e+000,
          1.00124321e+001, 5.74492788e+000, 2.67092762e+001,
          1.43912287e+001, 7.04163074e+000, 1.38130493e+001,
          1.04481554e+000, 8.41352940e-001, 1.58647031e-001, 0., 0., 0.,
          0., 0., 0., 0., 0., 1.85869265e+000, 1.41307294e-001,
          1.24264073e+000, 1.93234539e+001, 9.43390465e+000, 0., 1.,
          1.44974747e+001, 5.07192345e+001, 2.17832909e+001,
          8.28427136e-001, 1.45441561e+001, 1.24264069e+001,
          1.59070959e+001, 2.92939148e+001, 4.94294357e+000,
          1.29149208e+001, 9.94112587e+000, 1.72755947e+001,
          2.39254150e+001, 1.43556535e+000, 1.73600757e+000,
          3.72792196e+000, 1.05780973e+001, 5.22407770e-001, 0.,
          2.34314585e+000, 1.53259020e+001, 2.33309517e+001, 0., 0.,
          7.02943707e+000, 3.23086586e+001, 4.67858047e+001,
          8.76100659e-001, 6.02174807e+000, 1.90787563e+001,
          2.15391045e+001, 6.39576302e+001, 5.74027596e+001,
          1.60769825e+001, 4.68037605e+000, 1.65685427e+000,
          5.85786462e-001, 0., 3.79844170e+001, 1.68023796e+001,
          7.04163074e+000, 1.17157292e+000, 0., 4.02402306e+001,
          1.58602743e+001, 2.89949489e+000, 0., 0., 3.57129593e+001,
          6.28704166e+000, 0., 0., 0., 1.46521473e+001, 2.34785295e+000,
          0., 0., 0., 0., 0., 0., 0., 0., 0., 0., 0., 0., 0., 0., 0., 0.,
          0., 0., 2.75326610e+000, 2.46733800e-001, 0., 0., 0., 0., 0.,
          0., 0., 0., 0., 0., 0., 0., 0., 0., 0., 0., 0., 0.,
          8.71673489e+000, 1.28326547e+000, 0., 0., 0., 0., 0., 0., 0.,
          0., 0., 0., 0., 0., 0., 0., 0., 0., 0., 0., 1.82169075e+001,
          2.78309321e+000, 4.14213568e-001, 3.17157292e+000,
          4.14213568e-001, 3.85042038e+001, 7.08158112e+000,
          4.14213562e+000, 1.21458607e+001, 5.12621689e+000,
          1.51695318e+001, 3.41625500e+000, 4.14213568e-001,
          4.99175453e+000, 2.80082455e+001, 0., 0., 0., 0., 0.,
          3.15757442e+000, 1.84242558e+000, 0., 9.48550892e+000,
          1.35144911e+001, 2.56188273e+000, 2.60969019e+000,
          6.21320343e+000, 2.72734222e+001, 4.63418007e+001, 0., 0., 0.,
          7.30409980e-001, 3.26958990e+000, 0., 0., 0., 0., 0. ]
      - [ 0., 1.57789731e+000, 3.44231653e+000, 7.18855047e+000,
          3.95862317e+000, 3.54090881e+000, 3.04185843e+000,
          4.75725794e+000, 0., 4.70598340e-001, 1.84320965e+001,
          2.64727859e+001, 4.15807877e+001, 1.04373384e+000, 2., 0.,
          4.14213568e-001, 1.62170506e+000, 3.33192520e+001,
          6.64482927e+000, 3.63607359e+000, 7.24558210e+000,
          3.55409164e+001, 1.05774269e+001, 0., 4.79024291e-001,
          3.11606426e+001, 8.34106922e+000, 2.01926351e+000,
          9.10083866e+000, 5.38003502e+001, 3.68459749e+000, 0., 1.,
          1.05056524e+001, 1.34222651e+001, 4.01109505e+000,
          1.06098711e+000, 0., 0., 0., 0., 5.81455183e+000,
          1.01854486e+001, 6., 1.73431454e+001, 2.76568546e+001, 3., 0.,
          0., 2., 8.67651367e+000, 3.26357689e+001, 4.59597969e+001,
          4.23137093e+001, 1.41421354e+000, 0., 2., 1., 2.24912614e-001,
          4.27078667e+001, 6.93132706e+001, 5.10384598e+001,
          3.71548653e+000, 0., 1.82152820e+000, 2.24613929e+000,
          5.75386095e+000, 7.08963108e+000, 4.87675285e+000,
          4.44782972e+000, 5.85786462e-001, 0., 4.93595123e+000, 0., 1.,
          10., 14., 9., 1.88801610e+000, 0., 0., 0., 0., 3.,
          6.58578634e+000, 1.24142132e+001, 1.98149834e+001, 0.,
          2.15756798e+000, 0., 0., 0., 2., 1.06449594e+001,
          1.81428413e+001, 0., 1.47306070e+001, 2.96782947e+000, 0., 0.,
          0., 0., 9.43339229e-001, 0., 2.21437430e+000, 0., 0., 0., 0.,
          0., 0., 0., 0., 0., 0., 0., 0., 0., 0., 0., 0., 0., 0., 0., 0.,
          0., 0., 0., 1.23899341e-001, 0., 0., 0., 0., 1.05426498e-001,
          3.11857581e+000, 0., 0., 0., 0., 0., 0., 0., 0., 0., 0., 0.,
          0., 0., 0., 0., 0., 0., 0., 0., 0., 0., 0., 0., 0., 0.,
          6.85701132e+000, 7.30693531e+000, 1.06805074e+000, 0.,
          6.75417423e-001, 1.32458258e+000, 9.48232040e-002, 0., 0., 0.,
          0., 0., 0., 0., 0., 0., 0., 0., 0., 0., 0., 0., 0., 0., 0., 0.,
          0., 0., 0., 0., 0., 0., 1.27671504e+000, 9.49881744e+000,
          4.81025362e+000, 1.90743566e-001, 1.88032424e+000,
          9.28932190e-001, 2.83113480e+000, 0., 1.03852701e+000, 0.,
          3.54286528e+000, 1.48502293e+001, 7.53583813e+000,
          1.51421356e+001, 1.56175556e+001, 0., 1.20795650e+001,
          1.36996317e+001, 1.53346319e+001, 1.38216352e+001,
          1.15022111e+000, 4.14213568e-001, 1.58578646e+000, 0., 0., 0.,
          0., 0., 0., 0., 0., 7.20947552e+000, 3.84259439e+000,
          2.33924723e+000, 6.53768110e+000, 4.86369228e+000,
          3.19789839e+000, 2.61203885e-001, 7.48207033e-001, 0., 0., 1.,
          1.85624237e+001, 3.89816475e+001, 4.45592833e+000, 2., 0., 0.,
          0., 0., 0., 0., 0., 0., 0., 0., 0., 0., 0., 0., 0., 0., 0.,
          5.36911774e+000, 5.73138762e+000, 4.55634928e+000,
          5.13850689e+000, 8.20463848e+000, 3.05068054e+001,
          2.61794853e+001, 5.38477612e+000, 3.92893219e+000, 0.,
          3.58390198e+001, 5.33255196e+000, 9.11269855e+000,
          3.27440109e+001, 1.39717197e+001, 3.41148262e+001,
          5.05674553e+000, 7.04163074e+000, 2.06782494e+001,
          4.01085472e+001, 6.76136446e+000, 1.65107136e+001,
          3.72792196e+000, 8.73566687e-001, 1.12643337e+000,
          3.84248614e+000, 1.13290863e+001, 1.40832615e+001,
          3.44839630e+001, 2.61203885e-001, 3.60390949e+000,
          7.25395489e+000, 2.77523079e+001, 6.83450089e+001,
          1.04481554e+000, 0., 3.92893219e+000, 1.44974747e+001,
          6.66476059e+001, 6.29259834e+001, 1.50804985e+000,
          7.00666857e+000, 4.97056293e+000, 6.70199394e+000,
          1.81272483e+000, 9.28637218e+000, 5.88520098e+000,
          1.32548342e+001, 1.95735931e+001, 0., 0., 0., 6.62741709e+000,
          2.39766369e+001, 2.83959465e+001, 4.63635206e+000,
          1.36364770e+000, 3.31370854e+000, 2.05544739e+001,
          2.41318188e+001, 1.91471138e+001, 3.85288715e+000, 0.,
          7.34590828e-001, 1.26540923e+000, 4.64586878e+000,
          1.35413122e+000, 0., 0., 0., 0., 0., 0., 0., 0., 0., 0., 0.,
          0., 0., 6.79622769e-001, 3.20377231e-001, 0., 2.45573592e+000,
          5.54426432e+000, 0., 0., 0., 0., 0., 0., 0., 0., 0., 0., 0.,
          0., 0., 0., 0., 1.53926706e+001, 2.60732889e+000, 0.,
          2.22407746e+000, 7.75922477e-001, 0., 0., 0., 0., 0., 0., 0.,
          0., 0., 0., 0., 0., 0., 0., 0., 1.46623068e+001,
          1.33769286e+000, 0., 3.67033672e+000, 7.32966328e+000,
          6.68637657e+000, 4.07098293e+000, 1.07695522e+001,
          3.57417984e+001, 1.77312908e+001, 4.36315041e+001,
          9.36849689e+000, 8.28427136e-001, 3.17157292e+000, 0., 0., 0.,
          0., 0., 0., 6.91432905e+000, 8.94353580e+000, 5.38477612e+000,
          3.04538870e+000, 2.71197057e+000, 2.67828083e+001,
          1.01461248e+001, 4.97056293e+000, 6.10050488e+000, 0., 0., 0.,
          0., 0., 0., 0., 0., 0., 0., 0., 8.02065182e+000,
          4.15092087e+000, 2.89949489e+000, 8.41051483e+000,
          6.51841736e+000, 0., 1.17157292e+000, 1.15979795e+001,
          3.66917839e+001, 3.05386639e+001, 4.14213568e-001,
          1.48873014e+001, 1.28406200e+001, 1.06851864e+001,
          1.71726780e+001, 2.61203885e-001, 1.17682333e+001,
          1.53259020e+001, 1.88146076e+001, 1.38300533e+001, 0.,
          5.85786462e-001, 2.48528147e+000, 1.31704473e+001,
          6.75848484e+000, 0., 4.10050488e+000, 1.49116879e+001,
          2.52227573e+001, 1.76504838e+000, 0., 1.17157292e+000,
          3.14802303e+001, 5.19405746e+001, 9.40761948e+000, 0.,
          9.44365120e+000, 2.15391045e+001, 4.94354057e+001,
          6.25818367e+001, 1.99373806e+000, 3.00626183e+000,
          5.79898977e+000, 1.31113787e+001, 1.08963096e+000,
          2.94309597e+001, 9.25533104e+000, 1.32548342e+001,
          1.50588741e+001, 0., 4.47221146e+001, 8.44945908e+000,
          4.97056293e+000, 5.85786438e+000, 0., 3.82474823e+001,
          1.42672358e+001, 3.31370854e+000, 1.17157292e+000, 0.,
          2.22103748e+001, 2.78962469e+000, 0., 0., 0., 1.04893579e+001,
          1.51064169e+000, 0., 0., 0., 0., 0., 0., 0., 0., 0., 0., 0.,
          0., 0., 1.36473513e+001, 1.35264862e+000, 0., 0., 0., 0., 0.,
          0., 0., 0., 0., 0., 0., 0., 0., 0., 0., 0., 0., 0.,
          1.14237080e+001, 2.16207814e+000, 1.24264073e+000,
          1.63583255e+000, 2.53574038e+000, 0., 0., 0., 0., 0., 0., 0.,
          0., 0., 0., 0., 0., 0., 0., 0., 1.16498690e+001,
          1.35013068e+000, 0., 5.48828125e+000, 9.51171875e+000,
          3.70779762e+001, 1.06083174e+001, 7.45584393e+000,
          7.82888842e+000, 1.60289764e+001, 1.78142071e+001,
          4.94315195e+000, 1.65685427e+000, 5.94567680e+000,
          2.96401100e+001, 0., 0., 0., 0., 0., 8.71867371e+000,
          3.28132653e+000, 3.31370854e+000, 6.36325502e+000,
          6.32303619e+000, 0., 5.85786462e-001, 4.14213562e+000,
          1.56818609e+001, 4.25902176e+001, 0., 0., 0., 0., 0., 0., 0.,
          0., 0., 0. ]
      - [ 0., 0., 7.38148737e+000, 6.94309521e+000, 5.07456207e+000,
          7.11557388e+000, 1.48528135e+000, 0., 0., 2.40342164e+000,
          1.86942940e+001, 2.82574711e+001, 3.28482399e+001,
          4.79657221e+000, 3., 1., 0., 1.29728127e+000, 2.91650734e+001,
          1.03688393e+001, 9.39847851e+000, 1.30593252e+001,
          2.47110023e+001, 7.58578634e+000, 0., 1.94139743e+000,
          3.21961632e+001, 7.86243820e+000, 4., 5.94000483e+000,
          5.36504364e+001, 6.40955973e+000, 0., 0., 9.66454315e+000,
          1.35589266e+001, 1.45615280e+000, 1.65550697e+000,
          1.07908380e+000, 8.46990287e-001, 0., 2.41421366e+000,
          5.09383631e+000, 1.38869934e+001, 1.06049576e+001,
          2.26862907e+001, 2.07279224e+001, 1.58578646e+000, 0., 0., 3.,
          5., 3.08018951e+001, 3.62909203e+001, 4.57356110e+001,
          1.75735927e+000, 4.14213568e-001, 1.58578646e+000, 1.,
          3.16102338e+000, 4.48861542e+001, 6.37267723e+001,
          6.45022202e+001, 7.72382736e+000, 0., 5.61112738e+000,
          1.33953514e+001, 3.81695843e+000, 0., 1.90743566e-001,
          2.24554706e+000, 2.73871684e+000, 0., 1.15741768e+001, 0., 1.,
          2., 5., 1.24142132e+001, 1.37032785e+001, 0., 4.62292820e-001,
          0., 1., 4., 6.58578634e+000, 1.24142132e+001, 2.05093422e+001,
          0., 0., 0., 0., 0., 1., 7.19680500e+000, 1.52913084e+001, 0.,
          8.59665871e+000, 5.56494570e+000, 1.45084053e-001, 0., 0., 0.,
          1.16872835e+000, 0., 1.30872095e+000, 0., 0., 0., 0., 0.,
          1.82681382e-002, 0., 0., 0., 0., 0., 0., 0., 0., 0., 0., 0.,
          0., 0., 0., 0., 0., 0., 4.87747043e-001, 0., 0., 0., 0., 0.,
          4.11991984e-001, 0., 0., 0., 0., 0., 0., 0., 0., 0., 0., 0.,
          0., 0., 0., 0., 0., 0., 0., 0., 0., 0., 0., 0., 0., 0.,
          7.16321754e+000, 3.27494431e+000, 0., 0., 0., 0.,
          4.08294171e-001, 0., 0., 0., 0., 0., 0., 0., 0., 0., 0., 0.,
          0., 0., 0., 0., 0., 0., 0., 0., 0., 0., 0., 0., 0., 0.,
          6.79035187e-001, 7.62710381e+000, 7.16330671e+000,
          1.62380290e+000, 1.80986392e+000, 7.75922477e-001,
          3.51411247e+000, 0., 1.13220856e-001, 0., 4.10509634e+000,
          1.38927011e+001, 1.15879889e+001, 9.82842731e+000,
          7.83953905e+000, 0., 4.59390116e+000, 1.84500351e+001,
          1.22537336e+001, 1.82173386e+001, 2.20481202e-001, 0., 0., 0.,
          0., 0., 0., 0., 0., 0., 0., 0., 1.92589724e+000,
          3.95716953e+000, 3.80287647e+000, 6.42785454e+000,
          4.50313473e+000, 1.50221109e-001, 2.25751877e+000, 0., 0., 2.,
          1.77906742e+001, 3.88344688e+001, 6.96064377e+000,
          2.41421366e+000, 0., 0., 0., 0., 0., 1., 0., 0., 0., 0., 0.,
          0., 0., 0., 0., 0., 0., 1.76504838e+000, 9.92124271e+000,
          3.31370854e+000, 5.68127251e+000, 5.31872749e+000,
          3.18890038e+001, 2.85546474e+001, 8.69848442e+000,
          6.85786438e+000, 0., 3.71076202e+001, 5.47816658e+000,
          9.11269855e+000, 2.95512447e+001, 9.75027084e+000,
          3.53108673e+001, 5.86070395e+000, 6.21320343e+000,
          1.99758873e+001, 4.06393356e+001, 3.24264073e+000,
          1.86862907e+001, 2.48528147e+000, 2.73459077e+000,
          1.85119569e+000, 2.54097104e+000, 1.40742531e+001,
          1.78111839e+001, 3.23123894e+001, 2.61203885e-001, 0.,
          4.68629169e+000, 2.44386005e+001, 6.45690918e+001,
          1.30601943e+000, 0., 4.68629169e+000, 1.78111839e+001,
          7.73102264e+001, 6.51922989e+001, 9.84712219e+000,
          1.18391685e+001, 3.31370854e+000, 2.18762589e+000,
          3.81237411e+000, 1.48521786e+001, 6.49096727e+000,
          1.20121937e+001, 2.00043793e+001, 6.64028072e+000, 0.,
          1.75735927e+000, 7.04163074e+000, 2.71130466e+001,
          2.70879631e+001, 0., 0., 2.89949489e+000, 2.42803097e+001,
          1.88201942e+001, 1.69714756e+001, 3.02852511e+000,
          4.14213568e-001, 1.46722758e+000, 1.11855876e+000,
          1.17157292e+000, 8.28427136e-001, 4.14213568e-001,
          5.85786462e-001, 0., 0., 0., 0., 0., 0., 0., 0., 0., 0., 0.,
          1.34666526e+000, 1.65333474e+000, 4.14213568e-001,
          1.53287494e+000, 1.05291152e+000, 0., 0., 0., 0., 0., 0., 0.,
          0., 0., 0., 0., 0., 0., 0., 0., 1.17490282e+001,
          2.25097179e+000, 0., 2.41421366e+000, 5.85786462e-001, 0., 0.,
          0., 0., 0., 0., 0., 0., 0., 0., 0., 0., 0., 0., 0.,
          1.51371107e+001, 1.86288881e+000, 0., 3.61336875e+000,
          7.38663101e+000, 7.40723324e+000, 3.76433945e+000,
          1.07695522e+001, 3.16777210e+001, 1.03811541e+001,
          4.00194092e+001, 8.56637764e+000, 8.28427136e-001,
          5.85786462e-001, 0., 0., 0., 0., 0., 0., 7.41217470e+000,
          3.34518456e+000, 3.31370854e+000, 8.32458210e+000,
          1.60434961e+000, 2.48958149e+001, 9.44733047e+000,
          6.62741709e+000, 9.56396389e+000, 2.46547341e+000, 0., 0., 0.,
          0., 0., 0., 0., 0., 0., 0., 0., 0., 1.65685427e+000,
          1.30222883e+001, 7.32085752e+000, 0., 6.10050488e+000,
          1.07695522e+001, 3.55718956e+001, 2.75580463e+001, 0.,
          7.44365072e+000, 1.20121937e+001, 1.65430908e+001,
          2.50010643e+001, 5.11214113e+000, 1.15030823e+001,
          1.15979795e+001, 1.45187597e+001, 1.82680378e+001,
          1.51471865e+000, 1.48528135e+000, 4.97056293e+000,
          1.59026794e+001, 2.12675738e+000, 0., 5.27207804e+000,
          2.19533195e+001, 3.21702538e+001, 1.60434961e+000, 0.,
          7.68629169e+000, 3.27228699e+001, 4.59847336e+001,
          3.60610199e+000, 0., 1.37157288e+001, 2.52670269e+001,
          5.46180229e+001, 6.13992195e+001, 9.26152802e+000,
          7.08161783e+000, 3.72792196e+000, 5.14941359e+000,
          7.79518783e-001, 3.50889320e+001, 1.61120777e+001,
          9.11269855e+000, 4.68629169e+000, 0., 4.42300758e+001,
          1.05272846e+001, 6.21320343e+000, 7.02943707e+000, 0.,
          3.49317741e+001, 1.59971590e+001, 2.48528147e+000,
          5.85786462e-001, 0., 2.02572918e+001, 2.74270868e+000, 0.,
          4.14213568e-001, 5.85786462e-001, 6.67310143e+000,
          1.32689857e+000, 0., 0., 0., 0., 0., 0., 0., 0., 0., 0., 0.,
          0., 0., 9.35170460e+000, 6.48294926e-001, 0., 0., 0., 0., 0.,
          0., 0., 0., 0., 0., 0., 0., 0., 0., 0., 0., 0., 0.,
          1.52102194e+001, 1.78978038e+000, 0., 0., 0., 0., 0., 0., 0.,
          0., 0., 0., 0., 0., 0., 0., 0., 0., 0., 0., 1.02368641e+001,
          7.63135850e-001, 4.14213568e-001, 7.02287054e+000,
          9.56291580e+000, 3.58350906e+001, 6.50805616e+000,
          6.62741709e+000, 1.20703306e+001, 1.29591074e+001,
          1.39110384e+001, 2.08896160e+000, 1.65685427e+000,
          6.44965124e+000, 2.58934937e+001, 0., 0., 0., 0., 0.,
          6.69169712e+000, 3.47987556e+000, 2.89949489e+000,
          7.35158348e+000, 7.57734871e+000, 0., 1.17157292e+000,
          4.14213562e+000, 1.46986685e+001, 4.59876213e+001, 0., 0., 0.,
          4.14213568e-001, 5.85786462e-001, 0., 0., 0., 0., 0. ]
      - [ 0., 9.39600229e-001, 4.53993225e+000, 3.42235518e+000,
          3.09161520e+000, 9.81824970e+000, 4.21303368e+000,
          1.42341149e+000, 0., 2.03573656e+000, 2.07305012e+001,
          2.60446548e+001, 3.55060120e+001, 7.26888275e+000,
          1.41421354e+000, 0., 0., 3.11615086e+000, 3.07813377e+001,
          9.29789448e+000, 6.52186441e+000, 8.36693478e+000,
          3.74459572e+001, 3.46986008e+000, 0., 6.30944967e-002,
          3.22262993e+001, 7.71060610e+000, 5., 9.41630840e+000,
          5.56543922e+001, 3.51508546e+000, 0., 0., 7.97856045e+000,
          1.31930122e+001, 5.24684620e+000, 2.42508483e+000,
          1.15649629e+000, 0., 0., 0., 6.28037453e+000, 8.71962547e+000,
          12., 1.21005049e+001, 2.88994942e+001, 1., 0., 1., 5., 8.,
          2.82655487e+001, 3.53496742e+001, 4.83847771e+001,
          2.58578634e+000, 0., 0., 3., 2.08121037e+000, 4.48980637e+001,
          5.86951752e+001, 6.44035110e+001, 8.92203808e+000, 0.,
          4.60123682e+000, 4.81297636e+000, 4.17157269e+000,
          3.41421366e+000, 1., 2.09312940e+000, 9.06870484e-001, 0.,
          8.53240204e+000, 0., 0., 2., 4., 19., 6.73674965e+000, 0.,
          4.14213568e-001, 2., 0., 2., 4.34314585e+000, 1.33521538e+001,
          2.44546242e+001, 0., 2.02743363e+000, 0., 0., 0., 0.,
          4.03753185e+000, 1.86715393e+001, 0., 1.29167738e+001,
          3.00009179e+000, 0., 0., 0., 0., 8.49778891e-001, 0.,
          1.29788303e+000, 0., 0., 0., 0., 0., 0., 0., 0., 0., 0., 0.,
          0., 0., 0., 0., 0., 0., 0., 0., 0., 0., 0., 0.,
          1.73447824e+000, 0., 0., 0., 0., 0., 5.02525330e-001, 0., 0.,
          0., 0., 0., 0., 0., 0., 0., 0., 0., 0., 0., 0., 0., 0., 0., 0.,
          0., 0., 0., 0., 0., 0., 0., 7.04966402e+000, 3.25389600e+000,
